{"layers":[{"out_depth":403,"out_sx":1,"out_sy":1,"layer_type":"input"},{"out_depth":50,"out_sx":1,"out_sy":1,"layer_type":"fc","num_inputs":403,"l1_decay_mul":0,"l2_decay_mul":1,"filters":[{"sx":1,"sy":1,"depth":403,"w":{"0":-0.004435054892224509,"1":0.12131368388396344,"2":-0.09941147832219847,"3":0.044315098582861534,"4":0.03373273268836281,"5":0.02229158619814792,"6":0.044465957412950244,"7":-0.0891347416283267,"8":0.030616549855212394,"9":0.035394646284202795,"10":0.02129538411804226,"11":0.04950498106602635,"12":-0.07689144451588743,"13":-0.0014091064084245765,"14":-0.08003356869510744,"15":0.022397648328529356,"16":0.004621112807191892,"17":-0.014069863842565452,"18":0.04525592677288047,"19":-0.05436450951626245,"20":-0.01244891777389711,"21":0.010715550451622546,"22":0.0035115479263605263,"23":-0.02744886105843714,"24":-0.025015291365169893,"25":0.007825552194180478,"26":0.041170507028100926,"27":-0.03270306523337142,"28":0.025728891603993193,"29":0.0013703324399734226,"30":-0.038709218860026574,"31":0.03887505688597842,"32":0.06301914161973976,"33":-0.05684594078088009,"34":-0.05209816202396866,"35":0.001777419424836258,"36":-0.12594457246349688,"37":-0.0006037178609422523,"38":-0.027386573184120265,"39":0.017065598441938515,"40":-0.04922459141044847,"41":0.03032990179705742,"42":-0.004475604537732822,"43":-0.03693759251994552,"44":0.02984343971783321,"45":-0.02636857590501404,"46":-0.007403321834532706,"47":-0.0510435290681387,"48":0.036225509268637116,"49":-0.04058224029909724,"50":0.047345281428402095,"51":0.0373360388530424,"52":0.02301597745751288,"53":0.018574120765528643,"54":0.00881377981384593,"55":-0.014369428611672137,"56":-0.004613765361977675,"57":-0.05033987768919811,"58":-0.02584280278960895,"59":0.008060573958263937,"60":0.01953046878198884,"61":-0.02265804414694676,"62":-0.02364813765414912,"63":0.01052604716677023,"64":0.08318074148867215,"65":0.014354909835106743,"66":-0.017306635812644185,"67":0.028661673790133953,"68":-0.06642247220796539,"69":-0.0009625804258042509,"70":-0.005209706335046586,"71":0.037701606745544035,"72":-0.030441692915608054,"73":0.020302885824945684,"74":-0.01936878892384641,"75":-0.05982990241572033,"76":-0.026711399428508278,"77":0.013977142274125456,"78":0.007188873082887837,"79":-0.023211377432621076,"80":-0.033442803532891203,"81":-0.07065497147639216,"82":-0.052039685305838065,"83":-0.005943605619305086,"84":0.028508354366036423,"85":-0.0004884489876250166,"86":0.00992749522457516,"87":-0.003194466476583489,"88":0.07631623464059711,"89":-0.057623680693429075,"90":-0.026688649810643304,"91":-0.005651034888859333,"92":0.02965023452070206,"93":0.017933655850056147,"94":-0.0062559503907128255,"95":0.008891874854236693,"96":0.08161488935136622,"97":0.021288237805647432,"98":-0.09768612340891006,"99":-0.014018609310931752,"100":-0.021003556607687227,"101":0.003091594755800354,"102":0.03171399130940067,"103":0.0017516819684393536,"104":0.06264699150317936,"105":0.008574544300525792,"106":-0.009383910281097904,"107":0.007836214078462387,"108":-0.045714837947241044,"109":0.03241267227979477,"110":-0.02213677571830208,"111":0.025871858206361377,"112":0.0017952972475482264,"113":-0.0956795602576908,"114":-0.04476204683194685,"115":-0.016796606068130403,"116":0.009330704281573106,"117":-0.050539693088737146,"118":-0.030564945226019564,"119":0.0009454153931962324,"120":-0.07582162075775035,"121":-0.04646297056225633,"122":0.034648289108497134,"123":-0.05091802387170279,"124":-0.06571694601412215,"125":-0.011707200654565405,"126":-0.028300352931879158,"127":0.02317381950881511,"128":0.028384953026604928,"129":0.042288475870440066,"130":0.01382575638717324,"131":-0.009167677758508965,"132":-0.05301674596992249,"133":-0.031061477478890834,"134":-0.00770322808750048,"135":0.031791425688974854,"136":0.05108425114801028,"137":-0.055307152026340844,"138":-0.024749323152009263,"139":-0.04043601244783167,"140":-0.007827579328058986,"141":0.009394255721141399,"142":-0.044598896411261524,"143":-0.03376386343462311,"144":-0.0753967347603803,"145":0.03802871943499272,"146":-0.08239551784161842,"147":0.053491701551472336,"148":-0.05121852306353087,"149":0.08154782983702395,"150":0.04805807031908856,"151":-0.019734852510883985,"152":-0.04755347038732049,"153":0.009608989170253804,"154":-0.021281395916141067,"155":0.07151292783329362,"156":0.02158995312480889,"157":-0.030428521794011607,"158":0.025153849895209017,"159":-0.005638489161076669,"160":-0.03722255561895483,"161":-0.08120726858294902,"162":-0.0017273685245789542,"163":-0.05781734956237932,"164":0.06170480260757151,"165":0.0560737768443421,"166":0.10042137758192296,"167":-0.01513108034260058,"168":-0.022859605035887243,"169":-0.02841370591372409,"170":0.024389624391767353,"171":0.01621087207877532,"172":0.05778406278849486,"173":-0.03659420022321601,"174":-0.0210898253398367,"175":-0.06624479018946908,"176":0.05759474046932763,"177":0.032869527165642946,"178":-0.024346179401824042,"179":0.007604424931238484,"180":-0.07108685313930245,"181":-0.009566049722322974,"182":-0.1410235857932312,"183":0.05415829890360261,"184":-0.0582406130491297,"185":0.036075914979230475,"186":-0.04308458738132735,"187":-0.08205930334082787,"188":0.004951683955285627,"189":0.07270110004213817,"190":0.009556173096649242,"191":-0.04059065980053177,"192":-0.030751593503846746,"193":0.027132057074906756,"194":-0.017636715258310797,"195":-0.051159105397751835,"196":0.014722959564457006,"197":0.10547345977620562,"198":-0.01632221072967268,"199":0.04270356588474553,"200":0.0075304312142755216,"201":-0.08692792749819647,"202":-0.007258529490651591,"203":-0.012024980154911397,"204":-0.06924092946154556,"205":-0.04171832429355762,"206":-0.024638281174577878,"207":-0.005847190677995011,"208":-0.023238956250530275,"209":-0.07441999025408007,"210":-0.0020243598540107045,"211":-0.03692847486792564,"212":0.0071486701629460084,"213":0.03425721867970719,"214":-0.030037756094971554,"215":0.07430295526730121,"216":-0.013594823522672392,"217":0.012104248757783046,"218":0.040976251138349726,"219":0.04547924439108861,"220":-0.018058946616275207,"221":-0.037437241532873165,"222":-0.012453298555009864,"223":0.03134801929678375,"224":0.08411992310635408,"225":-0.039585061972999526,"226":-0.050238087595967235,"227":-0.06683006057226754,"228":-0.033596908921262596,"229":0.036568033911683936,"230":0.037226681022708596,"231":0.039849279754530995,"232":0.10171462671288184,"233":0.006193233608010149,"234":-0.06970724020073685,"235":-0.04817864040576708,"236":0.06493871834670231,"237":0.10914880571817537,"238":0.031217412045930672,"239":0.018264822608360234,"240":-0.07040268025942766,"241":0.052908649165331965,"242":-0.017767251762070065,"243":0.02147134498204101,"244":-0.01658667557718891,"245":0.012436907257406456,"246":0.036268795532556276,"247":-0.06407899167082502,"248":0.007748124034675078,"249":-0.028626173216469004,"250":-0.03756841662552566,"251":0.023044368156950983,"252":0.03851172070971459,"253":0.056796267683764855,"254":-0.042165550721904116,"255":0.046761118698928135,"256":-0.02492594132041265,"257":-0.01327586278426887,"258":-0.010510723860262618,"259":0.020850542277288903,"260":-0.036052915915441984,"261":-0.02860752943963378,"262":0.0018761193054305562,"263":-0.05226968680171028,"264":-0.08131249395485748,"265":0.03072556368620193,"266":0.018014480873781144,"267":-0.051426588415995955,"268":-0.04764361954811124,"269":0.0019249829451846504,"270":0.003378106580616202,"271":0.04324777739112816,"272":-0.03965608275733564,"273":0.07549684870585739,"274":0.06369557362082312,"275":0.13504817986058726,"276":-0.003081355275286236,"277":-0.010916163465800923,"278":0.0044562547846296145,"279":-0.03809166131263313,"280":0.00841481802615617,"281":-0.03841625862202649,"282":0.049804262147154124,"283":0.12396340258219869,"284":0.006831706548072216,"285":0.0031113763523394787,"286":0.08647399262241828,"287":-0.011099646480141435,"288":0.0038086672506455897,"289":0.07235225226775124,"290":-0.004902868117082031,"291":0.0066667215845252845,"292":-0.05941416161893549,"293":0.039074573214211025,"294":-0.037772660610730854,"295":0.043002563577095414,"296":0.024436004841649456,"297":0.0007424558922462699,"298":-0.015513584578628782,"299":-0.0315451873132864,"300":-0.014318922045059785,"301":0.014243963592890086,"302":-0.04733322562107324,"303":-0.027945626738194857,"304":0.027734071657157203,"305":-0.03935370342388942,"306":-0.007851519493216365,"307":0.030621611558224994,"308":-0.0452152079655399,"309":-0.015915861016364104,"310":-0.028750315064161612,"311":-0.1485677158186055,"312":0.02273951971054497,"313":0.05028646584596412,"314":-0.022983333449300387,"315":0.02820826477916369,"316":0.013062593413942315,"317":0.10049941359707809,"318":0.011046584284372106,"319":-0.057954525010434126,"320":0.015688827332748314,"321":0.011722264572938311,"322":0.09220476593433168,"323":0.028018347001114628,"324":0.061481998503475174,"325":0.03305833133755948,"326":0.006681973501224541,"327":0.0606063712845718,"328":-0.04548847680385864,"329":-0.06698057104299995,"330":0.055915816908707394,"331":0.028744782777381364,"332":0.012572826369527798,"333":-0.013653111649041788,"334":0.06877776621963137,"335":0.028515499826352965,"336":0.002547107137296883,"337":-0.020362711952950724,"338":0.11304641638875612,"339":-0.09416958336893137,"340":-0.06387145150131852,"341":-0.054765125886417514,"342":-0.023397243451522023,"343":-0.02586924907705765,"344":-0.014895043295516384,"345":-0.013640181620734387,"346":-0.009300575938998329,"347":0.06335290468351715,"348":0.056988310289923495,"349":0.05831953364795057,"350":0.02093630708311332,"351":0.012865955081703517,"352":0.03621031686447341,"353":-0.01171782492402626,"354":0.043454533172894536,"355":-0.03144412446408127,"356":-0.07185574580616663,"357":0.08014248215321139,"358":-0.13559865037093,"359":-0.058940159931765435,"360":-0.020841899886717464,"361":-0.05869741179900216,"362":0.030042679249832362,"363":0.03151832812202186,"364":0.08205596181931943,"365":-0.017546137779346622,"366":-0.011144620175366625,"367":-0.04625097465254325,"368":0.01949851072074541,"369":0.04674674216057714,"370":0.016583612368666217,"371":-0.05953125725027307,"372":-0.021365825123201367,"373":0.05017164241162635,"374":-0.0669615442708283,"375":-0.042594838058641074,"376":-0.01721944740189,"377":0.07528694062364194,"378":0.00824861861763574,"379":-0.0044430479534414286,"380":-0.08289471263832968,"381":-0.019126481982513995,"382":-0.008173031870764541,"383":-0.02933986919733701,"384":-0.05267954852490358,"385":-0.10060735681907401,"386":0.013259506656273009,"387":-0.07071153730266644,"388":-0.014517429041138544,"389":0.0024128333054152106,"390":-0.005799977501129292,"391":-0.0625644514346155,"392":0.051327023929421255,"393":0.022604078939588653,"394":0.014914039142908488,"395":0.03472433321499274,"396":0.03552676568860641,"397":0.02121615858099602,"398":-0.04084079229375493,"399":-0.020545599600749143,"400":-0.07566501143507247,"401":0.006321337871274193,"402":-0.020296032079844366}},{"sx":1,"sy":1,"depth":403,"w":{"0":0.04141886218086267,"1":-0.06727020898868336,"2":-0.08954570371996208,"3":0.019150398105701086,"4":-0.020241210861165735,"5":0.024884209293704728,"6":0.046452066663938626,"7":-0.01913799021363176,"8":-0.03236444273691915,"9":0.013794957833875722,"10":0.007029755337029222,"11":0.0055204263183904435,"12":-0.07438658332457683,"13":0.060470129472377204,"14":-0.09945958359669904,"15":0.041741077128462284,"16":0.017454973129948096,"17":0.007287944570859774,"18":0.020520538022109784,"19":0.024771068422603796,"20":0.029310933426630242,"21":-0.061448501484939806,"22":-0.0500773331377522,"23":0.013787283260718,"24":-0.06341081426768994,"25":-0.12807341082679385,"26":0.05080322929169884,"27":-0.015185502697102192,"28":0.005354344730641833,"29":-0.030580883025291668,"30":0.01952828697296038,"31":0.025227237382865284,"32":0.014566856319223357,"33":0.06192206726582267,"34":-0.03268075364169322,"35":-0.033542090190893784,"36":0.0344653095149938,"37":0.0022899954949709414,"38":0.08873936229542634,"39":-0.015580184780962868,"40":0.06162338917900153,"41":0.05007534623772271,"42":0.028686358804122007,"43":-0.04756472003600742,"44":-0.0856567184738512,"45":-0.027979069983759552,"46":-0.02970361107278078,"47":0.026608968178469684,"48":0.04515323317645242,"49":0.015528549649697776,"50":-0.0006564205308711959,"51":0.010007274395560038,"52":0.019763320932867603,"53":0.071420134656631,"54":0.06128797521976711,"55":0.026495822368372085,"56":0.027936438081939095,"57":0.05082110705587083,"58":-0.0074764465539557175,"59":-0.018621775493622057,"60":0.04806042418486428,"61":-0.006054844034056123,"62":0.04856497902322099,"63":0.016346701176425973,"64":-0.03411711728371375,"65":0.0314240139373277,"66":0.0003412369379243972,"67":0.013302586320932753,"68":0.10393036748413922,"69":0.036201172685354034,"70":-0.07079888361829095,"71":-0.03668607808584448,"72":0.016230077824690485,"73":0.06232745023197262,"74":-0.027040308451574627,"75":0.10084487415289453,"76":0.0071691606789697545,"77":-0.014689770325599287,"78":-0.021022646563101186,"79":0.010500747445665563,"80":-0.05447929051738742,"81":0.060205317347831654,"82":-0.04175752502473399,"83":0.04782590460170365,"84":-0.007155813559998344,"85":-0.007470694292688363,"86":-0.0018407756746670906,"87":-0.09525024896972586,"88":-0.003835778797900597,"89":0.03739067297164674,"90":0.04063172690226598,"91":0.021177783938244103,"92":0.031634966101740034,"93":0.06761303695575918,"94":-0.0903309302659604,"95":0.03328233988130287,"96":0.0008650115438739378,"97":-0.07142998201303248,"98":-0.0006240027249368276,"99":-0.0006278183858598417,"100":0.06779426209099139,"101":-0.03514077357326872,"102":-0.020739254590011157,"103":0.03359559201403998,"104":-0.001859371940406135,"105":0.065615333964399,"106":0.015631252361504065,"107":-0.023225277374826478,"108":-0.056018556345761215,"109":0.06449085952745234,"110":-0.01805566369545399,"111":0.043181588246313296,"112":0.014393224964544947,"113":0.06178362808357889,"114":-0.0640378638598737,"115":0.07136664346312942,"116":-0.010619697163727683,"117":0.050755705326739,"118":0.07648293520244231,"119":0.02838139639531626,"120":-0.08785592360731406,"121":0.030336971117393547,"122":-0.06681798150344742,"123":0.029214895488111157,"124":-0.04657398522429338,"125":0.05537271855240516,"126":-0.034630262344944554,"127":0.04900840697404977,"128":-0.09599058834426877,"129":-0.09189730790278028,"130":-0.010278922457035178,"131":0.021507069968589,"132":0.03909383384990729,"133":0.010369960131620701,"134":0.0965617183118759,"135":-0.05260574359490137,"136":-0.025570340763781698,"137":0.004898063180469677,"138":0.0025791463563847945,"139":-0.12860029951246824,"140":0.0064494117358747894,"141":-0.07874472210494282,"142":-0.029156628039456307,"143":-0.034920913969180005,"144":-0.009493735351070247,"145":0.05496663782064835,"146":-0.012008615222253036,"147":-0.025334059347610134,"148":-0.050043777720257504,"149":0.08704202253934669,"150":-0.03818778500519645,"151":0.06177576543016808,"152":-0.0072983786532731425,"153":-0.06938796510994184,"154":-0.08173580433391567,"155":-0.021622994832133216,"156":0.05615101020213531,"157":0.0858716247675967,"158":0.013825615701582514,"159":0.057601655635851665,"160":-0.06722512537546892,"161":-0.11242588945611276,"162":0.000986778024861441,"163":-0.1001028778809408,"164":0.00015160103448885848,"165":0.03618971658765905,"166":-0.04632835890234291,"167":0.010201078268972296,"168":0.006274725506092472,"169":-0.07493816136420947,"170":0.04245721277745303,"171":0.03889123430352949,"172":0.0072021000703725415,"173":0.0055206667740952085,"174":-0.0019016995617953556,"175":-0.02732876788541097,"176":0.07614876073112814,"177":0.09401649665633428,"178":-0.03848761226407143,"179":0.006695781614552316,"180":-0.11944331816198338,"181":0.06470100812404675,"182":0.019476793328461795,"183":-0.07296062013280186,"184":0.0393684134632112,"185":0.013217218566404697,"186":-0.03182971274705974,"187":-0.019755105922715042,"188":-0.05310545930844269,"189":-0.02790078002861385,"190":0.00283453386382547,"191":0.01861300814434058,"192":0.054096437124977734,"193":0.04878701822851648,"194":0.03617504721812558,"195":-0.03184388664811387,"196":0.07811609737545418,"197":0.00027719616377188403,"198":-0.0889838595843084,"199":-0.0450157846361408,"200":0.018678089453438327,"201":0.019499009770059018,"202":0.03212433475088159,"203":-0.056923506185894306,"204":0.07693960530395608,"205":0.10242597023137481,"206":0.002216085593544019,"207":-0.03573800481943841,"208":0.07512348966321561,"209":0.03221035559385937,"210":-0.010387742805240551,"211":0.015730769076479554,"212":0.004255596482383325,"213":-0.024288113481589272,"214":0.013367458962876562,"215":-0.05979884565862171,"216":-0.06752339343099106,"217":-0.033421605463763264,"218":-0.05726499266229408,"219":0.02173589240060852,"220":0.009963135470722138,"221":-0.12153558290569731,"222":-0.11709089497068137,"223":-0.02299355894167873,"224":-0.06397677648837646,"225":0.03308636307018488,"226":-0.03271798199540871,"227":-0.03347826538059995,"228":-0.052904435816773614,"229":-0.0281721034611454,"230":0.025320010234902678,"231":-0.06484438741498331,"232":0.022302651899576982,"233":0.06712710795179265,"234":-0.01713912360899416,"235":-0.0006336188325858221,"236":0.034950959168768544,"237":-0.05019687607787518,"238":-0.01975226801489365,"239":0.011269091198341779,"240":0.057245449414489946,"241":0.04289673252115972,"242":0.06095716974387603,"243":0.047972541896014013,"244":0.006458145242035644,"245":0.03979990738558306,"246":-0.024841049095639126,"247":0.023284637742676702,"248":-0.002995099197415078,"249":0.065302351510267,"250":0.04066107521825625,"251":-0.042778907731267704,"252":-0.014127331565302713,"253":-0.07642691833702378,"254":-0.06387043375977762,"255":0.030395993111851066,"256":-0.029479864014369733,"257":-0.032361587409098246,"258":-0.03665430917896773,"259":-0.1406842755380004,"260":0.042183982536141355,"261":0.03784913321038283,"262":0.017925768553509115,"263":-0.03971805720758241,"264":-0.015939642655662292,"265":-0.06269129485261062,"266":0.03207027334395894,"267":0.03874622820810407,"268":-0.04845590307035718,"269":-0.05594548828956923,"270":-0.07976442388547766,"271":0.0655940266518369,"272":0.07011773564160907,"273":-0.04433595197167407,"274":-0.11777282584472822,"275":-0.04414633822165666,"276":-0.07557517224433263,"277":-0.006182725304786517,"278":-0.023969516760990493,"279":0.047053767566125906,"280":0.03431295786741739,"281":-0.008963761966406428,"282":-0.019139447297898116,"283":0.03892414499960857,"284":-0.06682173730031894,"285":-0.01557685572153293,"286":0.07247865028457255,"287":-0.04455999645215018,"288":0.030756900398862957,"289":0.04014497334812781,"290":-0.019618406855908217,"291":-0.006886338087753241,"292":-0.04531202200321184,"293":0.035825007697187876,"294":0.009950820337104928,"295":0.02004535096216585,"296":0.07733006637191372,"297":-0.012336974112286176,"298":0.08655447145031708,"299":-0.00010241212980048191,"300":-0.005508135466441704,"301":0.049157881226792974,"302":-0.0737254849745708,"303":-0.07136081319021131,"304":-0.025263040879941103,"305":-0.025212386506457324,"306":0.025216305147852756,"307":0.011581494608343084,"308":0.018746213198207802,"309":-0.0565339465401372,"310":0.11621646463617004,"311":-0.030521682519137627,"312":-0.013292335506726947,"313":-0.011604673827486265,"314":-0.03521106816482594,"315":0.05303228856352512,"316":0.04045829928030898,"317":0.06579313768469415,"318":0.00040739230435957115,"319":-0.05239969612491202,"320":0.020256732533863713,"321":-0.10704481042681908,"322":0.0015858695924834674,"323":0.01375559821864086,"324":0.07959367377384634,"325":-0.09643984736878088,"326":0.11033625581873521,"327":0.03755413566265734,"328":0.06884577340308254,"329":0.009608502482117282,"330":0.051575305377285094,"331":0.08006809236157077,"332":-0.004643022260818615,"333":-0.0000058307035005258,"334":-0.0075504471222432685,"335":-0.08400742286595221,"336":-0.0004963900204698319,"337":0.029839849192307283,"338":0.0010448378372036203,"339":-0.058813598099446134,"340":0.041305813486365334,"341":0.03922292485232392,"342":0.04020069857112319,"343":-0.0019076350832782332,"344":0.0009451555163496538,"345":-0.06790971860472297,"346":-0.07297652104018217,"347":-0.02601575931773061,"348":-0.08503385011059078,"349":0.04890391255481708,"350":0.02813225957940818,"351":-0.04284526679377274,"352":-0.005974340162689392,"353":0.003117125786061555,"354":0.021823146000455984,"355":-0.01771054127178628,"356":0.022325818789664748,"357":0.017105595822624223,"358":0.05845931347874448,"359":-0.05736623054791603,"360":-0.01936652256922718,"361":-0.0028497156316309425,"362":0.05297958743175636,"363":-0.01847403275323356,"364":0.018203012787933393,"365":0.013435900394935692,"366":0.10565752516229372,"367":0.0144988369010146,"368":-0.004517306588135159,"369":-0.05410179531672227,"370":-0.06458138688814506,"371":0.09378176036052768,"372":-0.10928874434002953,"373":-0.0497996408979003,"374":0.022850291877667718,"375":0.1311349988966675,"376":0.018789995412169486,"377":-0.05678658623270232,"378":-0.036957038973162194,"379":-0.06257401411256783,"380":-0.02673563363192257,"381":-0.05537287764394498,"382":-0.03830055876523773,"383":0.031204088850282384,"384":0.004088028426539328,"385":-0.027534885026369246,"386":-0.04406274783944947,"387":-0.01757262627938275,"388":-0.032569611235938004,"389":-0.07369578986379513,"390":0.03962754565166493,"391":-0.05507560277043485,"392":-0.049014997668474294,"393":0.02192097317508619,"394":-0.012704477948680019,"395":-0.0331165502620594,"396":-0.049130175630165814,"397":-0.09867039968004578,"398":0.04479499489684569,"399":0.06610845521488806,"400":-0.02567219827223967,"401":0.03324773807365974,"402":0.08961810608038505}},{"sx":1,"sy":1,"depth":403,"w":{"0":0.01690411304153243,"1":-0.06858249593518569,"2":0.010282418916237851,"3":0.031617768491420346,"4":-0.06738281101135231,"5":-0.06703839521914377,"6":0.025331729404273286,"7":0.07784107378802564,"8":-0.048972701094155795,"9":0.042930413969603586,"10":0.01352008569066917,"11":0.037939228392950136,"12":-0.006388892895769025,"13":-0.08601109654677917,"14":-0.002939901196077617,"15":-0.03257314251015152,"16":-0.06130314838049482,"17":-0.0016039214328357582,"18":-0.032467674160220304,"19":0.013816950300173204,"20":0.07911621090701543,"21":-0.07799467041346353,"22":-0.06079758744756607,"23":0.033406243261555606,"24":-0.0003158011089648045,"25":-0.020116477213519696,"26":-0.04310066149688617,"27":0.031162724903605797,"28":0.07183009684096936,"29":-0.051337789486633506,"30":0.08063708336591727,"31":0.022677191091098198,"32":0.025157997456033507,"33":-0.002976135835626866,"34":-0.007951652930652616,"35":-0.03450613801641405,"36":0.0365998957512914,"37":0.046046542468742055,"38":-0.013250519470160245,"39":0.007328066171098437,"40":0.05462168326937372,"41":0.07325046989457694,"42":0.09083797257221889,"43":0.03560815191254314,"44":0.0059959772338786885,"45":-0.00879194299372213,"46":0.1848202153639162,"47":-0.026523284619362562,"48":-0.09969978825973463,"49":0.07005348279955849,"50":-0.016055435871435184,"51":0.05044882831280583,"52":-0.03814994505743683,"53":0.04757971230355139,"54":0.034207708706509334,"55":0.008369702634986943,"56":-0.01761957910851525,"57":0.05114582117747882,"58":0.0013667438598530183,"59":0.008281215513814905,"60":-0.05984496941669421,"61":-0.011029310353517176,"62":0.014845736501751222,"63":0.06537860542412069,"64":0.029052350358544882,"65":0.006101528189903193,"66":-0.03909694117630114,"67":0.021319540297407853,"68":-0.010851891021075257,"69":0.01001477128351523,"70":-0.06245698570706222,"71":0.01508427201403456,"72":0.0498448320903704,"73":0.0665349702917324,"74":-0.0507453759089287,"75":-0.007447700083150371,"76":0.035669716063783816,"77":-0.0014858440429248625,"78":0.04273042941572254,"79":0.026269062016551947,"80":-0.014028292471172033,"81":-0.05598903754563223,"82":0.0033864191145739977,"83":-0.011287975655901256,"84":-0.039189522984419134,"85":-0.06667543078019593,"86":-0.04361739455827355,"87":-0.025069773741968955,"88":-0.005805404221032435,"89":-0.07500896832609927,"90":0.020791958070151786,"91":-0.022169233300661336,"92":-0.055629848831873954,"93":0.05320412359961209,"94":-0.0730424070321917,"95":0.040988453789475666,"96":0.06100230060191217,"97":-0.005416539847710612,"98":0.03969971849128418,"99":-0.0245546171552363,"100":-0.02691444615884901,"101":-0.026394746417694907,"102":0.01874950416016787,"103":0.003756367083489123,"104":0.006083909936753643,"105":-0.03901612498255833,"106":0.023607410717933475,"107":-0.05404226803090013,"108":-0.013711160755928275,"109":-0.032527113621348996,"110":0.08021002865998816,"111":-0.010650838008682722,"112":0.04326471582663872,"113":0.005515544487458279,"114":0.020579082689921722,"115":0.03957395966686731,"116":0.0012999647165419493,"117":-0.040910093976837994,"118":-0.00408776918658866,"119":0.022531251916197242,"120":0.029739777846900448,"121":0.015303335127735128,"122":-0.011884193257869997,"123":0.08098971909726789,"124":-0.1257809273661422,"125":-0.027823709543774354,"126":0.003951120361983083,"127":-0.020008115331317862,"128":-0.001518237652006234,"129":0.059114510885994974,"130":-0.02030764376710424,"131":-0.04010987553120239,"132":-0.031584337196062566,"133":-0.025116715122228888,"134":0.020245636301454994,"135":-0.057126489153884186,"136":0.064034670020087,"137":0.025383750598372702,"138":0.01493191956984887,"139":0.0021310346657269033,"140":-0.06676850479167398,"141":0.08293874004509072,"142":0.016500937139256378,"143":-0.05700868742104185,"144":-0.030353603540862212,"145":0.018480059679133482,"146":-0.05209916735186468,"147":-0.02251053113022075,"148":-0.05053905347023563,"149":-0.071593294769109,"150":-0.09598101821331075,"151":0.03188453024613363,"152":0.03303548668732795,"153":0.03869134072086243,"154":-0.003659396500319147,"155":-0.10934458997182456,"156":0.004935318555101934,"157":-0.004680510010019498,"158":-0.06476788719477869,"159":0.05377750790002919,"160":-0.0809087959607887,"161":-0.03731802126206274,"162":0.0636818274394988,"163":-0.10847247200888892,"164":-0.13027390059227728,"165":0.006931305277018895,"166":-0.05359827431871536,"167":0.010099844124614666,"168":-0.0076394423247875135,"169":0.007721252159049378,"170":-0.029397823453885998,"171":0.06320274448662723,"172":-0.056349618318966836,"173":-0.02197927256523947,"174":-0.06015912645631748,"175":-0.00031018854314453833,"176":-0.04003323053795504,"177":-0.03835610932379251,"178":-0.0948851628542678,"179":0.00356269423512555,"180":0.06232105789968919,"181":0.01736728314891472,"182":-0.05745238633406244,"183":0.04358379405483588,"184":-0.03108866516651081,"185":-0.1170088583688292,"186":-0.01698079547854601,"187":0.10898471671725019,"188":-0.013244643434833253,"189":0.03279303873819813,"190":0.009063475087077789,"191":-0.006639224187181602,"192":-0.06145861526844214,"193":-0.04291837773312348,"194":0.023685301112385985,"195":0.02553012734232957,"196":0.02555307679105101,"197":0.0883388710260844,"198":0.023785749491796338,"199":-0.029145663591024766,"200":0.013753188396836874,"201":-0.06244990695488354,"202":0.07285267103976652,"203":0.060105967242569565,"204":0.09124453749334334,"205":-0.07254708257138791,"206":0.06591134580123983,"207":0.004465602199316833,"208":-0.06200745767065734,"209":0.020893667318021614,"210":-0.006643506603946912,"211":0.07143153613186744,"212":0.05599234081500782,"213":0.020556204116652183,"214":0.030295864045859114,"215":-0.023531470718028,"216":0.004917141428192033,"217":0.06815765188320201,"218":0.07054649992287743,"219":-0.0796990936285244,"220":0.09234876672147849,"221":0.013157885642847084,"222":0.060370539206729835,"223":0.026723284156794334,"224":-0.0564554086134226,"225":0.01720495896386049,"226":-0.0403723108063511,"227":-0.03990680305000916,"228":-0.023147865219225853,"229":-0.013213348454624664,"230":0.10722370140089475,"231":0.03007677164209714,"232":-0.004568981283522273,"233":0.0590533064559459,"234":-0.10617290372611254,"235":-0.005049456545245813,"236":0.07078702761255047,"237":-0.03647579892770892,"238":0.009838759679993406,"239":0.07237007871113103,"240":0.03361474267531684,"241":0.09021384267236178,"242":-0.021775602590166306,"243":-0.007812367178898809,"244":-0.023114561285714905,"245":0.006183566912029596,"246":0.004378364980127023,"247":-0.002027699260052043,"248":0.012832749221329239,"249":-0.035031647452629634,"250":-0.03136647416549018,"251":0.008130750719622703,"252":-0.008245965736604062,"253":-0.03993017364437699,"254":-0.10543922549748996,"255":-0.020197864332173125,"256":-0.023349577528249003,"257":0.07468019779668018,"258":0.0016443805898548206,"259":0.0570063905194389,"260":-0.04462296950047483,"261":0.05515489527596148,"262":-0.052197901729368085,"263":0.12123728739216362,"264":0.05099065399557153,"265":0.033819072787628864,"266":-0.06070611358906268,"267":0.046971083235951984,"268":0.04791805271693653,"269":0.02525252597137664,"270":-0.047879057971136514,"271":-0.0552301609106765,"272":0.016891926434137103,"273":-0.053562754278141826,"274":-0.017205707524692627,"275":-0.05117081924215615,"276":0.06514562450152266,"277":0.02452374510341516,"278":0.02705425574647671,"279":0.0016873168927277746,"280":0.06731651419083969,"281":0.020255716974506555,"282":-0.03654983350035237,"283":-0.08751631682256406,"284":-0.008402214397825496,"285":-0.036118055165694274,"286":0.03514484208532122,"287":0.0783340820250209,"288":0.04068742079705829,"289":-0.0073327147563767,"290":0.02121018281025993,"291":-0.0001194511845957548,"292":-0.05063718702565211,"293":-0.015738844951186222,"294":-0.03389816269388026,"295":-0.05078407151144412,"296":0.004147500815656856,"297":0.012377517249694265,"298":-0.023022771784337155,"299":-0.030932444827182038,"300":-0.07774246750636898,"301":0.005702018478049272,"302":0.004711020971006264,"303":0.058273625318528616,"304":-0.03677297439194912,"305":-0.03249004282837245,"306":0.054094106272414975,"307":0.05841164007609681,"308":0.012314264728904071,"309":0.025074671274275546,"310":-0.0022192145615580797,"311":-0.02157343462431433,"312":0.005048065586741041,"313":0.03374920977990216,"314":0.057722960284086855,"315":-0.08316917407666422,"316":0.011877850691323731,"317":-0.03188080406612963,"318":-0.024758890424092406,"319":-0.03287615329708256,"320":0.029721462034929258,"321":0.03000359269041075,"322":-0.03911489289943404,"323":0.0165998114821278,"324":-0.029552665310007876,"325":0.027113004150766316,"326":0.010704918823516402,"327":0.02303468735549917,"328":0.07151144686952043,"329":0.009505429747040026,"330":0.05458464754287338,"331":-0.06059481455859021,"332":-0.021016131343445526,"333":0.00396544186086208,"334":-0.06756326496154386,"335":-0.10842152938809003,"336":0.07681504231060829,"337":0.04301694797978086,"338":0.003576694990823794,"339":-0.057719235970685324,"340":0.07129534854959735,"341":0.028404064788760095,"342":-0.004716920461665721,"343":0.06991577409137804,"344":-0.0466604785735241,"345":-0.021416603351219896,"346":0.00870114793739327,"347":0.08908409167949333,"348":-0.0965201741309681,"349":-0.05887134912682573,"350":0.0975462570465673,"351":-0.03682022842727998,"352":-0.01676204177683689,"353":0.017375177870141516,"354":0.009946044583991245,"355":0.11744170715797778,"356":-0.028170141115682026,"357":-0.12697802910360426,"358":0.0024402272611230933,"359":0.04843981665916997,"360":-0.024486379894042242,"361":0.09045641310235136,"362":0.029847346181895332,"363":0.10000515878385884,"364":0.0386171776625381,"365":-0.07554280026387881,"366":-0.06731150106828165,"367":0.014413210508096224,"368":0.04162486579005736,"369":-0.07816310374721926,"370":0.05023033517728474,"371":0.052991050519753356,"372":0.047212614588944136,"373":0.004442623976016584,"374":0.01704776735346834,"375":-0.036443917277600005,"376":-0.09271120430345722,"377":0.007081367234380247,"378":0.06781370737014945,"379":-0.025591686568195243,"380":-0.04057891615538669,"381":0.01998166405515719,"382":0.02991652250609209,"383":-0.03249548218761748,"384":0.07633490975940427,"385":-0.0034865704947108543,"386":0.027695813615119944,"387":-0.00106322688612898,"388":-0.023937425212585847,"389":-0.026733287971617566,"390":-0.04870426702420921,"391":0.0024674469779503087,"392":0.009893322747233542,"393":-0.054351392796363106,"394":-0.1080403564336707,"395":0.031638071532168154,"396":-0.029331482904433468,"397":0.037735246192942204,"398":0.008050816046527878,"399":-0.034036405401464645,"400":0.016303742393741973,"401":0.016787473908935743,"402":0.0937092818477661}},{"sx":1,"sy":1,"depth":403,"w":{"0":0.044106654113200694,"1":-0.05419687451031709,"2":-0.1233625650644541,"3":-0.052749406694429464,"4":0.005103868831811272,"5":0.04363455435560665,"6":-0.020183916205134572,"7":-0.01786613559406342,"8":0.02683472434662932,"9":-0.04229096596470609,"10":-0.04170250736666769,"11":0.018099262756596377,"12":0.03477267653432974,"13":0.06124379168488783,"14":-0.00955075483787673,"15":-0.08180661408472516,"16":-0.04767942925602053,"17":-0.017053444769208906,"18":-0.02397774594751262,"19":-0.01777520258380339,"20":-0.04047480560904769,"21":-0.13737577639993337,"22":0.07586365050848828,"23":-0.04417803784993065,"24":-0.062138654460559446,"25":-0.04418585423524391,"26":-0.05657923145263467,"27":0.10441895261717372,"28":-0.011823236226053666,"29":0.03913552736015085,"30":0.005429763602656212,"31":0.09497260707715334,"32":-0.04245148666925763,"33":0.0017039976947418505,"34":-0.06910872149216013,"35":0.016577284994756195,"36":0.04797603064731067,"37":-0.015301224089951125,"38":-0.02241938549897195,"39":0.034210644864236917,"40":0.07132967630375041,"41":-0.022424015982149298,"42":0.05046651294760948,"43":-0.023458913560724392,"44":-0.02817827656002156,"45":0.011115053276282434,"46":-0.003403910397431426,"47":0.023273734365080404,"48":-0.054077658354273264,"49":-0.005682453361553896,"50":0.00954527302351896,"51":-0.04622161844211056,"52":-0.06846486375902379,"53":-0.07903569805862874,"54":-0.0005645805896079681,"55":0.020773800237104692,"56":0.0006578470552302551,"57":0.0034804815030601587,"58":-0.03318705933184856,"59":-0.06273307065742995,"60":0.00011973254657424127,"61":0.07486909642170575,"62":-0.020284268126801924,"63":-0.05732360199212739,"64":-0.09525940138707358,"65":0.11044802606278654,"66":0.061726274799970546,"67":0.0043322304965571915,"68":-0.018233796356299892,"69":-0.04205855121427179,"70":-0.03779317199394949,"71":-0.036647662100676714,"72":-0.025989326128113718,"73":-0.031188343267908886,"74":-0.030203920922316815,"75":0.10611921175864207,"76":0.10006070869713722,"77":-0.05733703227059414,"78":-0.015697843959375738,"79":-0.0029383802078828815,"80":0.04245999486690633,"81":0.05497085176666692,"82":-0.054948468309665356,"83":-0.05488825922022427,"84":-0.02530585537014378,"85":0.012485596694370658,"86":-0.04008179499421585,"87":-0.01797607732977067,"88":0.03275561667248746,"89":0.011460139432662463,"90":-0.00658728790633809,"91":-0.019580844969584135,"92":0.01566746462283643,"93":-0.014830571382709013,"94":-0.04026503707344932,"95":0.009231158649829662,"96":-0.005543930165349565,"97":-0.09051283452203711,"98":0.024490495689532456,"99":0.03266648758006443,"100":-0.02834184069782864,"101":-0.07304915684149405,"102":0.006601879366242808,"103":0.01889292197117682,"104":0.030603202841411967,"105":-0.07024894962026113,"106":-0.054889259260410966,"107":0.06696211463603384,"108":0.044909690368396045,"109":-0.050381332230141754,"110":0.020192481386315436,"111":-0.031157744136018285,"112":-0.055609820181185265,"113":-0.04836402780947013,"114":0.05815129621539449,"115":-0.02212714375546912,"116":-0.010368871322426447,"117":0.0783125082079344,"118":-0.019652340622932116,"119":-0.05244989709525151,"120":0.06985442280262845,"121":0.03614490689280132,"122":-0.03514090550385863,"123":-0.028113303748598314,"124":-0.05680463169437833,"125":-0.026144476557198072,"126":0.05329153406056391,"127":0.0038975942446468205,"128":-0.0090841672202515,"129":0.0035088816338602544,"130":-0.01061499252710036,"131":-0.009340584122250714,"132":-0.03850088358345888,"133":-0.007634380775568148,"134":0.007366298068365581,"135":-0.07392461652806832,"136":0.06785212634306803,"137":-0.042636686047520536,"138":-0.018473632154494036,"139":-0.03688081989650592,"140":0.06588576297289536,"141":-0.01926691130485108,"142":0.023533630105734466,"143":0.04438271111127521,"144":0.03872114527618525,"145":-0.029670633919919368,"146":-0.016049612212743973,"147":-0.0923495789445715,"148":0.06286025676399033,"149":-0.020073292652410257,"150":-0.09319946784980626,"151":-0.049983186217303105,"152":-0.020352911656354535,"153":0.041366527454311026,"154":0.03945178020477074,"155":0.008941352229319707,"156":0.053899911292444494,"157":0.03347804495358124,"158":0.0066465124952813535,"159":0.058399311602546446,"160":0.037306692547766786,"161":0.008694986087762112,"162":0.009807655012617865,"163":-0.005574246252722071,"164":-0.036385339575696764,"165":0.048740950187273514,"166":0.04436128923083197,"167":0.03361482703957865,"168":-0.04276415407360995,"169":-0.03647386748396869,"170":0.04319420157381926,"171":0.022974128833331577,"172":0.009120267351172145,"173":0.024748700775105353,"174":0.0018564406083302388,"175":0.012198316404291643,"176":-0.06279503225035675,"177":0.062110803271335446,"178":0.059183840787260474,"179":-0.07870826983884098,"180":0.0391351677010408,"181":0.018853110247066082,"182":-0.06782077981643805,"183":-0.06625280799844435,"184":-0.07722287206656553,"185":-0.01303010104511295,"186":-0.016653647464661126,"187":0.06333090856906963,"188":0.0021889305926639374,"189":-0.03738461702114663,"190":0.027623837925688868,"191":-0.036230898823127244,"192":-0.11428138735390721,"193":0.015508630718764333,"194":-0.004741515778972534,"195":0.007625795713232323,"196":0.0017342086187340548,"197":0.03884779786737334,"198":-0.07709225410427747,"199":0.018605252707070346,"200":0.08299982100857156,"201":0.020618140554686883,"202":0.03388885936909258,"203":-0.03606823884138866,"204":0.049883008090470304,"205":0.02517628677948592,"206":-0.00816611929171997,"207":0.09673849399075314,"208":0.011020081878922953,"209":-0.022268675993032703,"210":0.019973095671559762,"211":-0.019638521240546183,"212":-0.052492774159874446,"213":0.037501967412464046,"214":0.035990013153880104,"215":-0.04664344614858775,"216":0.009273343057166213,"217":-0.06025152123849489,"218":0.0007740605399107246,"219":-0.049858662640991896,"220":-0.027153081128006903,"221":0.002373325772042683,"222":0.019171249821353,"223":-0.001750717872816262,"224":-0.02097245537687299,"225":-0.10397239428387012,"226":-0.004024544495699542,"227":0.06104342715810784,"228":0.0025063096038409304,"229":-0.011875275619082044,"230":-0.0028387197378176425,"231":-0.003834152731550643,"232":-0.03280278399558891,"233":-0.08236435588840658,"234":-0.043599993477474806,"235":0.056424214603548656,"236":-0.059613451720656255,"237":-0.039709854914415046,"238":0.01905961880117939,"239":0.044358247116767134,"240":0.0480249324660034,"241":0.09730014671644582,"242":-0.0002774538090758238,"243":-0.05848775336877514,"244":-0.052547756915951024,"245":-0.053985257241249245,"246":0.03220587536185606,"247":-0.07083434757388078,"248":0.08715134728352217,"249":-0.02269996534874596,"250":0.032272534270407674,"251":0.037819993177765694,"252":-0.013998914517039407,"253":0.07803496637908346,"254":-0.11007043771450059,"255":-0.10582784734788758,"256":-0.10006033105229292,"257":0.07944436948824213,"258":-0.05949867914120749,"259":0.09576479383921765,"260":-0.025394472664176746,"261":-0.07869313261858905,"262":0.006895143023649669,"263":-0.06161503175331256,"264":0.0500515390837039,"265":-0.02554406245185285,"266":0.013638487017032758,"267":0.030761251300986208,"268":0.07996185617390804,"269":-0.023601474130661406,"270":-0.07738754282149206,"271":-0.06026193658840341,"272":0.07491004112437848,"273":0.03593352861753676,"274":-0.03516826738512931,"275":0.01370430138501943,"276":-0.009199819328131218,"277":0.07647810150058337,"278":-0.03225962333509029,"279":0.02905605562375665,"280":-0.05944100643141681,"281":0.09653206128194396,"282":-0.020580222120482283,"283":0.07525371213146918,"284":-0.05814534489866054,"285":0.0957472952338483,"286":0.005963371518551699,"287":-0.12868167757737223,"288":-0.045985667597930775,"289":0.07103265139558805,"290":-0.06258120289389306,"291":0.0716297350267637,"292":-0.06774635948431611,"293":-0.03733956269826428,"294":0.059820608679874654,"295":0.08717764787552086,"296":-0.025781858745070694,"297":0.025134048173355687,"298":-0.04778711324001121,"299":0.04551041431029176,"300":-0.04426313340585166,"301":0.0613024206663387,"302":-0.021317393422248053,"303":-0.10000989177165467,"304":0.018106840946019918,"305":0.03641766221258627,"306":0.028053902050113908,"307":0.07352201575204108,"308":-0.0347311746857482,"309":0.001127013865516225,"310":0.0599907567541911,"311":-0.05988871457455084,"312":0.0774249492905566,"313":0.03644383383962897,"314":-0.06718710906125967,"315":0.06126219917474304,"316":-0.007508314278148719,"317":-0.017510742956647167,"318":0.014173173560450072,"319":-0.03521163816299453,"320":-0.06364911006914442,"321":0.10121042650023476,"322":0.05878444966179996,"323":-0.10270205588949974,"324":0.10306505312859561,"325":0.003170929056587775,"326":-0.0620969503635069,"327":0.013690892170464276,"328":-0.10856936973673377,"329":0.027159101261665024,"330":-0.08469612066752633,"331":0.05074803353155173,"332":0.002312255924262767,"333":-0.09360994076588713,"334":-0.021607903804545435,"335":0.013339158853236801,"336":0.021910523445926387,"337":0.028942744803817106,"338":0.06179587872775931,"339":-0.08091300986638289,"340":0.015552201664337071,"341":0.0327441976401877,"342":-0.008889781730771493,"343":0.050897725290214864,"344":-0.025570022421803847,"345":0.049165916444670776,"346":-0.028991771841275982,"347":0.02561336812741726,"348":-0.0655647164438805,"349":-0.035551291905287025,"350":-0.02119528930909622,"351":-0.08077814817244905,"352":0.04131871916847702,"353":-0.03983883652841724,"354":-0.09146947237653286,"355":-0.0038758396373941026,"356":-0.00011405902699825658,"357":0.016840605567713773,"358":-0.04678123396251324,"359":0.043869668218138626,"360":0.01349248726872944,"361":0.08025425254507838,"362":-0.0735767123399905,"363":0.09244572034699784,"364":-0.005098334272331957,"365":0.03646453544555298,"366":-0.039702554564351455,"367":-0.04191325213096705,"368":-0.019114786648761706,"369":-0.04076878872484396,"370":0.04554285094013753,"371":0.020660695196347313,"372":0.009993473996576827,"373":0.0570856578010659,"374":-0.003309259508709288,"375":-0.0088121102616998,"376":-0.10248163163933541,"377":0.06250560935870729,"378":-0.08026841512966101,"379":0.07168875723876571,"380":-0.045855844485577835,"381":0.004096628614601852,"382":-0.07090104381080915,"383":-0.023150024642337563,"384":0.01344899270510569,"385":-0.007358527679210445,"386":-0.0009495018798167825,"387":0.05350978242204439,"388":-0.005646941394088769,"389":-0.014767501811426671,"390":0.009918243264757607,"391":-0.10292730277801983,"392":0.047034840316948434,"393":0.05752583389435792,"394":0.0008983050431344866,"395":-0.04623564810640222,"396":-0.047591115798274984,"397":-0.06735632140636959,"398":-0.013925057753793534,"399":0.03158551706244301,"400":-0.0549371099175963,"401":0.0629840623981957,"402":0.10761199766113438}},{"sx":1,"sy":1,"depth":403,"w":{"0":0.05194927657336333,"1":0.04883029816239658,"2":0.0011083738040156795,"3":-0.037125045703291136,"4":0.016303316622310042,"5":0.08455262002430033,"6":0.04766952536732403,"7":0.0071018956191805675,"8":-0.0800453509731566,"9":-0.05609193629338561,"10":-0.13763595781205518,"11":0.0034428344755848047,"12":0.08309638365044178,"13":0.05399938935611667,"14":-0.06630537720210763,"15":-0.006777936608439582,"16":0.04984504578993937,"17":0.05671743638861852,"18":0.03642141895965574,"19":0.02617284875303178,"20":-0.015208784602959142,"21":0.10010302610657218,"22":0.007917164888239004,"23":0.03625020556040363,"24":0.046005548395343286,"25":-0.0196115395973921,"26":0.006038816913571656,"27":0.00010411062416359453,"28":0.03307605417108377,"29":-0.051133055876084875,"30":0.06969571446043703,"31":-0.0182716706965369,"32":0.03224388863128232,"33":-0.04188654246122864,"34":-0.036598637810858065,"35":-0.021711866995647422,"36":-0.10125363289510315,"37":-0.013983625738391422,"38":0.08371483814394509,"39":-0.0023449932664235526,"40":-0.01106749407381709,"41":-0.035243336129003745,"42":0.11861450708162069,"43":-0.041039113131910325,"44":-0.030396529801898022,"45":0.11729061440656353,"46":0.08042609102150447,"47":0.1087353144061294,"48":0.03045547656321096,"49":-0.07041091676047743,"50":-0.029301968331737194,"51":-0.08185864526906991,"52":0.027801738831624012,"53":-0.04821298553612035,"54":-0.04688361075896955,"55":-0.040147835883022565,"56":0.016454715910216966,"57":-0.016887704956408973,"58":-0.03701940746622295,"59":-0.0678155869487506,"60":-0.04166783811033893,"61":0.023921498623048987,"62":-0.056806488016324604,"63":-0.07336558511680391,"64":-0.0004414805313267278,"65":0.052940862777045926,"66":-0.05742679396097243,"67":-0.035379180090756676,"68":0.032488722237154266,"69":-0.06738182333884439,"70":-0.014213596562727429,"71":-0.0231495791427105,"72":-0.02385220626268988,"73":0.038707267935823485,"74":0.06634189728159534,"75":0.01391128799511972,"76":0.004426497887191933,"77":0.026159447461757777,"78":-0.0838985096306309,"79":0.05522833015643381,"80":-0.021598925038534212,"81":0.026568173077320203,"82":-0.029314652981707184,"83":0.04303601092575297,"84":0.05994211640231841,"85":-0.05623740071220844,"86":-0.012089663581845624,"87":-0.04045028464700549,"88":-0.038292675838257594,"89":-0.004653502958240888,"90":-0.003864774022477297,"91":0.002965662982924669,"92":-0.06630756813164321,"93":-0.007882196082919887,"94":-0.017595844589765326,"95":-0.048289485992462966,"96":-0.04137611361940208,"97":-0.06279827425815798,"98":0.03797820380352751,"99":-0.006140180840500912,"100":-0.05701218741278024,"101":-0.04134479191669304,"102":0.019621900933661132,"103":0.038697339407718766,"104":-0.033930826597655055,"105":-0.08847284280914232,"106":-0.0021374408745032107,"107":-0.08815837336780977,"108":0.012249892322044383,"109":-0.10472992655804951,"110":-0.0014200479894790944,"111":0.07848391822732435,"112":0.001214546694199612,"113":-0.04584081772662186,"114":-0.025693743432370575,"115":0.04186092954033222,"116":0.06488082635416888,"117":0.0030390178516654853,"118":-0.13696986290629015,"119":-0.013488308983174208,"120":0.020120604957604732,"121":0.03476224657883813,"122":-0.0450118150475561,"123":0.06212495472430665,"124":-0.03948201628441601,"125":-0.043120824270006616,"126":-0.02303515904911953,"127":0.02495777749566041,"128":-0.0021520389446824384,"129":-0.0570954537798262,"130":-0.034861858572832326,"131":0.02189132911658826,"132":-0.09060037502099251,"133":-0.06719104394179717,"134":-0.014921084682096498,"135":0.027823827295279817,"136":0.014769319082280127,"137":0.04198585969431163,"138":-0.019763316374401613,"139":0.08307027794803343,"140":0.01674204662551341,"141":0.04236697218156044,"142":-0.11440937707330139,"143":0.01991337841259308,"144":-0.018116962681927817,"145":0.08072216196210952,"146":-0.020942669742074475,"147":0.07009485231736748,"148":-0.04651450033128469,"149":-0.03274519437293428,"150":0.01635278476995994,"151":0.019141701784771783,"152":-0.05425209586616564,"153":0.04914691231966751,"154":0.03720480929318525,"155":-0.022857819867544187,"156":-0.007509194032593936,"157":0.04431477601372778,"158":0.051741279328779484,"159":-0.03137417878862788,"160":-0.0721093319033083,"161":-0.01611244245954468,"162":0.09703520614965308,"163":0.007922095382191659,"164":-0.13622365154210156,"165":-0.05326083902941666,"166":-0.04035452880452456,"167":0.0017857178049093224,"168":-0.03018343168016667,"169":0.016592683022919483,"170":0.07392669065186348,"171":-0.051469397459753034,"172":-0.009377799267490643,"173":-0.021298553860089792,"174":-0.0015098562511680705,"175":-0.1011565756395493,"176":0.028555414535419602,"177":-0.039300088297464834,"178":-0.009893830374327795,"179":0.07910595806067056,"180":-0.0820301151369816,"181":-0.0401936899479491,"182":0.05668718147595672,"183":-0.028858898937864648,"184":0.02479282817862436,"185":-0.07978363010074724,"186":-0.038072142723545276,"187":0.025369946381843627,"188":-0.043857424852938635,"189":-0.07433114964095101,"190":0.03634218373150663,"191":0.09279672419697743,"192":0.0075842652618871515,"193":0.07973323840880392,"194":-0.05288276289492177,"195":-0.04426803404377786,"196":0.02093200572521354,"197":-0.07966659009789795,"198":-0.052682451230768076,"199":0.004173559326489978,"200":-0.002885595660493963,"201":0.05138994057403302,"202":0.03040203721347786,"203":0.024429742241248425,"204":0.006019283786118818,"205":-0.011225584602075282,"206":-0.02002509142769677,"207":0.010377872081125757,"208":-0.023736614160426075,"209":-0.016937475115435266,"210":0.005621693837881338,"211":-0.05314321917442975,"212":0.015135711600707032,"213":0.06615387156623274,"214":0.0715116234781509,"215":-0.02824926567237947,"216":-0.0008998708932554671,"217":-0.008176757033142676,"218":-0.008589741586048178,"219":0.06404315649173657,"220":-0.02628509636494491,"221":-0.005887231085933882,"222":0.12105833212619418,"223":-0.00350872129492407,"224":-0.049166305739013226,"225":-0.06597580855876368,"226":-0.06609252818349093,"227":-0.01778315462082807,"228":0.0765096228509632,"229":0.0440040722359462,"230":0.024748019410283314,"231":0.015294148965377076,"232":-0.04560858556067875,"233":0.0769809274935411,"234":-0.024541671220875052,"235":0.018625841437810327,"236":-0.019365934616416513,"237":-0.019365814884404923,"238":-0.08781890920375152,"239":0.05814686889312893,"240":0.05626900308034922,"241":0.010638484053421155,"242":-0.010870888303823717,"243":-0.0485043488364298,"244":-0.050371178438185234,"245":-0.05042726194381391,"246":-0.02376910802672345,"247":-0.013951855537082327,"248":-0.014303712289788993,"249":-0.0661707613879383,"250":0.04953600961811472,"251":0.024936313159532514,"252":0.02845054368133583,"253":-0.06440834402892753,"254":-0.02295735425823467,"255":-0.1585655275875839,"256":-0.016700712273631946,"257":-0.021489730983401407,"258":-0.00431508333066936,"259":0.04977727978808698,"260":0.057530102722436416,"261":0.02700638200939914,"262":0.07083734805606215,"263":-0.031312878175167154,"264":0.052698625768725166,"265":-0.03451376891368974,"266":-0.01980226545142993,"267":-0.06692428033646561,"268":0.0055772269019528625,"269":-0.0077115141481523776,"270":-0.023442281242450364,"271":0.0018035778681198531,"272":0.03638207453656259,"273":0.022977907963280288,"274":-0.05183314326974417,"275":0.017453029076589136,"276":0.001102367706098809,"277":0.06223846304922855,"278":-0.01938181236699062,"279":-0.042754549680561305,"280":-0.004977581646650293,"281":-0.04014848162589804,"282":0.06118145568859891,"283":0.03492254356766464,"284":0.021655520867757776,"285":-0.012357465492725511,"286":0.0638531065901696,"287":0.05563418311818942,"288":-0.037201747010541075,"289":0.1325012111024718,"290":-0.04146263125120867,"291":-0.02057061272978374,"292":0.017589127431787657,"293":-0.0787686115003097,"294":-0.08138337340523016,"295":-0.05373307699867262,"296":-0.02071242990375104,"297":0.05738675299796117,"298":-0.009588468734609671,"299":-0.12854462464042896,"300":0.06795141385103547,"301":0.0029344523746550662,"302":0.04181076039535089,"303":0.08886653877905158,"304":-0.011603419530562003,"305":0.024955274814321395,"306":0.11427633476601158,"307":-0.12961904265252816,"308":-0.0065678278583055135,"309":0.05884102634726929,"310":-0.03909845226288972,"311":-0.0064432681740697545,"312":0.017711254642349874,"313":-0.033395792336547714,"314":0.07459437314388237,"315":-0.0006514521947305923,"316":-0.007552992028661863,"317":-0.025648108701592075,"318":-0.03403290276976344,"319":-0.06898886478306802,"320":-0.008323433351556567,"321":0.0468762400393436,"322":-0.06908377144457284,"323":-0.024606170021143046,"324":0.05450399595773707,"325":-0.006401540138236036,"326":0.06439023470154533,"327":-0.08403628204250975,"328":-0.04044441719065452,"329":0.11292699217073926,"330":-0.01936965466639198,"331":-0.07228589693064176,"332":-0.02602270682375901,"333":0.010235924589181366,"334":0.014759716782495418,"335":0.0904413090910174,"336":0.05369291251392864,"337":-0.025857986604501004,"338":0.04199808307479208,"339":0.020740463409299893,"340":0.00800519550148959,"341":0.012490011201904287,"342":0.07151010953880645,"343":0.02102100574773667,"344":0.006789723864938215,"345":0.02706946660279983,"346":-0.02132107583125875,"347":0.050850272018995495,"348":-0.022009619792234463,"349":0.07327594084089212,"350":0.06969697341373905,"351":-0.139458078274949,"352":0.032027373524234334,"353":-0.00677466370089592,"354":-0.017957819791557406,"355":-0.07080394703061572,"356":-0.022345083978377374,"357":0.003794151011718942,"358":0.022218599083657017,"359":0.049868696159833165,"360":0.023379527962460216,"361":-0.07024778847801756,"362":-0.07154742801576308,"363":-0.05074840900813484,"364":-0.03531081921395767,"365":-0.12352305662088497,"366":0.015040468322333175,"367":-0.04121299436156538,"368":-0.08080502142297254,"369":0.022499647253449957,"370":0.025732106065486076,"371":0.01756752592490762,"372":-0.003819530755845704,"373":-0.03091218880810981,"374":0.06256998067867138,"375":-0.06318584749986819,"376":-0.02805423987507408,"377":-0.017944884610573475,"378":-0.07650082596734249,"379":-0.04794640480597833,"380":-0.026257666943769367,"381":-0.024168827219359694,"382":0.05391459110906681,"383":0.09396677944104168,"384":-0.056507988619085875,"385":-0.06723603587177615,"386":0.023514111256404336,"387":-0.03801718968136654,"388":0.08347637825416056,"389":0.07918359686645204,"390":0.09976923772671088,"391":-0.028151725786325545,"392":-0.033429938461866725,"393":-0.005267833079332223,"394":0.059516370461760094,"395":0.04933212470752862,"396":-0.060235196325990385,"397":-0.11948999469743747,"398":-0.012677616464413344,"399":0.07101095251516085,"400":-0.005438397895354812,"401":0.017068683546935862,"402":0.04466246040804898}},{"sx":1,"sy":1,"depth":403,"w":{"0":0.050035955529693615,"1":0.0959291567290474,"2":-0.05465490232696831,"3":0.05215524554549774,"4":0.021773248143909404,"5":-0.025731159642776027,"6":0.0014870357784815649,"7":-0.024201500327143837,"8":-0.01379398497862689,"9":0.037214204159325935,"10":-0.00788704807643133,"11":-0.0017944568475247182,"12":0.03197737259169025,"13":-0.014540139375519996,"14":0.09392097376595654,"15":0.040503257775428965,"16":0.07324942623428884,"17":0.04921740713272535,"18":-0.024832914996128323,"19":0.039446102488456515,"20":-0.03990446459012114,"21":-0.009378053683589018,"22":-0.10958866135556679,"23":0.023238744739774553,"24":-0.07780882711804725,"25":-0.007573778118276635,"26":0.04346387338347004,"27":-0.08144380558365988,"28":0.0625737324811561,"29":-0.04928869796962339,"30":0.08259311261305848,"31":-0.07227245490152187,"32":-0.003135867202969377,"33":-0.05713759749095383,"34":0.03320283159927902,"35":-0.06086093840856766,"36":0.0021168893147486267,"37":-0.0475741325461777,"38":0.0060962594958601565,"39":-0.0573755034916443,"40":-0.06097642342523994,"41":0.005222866726295053,"42":0.006625709310781874,"43":0.06684992083573281,"44":-0.015301186151827784,"45":-0.06633033752284954,"46":0.053911440676388325,"47":0.03159418712338944,"48":0.011579795595510324,"49":0.02528370072524783,"50":0.04894968416791667,"51":0.1298624745306743,"52":0.11270080559512384,"53":-0.026886367905712,"54":0.06859025006087595,"55":0.03794377128973815,"56":-0.005827745799170791,"57":-0.01614628479173113,"58":-0.020761492879584002,"59":-0.0283621984513848,"60":0.029994978989544133,"61":0.05771646510404939,"62":0.0127841621809645,"63":-0.0006979434426218363,"64":-0.0008578851420361478,"65":0.022596366185320176,"66":0.0834801064341024,"67":-0.0036673693358474295,"68":-0.062249969430762775,"69":-0.01885517968148502,"70":0.02421321101651414,"71":-0.002642982866721171,"72":-0.07013601352439512,"73":0.07872457080032173,"74":-0.058436288139197406,"75":-0.016925724212069667,"76":-0.020599735756554893,"77":0.007865444794223183,"78":0.042383395711400415,"79":0.04274804831170888,"80":-0.054685392774979115,"81":0.04594938948478118,"82":0.031751792934492165,"83":0.015689308244188224,"84":-0.04366732272726538,"85":0.06683325775166926,"86":0.03416846641426588,"87":0.004278400905672841,"88":0.009147178374469883,"89":0.022344686168038728,"90":-0.05308853921217907,"91":-0.09621739458330554,"92":-0.00037043386547419983,"93":0.005161583441474118,"94":0.08529799899818175,"95":0.0464756895863005,"96":-0.0005983692130832575,"97":0.07945339354994031,"98":0.07482198750635762,"99":-0.01749352954601728,"100":-0.019976580881937014,"101":0.04282672254980328,"102":-0.0029709845796249234,"103":-0.03468339777246115,"104":0.021637395492516268,"105":-0.004049029583510821,"106":-0.06608311294416176,"107":0.007293471977914934,"108":0.02403309217732677,"109":0.1044994098647367,"110":-0.094081215817577,"111":0.04745754105581076,"112":-0.07770391785958483,"113":-0.03587498134440825,"114":0.01683121722373605,"115":0.01972010881859875,"116":0.05924041620714079,"117":-0.05397948872366353,"118":-0.045842602258028595,"119":0.06282081292442525,"120":0.012927088943047612,"121":0.03380866804820793,"122":-0.006655488256511859,"123":-0.040619267576780395,"124":0.009661277136179078,"125":-0.0479073207989768,"126":-0.012960277896458119,"127":0.06657647493006486,"128":0.015496289991375685,"129":0.01974391975163776,"130":-0.04792406896999479,"131":0.016059630074698055,"132":0.031189328274379608,"133":-0.03150471017287967,"134":-0.10199956437302778,"135":-0.108178243942996,"136":0.01848278233017154,"137":-0.004372507958555718,"138":-0.004084008301917438,"139":-0.040387364291644155,"140":0.040228973601729626,"141":0.022347252762820333,"142":0.06175496148580904,"143":-0.006091652979659011,"144":-0.04543511159187852,"145":-0.09494272696741161,"146":0.10021479397266067,"147":-0.04098114165425054,"148":0.0381822667216892,"149":-0.02115250712054449,"150":0.10728529123756027,"151":-0.05903285853722104,"152":0.002025743657545747,"153":0.021206941164425182,"154":0.03787819088532682,"155":0.054919002722743505,"156":-0.03774306079320761,"157":-0.05418410080312417,"158":-0.044757898076456124,"159":-0.013466366988424848,"160":-0.04394740292797671,"161":0.00433825900614159,"162":-0.0924779126217608,"163":0.03823542330102794,"164":0.014691870564066801,"165":0.03543076328644235,"166":0.019771362611369737,"167":-0.05015483022705794,"168":0.000105947332627832,"169":0.04069016515185926,"170":0.03506668585385171,"171":-0.009113466013695589,"172":0.00750184713519881,"173":0.011499744032728606,"174":-0.022428794329538707,"175":0.04108933557701348,"176":-0.03987302492357063,"177":-0.07688795873588107,"178":0.027160694488168782,"179":-0.019975064723262645,"180":-0.010789516960109918,"181":-0.057979548989102216,"182":-0.004439536961723575,"183":0.04442041916202027,"184":0.043793502053952806,"185":-0.008535718605735557,"186":-0.06686676392606217,"187":0.0234673905931532,"188":0.00808203233586268,"189":0.01139113716694397,"190":-0.06180541183159541,"191":-0.028208246614106654,"192":0.011685334643244607,"193":-0.04180477656882339,"194":-0.04566812389902441,"195":0.06385976890848681,"196":0.032843996118736486,"197":-0.05680179732413028,"198":0.016748921339395973,"199":0.008577883630278275,"200":-0.007440944297431355,"201":-0.08203538689939768,"202":-0.024705244204641506,"203":-0.12525394338566848,"204":-0.008380823535230163,"205":0.044137635062550785,"206":-0.05947717068572891,"207":-0.05716721202553982,"208":-0.06710656548804539,"209":-0.06484927495251121,"210":-0.09122891167682763,"211":-0.037845363908014164,"212":-0.010960008535394696,"213":-0.016116583299171348,"214":0.039559072044568086,"215":-0.014165333958472895,"216":-0.07196471997650138,"217":-0.05046581753337872,"218":-0.028470873527065947,"219":-0.010068367665531531,"220":0.01995333988012325,"221":0.10058260377126865,"222":-0.13255528231465658,"223":-0.002116141639245285,"224":0.03993330661983115,"225":-0.04255047576429597,"226":0.06161285214770452,"227":0.01326394477409987,"228":0.02346477929387866,"229":0.11990208171118791,"230":0.003923580447836781,"231":0.06628154743716004,"232":0.0029772157418100115,"233":-0.011023148500393263,"234":0.0644795868230923,"235":0.03789465354264474,"236":0.05797518870699073,"237":-0.022806914014643992,"238":0.02070218663937565,"239":0.015779836165152418,"240":-0.028479769016678647,"241":0.026003055326649545,"242":0.03865539047688483,"243":-0.004801451873037243,"244":0.059669166632131496,"245":0.028766731909132086,"246":-0.030419680234988505,"247":0.0071781466021220075,"248":-0.06241003395495464,"249":0.038309752092912014,"250":0.038200104250766476,"251":-0.020870070603512463,"252":0.021024001070445008,"253":-0.0021763572101697157,"254":-0.01620385705892829,"255":0.005902027191729291,"256":0.029949975776900204,"257":0.016066602808446514,"258":0.03847412809202594,"259":0.000714891490814508,"260":-0.028663183993255226,"261":0.021288016384930043,"262":0.052755555245033815,"263":-0.05427668494466168,"264":0.006989945412026547,"265":-0.08125148229776093,"266":0.07189285947391341,"267":-0.10001540112377857,"268":0.03963580740150166,"269":0.06283152525366226,"270":0.05886799110298198,"271":0.006145066383008639,"272":0.07223439469491104,"273":0.018373269176114215,"274":0.02596315541532183,"275":-0.02532625766377231,"276":-0.122664060908665,"277":0.014493010724720427,"278":0.06190540712862505,"279":0.02782970552113563,"280":0.023335494004086618,"281":-0.038834785525262934,"282":0.12657090136251237,"283":0.05583366671661569,"284":-0.043878948981451484,"285":-0.02176492288354758,"286":-0.059574694291841444,"287":0.005240272704378112,"288":-0.0162870192224488,"289":0.07731321077431318,"290":-0.034812789585116764,"291":0.025476676042428873,"292":-0.03652264697303406,"293":0.012557084329511622,"294":0.014509124994917046,"295":0.06395501395574932,"296":-0.06633514264765984,"297":-0.016081422069140698,"298":0.05860571445940123,"299":-0.014560552948772698,"300":0.04097446543331337,"301":-0.039136401540037925,"302":0.06088855572262138,"303":0.03579162302194136,"304":0.06695267083898519,"305":-0.009338482600705791,"306":-0.022571963854727334,"307":-0.0049035976530873325,"308":-0.05982245060509176,"309":0.05416366334847166,"310":-0.08997425036197575,"311":0.00846396209240749,"312":0.034832935333187716,"313":0.03253180148779992,"314":-0.06029827932811779,"315":-0.02392804429717221,"316":0.010654181442447412,"317":-0.01134616240662479,"318":-0.11920175023985756,"319":-0.003857478490784454,"320":-0.05366379534592147,"321":-0.09148926596528398,"322":-0.03918988592567447,"323":0.028155617987215185,"324":-0.038271688505594405,"325":-0.04899947187913606,"326":0.017540518752117287,"327":-0.06608946459515008,"328":-0.002674358720775292,"329":-0.017770131566937415,"330":0.04763412156330682,"331":0.08071311959130509,"332":-0.03261198572634504,"333":-0.08108428819941386,"334":0.04495904623705991,"335":-0.04197693988611063,"336":0.016145198740895705,"337":0.08304410946508116,"338":-0.009394330641246687,"339":-0.042513326723472064,"340":0.05525667101156598,"341":-0.06920156283698753,"342":-0.005176781100175742,"343":0.009080052370684513,"344":-0.024625980853756706,"345":0.043089973456338464,"346":0.038630590557841675,"347":0.0005455758219564841,"348":-0.03209289021834026,"349":-0.08772172221272151,"350":-0.026325105162635743,"351":0.02840921789169439,"352":-0.12349759530318488,"353":0.11604339753642713,"354":0.01859382530989261,"355":-0.03538440645971438,"356":0.10138049041847291,"357":0.025848423125211142,"358":-0.03987926114972137,"359":-0.037697351893866825,"360":0.06391370201215833,"361":0.06585965227578103,"362":-0.000210718696292403,"363":-0.02352319943842577,"364":-0.058367643634109005,"365":0.08437537657216213,"366":-0.040438633138988905,"367":-0.007777750081281644,"368":0.05238446836598015,"369":-0.006944397487715416,"370":0.010605146573713472,"371":0.04732977073645497,"372":0.015385594919254385,"373":-0.06417061473573463,"374":0.013017738196790016,"375":-0.01980625802123588,"376":-0.10436179921599972,"377":-0.006233239219536505,"378":-0.042404153942211704,"379":0.06735913127491208,"380":0.0035725984600746725,"381":0.08646320930404716,"382":0.056262162177453216,"383":0.045884340634373404,"384":0.003305303827206344,"385":0.007889719328985939,"386":0.06298390717169704,"387":0.004036401125829701,"388":0.028099946034396958,"389":0.0002955526660714233,"390":-0.0024572508006048053,"391":0.0075942858265758435,"392":-0.029515078027634097,"393":0.05558960682916302,"394":0.008023099751185682,"395":-0.00772419876876035,"396":0.05254048346471342,"397":-0.07357969047452911,"398":0.044859729791043024,"399":-0.015546995109791555,"400":-0.0401429916890445,"401":-0.08188698521844821,"402":0.1036029441053975}},{"sx":1,"sy":1,"depth":403,"w":{"0":-0.0010644393699065018,"1":0.03281667037010989,"2":-0.03723662191236499,"3":0.027464338038682486,"4":-0.08038371779654603,"5":-0.0062911727019873106,"6":0.08845668436889342,"7":0.006411840099350165,"8":0.0338567509191219,"9":0.03331147397900396,"10":0.020058465084541968,"11":-0.05579613782223675,"12":0.01726370658540302,"13":-0.020838399372237953,"14":0.05536807924277733,"15":-0.08368832381048762,"16":-0.01123935804678401,"17":0.0804828611830693,"18":-0.06405035510372077,"19":-0.06643431221148881,"20":0.09926696566914205,"21":-0.019070018957677924,"22":0.007794209057756735,"23":0.014680184937057918,"24":0.05629468768129261,"25":-0.05028452201434881,"26":0.02202598799177152,"27":-0.04031131151065712,"28":0.10253647029380679,"29":0.10872036085461999,"30":0.022134366060501662,"31":0.04743915413500121,"32":0.006514463984683807,"33":0.061939485648627585,"34":-0.001343474440004752,"35":0.039107330057267874,"36":-0.008005960274818256,"37":-0.05406499994970816,"38":0.026412173998270196,"39":-0.03786759616551485,"40":0.054123754916613295,"41":0.029927383485435347,"42":-0.027369414865084207,"43":0.005920924014477015,"44":-0.025609394376901278,"45":-0.0924398983055906,"46":0.01751864499439489,"47":0.008589231787094398,"48":0.017240547754974942,"49":0.09867710475761023,"50":0.004682210967725004,"51":-0.0053496082169217744,"52":-0.12647468986254193,"53":-0.02140323737622687,"54":-0.07416412880987178,"55":-0.11670128066797353,"56":-0.019588225560487522,"57":-0.017360568248346787,"58":-0.02655733271252016,"59":-0.015298583484848494,"60":-0.04791634428722404,"61":-0.024912310063623776,"62":0.059152458483190534,"63":-0.04390032186609704,"64":-0.0970701773025147,"65":-0.004719643355894207,"66":0.010407025926727756,"67":0.07171139524152045,"68":-0.1073091179312024,"69":0.0653630416320229,"70":0.008117273648519845,"71":0.005633023813616542,"72":-0.11060427510525596,"73":0.0306862362229902,"74":0.014827250157295111,"75":0.06021466753520285,"76":-0.06372610654350948,"77":-0.02756906896953387,"78":-0.04013029588032165,"79":0.00031126940279747585,"80":-0.007192456028793925,"81":-0.08956556710458406,"82":0.0769710035476361,"83":0.03527593040130638,"84":-0.02412348885236291,"85":-0.041889936724271604,"86":0.052700279835241996,"87":-0.10207510233900116,"88":-0.006487965365482988,"89":-0.013953572951307766,"90":-0.06809804256275018,"91":-0.09278180071725935,"92":-0.02214717447243946,"93":0.01844415918433313,"94":-0.04255087701312068,"95":0.014364534015360312,"96":0.06390046310598717,"97":-0.009364509871949688,"98":-0.03777484639837912,"99":0.006632209431554026,"100":-0.07919036981215244,"101":-0.042041720615243174,"102":-0.05912306877732893,"103":0.07809138634921717,"104":-0.08794550550847455,"105":-0.04081914772683412,"106":0.039723501916186725,"107":-0.004498317683219213,"108":-0.06266385792917606,"109":-0.014477500412966875,"110":-0.009936903872007038,"111":-0.03188158110395773,"112":0.09101327993384618,"113":-0.05930356157210542,"114":0.020402820171155786,"115":-0.0019181071143086342,"116":0.022073193051386115,"117":-0.06059496949861041,"118":0.07565700264239422,"119":0.02088657229058052,"120":0.005669722861762349,"121":-0.0768324830130568,"122":-0.04096540189756044,"123":0.09794495395316974,"124":0.039205130273794936,"125":0.04366038749372052,"126":0.10220027432617985,"127":0.017533095697809413,"128":0.037255343010857624,"129":-0.04017713046266379,"130":-0.037390089536386686,"131":-0.020752804594627444,"132":0.016512696595530604,"133":0.06248570419745002,"134":0.03275419961174081,"135":-0.07783194954809061,"136":-0.025707509144831078,"137":0.03905332465299619,"138":0.04963292152820966,"139":-0.006093768886625301,"140":-0.043621423840061194,"141":0.02908892040899028,"142":0.049302497412556504,"143":-0.013814387100274442,"144":0.028336056567015273,"145":-0.022797105814712695,"146":0.030180889762879505,"147":-0.04954435976385198,"148":0.004278999803990163,"149":0.016338462494962368,"150":0.04012564032129929,"151":-0.017522429607495026,"152":-0.030675393162816436,"153":0.0011144298242392109,"154":-0.01960661392079295,"155":-0.0512379648393254,"156":0.05718258307027299,"157":-0.034210425820803206,"158":-0.0793918836948525,"159":-0.004367599446136318,"160":0.03706296662077736,"161":0.04171230405231942,"162":0.06311650795366887,"163":-0.0025782506388488534,"164":-0.0037173622995237275,"165":-0.11869560166526223,"166":0.003181047306868052,"167":0.0027040393091304765,"168":-0.10244249942971359,"169":-0.027009497422445017,"170":-0.04339236040780072,"171":0.03126847044068997,"172":0.022917820660126095,"173":-0.03932203689428773,"174":-0.03931919170300875,"175":-0.0005469508154433379,"176":0.002161596624670577,"177":-0.01409949871675854,"178":-0.039913660497581264,"179":0.010456771383258534,"180":0.03484780950300065,"181":0.08795228117164292,"182":0.011077955492372333,"183":-0.022198675256019103,"184":0.02875330594270604,"185":-0.057329099637234635,"186":0.029863741536982125,"187":-0.10180865943809402,"188":0.06343696854134497,"189":-0.019034193874157463,"190":0.13140633240192026,"191":-0.03179561410545707,"192":0.10674233934147394,"193":-0.047032326571286816,"194":-0.019117399387101688,"195":0.07857827617962332,"196":0.03642777068049393,"197":-0.00422130316304558,"198":0.03459509200420671,"199":-0.01918221381989631,"200":-0.010574343839044664,"201":0.08233105701235015,"202":-0.012943652971736403,"203":0.09033501323251479,"204":-0.030675057953725916,"205":0.008044800283366186,"206":0.050046482171296015,"207":0.044429490301948975,"208":0.012048071500290839,"209":0.055615495834502655,"210":0.037196718393623145,"211":-0.04775915585711318,"212":-0.03366274614027989,"213":0.029821343914720782,"214":-0.005425397818403304,"215":0.02432443203731432,"216":0.021591649546712822,"217":-0.04020537524912561,"218":-0.0034949057193754732,"219":0.022128104710823045,"220":0.054567641514103385,"221":-0.004433497158091449,"222":0.024606214439809076,"223":0.019973186340433227,"224":-0.05020734141298665,"225":0.10483258156392565,"226":-0.05232043986821511,"227":-0.060911867145737625,"228":0.00921153048728122,"229":0.03479739491130095,"230":-0.03948432817037121,"231":0.037882891173160724,"232":0.0490004821216379,"233":-0.003782663628599987,"234":0.09356576797838359,"235":0.013653701852012068,"236":0.008148539998697451,"237":0.020402926442197357,"238":-0.010248971264151783,"239":-0.00375689525893952,"240":0.0028040051519011965,"241":0.032476022633016625,"242":0.034558392147584924,"243":-0.03444657471595615,"244":-0.04313791598523848,"245":-0.004821239013582135,"246":-0.05477053898278824,"247":0.00461540700421034,"248":0.09776402813064158,"249":-0.017946569085214286,"250":0.036051156316171444,"251":0.09765870913757767,"252":-0.03179671507595029,"253":-0.011372471901636972,"254":-0.005919648581743368,"255":-0.020358020296950993,"256":0.038975536315607184,"257":-0.07630283346501929,"258":0.02831135908635775,"259":-0.06108218028168736,"260":0.09127740534569559,"261":0.0061840120175154665,"262":0.05925033635986881,"263":-0.005290183787533904,"264":-0.14404054474059164,"265":-0.09470374945629767,"266":-0.03952030163526453,"267":0.0096906366374016,"268":-0.03223462550425885,"269":0.09619551606269508,"270":-0.11091500627834978,"271":0.04926673791183465,"272":0.019017813148566504,"273":0.011930698954786398,"274":0.009427448894194751,"275":0.09954473481173733,"276":0.016451835951511333,"277":0.022093820051908707,"278":-0.0017355919394619085,"279":0.06332282588936065,"280":-0.024874808724280918,"281":0.09317755764768751,"282":0.05962772376050071,"283":-0.04213023075030265,"284":0.005445590999243258,"285":0.05283630777913651,"286":0.015237259548720032,"287":-0.03758490017819744,"288":-0.04146768842342579,"289":0.019802917974425852,"290":0.01722521380450717,"291":-0.044437414910061784,"292":0.003217919705325254,"293":0.07142010496684244,"294":-0.0016453015302854992,"295":0.021122451518955233,"296":0.07137302961660477,"297":0.04710148300368983,"298":0.013109307909686441,"299":0.02887371124374233,"300":-0.03449839658080845,"301":0.09839162516070846,"302":0.07278959366614482,"303":-0.0009757994580074751,"304":0.08539990405160372,"305":-0.024007761369899343,"306":-0.1306407052783132,"307":-0.05097959828577065,"308":0.008624958916138317,"309":0.03025946971095865,"310":0.09405101405716407,"311":0.02263619959183365,"312":-0.06842190827191294,"313":-0.015260397970839954,"314":-0.04985391333516618,"315":-0.05619909316158325,"316":0.04778513773701673,"317":-0.012454097535265196,"318":0.056766860785748705,"319":0.04279205437603927,"320":-0.005761701842578255,"321":0.07845299615961432,"322":0.05269659031358079,"323":0.05415464318936651,"324":0.04144279435298937,"325":0.005370930195668784,"326":0.013673136286867716,"327":-0.023169852363642756,"328":0.013035199596105133,"329":0.06338563894067137,"330":0.02903765769702689,"331":0.06261454818069298,"332":-0.030927550325511883,"333":0.00027610598945658395,"334":0.0508630288305867,"335":0.016708703836806626,"336":0.06218740694735271,"337":-0.01384836738158426,"338":-0.007066046122150941,"339":-0.026677998975499308,"340":-0.06818366984875812,"341":-0.01982087353910015,"342":0.04202487030629561,"343":0.04842683222529064,"344":0.0415316742100129,"345":0.04789527595471781,"346":0.03702157316841473,"347":0.04385440392211306,"348":-0.0005268221008256893,"349":-0.07820989908844421,"350":-0.020245089936348392,"351":0.05590543176198053,"352":0.06594598386539957,"353":0.1601309026917791,"354":0.006733199641436224,"355":-0.015658260517300092,"356":0.04424060182218862,"357":-0.002155781119148522,"358":-0.07888687521516607,"359":-0.031016331890707308,"360":0.09852332407065043,"361":-0.014135875355924428,"362":-0.06026698658138862,"363":0.029459385400913644,"364":0.02465131403342554,"365":0.10809618713198806,"366":0.03740622799010935,"367":0.009403045849025553,"368":-0.06801128471142871,"369":-0.04918778171103777,"370":0.06090484580416342,"371":0.028215529242233854,"372":0.05590512954650811,"373":-0.022613937917931086,"374":-0.10053164764901734,"375":0.12301386358282147,"376":0.011881617692773974,"377":-0.0015973147683415023,"378":0.048035494924362716,"379":0.034619539187600114,"380":-0.0435810980400811,"381":-0.056031834913304754,"382":0.032012604132785095,"383":0.05331976017173771,"384":-0.008133107589703464,"385":0.03365516988716681,"386":-0.03797082748357371,"387":-0.06637820691769403,"388":-0.0547494249947389,"389":-0.06247569458525584,"390":-0.07861742909112183,"391":0.058907596575037094,"392":0.039371973439114805,"393":0.010522487201783594,"394":0.015623680159697104,"395":0.03678412894039301,"396":-0.002984567543171011,"397":0.024285514859825184,"398":0.013151329745524921,"399":0.021681736001883996,"400":-0.07031056761546035,"401":0.11096916826978459,"402":-0.059865291042576006}},{"sx":1,"sy":1,"depth":403,"w":{"0":0.04080825899852695,"1":-0.03133302373466402,"2":-0.012467155643384444,"3":0.07045051987843164,"4":0.01853732241296701,"5":-0.12722305352195074,"6":0.000252490059608643,"7":0.0006327394564606359,"8":0.044990404241329676,"9":-0.0002410881551288406,"10":0.009687371843641867,"11":-0.0011400734605874884,"12":-0.06933790144858387,"13":-0.033597177414743815,"14":-0.01235589929741725,"15":-0.024688096559432722,"16":0.03608052646621044,"17":-0.06508307879438105,"18":-0.05954411245225296,"19":0.011937225917861678,"20":-0.017492997015179472,"21":-0.06186137291773355,"22":-0.02337886094345549,"23":0.016164458324999815,"24":-0.0037250029288967094,"25":0.032364662232450124,"26":-0.013896406386646186,"27":0.008946812562796962,"28":-0.02606569563703835,"29":0.03365989159315153,"30":0.022345136931216647,"31":-0.05154289545078723,"32":-0.01620741320796208,"33":-0.017971288834691,"34":0.0023467495870721617,"35":0.030152936359027428,"36":-0.037171158617927615,"37":-0.020185801644890165,"38":-0.05469806814112321,"39":0.06557227835470762,"40":-0.04019674336675462,"41":0.02515477315045634,"42":-0.043724757395465184,"43":0.04550142331701459,"44":-0.010897669845225241,"45":0.009718886071635735,"46":-0.06129509144679634,"47":-0.005889863462964307,"48":-0.00686057146141313,"49":0.023265744040934427,"50":0.00396568478281005,"51":0.037860360456910956,"52":-0.034841290327532796,"53":-0.04290249604446478,"54":0.021942651672187594,"55":0.018866496009253757,"56":0.06284262726761951,"57":-0.017258917408621774,"58":-0.059368219483776546,"59":0.001721303215630019,"60":0.02296430134266564,"61":0.024876282301006615,"62":0.03800676785909418,"63":0.03692420159269169,"64":0.042182391540935754,"65":-0.06220165764959084,"66":-0.011971597668136255,"67":0.07364112319495421,"68":-0.04442932861147479,"69":-0.02039391840957225,"70":0.025533022660581325,"71":0.01572457059772986,"72":0.01367119107993096,"73":0.05235245976040735,"74":0.022799029012802695,"75":0.05433619132205782,"76":0.00922152845671209,"77":0.008108598462848277,"78":0.023610462021580746,"79":-0.055054269932608126,"80":-0.013455476472844062,"81":0.050074508889638776,"82":-0.04817756800415353,"83":-0.00835110360067763,"84":-0.061604373842813996,"85":0.04892240794489538,"86":0.019900103751198293,"87":0.07797191225359631,"88":0.014258151725061497,"89":-0.002103412789025076,"90":-0.02873032550415074,"91":-0.06900614796420765,"92":0.07756871459987637,"93":0.02977619773653834,"94":0.002305182621034058,"95":-0.03745153520665209,"96":-0.04598287101570103,"97":0.05292618264056086,"98":-0.011185797773120221,"99":0.010213565479773442,"100":-0.08172080245614717,"101":-0.0910312631169583,"102":-0.03981174337297578,"103":0.04599504465492834,"104":0.013372592467910786,"105":-0.0012626752957521717,"106":-0.08122198672427568,"107":0.061496212114359725,"108":0.06483958594122648,"109":0.05877797598874261,"110":0.04773012858761587,"111":0.026212895600863623,"112":-0.024912297323972165,"113":0.008149891991842587,"114":0.027243431329699908,"115":0.0034559749733489233,"116":0.04870743340466139,"117":0.06535871998769453,"118":0.019860275672991774,"119":-0.003594977303750947,"120":-0.06325139069625293,"121":-0.023666823411230824,"122":0.0657237330747541,"123":0.03235901849303743,"124":-0.0609991533232568,"125":0.026364731904798565,"126":-0.016217552821059262,"127":-0.035452879573550526,"128":-0.1010371020163744,"129":0.05627481279409277,"130":-0.04514350915901278,"131":-0.12039398156632455,"132":-0.018214049601858087,"133":0.02485049931100081,"134":-0.006719682874289308,"135":-0.046724200801715375,"136":0.020037389394669616,"137":0.06490897708323777,"138":0.1317357082696876,"139":0.0067170163324310975,"140":0.11910694029853136,"141":-0.0016010306091958787,"142":-0.13674407092485513,"143":0.09644933563247966,"144":0.019602950335104945,"145":0.011038881677480619,"146":-0.0324592768682787,"147":-0.03236008641437302,"148":0.03967631500425448,"149":0.03116476528900006,"150":0.078955649707266,"151":-0.07592923462483843,"152":-0.10228456179771138,"153":-0.06362619176612133,"154":0.060409234118579645,"155":0.018852918403703265,"156":0.04575616078566329,"157":0.030559390855667626,"158":-0.00654426154741472,"159":-0.023521016360068314,"160":0.006275354526702632,"161":-0.01639968310049993,"162":-0.02128341549615704,"163":0.041682761749171085,"164":0.014467936961613222,"165":-0.04876832986785797,"166":-0.025207643785203033,"167":-0.05377364640369367,"168":0.0928057972905691,"169":-0.0005667836856933452,"170":0.12756207377283021,"171":0.08230970117391219,"172":-0.04748719646619801,"173":0.022750689012679255,"174":0.011245976750322823,"175":0.035225406566821243,"176":0.01749585470594024,"177":-0.10092129493490663,"178":0.049433973380588025,"179":-0.008918019158313048,"180":-0.09728883182673896,"181":0.007872746533160677,"182":0.06668723076500561,"183":0.0019131720705790319,"184":-0.057625788966186996,"185":-0.018773418487155885,"186":0.001655939288710746,"187":0.05231751774146003,"188":-0.0033168857719480917,"189":0.04533947108083355,"190":-0.0025997191625601337,"191":-0.007294418129900115,"192":-0.005646321832772551,"193":0.008837590644363872,"194":-0.053966649412561025,"195":0.1356458837349104,"196":-0.00663493065745494,"197":-0.04524528355453466,"198":-0.052355791133777876,"199":-0.045819651760571074,"200":-0.009230104372812685,"201":-0.021121293810788477,"202":-0.022963791332415603,"203":0.031999894160240155,"204":-0.06051961004771568,"205":0.0008613637780356652,"206":-0.011086133290297383,"207":0.024950042642220085,"208":-0.08658565453793568,"209":-0.0029031424455755886,"210":-0.02787259766885691,"211":0.06956832574363309,"212":0.041550311987485884,"213":0.09365764893282043,"214":0.00013801223030844012,"215":-0.043962500559509565,"216":0.043288894573789226,"217":-0.005933013363999923,"218":-0.0015795133039678514,"219":0.006795797980762447,"220":-0.03828064689262277,"221":-0.06894777951668636,"222":0.027080515470360635,"223":-0.08821970862779176,"224":-0.045941029346277716,"225":-0.06505397359691792,"226":0.011091304625381847,"227":0.07988210426853883,"228":-0.0509117320531059,"229":-0.059594328582562035,"230":0.06334320119009909,"231":0.024090635324800845,"232":-0.08816476290356592,"233":0.006603523198032541,"234":0.0026993932901787283,"235":0.00833112249640278,"236":-0.09692476479653023,"237":-0.01729460604316493,"238":-0.01335459609781751,"239":0.08114399176203409,"240":-0.024122179729526426,"241":-0.08640133656582535,"242":0.014593779073881893,"243":-0.007769748899568625,"244":0.10176799372926419,"245":-0.0003547638653033876,"246":-0.03355250085971251,"247":0.037245032808746824,"248":-0.01670165321758613,"249":-0.04458287276720353,"250":-0.009761764895727821,"251":-0.008046645384297573,"252":0.004384322923140856,"253":0.05047455835225918,"254":0.06419050084872306,"255":0.03187722587241034,"256":-0.043990774082011026,"257":-0.0004546912390469593,"258":-0.058503636561575104,"259":0.009863311526499474,"260":-0.10444113823705044,"261":0.015473689738845093,"262":-0.028960836933309222,"263":-0.11651714181019507,"264":0.05002806342231434,"265":-0.013072679381863794,"266":0.08707135561410581,"267":0.10617454104923987,"268":-0.06350292151556661,"269":-0.05872585870486962,"270":-0.06810796266090054,"271":0.0831083383342756,"272":-0.05392092022251107,"273":0.06724174430393312,"274":-0.04346411679231559,"275":0.004857273690759752,"276":-0.0014290646926114182,"277":-0.044430510537559156,"278":0.05747599870445171,"279":0.07562153427460148,"280":-0.0805500928645412,"281":-0.027422442063319015,"282":0.005795226102463414,"283":-0.033831213456542115,"284":0.0012720295809100623,"285":-0.029426034197619726,"286":-0.06667182155487256,"287":0.007798203440218354,"288":0.09087609223695099,"289":-0.0014692126260931581,"290":0.008546708126172848,"291":0.009694056495323863,"292":0.0355086722918977,"293":-0.043075086443870376,"294":0.07209662260663545,"295":-0.08055352709628304,"296":-0.007181851507288678,"297":-0.01330181863587003,"298":-0.008231063062812218,"299":0.06792330309117445,"300":-0.013762560558032258,"301":-0.07697964398676066,"302":-0.09903477322018933,"303":0.028161738522640124,"304":0.04746003199646057,"305":0.06953921135775447,"306":-0.04534831750478765,"307":0.06759877069869913,"308":0.007880617925491487,"309":-0.025723179208514947,"310":0.10165958501858155,"311":-0.01824092278942335,"312":-0.00849091362076612,"313":-0.023081609497401134,"314":0.03817734736229031,"315":0.04104160566553912,"316":-0.03627500657136162,"317":0.009939090805001688,"318":-0.0587983159927416,"319":-0.0725185372724602,"320":0.06034425114523387,"321":0.02115077067730305,"322":0.06198757749942929,"323":-0.11215100397037683,"324":-0.007070550052915865,"325":-0.010610066820783928,"326":-0.01507078772703033,"327":0.038659856529353186,"328":0.02178628582582251,"329":-0.006142644966725467,"330":0.032898539049047916,"331":-0.03271986302368111,"332":-0.04250349449513852,"333":0.010267854297249884,"334":0.0593363486066873,"335":0.0774267300732745,"336":-0.0661851740596234,"337":-0.01593123970225687,"338":0.047373481108022045,"339":0.027201990380854562,"340":0.06378622592557155,"341":-0.015618536846184647,"342":0.00799838506225766,"343":-0.021123398266525786,"344":-0.031424883179582586,"345":-0.0952726743051881,"346":0.10500525530001407,"347":0.0223586207639166,"348":-0.02101214224549688,"349":0.00851856494735534,"350":0.017375991279011342,"351":0.0012548185173173938,"352":0.0691920177890678,"353":0.14342788997346023,"354":0.0977108278040987,"355":0.03168317586790628,"356":-0.03847245944213436,"357":-0.01527428690605283,"358":0.06127240446150765,"359":0.008843241516376957,"360":-0.004381181375004042,"361":0.04491977920740435,"362":-0.017632413717051564,"363":0.014316269866120522,"364":0.07620833936145899,"365":0.03582056311849404,"366":0.0001378340560134726,"367":0.05637648497854558,"368":0.02290808465629747,"369":0.08031878666376419,"370":-0.02042377450490636,"371":0.025618385176749782,"372":0.0038190865381805042,"373":-0.0968408076473598,"374":0.0027667333519115754,"375":-0.050161446722323304,"376":0.13954879966358646,"377":-0.014729163924692729,"378":0.04156448740573982,"379":-0.054187308828526015,"380":0.05241315101786055,"381":0.08515442372209615,"382":-0.0702114097993579,"383":0.028294955237097845,"384":-0.01293433852323104,"385":0.03763544923094374,"386":0.008860674646388412,"387":-0.019272222476618854,"388":0.04881910083543096,"389":-0.07900566828593279,"390":-0.06032691540520305,"391":-0.006536434949893744,"392":-0.0722933427881806,"393":0.042085142157204054,"394":-0.00994195481936109,"395":0.003004815340768232,"396":-0.009310297102275144,"397":0.039706545866217684,"398":0.027797109535126617,"399":0.012874285054133508,"400":-0.060570263896336955,"401":-0.02891819380624211,"402":0.007286831207596284}},{"sx":1,"sy":1,"depth":403,"w":{"0":0.035917963408645656,"1":0.0961654527995737,"2":0.047201209102932455,"3":-0.07805258399991126,"4":-0.03345362239023786,"5":0.0025695892772518384,"6":-0.060425456745734886,"7":-0.07493272041085394,"8":-0.026612567141782045,"9":-0.018235789070530806,"10":-0.059311575426391074,"11":0.06057963962918936,"12":0.005998388167800708,"13":0.03901817378495546,"14":0.006795878590283243,"15":0.06581869259529963,"16":-0.029359437172738853,"17":-0.019389614477924474,"18":0.09135112072420182,"19":-0.037242272444095725,"20":-0.0033774119824497174,"21":0.0993370353267633,"22":-0.024861649748599397,"23":-0.011888283814013478,"24":-0.0693128969496978,"25":-0.05991544595178352,"26":-0.01681318256875446,"27":0.05896835747336812,"28":0.004255221972089991,"29":-0.004832262850836848,"30":0.037057830436349005,"31":-0.004851613618908773,"32":0.059833881462575976,"33":-0.036859344356680715,"34":-0.06178357668648238,"35":0.0744889627555062,"36":0.02679349958699576,"37":0.04243773303332078,"38":-0.05841734950403651,"39":0.010456359744772548,"40":-0.017896572746194484,"41":0.08260489166163781,"42":-0.03355302988895059,"43":0.015075070082976086,"44":0.0008236681781273347,"45":0.02774283888391596,"46":-0.004613254575425619,"47":-0.05421928686069417,"48":-0.03283529266094099,"49":0.018759684137561815,"50":0.031587546485760815,"51":-0.0994258043914108,"52":0.0019135298995916004,"53":-0.001968835132871622,"54":0.05735852662682393,"55":0.0013763496354958975,"56":0.03573700078003504,"57":0.012569245358775002,"58":0.014645878224952655,"59":-0.07326325056995403,"60":-0.0110389342234089,"61":-0.007866146794552489,"62":-0.010276834415191264,"63":0.029302333363270084,"64":0.05152909368117315,"65":0.02151763619297175,"66":-0.008934734519060496,"67":-0.08085681389845543,"68":-0.002193158351810869,"69":-0.10123834091594057,"70":-0.03073148548466059,"71":0.030005340851762246,"72":-0.10447466494955684,"73":0.07649966924729884,"74":0.010419495594543698,"75":0.01273740674693333,"76":-0.029430200108499394,"77":-0.09363412213303243,"78":0.07697467078716853,"79":-0.1108164066344817,"80":0.0059839672857528005,"81":0.03651314804178163,"82":0.029000254170104198,"83":0.04595693646266305,"84":-0.021104881912165377,"85":0.06721299295240739,"86":-0.035363142549877144,"87":0.048567044584499716,"88":0.07168675810969911,"89":-0.058932014827278535,"90":-0.03263376501600366,"91":-0.019046158948351797,"92":-0.045408647967096094,"93":-0.004911910348842515,"94":-0.109406033098254,"95":-0.013931159653259117,"96":-0.00488391807998731,"97":0.028095795970989004,"98":0.00888570505172126,"99":0.027280188212391834,"100":0.011002496054203453,"101":0.017337212611975395,"102":0.016628980765904796,"103":0.03239165722640072,"104":-0.022204521798344933,"105":0.02777622774294983,"106":-0.06844342067107902,"107":0.13094183620155803,"108":0.01059384309288759,"109":-0.00648245595912561,"110":0.03909210276273818,"111":0.0025078403324803687,"112":0.005066943474725834,"113":0.0633359747843275,"114":-0.06928509670206566,"115":0.024215910596180064,"116":0.035899706770105684,"117":-0.03307128033719712,"118":-0.0017346259630189786,"119":0.014331380334840415,"120":0.002496514631419265,"121":0.0712763263164957,"122":0.051934757106954776,"123":-0.0753883956643337,"124":-0.020657347877570707,"125":0.015281014130879577,"126":0.019904660644108313,"127":0.005456486059403875,"128":0.09292700953733193,"129":0.04249003194984217,"130":0.09319431604406503,"131":-0.0818687533598105,"132":0.02964630653094829,"133":-0.007941541361448168,"134":-0.03212419382061058,"135":0.07152145308658514,"136":0.00582825875556252,"137":-0.008191006218709794,"138":-0.007663898022639241,"139":0.06117234435986155,"140":-0.0329347285898716,"141":-0.02894084423634477,"142":-0.025894091414878813,"143":-0.0672832729490915,"144":0.02867852925483258,"145":-0.005719526487855686,"146":0.013181842724511936,"147":0.025998583428721484,"148":-0.01497721243936031,"149":0.024462123037604817,"150":0.01863813851467855,"151":0.03722948510880302,"152":-0.014646417011389641,"153":0.04934520803867757,"154":0.01639466964249335,"155":-0.027589001798116408,"156":0.050742012101207094,"157":0.07699417791541599,"158":0.014113683023152433,"159":-0.05115838341390784,"160":0.006011174637188972,"161":0.023006558227259125,"162":-0.006961509879763024,"163":-0.017994027772220804,"164":0.03313652565922818,"165":-0.017207385419333164,"166":0.05371799839581886,"167":-0.008385459092085344,"168":0.03305264499816113,"169":0.023104677544148185,"170":0.06968558380564277,"171":0.10062695904146046,"172":-0.009132558255462475,"173":0.028149287204715673,"174":-0.06024709448069819,"175":-0.00138176531636577,"176":0.06760459832241557,"177":-0.08985474636170462,"178":0.02105985904281962,"179":-0.0026010042003599913,"180":0.1303119558496055,"181":-0.015820763326370304,"182":0.09815550531132666,"183":0.08870709418375407,"184":-0.036011141381742315,"185":-0.013264253144450108,"186":-0.005666668684203032,"187":-0.0038363326842655683,"188":-0.04216424442830072,"189":0.030213339062744624,"190":-0.014851910588434552,"191":0.0733768611652053,"192":-0.015009916110907878,"193":0.01025376249207543,"194":0.01891728759978263,"195":0.10863991641076241,"196":0.03313819218330801,"197":0.013163168874536689,"198":-0.08526245586653297,"199":-0.023733871348466856,"200":0.014002591360960269,"201":0.0007654449083117659,"202":-0.07790665266151309,"203":0.01725284331155023,"204":0.03793085012351594,"205":0.035858992637230726,"206":-0.02225663785511213,"207":-0.0015666603327965478,"208":0.10674227928354653,"209":-0.06812714510376225,"210":-0.011769221666112535,"211":-0.020731564514966036,"212":0.03075598431021708,"213":-0.03558559299499746,"214":0.0065214718253718915,"215":-0.046309387368419476,"216":0.006496361316687829,"217":-0.06131635588709127,"218":0.05938590019831546,"219":-0.005227745562537305,"220":-0.0021346940260110864,"221":0.052358099816919655,"222":-0.0020545970991486468,"223":-0.025604977198881662,"224":0.005835697551137898,"225":-0.003831750540761751,"226":-0.008420565785475023,"227":0.02413273761059485,"228":0.028699736452911438,"229":-0.0720158570200041,"230":-0.029381710206933115,"231":0.06515140209630885,"232":-0.0454838642726976,"233":0.1261698820495784,"234":0.019013753803245173,"235":0.013893399235576465,"236":0.012452014223858176,"237":0.007767536624589836,"238":0.07046510965134252,"239":-0.05619279761195812,"240":-0.038188372688429305,"241":-0.07087483284388452,"242":0.010397499288794949,"243":0.014636809789519742,"244":-0.09274639719528,"245":-0.07439285480488957,"246":0.010477328729832383,"247":-0.0013805646322810308,"248":-0.02214045595856853,"249":-0.00024902481558351585,"250":0.043557728671741014,"251":0.05052390888336485,"252":-0.005938761458684256,"253":0.008968022796120214,"254":0.008208115108234377,"255":0.017246354149418348,"256":0.03337982766803884,"257":0.08147403786005569,"258":-0.06707919185211529,"259":-0.02440380219574104,"260":-0.015509354068805976,"261":-0.009645228352924593,"262":0.05378411419844821,"263":-0.028552135876439476,"264":-0.018643442938468077,"265":0.027733008664986417,"266":0.005154942520087298,"267":-0.08933907764904449,"268":0.04646177612749014,"269":0.027233932358054266,"270":0.07213945514683291,"271":-0.04060022847984948,"272":0.04251568262645809,"273":0.02790497559130855,"274":-0.0014278767082144025,"275":-0.06102056975380097,"276":-0.06625991643610273,"277":0.050089083102610205,"278":-0.047998355615078196,"279":-0.028623281310744805,"280":0.0007382469361143358,"281":-0.07608417879486001,"282":0.07540205105752248,"283":-0.017770789448571536,"284":0.07976744168393342,"285":0.026728787134537576,"286":0.06483111562741545,"287":0.07363685568915414,"288":0.012679773503551805,"289":-0.06313055731363683,"290":0.03800932117249794,"291":0.010775748825568003,"292":-0.03781138969334413,"293":0.06275419900484451,"294":-0.01936581523806121,"295":-0.010505657521579366,"296":-0.03255878667622969,"297":0.02046378962260592,"298":-0.03972342426174272,"299":-0.031353987284967084,"300":0.019319493498908907,"301":0.057503814067360284,"302":0.03154386255210321,"303":0.08849983735572342,"304":-0.023000505768506388,"305":-0.11419966930563356,"306":-0.029966597249020465,"307":-0.06433974167852202,"308":-0.0016576771327448598,"309":0.01655572362630601,"310":-0.0111887695915616,"311":-0.11353285397883696,"312":0.03560435479853737,"313":0.01531105875483802,"314":-0.01666616542930814,"315":-0.0470234912966254,"316":0.029245956236051446,"317":-0.06845836607095716,"318":-0.02380751511206202,"319":-0.0813329154152641,"320":-0.05166025905372579,"321":-0.051402425330208626,"322":0.005519953065741078,"323":-0.039075807009044186,"324":0.04151159221864152,"325":0.016135252836189513,"326":0.033891356894943464,"327":0.042848472574246364,"328":-0.03299140837721183,"329":-0.058842409013969386,"330":-0.0743717681212185,"331":-0.030800068723726086,"332":0.04517789763567175,"333":0.016724999392699412,"334":-0.02540483006979967,"335":0.05517995746743185,"336":0.019263565427699244,"337":0.009481195324244985,"338":0.028904189330753238,"339":0.05308736692713831,"340":-0.10312237175784904,"341":0.08005944641471366,"342":0.004143639034487658,"343":0.034246180648728426,"344":0.0038266024036525386,"345":-0.08002689574098253,"346":0.055825265398604565,"347":-0.01648939235852212,"348":0.030532973517810244,"349":-0.004877324702655543,"350":-0.05923706828633238,"351":-0.011926607805268354,"352":-0.06662549609220306,"353":-0.04290664571560237,"354":0.009439934820530849,"355":-0.04076001326173422,"356":-0.006638901234209361,"357":-0.0770102587207497,"358":0.003332950436028306,"359":0.0028190818466090222,"360":0.056577627666743194,"361":0.03542422175618769,"362":-0.013444506735234464,"363":-0.013934997495455508,"364":0.005064813976953095,"365":0.09221982783765242,"366":-0.02208594079225202,"367":0.01918462508226496,"368":-0.07141191229842504,"369":-0.029560278079428154,"370":-0.07165356342230356,"371":0.016550926983537845,"372":-0.05705693239558879,"373":0.00846921650680841,"374":0.0332830863331581,"375":0.005240246210032252,"376":0.0014026664122964582,"377":-0.04350293792411573,"378":0.0004875876459963427,"379":-0.030598681390167293,"380":0.05331090146083716,"381":-0.030552390278059238,"382":0.01380915064934985,"383":0.00302039699675613,"384":-0.003645394763734347,"385":0.010114841546355514,"386":0.03898436102382877,"387":0.05181258009089116,"388":-0.0911645443553249,"389":-0.055791185297109,"390":0.057749662539738,"391":-0.03958722384451799,"392":0.022953555680941862,"393":-0.004194116805755596,"394":0.05616449920257251,"395":-0.05049750654866587,"396":0.08214392874001179,"397":0.017922633376324063,"398":0.03222197331530933,"399":0.024237897184586955,"400":0.09517072002759751,"401":-0.01389818982756261,"402":-0.06354873575517464}},{"sx":1,"sy":1,"depth":403,"w":{"0":0.016489177979253603,"1":-0.006183891412266407,"2":0.012402129059556304,"3":-0.0273783577770334,"4":-0.080423210159687,"5":-0.04979493473868427,"6":0.017243577485606777,"7":-0.03155270752635463,"8":0.021708945126546024,"9":0.01953283757517882,"10":0.08697968597738877,"11":0.005111814947148961,"12":-0.03138347120463965,"13":-0.024983538042342778,"14":-0.04805662990022921,"15":0.055169981212169615,"16":-0.049870469577431555,"17":-0.07324410337336792,"18":-0.04386993754437979,"19":-0.03474693225125305,"20":-0.06617042086122184,"21":0.01791099109404419,"22":0.00925290339136754,"23":-0.02202176566912504,"24":0.021684776879782302,"25":-0.005396094544050501,"26":0.09432761673771058,"27":0.01733654517825774,"28":-0.06403011711300097,"29":0.015623104837719072,"30":0.002293999601708908,"31":-0.03940306421105154,"32":-0.0025884058120002828,"33":-0.014168928986974144,"34":0.02466196961108249,"35":0.005574007783651032,"36":-0.002350331740097759,"37":0.0073456797306572195,"38":0.029403856509024502,"39":0.06330431932493584,"40":0.041193200308993795,"41":0.038815576519829996,"42":0.00303917052786685,"43":0.10664346963338099,"44":0.03935524561091857,"45":0.030518438570517795,"46":0.05174560576202879,"47":-0.04654163540781363,"48":-0.07289804450301444,"49":-0.02449316237252471,"50":0.020129205848552018,"51":0.00856838467782598,"52":-0.01035636353405586,"53":0.04125334711140696,"54":0.05344303897449527,"55":-0.12580721356667102,"56":-0.16251820060091365,"57":0.021794080436482063,"58":-0.00682574090879539,"59":0.004505297508698465,"60":-0.007027227539854372,"61":-0.0012424569328831113,"62":-0.004315163113422736,"63":0.07202044405025346,"64":0.014392815879107883,"65":-0.004268749844800354,"66":0.004908381630787049,"67":0.023630356813254882,"68":-0.08499774858371253,"69":0.04051295033653322,"70":0.030043503692925355,"71":-0.059626616016195406,"72":0.04671666751720239,"73":0.024615374969981837,"74":0.03443378955464511,"75":0.051636138124240435,"76":-0.03230425953943004,"77":-0.013027824404638925,"78":0.04807682774619423,"79":0.009471034945587603,"80":0.0679473090952839,"81":-0.06908794243850114,"82":-0.020648794457576367,"83":-0.006754292939982173,"84":0.01973562854907311,"85":-0.04920465959638403,"86":0.02494094764207947,"87":-0.03521982669178527,"88":-0.08769684979845654,"89":-0.01431952614281341,"90":0.01592943723624533,"91":-0.048623310583797534,"92":-0.022797173643274438,"93":-0.04670062280037636,"94":0.004784966057946205,"95":0.011602047095923319,"96":0.06674938979349941,"97":-0.028355774902098507,"98":-0.00847758636845706,"99":-0.059320468746611336,"100":-0.05672762862176143,"101":-0.062186775377184506,"102":-0.049661520174608044,