{"layers":[{"out_depth":403,"out_sx":1,"out_sy":1,"layer_type":"input"},{"out_depth":50,"out_sx":1,"out_sy":1,"layer_type":"fc","num_inputs":403,"l1_decay_mul":0,"l2_decay_mul":1,"filters":[{"sx":1,"sy":1,"depth":403,"w":{"0":-0.03805959674915004,"1":-0.03232100408860272,"2":0.0355620004082689,"3":0.01808970138353567,"4":-0.010781421954324735,"5":-0.10130625565036727,"6":0.013300803851883336,"7":-0.00941494155718226,"8":-0.08044852376516776,"9":-0.03184588791452623,"10":0.0124128257293752,"11":0.009139272844726844,"12":0.04659294191907819,"13":-0.11899900221077463,"14":0.047423413517405075,"15":0.07047113320353511,"16":0.028319961190714987,"17":0.09087988304126718,"18":-0.04952127377650662,"19":-0.04178999850114147,"20":0.04343229383885598,"21":-0.018308660106180694,"22":-0.0040968570898923294,"23":-0.05485663023988776,"24":-0.016608429336577038,"25":-0.004743573183382541,"26":0.04229245848323814,"27":-0.006475229753652395,"28":-0.10079245649522396,"29":-0.05219945569779453,"30":-0.003933637735703315,"31":-0.02411102092033652,"32":-0.047006619244475814,"33":0.018429974067320633,"34":-0.034475080224587534,"35":-0.05470036463696697,"36":-0.035596153195248996,"37":0.010608611282234297,"38":-0.021733644481997834,"39":0.09040512333889536,"40":-0.052074239494006004,"41":0.08243723995975977,"42":0.0647326499762201,"43":0.04007619865092391,"44":0.03089148421947457,"45":-0.09510969646006422,"46":0.0395594509583217,"47":-0.09830707094044389,"48":-0.029037830237197495,"49":-0.09189321608257364,"50":-0.03855191006263782,"51":-0.0802861175394151,"52":0.023557900950188032,"53":0.1224859806076114,"54":0.0367566082966585,"55":-0.021136962438265395,"56":-0.009669974414890373,"57":0.011047917751434063,"58":-0.03505565302138785,"59":-0.006223926632284567,"60":-0.03770236952420095,"61":-0.00844092519464755,"62":0.02771997477673039,"63":-0.0012692624295345628,"64":-0.03861864342746669,"65":0.002342072714748732,"66":-0.000036627902681089524,"67":-0.006263423358950763,"68":0.04920883525045425,"69":-0.035710407985776835,"70":-0.07384186281171919,"71":-0.013084501785219844,"72":0.060966297491500475,"73":-0.011818322557165386,"74":-0.06621083144385333,"75":-0.00659308628734343,"76":0.0012010429135511503,"77":0.11015282107921767,"78":0.03720471266137586,"79":-0.05869388605209863,"80":0.05652667609872188,"81":0.01709514186963195,"82":0.022739867449700468,"83":0.0714879899427731,"84":-0.04441602021640249,"85":-0.05387995549895026,"86":-0.018868357980067477,"87":0.03785956301346105,"88":0.05683312061647181,"89":-0.03077635796142084,"90":-0.03750016397487457,"91":0.07835366436906024,"92":-0.0006226251013631641,"93":-0.046899983180051834,"94":0.052024929658061235,"95":0.011029119102731837,"96":0.018565318655970685,"97":-0.03376407408838979,"98":0.026626906241951638,"99":0.03249414888265032,"100":0.05396349692323772,"101":0.08320804030359419,"102":0.04167978076464689,"103":-0.020406715401090257,"104":-0.008155693054993411,"105":-0.03946478726092532,"106":-0.006033248331488021,"107":0.028373575892424258,"108":0.012959563422770952,"109":-0.019348845386357796,"110":-0.06759242660976013,"111":0.005406320943716368,"112":-0.004376148502739927,"113":0.040591303010732,"114":0.021232632686568425,"115":0.05242149073347226,"116":-0.040210121526849746,"117":-0.022968346242184287,"118":0.025408756692570412,"119":-0.031652933055056905,"120":0.025651306311971007,"121":-0.045213432440175075,"122":0.08855249635328484,"123":-0.1151780738844924,"124":0.019007242371093937,"125":-0.03029989690764448,"126":-0.008567160247698382,"127":-0.06164034979889038,"128":0.057256789887244586,"129":-0.10899663904575457,"130":0.022088991746517524,"131":-0.013552636439295032,"132":0.014037697228592225,"133":0.018850092278585567,"134":-0.005568354936817468,"135":-0.05820249260102933,"136":-0.022062418837576397,"137":0.03533796673276174,"138":0.023825671329211207,"139":-0.03308042463354782,"140":-0.0017606254531709136,"141":0.048365058969386115,"142":-0.09353707202453664,"143":-0.03647644114192777,"144":0.04405823897436242,"145":-0.019646670795454253,"146":-0.08950216884700939,"147":0.056028061943173224,"148":0.025566403756109475,"149":-0.05886611389323263,"150":-0.0020279755902453786,"151":-0.03199169140734819,"152":0.07094189095356207,"153":0.01514085885625842,"154":0.06640516084875474,"155":0.01695810607429723,"156":-0.061656495882719306,"157":-0.03344161736692795,"158":-0.028354351441155282,"159":-0.06625900448697214,"160":-0.019367603863819294,"161":-0.0696086751327734,"162":0.10196724852704996,"163":0.002442216294405859,"164":0.04629831360882004,"165":0.026120019735728417,"166":0.0037204622398608854,"167":-0.02765671291804713,"168":-0.05066733967919212,"169":0.015837916251155975,"170":-0.0282238783811719,"171":0.10280274269397899,"172":-0.11706788514825121,"173":0.0018146270162478538,"174":0.0445749762723656,"175":0.03762074762543773,"176":-0.0069420781751037205,"177":0.05744509583078984,"178":-0.060839803384344776,"179":0.02292061610480139,"180":0.01766423095128639,"181":0.05990003121272155,"182":0.081953565616405,"183":0.07727275919368709,"184":0.05209380020803575,"185":-0.01690054461161826,"186":-0.048275743952944816,"187":-0.05198081234208839,"188":0.04928297243422829,"189":-0.09175097613539233,"190":-0.06856720221681278,"191":0.10708931742845701,"192":-0.012237977011235393,"193":-0.02945015374428051,"194":-0.05451861589358433,"195":-0.018622831313482933,"196":-0.05628605773831953,"197":-0.06971632960609318,"198":-0.007435969440064869,"199":-0.0031421731802398316,"200":0.08545681185330893,"201":0.006839291164575551,"202":-0.030355001707511844,"203":-0.0795738617821673,"204":0.006687572091493777,"205":-0.03735871999785527,"206":-0.07392209922241572,"207":0.032765654793583475,"208":0.022774557701917397,"209":-0.02750011115266203,"210":0.006551793513352106,"211":0.005648781365810069,"212":0.04491727068728936,"213":-0.10355577602520057,"214":-0.10036076919490608,"215":-0.02429033100294568,"216":0.01557430562849555,"217":-0.041827113309994446,"218":-0.08258858048481423,"219":0.010155119525904433,"220":0.062385138524635,"221":0.01299917397185066,"222":-0.034845146740165873,"223":-0.06851534161459281,"224":-0.0013213498072499863,"225":-0.040087798741607734,"226":-0.024303402950154516,"227":-0.011753093636005303,"228":-0.014643282760468761,"229":-0.006906320310666392,"230":0.0600259165531506,"231":-0.027414946653601294,"232":0.10240918112475846,"233":-0.04422599811125269,"234":0.0023741559544231375,"235":-0.01339844263107886,"236":0.012840281526521401,"237":0.01412186938786167,"238":-0.07458933305959475,"239":0.005136937758825351,"240":0.02231424062898903,"241":-0.02551417001202576,"242":-0.0590876709835634,"243":-0.01491440016363814,"244":0.0703495179231685,"245":0.04869620569540739,"246":0.00143037363893729,"247":-0.03250080056734305,"248":-0.029893384439823742,"249":-0.05274865001936491,"250":0.07068842986084542,"251":0.027563654266774703,"252":-0.023817884882834973,"253":0.07731873642222319,"254":-0.05169949823626669,"255":-0.04240495751070333,"256":0.053483339434463706,"257":0.03618973181835482,"258":-0.009613133050717232,"259":-0.029357976836385927,"260":0.05783484148417358,"261":-0.02982827895945477,"262":-0.07391891345713134,"263":-0.04642632986523823,"264":-0.0324974579394075,"265":-0.03234541152953134,"266":-0.005931558402997702,"267":-0.004295911195823748,"268":0.11215742391306309,"269":0.04919159478943248,"270":0.008079782172872085,"271":0.010321849656530737,"272":0.05989320874731499,"273":-0.05801761308702248,"274":0.019162830590528465,"275":-0.1482177174630299,"276":-0.012332991167222565,"277":-0.042039279046421935,"278":0.09679287989684188,"279":-0.03708686963615427,"280":-0.003443418782660403,"281":-0.001531325775155271,"282":-0.03914805412791029,"283":-0.01641200492612679,"284":-0.012184497578564563,"285":0.015497433557562898,"286":0.03156585926637416,"287":-0.08525989563299935,"288":-0.002438420439347245,"289":-0.02690185004578531,"290":-0.04518514649962863,"291":0.0025368730762632906,"292":0.002713083338096536,"293":-0.03167035658020026,"294":-0.007210143251030846,"295":0.014484304714842399,"296":-0.061464776460471764,"297":0.05223333191231874,"298":0.0541726929578294,"299":0.011377805251935895,"300":-0.07630160720829503,"301":0.03785045438770904,"302":-0.034214704905485796,"303":-0.04451080764048952,"304":-0.07549485578499765,"305":0.0007882573378663511,"306":-0.04421580135776997,"307":0.012087023521311711,"308":-0.032464841369279275,"309":-0.024991436851518112,"310":0.006720405061145754,"311":0.008098199469960338,"312":-0.039108218230059354,"313":0.0007296006475266614,"314":-0.05228608584973009,"315":0.1323023535838208,"316":0.010356070732318928,"317":0.040382162867615395,"318":-0.025909737060764326,"319":-0.01211557327694351,"320":-0.023438788534025052,"321":-0.041635069775982934,"322":-0.016626436689728446,"323":0.0815728909789022,"324":0.004549970950286313,"325":0.009632144528245963,"326":-0.09362825672843977,"327":0.019523770630228577,"328":0.06071688559206078,"329":-0.03969891190757061,"330":-0.015162099325986958,"331":-0.009453559190317587,"332":-0.016619093622192084,"333":-0.04132710489957369,"334":0.06615438392553818,"335":-0.023790403781166453,"336":-0.060551773270053684,"337":0.014792854483462582,"338":0.04642351245813437,"339":-0.10264662984582705,"340":-0.02554549134796342,"341":-0.05129518935171866,"342":0.03584994313801934,"343":-0.10480310054837248,"344":-0.07886309801066789,"345":0.022226185637237533,"346":0.08029051579709655,"347":0.04567264252930347,"348":-0.009567023100826404,"349":0.047221179338641,"350":-0.057685780747868315,"351":-0.0016790231637089379,"352":-0.030308519382455067,"353":0.05527164512082627,"354":-0.014605314141817073,"355":0.019028431710867533,"356":-0.037050868078492095,"357":-0.05537719037336813,"358":-0.01612001596269511,"359":0.012251274349294015,"360":0.036118693253968014,"361":-0.06888473915230568,"362":-0.049741674810472,"363":0.007733846883703322,"364":-0.09857520861920561,"365":0.028875783116857862,"366":0.0594628391941624,"367":0.04934212052400596,"368":0.045403113121537476,"369":0.07399340733310873,"370":-0.044342737130766384,"371":-0.14563257109226926,"372":0.07859148929697944,"373":0.03649444396990539,"374":-0.09069663956521849,"375":-0.05265730098001904,"376":0.09509097372321597,"377":0.020172877714878863,"378":0.052153854524703135,"379":0.003548467414635611,"380":0.024680452398029223,"381":-0.027674558977944595,"382":-0.0010038667175291014,"383":-0.025823462148312624,"384":-0.05694231233745756,"385":-0.03967267268534705,"386":0.03656507880969398,"387":-0.034406143363496566,"388":0.00012121684217220381,"389":0.0020146271950474788,"390":0.0702746814967352,"391":0.05593798510333255,"392":-0.05104654777845427,"393":0.05068668404481003,"394":-0.023950229732533426,"395":-0.017312456502528367,"396":0.13693343620142753,"397":-0.04118624784448767,"398":0.06467246238869782,"399":-0.05889626599027526,"400":0.033901395485254227,"401":-0.004042297763779611,"402":-0.04273201324213983}},{"sx":1,"sy":1,"depth":403,"w":{"0":-0.012883750677264064,"1":0.010192643395731461,"2":-0.0231762368473712,"3":0.07755778918327577,"4":-0.03774040125325999,"5":0.006714647902459373,"6":0.03576602039843659,"7":-0.032002312152204886,"8":0.06298092220858381,"9":-0.060439477424832785,"10":0.011858347563695613,"11":0.025617705420013046,"12":0.032156029551262275,"13":-0.00293095119040903,"14":0.008436742849364636,"15":0.03787510377967952,"16":0.03386414993334985,"17":0.02008600911760066,"18":0.03364422389053805,"19":-0.04996007880932311,"20":-0.021723948630001325,"21":0.02681328621409166,"22":0.029469587000969646,"23":-0.02685197865116981,"24":0.02010641152936215,"25":0.03676637773733684,"26":-0.018780772328554615,"27":-0.022455136810436763,"28":-0.05195039498124104,"29":0.07379386079641861,"30":-0.07231979587300107,"31":0.06307494327959243,"32":-0.015360843282661723,"33":0.014501890517560208,"34":0.005949328618899238,"35":0.010688300733246954,"36":-0.06631188553692381,"37":0.007233943092176447,"38":0.012359619024646886,"39":-0.00018589997109156453,"40":0.01804618216704163,"41":-0.0018737053349710887,"42":-0.03886139981252758,"43":0.059591704929049805,"44":-0.03339796559445109,"45":-0.07785777255221002,"46":0.021995244223731544,"47":-0.0287253157488924,"48":0.03191874491260667,"49":0.045306990326120525,"50":-0.04826135080359746,"51":-0.0431102367329496,"52":-0.03895895764718112,"53":-0.007224815277369939,"54":-0.07586732961275204,"55":0.004878748935374115,"56":0.019564508940777034,"57":-0.09495801339236558,"58":-0.010439830868963449,"59":-0.022573089696178376,"60":0.00434125959725411,"61":-0.03593501606914635,"62":0.034707897235664656,"63":0.08127905206450867,"64":0.015590414686449625,"65":-0.012854489085964363,"66":0.0772110495714177,"67":0.04920835823528952,"68":0.012178242619631735,"69":-0.09482033431532573,"70":-0.019004788443343374,"71":-0.03711194141538423,"72":-0.08062067618965363,"73":-0.04765048868939179,"74":-0.001291959924501664,"75":0.03425192212008695,"76":-0.014198418761416231,"77":-0.01648804061098585,"78":0.09094041125319074,"79":-0.014891799259259597,"80":-0.006464035248633046,"81":-0.03242781149554945,"82":0.04020714960769333,"83":0.016142724617159276,"84":-0.0714398514427382,"85":0.03646050253268689,"86":0.0050001856447486346,"87":-0.02473251888407615,"88":0.0101855657978879,"89":-0.03682130717836638,"90":-0.01792394078117488,"91":-0.08649223777261036,"92":-0.1345058949652106,"93":0.06243897004191717,"94":-0.04085305101965062,"95":-0.0029826364140730062,"96":0.011146952885738182,"97":0.06873969222929895,"98":0.012327937880195547,"99":-0.09274392979899522,"100":0.03545240697847207,"101":0.04547074211979348,"102":0.009185144185630942,"103":0.08947944999525421,"104":-0.008322452621184074,"105":-0.07892058452244714,"106":-0.09082276316682375,"107":-0.009300396697654662,"108":-0.09985260402527224,"109":-0.027656261423916507,"110":0.04694332150914284,"111":-0.057429650504048614,"112":-0.047228732079398386,"113":-0.044590023855917815,"114":-0.0498894268663354,"115":0.048826081951519405,"116":-0.04491973256806705,"117":0.014234277547905896,"118":0.0005134803863363991,"119":0.052048996965190136,"120":-0.04495433251924972,"121":-0.021074934223661135,"122":-0.009112464224357983,"123":0.10347325852867367,"124":-0.03457886225938875,"125":0.0053204044682960035,"126":0.018015845504611838,"127":0.09104717991794464,"128":0.05535601020595334,"129":0.061851612670246976,"130":-0.08924525763972267,"131":-0.01930283201225875,"132":0.07219279200015365,"133":-0.013611844436450811,"134":0.041788071311030926,"135":0.011140431945045838,"136":0.027543973148284544,"137":0.01811392768578174,"138":0.06613251186776788,"139":-0.109562351239031,"140":-0.0542902373192897,"141":-0.027606854488601392,"142":0.05820401661024461,"143":-0.04662833481319491,"144":-0.026917838714399553,"145":-0.003099112617365982,"146":-0.08943751121726604,"147":0.05967039502743336,"148":-0.009875719112819302,"149":-0.016804532816932585,"150":-0.018357225818695987,"151":0.0359377380401382,"152":-0.009832332309437072,"153":0.02246109783157699,"154":0.04029573404270854,"155":0.04355945325788346,"156":-0.046013278321808786,"157":-0.05601339216524188,"158":0.0018281108247744245,"159":-0.053973796822122735,"160":0.04112786074677939,"161":0.007885565313262271,"162":-0.041315014686868,"163":-0.004840828551060844,"164":0.052545978080417534,"165":-0.0430387568969931,"166":0.05842628121433747,"167":-0.03513122066741175,"168":0.13300548791140288,"169":0.06106498133497562,"170":-0.0039908412574074185,"171":-0.003980242794748052,"172":0.07597193804653196,"173":-0.0679211132422917,"174":-0.06845852094846842,"175":-0.031903165115374124,"176":-0.021400473238390224,"177":-0.06595186657375432,"178":0.03436418269257581,"179":-0.07816321318759879,"180":-0.02214647722848667,"181":0.011242328389967342,"182":-0.03350773394553772,"183":-0.06979591579960748,"184":-0.00008452640629389494,"185":-0.060919483180274486,"186":-0.005751980492620564,"187":-0.0599040825745672,"188":0.12556129505262686,"189":0.03500749749400835,"190":-0.05734901460021119,"191":-0.053331924619533407,"192":0.03188633924980443,"193":-0.07747522651182275,"194":-0.042293033358155235,"195":0.0010792749896562722,"196":-0.0030050928991581937,"197":-0.0476989428280387,"198":0.0051653657572232736,"199":-0.06821420858046474,"200":-0.03127926751181469,"201":-0.07341400538858901,"202":0.02684356091013305,"203":-0.036110265677562106,"204":0.06181974114234238,"205":-0.015091489065921879,"206":0.011232230095670748,"207":0.03121990355791254,"208":-0.08943323666862488,"209":0.08171462755140714,"210":-0.05692782402983202,"211":-0.01732326783207683,"212":0.030486929537970053,"213":0.022403921535764544,"214":-0.0043289930706459645,"215":-0.04857289990963921,"216":0.025832057550081427,"217":0.05440667734138827,"218":-0.013304507721749325,"219":0.04996880776122562,"220":0.008227329591977603,"221":-0.061941954365777895,"222":0.0033686454916115327,"223":0.028482385483627075,"224":0.04456496018615103,"225":0.030914834985513017,"226":-0.016576412904479768,"227":-0.0536256854327186,"228":-0.04747903155426485,"229":-0.07673629495954275,"230":0.05396790699641283,"231":-0.019965611071949965,"232":0.06255346528241072,"233":0.041484576579413845,"234":0.11098093242727976,"235":-0.06144327996576486,"236":-0.03229254452348167,"237":0.08120709246307807,"238":0.06543980864286987,"239":0.11795867367366154,"240":-0.030849264910537896,"241":0.036500675324142313,"242":-0.03967910005841188,"243":-0.03074492163085221,"244":-0.03907663840895935,"245":0.0030713994102419765,"246":0.02890729939564819,"247":-0.025372954822771437,"248":0.0012897211935155978,"249":0.0007283715136727772,"250":0.006611265748090873,"251":0.03636652218550422,"252":-0.016458741262448437,"253":0.023023493492285635,"254":-0.007439791894148449,"255":-0.04198366516965419,"256":-0.032729494425094194,"257":0.09116583250814984,"258":-0.019372289462854034,"259":0.097004465775385,"260":-0.01588786653101362,"261":-0.0015028092176208483,"262":0.017080936096561684,"263":-0.021546933990448547,"264":-0.10284287908892815,"265":-0.041935684038100315,"266":0.001471300823892901,"267":0.022720415262490693,"268":0.0016595845600244066,"269":0.04498185191796409,"270":0.06120619227151481,"271":-0.007118240243508225,"272":-0.016542284888448378,"273":-0.0029180332839096774,"274":0.012454865504664549,"275":0.04162120320038143,"276":-0.00958199288314593,"277":-0.002426492736223177,"278":-0.011834816934341911,"279":0.046466720636487734,"280":0.06450669836839594,"281":0.0004492009269584245,"282":0.026500124197267164,"283":-0.020121175166647482,"284":0.07818125453372644,"285":0.024622772587199283,"286":0.05094145152836399,"287":-0.02130332223897969,"288":0.013955388241362481,"289":-0.023863298575674263,"290":0.004146745122027453,"291":-0.05495406891014073,"292":-0.05693883532328465,"293":0.039213285099301685,"294":-0.051043545972656645,"295":0.013773786837399523,"296":-0.03893505103399106,"297":0.02621947221261215,"298":0.03911503516044981,"299":0.05485376342478457,"300":-0.01012232760002803,"301":0.04075977033092636,"302":-0.035852670751782174,"303":-0.06982032853653856,"304":0.03088293931579309,"305":-0.03214931014569184,"306":0.0763076625381468,"307":-0.007700601187305063,"308":0.0371848182446232,"309":-0.010515543198751353,"310":0.04577384458928621,"311":0.07160836821309628,"312":-0.06429789883993094,"313":0.1414532260837173,"314":-0.05255001201714699,"315":0.01158910362391623,"316":0.009495408669575631,"317":-0.018621911067064813,"318":0.0483072126712353,"319":-0.02671167943376087,"320":0.041963571098134596,"321":-0.02743593125406331,"322":-0.04106784603408822,"323":0.051111993986050167,"324":-0.026381435197243265,"325":0.03016272912800061,"326":0.035037835100317855,"327":-0.03500886130819219,"328":-0.03341751480203698,"329":-0.07117296890319853,"330":0.0013928747174838576,"331":-0.049884464809733894,"332":0.02312641627814513,"333":0.03734542586954259,"334":-0.06556902136043644,"335":0.003894141003691295,"336":0.08774182711010138,"337":0.034959641235786716,"338":-0.0600407020390378,"339":0.02038501112840634,"340":0.1508566228701102,"341":0.013015835042385578,"342":-0.061938987904563585,"343":-0.04026023272942193,"344":-0.011994294048836047,"345":0.028653685300997846,"346":0.04759614130034034,"347":-0.0579937175337064,"348":-0.009658811288087803,"349":-0.021969264938288654,"350":0.05901257005820281,"351":0.017962509378530788,"352":0.08502050133765475,"353":-0.07199958111651855,"354":-0.013367006601325872,"355":0.00146707757000769,"356":0.08567901712702057,"357":0.047761950088765756,"358":-0.06392729819871155,"359":-0.010490906157868272,"360":-0.03853474892858482,"361":0.062337584128719876,"362":-0.013480552855604292,"363":-0.011886326660086101,"364":0.03459336827014213,"365":0.0014409263228539087,"366":-0.05669375494335815,"367":-0.06404237020478566,"368":0.015514090153351272,"369":-0.020744140234422614,"370":-0.00952984664356378,"371":0.033345652113674774,"372":0.05360978447261287,"373":0.024418338225203576,"374":0.0004841644172731637,"375":0.029918245748117037,"376":-0.038726759540986075,"377":-0.06926107923771474,"378":0.07721572152834268,"379":-0.020929493882804528,"380":0.013720320550721223,"381":0.018478419431882064,"382":-0.03887399453327925,"383":-0.06526039793912898,"384":0.07306949578700232,"385":-0.02110596683604547,"386":-0.04234573868412984,"387":-0.062116221294242435,"388":0.024423637802919236,"389":-0.04762190076239501,"390":0.03464176753192759,"391":0.017326326957630332,"392":-0.054826814494320725,"393":0.03182112975583014,"394":-0.021565797963676872,"395":-0.06767614194336569,"396":-0.05571280367478726,"397":0.002673850791095996,"398":0.08430548062430229,"399":-0.02544254882386685,"400":-0.013584007728569249,"401":0.012707426816459892,"402":0.034029821807033886}},{"sx":1,"sy":1,"depth":403,"w":{"0":-0.08063958124605178,"1":-0.08813671979801697,"2":0.03676604746053921,"3":0.007067679856682818,"4":-0.0027850578099843726,"5":0.020526523871891748,"6":0.006035303799735239,"7":0.05265215922269172,"8":0.02174325059869992,"9":0.02825721079365367,"10":0.1167843865650162,"11":0.039077315013254024,"12":-0.022426113183070508,"13":-0.13221817579347728,"14":-0.03578699537082607,"15":-0.05727449507037162,"16":-0.011753766248467083,"17":0.000032556573936497684,"18":-0.04052958649900703,"19":0.03404645295612553,"20":0.03677620544899822,"21":-0.05167609152150702,"22":-0.02634134029988362,"23":-0.036462744978764644,"24":0.011204794814451285,"25":0.03286971305889375,"26":-0.024752831822885603,"27":0.041573164428354376,"28":-0.016838878534841235,"29":0.08952376262459802,"30":-0.020433094530189534,"31":0.01966101591071541,"32":0.015317859602991637,"33":-0.009404325683683525,"34":-0.0054304833384010735,"35":-0.021138463827295468,"36":-0.05464313473119655,"37":0.05550746920216919,"38":0.005395592669767414,"39":-0.0022431406220192155,"40":0.02557002472208111,"41":0.031234272659219332,"42":0.027937440634651475,"43":0.04680330428956792,"44":-0.012911391612933936,"45":-0.004566327205900304,"46":-0.04675506731792156,"47":-0.024521108095423357,"48":-0.02606000248315457,"49":0.041130574572085514,"50":-0.016232727655677136,"51":0.08376300173393696,"52":0.025793527571764313,"53":-0.041503143549889904,"54":-0.04631269908453349,"55":-0.00204257373148614,"56":0.0020557568023142334,"57":-0.02337694910738185,"58":-0.08239115727845786,"59":0.002263083867804847,"60":0.01164021500181824,"61":-0.04431252789203106,"62":0.02138911805670443,"63":0.05905560032273615,"64":0.06505166294048734,"65":-0.0539865217345858,"66":0.023184248900949233,"67":-0.041212317359505146,"68":0.05811627227924152,"69":-0.04076909188755809,"70":0.04761178351547772,"71":0.009311135722782523,"72":-0.055344851547266996,"73":-0.011276882921093105,"74":-0.0945902260141588,"75":0.020992072385120547,"76":0.0025536883979681213,"77":-0.005546137418452543,"78":0.016167239825696535,"79":-0.04694771219108227,"80":0.06818701720091053,"81":0.060913449122894946,"82":0.10078619366055822,"83":-0.01341071154711514,"84":-0.012291993059334446,"85":-0.05502991955293437,"86":-0.09873955610025008,"87":-0.038038519444226426,"88":0.008151532187534604,"89":0.07695904779257241,"90":-0.009795192760862173,"91":-0.05639413401010488,"92":-0.05479260937373577,"93":-0.04761456668732739,"94":-0.011289680426725327,"95":-0.07654511987524006,"96":-0.05614402619266614,"97":-0.006211774704567178,"98":-0.017048946348008565,"99":-0.04869803659228007,"100":0.04244790150352576,"101":-0.0006278495657696888,"102":0.04095051313830181,"103":-0.04377183095025778,"104":0.07548973394104143,"105":0.03519331280801888,"106":0.028659816902568427,"107":0.060004412516281684,"108":-0.025283506789912952,"109":0.020345833275415236,"110":-0.088309124672108,"111":-0.008008917274521597,"112":-0.029159372993519,"113":-0.007504666600078195,"114":-0.03764877002010492,"115":-0.030355883217733214,"116":0.04416125672798046,"117":0.05497189174588199,"118":0.05743454652825492,"119":-0.04608777814823883,"120":-0.02070393426806147,"121":-0.029725719967841468,"122":0.007602482838637821,"123":-0.0026962776342858395,"124":0.023059339616579126,"125":0.003530554825381244,"126":0.008323319450843492,"127":0.012970429120208963,"128":-0.12378184368057005,"129":0.047646286050183735,"130":-0.0027793914304417135,"131":0.0038597757264068203,"132":0.017289458381580823,"133":0.028467719660343904,"134":0.08760095037889999,"135":-0.03012067955618481,"136":0.0725603257880885,"137":-0.01784150449265541,"138":-0.007542442885296687,"139":-0.02839253849299537,"140":0.0033029918394874634,"141":-0.04443003581062992,"142":-0.02874399973815397,"143":-0.057441738443839735,"144":0.062348220100981545,"145":-0.0014047419326113472,"146":0.036038499331980035,"147":0.020780082452568287,"148":0.005451661450565877,"149":-0.018511091580082243,"150":-0.056230318167365526,"151":-0.08875526559801354,"152":-0.05657932381398262,"153":0.03844256855416131,"154":0.006839616336771462,"155":-0.013065287950020878,"156":0.01294676589508692,"157":0.10529414747850055,"158":0.06854066329393728,"159":-0.011057101468308328,"160":-0.051072912892998645,"161":0.03765648491498688,"162":0.06230476670251903,"163":0.03141324492582115,"164":0.007167267833977499,"165":-0.016893274738120433,"166":-0.026754247621443784,"167":-0.026635871836280516,"168":-0.012335607549250113,"169":-0.011345741760459604,"170":0.03735490385134135,"171":0.0015295487520724164,"172":-0.022214869287126314,"173":-0.013280141469444055,"174":-0.02494588888104895,"175":0.002268703705753766,"176":0.07958696764682774,"177":-0.03643807659118439,"178":0.02518492503809223,"179":-0.06694449089251846,"180":0.005941276764857745,"181":0.05433805834959007,"182":-0.035584714401082816,"183":0.10808911639003042,"184":-0.04195064194810982,"185":0.014660963383808151,"186":-0.017376845463583108,"187":0.032774006080004775,"188":-0.07894833248818178,"189":-0.020573618015080238,"190":-0.07956447130345597,"191":-0.031221581566564287,"192":0.023294266849718647,"193":-0.008158515276049109,"194":-0.03340672792413672,"195":0.007895877971888631,"196":-0.07036613592122881,"197":-0.015773370478645566,"198":0.0024182448283004113,"199":0.029438319254690745,"200":0.046681590329693476,"201":-0.020126976668504312,"202":-0.04214287951132491,"203":-0.15522463256504937,"204":-0.09186719581050277,"205":-0.04483705514128455,"206":0.011637297133360052,"207":0.0963741409968818,"208":-0.050881196764994384,"209":0.015538402620983946,"210":0.006882120455561325,"211":-0.07690374494742977,"212":0.01799509568669847,"213":0.04225698472923649,"214":-0.07116561946855117,"215":-0.03849096730990953,"216":-0.006572673573665429,"217":0.0033412481460750785,"218":-0.04728966164019837,"219":0.002403529035467333,"220":-0.06839560180995989,"221":0.0420252220334252,"222":0.029451557210230152,"223":0.015009633464018554,"224":-0.059193303863618096,"225":-0.005017222040444255,"226":-0.017613809040833876,"227":0.041541162836248716,"228":0.011983529509564585,"229":0.04210552085392433,"230":0.023836637032201506,"231":-0.05753823644551532,"232":-0.00038425397720686765,"233":-0.033312119256139944,"234":0.010912393686461496,"235":0.01496572997901446,"236":0.02369601787515664,"237":0.08386595810099223,"238":-0.00657371080586616,"239":0.0004516090981250075,"240":-0.008979381602710538,"241":-0.03733403692056772,"242":0.030249305791127622,"243":0.04053868052969655,"244":0.04514006083213926,"245":0.038305201489411134,"246":-0.015794239111193684,"247":0.06913414306825941,"248":0.033546707268942544,"249":0.027281702527858668,"250":-0.06918332525408462,"251":-0.09987776400056186,"252":-0.016107779133361328,"253":-0.06567870753814016,"254":0.026052180359881886,"255":0.01662283692432821,"256":-0.0016574869847506288,"257":-0.005304556478906667,"258":0.027437256847545638,"259":-0.01921530305283765,"260":-0.07117191808446334,"261":-0.025511390329425992,"262":0.044627789294891716,"263":-0.06108634452439619,"264":-0.06798684274834847,"265":0.08441391447513616,"266":-0.019062827122422025,"267":-0.08436535784255245,"268":0.014440868398766075,"269":0.014255976951880741,"270":0.021851200293618925,"271":-0.11095231628609184,"272":0.08687429135354932,"273":0.08133390677849547,"274":0.06921128840021601,"275":-0.0727560581170006,"276":0.041876770678451226,"277":-0.02238272526592224,"278":0.016484114402579884,"279":0.07141364076465834,"280":0.039371869305900524,"281":0.03039173345524542,"282":-0.0070169841742158175,"283":-0.016695498468498993,"284":0.04143857973402403,"285":0.00750645762945629,"286":0.03488852103477798,"287":-0.07794277645636587,"288":-0.05266045395819224,"289":-0.035121615725607236,"290":-0.1124710015978107,"291":0.07363866279316654,"292":-0.04642852529072106,"293":0.021100820103180363,"294":-0.07096282298756518,"295":0.004107166572710998,"296":-0.06207552693406399,"297":0.02818301510597153,"298":0.028949004771966817,"299":0.05371075544069046,"300":0.04660466820829617,"301":0.042281010675300996,"302":-0.020184737573615476,"303":-0.030646865796266586,"304":-0.06716740886265446,"305":-0.043379440355294334,"306":-0.04183727815756565,"307":-0.01633951378285391,"308":-0.09684783145988417,"309":0.00451529277797384,"310":-0.03052173197122441,"311":0.030552941408067386,"312":-0.009764487708684518,"313":0.03447880524746216,"314":0.09224865199738501,"315":-0.026506274321989005,"316":0.002603365221299354,"317":-0.0011744458604164855,"318":-0.08673003575967488,"319":-0.05052108599090197,"320":-0.007849647981336583,"321":-0.019693135165951062,"322":0.007268011932625546,"323":0.0405212587971245,"324":0.007333461256750215,"325":0.01008262684999155,"326":-0.002518078056043942,"327":0.09915660563558187,"328":0.00284236370400308,"329":-0.03277707859567014,"330":0.0072667218154527265,"331":-0.05327367335506588,"332":0.05096734681712724,"333":-0.04405103642661579,"334":-0.011239424596585638,"335":-0.07200488194751015,"336":-0.0077030028403050985,"337":-0.06712842509390336,"338":0.0633660681555165,"339":0.04221039984791631,"340":-0.024740116834490043,"341":0.07556383837698276,"342":0.0018684859773625791,"343":0.07897768493809826,"344":-0.002122235591301445,"345":-0.0010764982991615375,"346":-0.020435624817225294,"347":-0.002001043077306368,"348":0.0007181244011566142,"349":0.08911376914922389,"350":0.03630930121407903,"351":-0.0830715328220169,"352":0.04244577772406914,"353":-0.04017700203446788,"354":0.029137654153773913,"355":0.030747628140598466,"356":-0.04267773676241761,"357":-0.006428238988966138,"358":0.061876471191992584,"359":-0.016103942667249075,"360":0.020604706934741895,"361":-0.016242154791577014,"362":-0.0031735465353605746,"363":0.03472762673536722,"364":0.0023841910407905106,"365":-0.01804142337546201,"366":-0.05234833796690812,"367":-0.03722715721625536,"368":-0.06360272703266732,"369":0.06588138545715651,"370":-0.030151964071099924,"371":-0.02769414730715654,"372":-0.0003566223165013399,"373":-0.006132835851455358,"374":-0.09573236103847016,"375":-0.015938901233845636,"376":0.030057974931653873,"377":0.05251757004533401,"378":-0.019385708647664965,"379":0.03275146606683046,"380":-0.017994020165086905,"381":0.05653791524204474,"382":-0.06206685974532626,"383":-0.03110362240567148,"384":0.04159757716531361,"385":0.007734692705091124,"386":-0.019815383769269706,"387":0.025296436803764474,"388":0.07425005770231541,"389":0.026950367450184226,"390":0.04985192490458657,"391":-0.020078078034460305,"392":0.01494763689795255,"393":0.008574856130620596,"394":-0.003496451094177654,"395":0.04189865601709477,"396":-0.017942539768025758,"397":0.017371453329711257,"398":0.012179274124095684,"399":-0.06748943696507234,"400":-0.04595111327925614,"401":-0.009201795277742057,"402":-0.01121037481665492}},{"sx":1,"sy":1,"depth":403,"w":{"0":-0.016110785090042445,"1":-0.009992076293100257,"2":-0.06929103130421699,"3":-0.03215328024562436,"4":0.04680462051655015,"5":0.09045074029976216,"6":-0.03619869840947247,"7":-0.048028417606522295,"8":-0.03286450540044992,"9":-0.073893462628044,"10":-0.0215132885205605,"11":-0.02928959402477434,"12":-0.04787470855159625,"13":0.04170927677377183,"14":0.03526277626344021,"15":0.018494477330670448,"16":0.09171565419257427,"17":-0.0132521946964757,"18":-0.015212835846786244,"19":-0.09566269286189724,"20":-0.05967030972901386,"21":-0.01747042419908572,"22":0.04263849706345157,"23":0.015748920094127844,"24":-0.09195910953999088,"25":-0.05636175099877515,"26":-0.015458071922269986,"27":-0.016457590999759696,"28":0.006956598707126926,"29":-0.026126550895341133,"30":0.049009639499067656,"31":-0.045980391460092765,"32":0.012841708829939102,"33":-0.11178042108736304,"34":-0.01819245983517575,"35":0.04752655779261746,"36":0.008095966069800722,"37":-0.03339614134078483,"38":0.007877903389076608,"39":-0.015188192474173513,"40":-0.008635872079707585,"41":-0.06479394487849174,"42":-0.010401896852812642,"43":0.0615621689553742,"44":-0.05196356126449673,"45":0.025798923480576295,"46":-0.0051249503130907925,"47":0.04363134889844651,"48":0.019810712788176876,"49":-0.07130018108385885,"50":0.049190233742126034,"51":-0.10280980608344355,"52":-0.04320846310953573,"53":-0.05425231522047596,"54":-0.01890100996234999,"55":0.09022575539142344,"56":-0.07216599571414983,"57":0.07854699774429504,"58":-0.009453114952936938,"59":0.060292875146100385,"60":-0.04188046018710915,"61":0.004756951790902348,"62":-0.03167852279657947,"63":0.047330346398345824,"64":-0.0020389593683472363,"65":0.07250006847756912,"66":0.020436594974380943,"67":0.05916257970225773,"68":-0.093870612477288,"69":0.03235722006873193,"70":0.0012381375328871513,"71":0.017024409686457197,"72":0.014522634218433118,"73":-0.04663215750211905,"74":-0.0710497382776282,"75":0.04399173042040959,"76":0.06636659411831711,"77":0.028869240589000204,"78":-0.06070106730035227,"79":-0.011901408518871233,"80":-0.02169992956388203,"81":-0.039293103033393506,"82":-0.012428365220165313,"83":-0.005856579571312449,"84":0.06529966069551552,"85":-0.13007082859847455,"86":0.020969479801033895,"87":-0.06510269619402977,"88":0.0015354504700905967,"89":-0.108714479365737,"90":0.00009463319566590398,"91":0.007557322490143823,"92":0.030130107570411097,"93":0.018506608931561502,"94":0.003836359122071738,"95":0.01668394321767119,"96":-0.02296122356025914,"97":0.01575623117265133,"98":-0.05023931948902859,"99":0.09457434110605971,"100":0.10913563436586535,"101":0.018374296422033722,"102":-0.037967928066591466,"103":0.013500664510462872,"104":0.04167756573784349,"105":0.019944924098095642,"106":-0.08081710178460863,"107":0.040374775262958705,"108":0.0026792103986363306,"109":0.02612044575215195,"110":0.05128356173089804,"111":0.013226516673171781,"112":0.002199000562817543,"113":0.02482245475486207,"114":-0.07008619844435686,"115":0.031586565108421186,"116":0.019515409397057714,"117":0.002521063396882524,"118":-0.0271393284725589,"119":0.016372591132661242,"120":-0.0313513763295283,"121":-0.016752220802872503,"122":-0.05332049657046613,"123":0.08140388122764096,"124":-0.01162243967211971,"125":0.009467441151274148,"126":-0.03656654893901473,"127":0.019254323546757487,"128":-0.03571934480386222,"129":0.03507607460724674,"130":0.03944445598870169,"131":-0.0062131866178031184,"132":-0.08255979067946712,"133":0.0626053770058053,"134":-0.046118619637152254,"135":-0.06126392869814457,"136":0.06554409564750832,"137":-0.027794429150982358,"138":0.02101899584772244,"139":0.0035307176400461403,"140":-0.0633276021937489,"141":0.007155165790081675,"142":0.054412168868566556,"143":-0.00883522308884564,"144":-0.009363289264824649,"145":0.019208282091718272,"146":0.0763360710384414,"147":0.04430883812445663,"148":0.008905580507150235,"149":0.0827718879332249,"150":-0.02446989336908268,"151":-0.11326942276515352,"152":0.02032660985186444,"153":0.011079859913544685,"154":0.06343676076213757,"155":0.005158018318615113,"156":0.05330383460923536,"157":-0.07301070989510389,"158":-0.06005418166937887,"159":-0.043458301771722864,"160":0.05055598936697403,"161":-0.06700340583991973,"162":-0.016876790041921736,"163":0.006994424034690417,"164":0.03653193184052727,"165":0.032740293431467775,"166":0.0733407462366187,"167":0.01680673465529487,"168":0.023595463874744035,"169":0.020921689861377202,"170":-0.0018868000709233257,"171":0.07433253421014113,"172":-0.05673254825711334,"173":-0.04451995654368181,"174":0.0564432837773912,"175":-0.026646815586904064,"176":-0.030519840454423998,"177":-0.034883899888165586,"178":0.0848607197952879,"179":-0.07509824342055611,"180":-0.008924217741868837,"181":-0.02327955352403243,"182":-0.028188348437059984,"183":0.021305225896378534,"184":-0.07223333980156503,"185":0.02147964061830359,"186":0.036356453348729174,"187":-0.011836274233216901,"188":0.0512123157449358,"189":0.004907305864703582,"190":0.051215148228540903,"191":-0.02561036755015184,"192":-0.05827780674951266,"193":-0.043679375036941914,"194":0.017745234432501412,"195":0.007458537671164809,"196":0.07904097711193797,"197":-0.06111961241847446,"198":0.04199766244616868,"199":-0.016368626014313988,"200":0.05768147994332595,"201":0.043359952121145864,"202":-0.05204252259483567,"203":-0.03738388634836096,"204":-0.030852282117200258,"205":0.02572075681307222,"206":-0.010263257380524147,"207":0.043516240947728206,"208":-0.05872847533555431,"209":0.04103619932587715,"210":0.047845032703063964,"211":-0.04760697092758992,"212":-0.03565224170022006,"213":-0.031985944527318996,"214":0.05555455473281723,"215":-0.09284350405395549,"216":0.0802633414116098,"217":-0.06802503985162152,"218":0.008162521677167554,"219":-0.041487863967014656,"220":0.07869431972728941,"221":0.008083882081112274,"222":-0.005211885586744723,"223":0.013042666131375117,"224":0.0177921001235981,"225":0.04502679541289936,"226":0.024556924023796015,"227":0.02500087916144096,"228":0.04149916465144797,"229":-0.035851975675062986,"230":-0.011409460290405972,"231":-0.024827804500779992,"232":-0.09894114697284746,"233":0.04365652447263218,"234":0.116552501479241,"235":0.020079910384322715,"236":-0.006410996659079634,"237":0.00021494874384196254,"238":0.06811271364444507,"239":-0.02045366627829633,"240":0.028082000492595037,"241":-0.03818759972176709,"242":-0.022471765700338323,"243":0.05899518494242832,"244":0.041434026089522284,"245":0.0025680536028926783,"246":0.021264431699373282,"247":-0.03238107893814816,"248":0.04818323019390176,"249":0.0001978858566237228,"250":0.04138784325535919,"251":0.06704198919199884,"252":0.06158908943918952,"253":0.013973567379278646,"254":0.002103239327069489,"255":0.015798449670890648,"256":-0.03667871030493182,"257":-0.02058690759617348,"258":0.01069554108300953,"259":-0.12118521452259862,"260":0.005632892002396806,"261":0.01607733659129835,"262":0.04869766840123622,"263":0.03171878599948969,"264":-0.02559871329526781,"265":-0.012303383231212904,"266":0.0012348896735903342,"267":-0.005547891064216493,"268":0.07054005085937513,"269":-0.004892227604075466,"270":-0.08307445341202035,"271":0.050172960951709734,"272":-0.051665431566224246,"273":-0.07346823488317741,"274":-0.045852297968295534,"275":0.06121975575741561,"276":-0.036269687155006766,"277":0.040527901353102296,"278":-0.02785456187831339,"279":0.04246403696936264,"280":0.02239899594781161,"281":-0.03022268383956142,"282":-0.05034535628441456,"283":-0.030312606459576556,"284":0.019556532425720072,"285":0.018979270273500565,"286":0.0918182250132874,"287":0.025071850009569047,"288":0.02638101019494536,"289":0.024802693874975964,"290":0.044311155808233915,"291":-0.05342810712916193,"292":-0.014774081165311745,"293":0.004205464026565813,"294":-0.05397473417777785,"295":-0.06084714143159317,"296":-0.03633086300359087,"297":-0.0041731629066538226,"298":0.0015924889422727917,"299":-0.04088300658915284,"300":-0.020655879910255068,"301":0.10009820544100186,"302":0.01917163527491835,"303":0.06221169130667513,"304":-0.025397570125721882,"305":0.04297723895266978,"306":0.08891951433264089,"307":0.17134520055664842,"308":0.06413154480763711,"309":0.07936116071245097,"310":-0.048033864401686124,"311":0.01346890560045639,"312":-0.08950315986795679,"313":-0.07345060789480877,"314":0.05935497916437823,"315":-0.02464839745664427,"316":-0.013867935384296884,"317":-0.06197116984519254,"318":0.028794038688958395,"319":-0.019697669228419683,"320":-0.0009071708448393826,"321":-0.03736887766365581,"322":0.03231615410263476,"323":-0.014542528080636975,"324":-0.022915077134460827,"325":0.017168928558371627,"326":0.04605200776570469,"327":0.07536727118479301,"328":-0.053220313734015305,"329":-0.015200305102262437,"330":-0.031293164364974604,"331":0.09387106516652109,"332":0.03887171169256603,"333":0.012656728823607818,"334":-0.06720190598581051,"335":-0.07439057441879673,"336":-0.029413019299818297,"337":-0.0431732259024062,"338":0.024067726518006448,"339":-0.003771014106749917,"340":-0.025310101221364057,"341":-0.018969948569158613,"342":-0.012967371161726042,"343":0.009344112148549947,"344":0.05104807568829717,"345":-0.0048574951877280005,"346":0.04968466069262169,"347":-0.058196263664360724,"348":-0.009138607833064805,"349":-0.05410520419403055,"350":0.06771797748990553,"351":-0.0697017129935974,"352":-0.02525410169271637,"353":0.038937434001101986,"354":0.03751614982925128,"355":-0.02101020970377832,"356":-0.10195513808615173,"357":-0.0008436060767085754,"358":0.017925419571589225,"359":0.10354728956534756,"360":-0.02748249434006621,"361":-0.01499294095436977,"362":0.09026254443693023,"363":-0.026906407878719233,"364":-0.000046013503740918785,"365":-0.051392050589325104,"366":0.01040369087844942,"367":-0.04236424191408857,"368":0.06103536931718726,"369":0.09646626637195173,"370":0.05622719341494011,"371":-0.030651848376163606,"372":-0.0008548005735256633,"373":0.04356347683036321,"374":0.008012880453434696,"375":-0.002502171761899363,"376":-0.02659933156635331,"377":-0.048704631564562825,"378":0.031391220044601334,"379":0.014499168778803353,"380":-0.01310173058541472,"381":-0.016748876123865344,"382":0.0368000703155322,"383":-0.026719690698998506,"384":-0.012647494104828311,"385":0.008303961342125916,"386":0.0025126782885110987,"387":0.0030469244907302784,"388":-0.07517731274976157,"389":-0.027907499016730408,"390":-0.0475252387368178,"391":0.08785405662234821,"392":-0.05721349819287269,"393":-0.042663190729281986,"394":-0.012197906186817658,"395":0.04580460348756009,"396":-0.06779798918922206,"397":-0.03903296062252225,"398":0.03445594602344042,"399":0.10101658127038793,"400":-0.028118111437879026,"401":0.04655866698784868,"402":0.04570979026773926}},{"sx":1,"sy":1,"depth":403,"w":{"0":0.03267680607507861,"1":0.0051686264864299865,"2":0.05169571435788994,"3":-0.07271651147342487,"4":0.15508110995319577,"5":-0.0337783996264195,"6":0.05633199044485725,"7":0.02799221025281111,"8":-0.009228500544529497,"9":-0.0008839037162374853,"10":-0.057480692385181865,"11":0.0023757552057862537,"12":0.11974612706312893,"13":0.01575836102524509,"14":-0.00030516045588539276,"15":0.05340622515058254,"16":0.046708775819771835,"17":-0.024987603731981552,"18":0.04168952676922732,"19":0.043332868159706966,"20":-0.030262610981508335,"21":-0.08387921094008502,"22":0.004998049411252196,"23":0.07581714105994568,"24":0.049417591862532015,"25":-0.04516018829824037,"26":-0.004294517812708789,"27":0.096569296326649,"28":0.051483199931682946,"29":-0.015286175082064089,"30":0.01586157894232226,"31":0.016508554329421433,"32":-0.052260522665147,"33":-0.008543004924233709,"34":-0.0001766956111966514,"35":0.06600746270440146,"36":-0.0412699859203483,"37":-0.0044165288087390205,"38":0.028355407526983973,"39":0.021612605986894854,"40":0.08621340202252531,"41":0.0297087412394896,"42":-0.05465693131926349,"43":0.03350068625773839,"44":0.003931418444463241,"45":-0.012056208037404925,"46":-0.028746237109690598,"47":0.05487958022127487,"48":0.03480601510652983,"49":0.0029857884363690217,"50":0.007264988013608709,"51":0.06458276377955945,"52":-0.04355482938528705,"53":-0.0460861970386958,"54":0.0030199356919931994,"55":-0.059796184941871756,"56":0.09502182215983937,"57":0.07244667991306329,"58":0.06707944392350745,"59":0.011738407854923139,"60":0.03719458939729894,"61":0.057219112322994,"62":0.06277380498011446,"63":0.05508002322299937,"64":0.0224136197409584,"65":0.024573998157163185,"66":0.029985541458098633,"67":0.07538961264509268,"68":-0.02448878436146037,"69":-0.050624139995564865,"70":-0.052391325673026054,"71":0.057514478546936615,"72":-0.010801036825536141,"73":-0.02868911851018401,"74":0.038836661299730395,"75":0.05022795683779778,"76":0.012489361577648133,"77":0.03373391962325085,"78":0.00011664419211060375,"79":-0.06723586461021838,"80":0.04757638912532001,"81":-0.011813129503741655,"82":0.0006194335477528362,"83":0.008844654350322789,"84":-0.037611177000220736,"85":0.02332786618879503,"86":-0.006635942122820361,"87":0.061738456450911784,"88":0.06300763895812621,"89":-0.0056299265590086306,"90":0.05246954808267647,"91":0.05698766756165027,"92":0.0472004705354585,"93":-0.033419466717640324,"94":0.07338816950999653,"95":0.06243995132238607,"96":0.03187828775549506,"97":-0.05827163378954214,"98":-0.08291001989894944,"99":0.013525224236015779,"100":0.05481021918196538,"101":0.013916857664542816,"102":0.05790248103677556,"103":-0.057458045516671045,"104":0.03667983937627915,"105":-0.07671490215579607,"106":0.024140707012572385,"107":-0.07652850991527277,"108":0.06226354816061785,"109":-0.08282165437864486,"110":0.045864763157834686,"111":-0.025805699807096003,"112":0.08765715223568285,"113":0.049669744568812305,"114":0.07150470226990785,"115":0.0026789868230013094,"116":-0.01878578946076702,"117":-0.020176820638970548,"118":0.08037124209242455,"119":-0.022574954610337275,"120":-0.008697036201882167,"121":0.03319385513351342,"122":0.12973752886568832,"123":-0.025952784104959964,"124":0.029959355168259514,"125":-0.039162962305808305,"126":0.014742973892646224,"127":0.0388857918302209,"128":-0.09985700389740353,"129":-0.0026531674911815743,"130":0.005742620583188502,"131":-0.005825509950300297,"132":0.031356642417346245,"133":-0.05821109578332803,"134":0.03161883889353461,"135":-0.05959665175656083,"136":0.03661910142087871,"137":0.06592167282395113,"138":0.015115724577011217,"139":-0.09925050843679621,"140":-0.027428076463584986,"141":-0.008040259305500612,"142":0.05444197644653868,"143":0.04118209540753725,"144":0.010453319805694215,"145":0.0012242261512223945,"146":-0.0010527636603680076,"147":-0.06819333684902029,"148":-0.06089248222561235,"149":-0.002291882142823484,"150":-0.020528374928536756,"151":-0.01628129969767869,"152":-0.028459221978275457,"153":0.04594591346393199,"154":0.0379188739245362,"155":-0.01322668679754347,"156":-0.10230631666393451,"157":-0.13669997192116118,"158":-0.08755605065806707,"159":-0.00921769171985122,"160":0.06919446080179596,"161":-0.0176404153010325,"162":0.03566993429102202,"163":-0.014170580843341758,"164":-0.03371940759755491,"165":0.06465435776832085,"166":0.01530720858326799,"167":0.08703970423676625,"168":0.0012333998165348933,"169":0.13169481174838585,"170":-0.005240751625494668,"171":-0.05218671130289122,"172":-0.010696991334802888,"173":-0.02654267436758613,"174":-0.03921434613447684,"175":-0.0005106844328556348,"176":0.08962899380916055,"177":-0.030036224524568028,"178":-0.05987941700225872,"179":0.004507415578521213,"180":0.06963321939808481,"181":-0.013858103527769283,"182":-0.046699618528472576,"183":0.02684990729283773,"184":-0.05748795480833984,"185":-0.0026528493136083416,"186":0.10211263581712182,"187":0.09427772327263191,"188":-0.00589484390712499,"189":-0.004963106149865012,"190":-0.04437704619034135,"191":-0.022362546926655288,"192":-0.06821348291321355,"193":-0.030210958600087563,"194":-0.016964014586202628,"195":-0.07405854858725479,"196":-0.054443325355693725,"197":0.05142236637815928,"198":0.00936972349824203,"199":-0.05296818815727899,"200":0.060988562859090364,"201":0.0036365379007546866,"202":0.04227378703466453,"203":-0.048912835373605745,"204":0.06874536603416098,"205":-0.1242712050540612,"206":0.011042297700110115,"207":0.029393709952223054,"208":0.07520261504492126,"209":0.03505220552746666,"210":0.043063044961952526,"211":-0.015203059146734005,"212":-0.04970008244368113,"213":0.012699746939913267,"214":-0.05351430660277188,"215":0.0060587289535784725,"216":0.06230438799032563,"217":-0.07869606572694866,"218":0.02690544352272,"219":0.05575687748736384,"220":-0.07009773713194771,"221":0.09008335359037191,"222":-0.0375152469697194,"223":0.051473625692442355,"224":-0.008232208069608095,"225":-0.016147105711360243,"226":-0.04040350147314229,"227":-0.012805184794612956,"228":0.026814185813934393,"229":-0.00238192305030817,"230":0.08139597438267696,"231":0.05067208385995639,"232":-0.02622356426458668,"233":0.013541202114952307,"234":0.023459562281762977,"235":0.05890380683140767,"236":-0.0001367987355518947,"237":0.018666784285995816,"238":-0.04714790839840159,"239":-0.08411854147259296,"240":0.08682567895651269,"241":0.031237789009989806,"242":0.021659124560467213,"243":-0.04566298318369561,"244":-0.040745041028409576,"245":-0.046340247099839124,"246":0.0192239333854786,"247":0.07157415412580939,"248":-0.04501948200583435,"249":0.02242380320743179,"250":-0.005588057061388847,"251":0.018095992746481493,"252":-0.04823749605274143,"253":-0.010582417041698154,"254":0.06511797686673534,"255":0.026089809217413804,"256":-0.023424072797712848,"257":-0.03877345865362302,"258":0.05277587536328762,"259":0.030400678969915627,"260":0.06753910338208889,"261":0.08110249765745337,"262":0.026417688839282093,"263":0.005269022397490101,"264":-0.09628880348072308,"265":0.023660917638604274,"266":-0.014862399832561818,"267":-0.11211909255151781,"268":0.00026285911033583606,"269":0.06920656054804927,"270":0.04067049125973463,"271":-0.07879194315671322,"272":-0.023595856381029123,"273":-0.012324947059440832,"274":-0.033287548473130785,"275":-0.03936046081518242,"276":-0.03844402343443853,"277":0.10448164716329979,"278":0.002938406951432348,"279":-0.02409307730270702,"280":-0.06346696448504871,"281":0.03133445784829055,"282":0.04669344398574653,"283":-0.06952999163077564,"284":-0.022985342381571343,"285":0.035874300403959024,"286":0.06514358289208617,"287":-0.015535164782911311,"288":0.0004155773346064571,"289":0.001010441101960618,"290":-0.09730976657415094,"291":0.06788438670543795,"292":0.032894794514379,"293":0.057770434752963305,"294":0.05022877874175203,"295":-0.05597648127678886,"296":-0.0033813392761800525,"297":-0.029515110393116255,"298":-0.00026262461578549094,"299":0.03930808710275985,"300":-0.06692404398234765,"301":-0.024592180050955894,"302":0.014394913062957935,"303":0.07065448707985353,"304":-0.03813381961691741,"305":0.014331121545290782,"306":0.008974509007967832,"307":-0.025880528344155072,"308":-0.07428578427452812,"309":-0.026933590639853344,"310":-0.0808096445363112,"311":-0.048715532313661145,"312":0.054062189624260605,"313":-0.0382314069852765,"314":0.09887838405458559,"315":0.041183848220039086,"316":-0.05930386899272732,"317":0.05097984087725362,"318":0.04288137455384524,"319":-0.06385473743378127,"320":0.036535556480715395,"321":-0.013228694978054881,"322":0.01023343625188459,"323":-0.0702027690764615,"324":0.024680060001661414,"325":0.08720703655096637,"326":0.07452966364977716,"327":0.0501081819567256,"328":-0.015137021712307751,"329":-0.03886467998332851,"330":-0.07925618932357772,"331":0.10228992066711767,"332":-0.059289643579006186,"333":-0.00682879768312766,"334":-0.030476887277679214,"335":0.07269994026217938,"336":0.014810342258143188,"337":0.0011464575521763836,"338":-0.041880916043750153,"339":-0.08378638263854793,"340":0.05102676307183008,"341":0.043457882145203734,"342":-0.018415643186542496,"343":-0.010642600020610769,"344":0.022962509843922563,"345":0.0043613496037559285,"346":-0.11970305040484976,"347":-0.011539992794525259,"348":0.03263934029894425,"349":-0.019036180576522947,"350":0.07348120062134099,"351":0.019886095764054028,"352":-0.04504248026125074,"353":0.062021919979666634,"354":0.025425668973889495,"355":0.046303503259628176,"356":0.10610169686120659,"357":-0.07237393835239898,"358":0.08236683302123253,"359":0.04088031072816657,"360":-0.05454399667617141,"361":0.013062150991408734,"362":0.020826867572169398,"363":0.03206413091715848,"364":-0.042800213302345125,"365":0.13571753363305042,"366":0.05388464846737171,"367":-0.09033656252937515,"368":0.0023958091953944155,"369":-0.04980123614061701,"370":-0.0714053587274226,"371":-0.032849758328744316,"372":0.05793376315269246,"373":-0.014347372162219913,"374":-0.03333433808962214,"375":-0.009617395570097123,"376":0.08465148171784201,"377":0.016442889504714977,"378":0.018532280941851366,"379":0.12050562345106128,"380":-0.042634840205073646,"381":0.1404951790271422,"382":0.024596031863039457,"383":0.028638072531926375,"384":-0.0725520796719461,"385":-0.05318750557728658,"386":-0.027459021976460884,"387":-0.01358896201052041,"388":-0.0005741608440651283,"389":0.0068290867309247156,"390":-0.07494240285720309,"391":0.06722622692614152,"392":-0.03622778545033692,"393":-0.08220405454561927,"394":-0.014081351497672031,"395":-0.15192347869890616,"396":-0.012375065548573441,"397":-0.0003030668271804027,"398":0.0038936327393021245,"399":0.052446791934086856,"400":-0.0645332175518626,"401":0.0371030861260158,"402":-0.06843462144828837}},{"sx":1,"sy":1,"depth":403,"w":{"0":-0.09104919097435435,"1":-0.08074774063581601,"2":0.04915740022758331,"3":-0.02138280781341168,"4":-0.031485325240846164,"5":-0.08146960405947754,"6":-0.004446078753187895,"7":-0.026894161441492766,"8":-0.05461652442670672,"9":0.05895453313674513,"10":0.01018415434654703,"11":-0.14931825025933224,"12":0.06425861004117706,"13":0.001298302718112216,"14":-0.016708948399918426,"15":-0.014691871187777657,"16":-0.009988327175794695,"17":-0.04285856129960229,"18":0.04562229451835889,"19":0.006918644033611501,"20":0.03896891092627836,"21":-0.0353043652922554,"22":-0.03278555996216906,"23":0.07027428984451489,"24":-0.06456462853059491,"25":-0.024888559132746776,"26":-0.007368858116260119,"27":-0.12119127473464368,"28":-0.04841377474144857,"29":0.003846654858474832,"30":-0.009688858132741071,"31":0.024676219285570084,"32":-0.050520178835746624,"33":-0.0023636638945823954,"34":0.0134586676486854,"35":0.016993338765718773,"36":0.0636051855686732,"37":0.05735222494835473,"38":0.020204041063644967,"39":0.06138059774496757,"40":-0.010624676629145274,"41":-0.13381202627611344,"42":-0.00642032004316604,"43":-0.03705723853664559,"44":-0.023101944800097172,"45":0.06777198453398992,"46":-0.012166744771512382,"47":-0.005577074216116637,"48":-0.0018115306896394872,"49":0.035413661080691126,"50":0.019104991678534973,"51":-0.04479559620877844,"52":0.0044032417875008965,"53":-0.020672008381786528,"54":-0.046345248563102535,"55":0.0645999732210482,"56":-0.0473403690607361,"57":-0.04953543581667202,"58":-0.05976122952283413,"59":-0.03164260159050645,"60":-0.0370954256307019,"61":-0.08149163329431817,"62":-0.049539314100189843,"63":-0.014552445024211998,"64":-0.04536198532804064,"65":-0.029736004516218686,"66":0.058881003125712573,"67":-0.009509600521910076,"68":0.02671756836226653,"69":0.03399068936628987,"70":-0.04174367536595036,"71":0.008209384775150352,"72":0.05998901991111027,"73":0.017786302815278158,"74":0.05711828725838435,"75":-0.030352076599133856,"76":-0.08721486708019018,"77":-0.029859467618824347,"78":-0.005661477744817582,"79":-0.04848200506663992,"80":-0.019520807359052966,"81":-0.08197730385579491,"82":-0.014562803257852412,"83":-0.01177838426587176,"84":-0.10167382556615855,"85":0.026706372155568266,"86":0.05019030112345477,"87":0.094419558031626,"88":0.029788256033992218,"89":-0.008957986440749053,"90":-0.023836619472240018,"91":-0.06979762360371557,"92":-0.05569450687606865,"93":-0.03777847624251902,"94":0.09593930438843712,"95":0.05925017007779482,"96":0.04964751843030253,"97":-0.02414135796896969,"98":-0.02683839147465167,"99":-0.010984020375390927,"100":0.032725704157355096,"101":0.06645934521357223,"102":0.009086794472743142,"103":0.03609372203746557,"104":0.013101866109869532,"105":-0.023372652316456567,"106":-0.04677895630306154,"107":0.06867104348355961,"108":0.0030504102852971734,"109":-0.024382137007410612,"110":0.04935023533452413,"111":-0.054714579995233964,"112":0.05323753380249945,"113":-0.08177183622239824,"114":-0.037398578727132405,"115":0.0382671476722164,"116":-0.01649499002203297,"117":-0.01585964735261965,"118":0.014080335964270042,"119":0.018002635835470498,"120":-0.06948324221970692,"121":0.04299335604306869,"122":-0.022092608731251073,"123":-0.015334911798147709,"124":-0.034491226186397585,"125":-0.02460302079922499,"126":-0.038108671006681305,"127":-0.027769642195829992,"128":0.06286819091770127,"129":0.08422815435115653,"130":-0.02433560958119883,"131":-0.04475392512405754,"132":0.13502456779405123,"133":0.06129876554149297,"134":0.06130620406040115,"135":0.010173966891706396,"136":-0.019966730342367924,"137":0.0013290400851642987,"138":-0.006175306589390902,"139":0.0040526234996407845,"140":-0.03821445101529676,"141":-0.08137642632407184,"142":-0.004826654814468519,"143":-0.023568168100090558,"144":0.010733401567310091,"145":-0.015589625879170508,"146":-0.02988674415618069,"147":0.055293670933384824,"148":-0.04924851598028707,"149":0.05925830471889603,"150":-0.013835511870587508,"151":-0.094422891040215,"152":-0.0697088442268321,"153":0.033641283276277724,"154":0.009611681890645691,"155":-0.01537249962480517,"156":-0.05089036290153061,"157":0.05525986521765936,"158":0.0003966732374332902,"159":-0.07713920379969846,"160":0.01852895688380723,"161":-0.06617150493903365,"162":0.070411082898723,"163":-0.013749541356133693,"164":0.02789572537346151,"165":0.004884476662604286,"166":0.007540746035627141,"167":0.016667344837555026,"168":-0.08019023984752142,"169":0.01595468488049114,"170":0.013205869710618162,"171":-0.005813404179261184,"172":0.02486659935151286,"173":-0.01880383721510749,"174":-0.06655624927648238,"175":-0.019876909927087072,"176":-0.04051186131624207,"177":-0.020700721029379837,"178":0.006315308092652495,"179":0.07172812485422984,"180":-0.019777983158482282,"181":-0.027414765958027224,"182":0.013736969781678621,"183":0.054455046721838825,"184":0.09806182703230547,"185":0.01544748985555285,"186":-0.039621712211845614,"187":0.0623167050783404,"188":0.10666639139334792,"189":0.02313787267589303,"190":0.006156382014940459,"191":0.023954546066900517,"192":-0.05531887852788407,"193":0.024409387257340855,"194":0.047185742719091726,"195":0.1330157348994048,"196":-0.017592835431724567,"197":0.05530659216099135,"198":0.028604018169911285,"199":-0.02762655283665887,"200":-0.17426673633117043,"201":-0.07012306412321774,"202":0.05694481520869598,"203":0.0796704405725705,"204":0.017067533006030484,"205":0.10354790052218103,"206":0.04541338189150353,"207":0.01478113260049204,"208":0.003361368380142341,"209":-0.07117568334652932,"210":-0.0010414454640087195,"211":0.0664525843007895,"212":0.006879068674874362,"213":-0.05403726102820483,"214":0.010620004953357144,"215":-0.0033652286828909517,"216":-0.0038282678262035797,"217":0.037304815763253105,"218":0.013682951695827714,"219":-0.0563346834498031,"220":0.030414090476858457,"221":0.022594092573560057,"222":0.0489307571909488,"223":-0.026438775482994996,"224":-0.023591324771561863,"225":0.0284633811952175,"226":-0.016365163003663457,"227":0.06941408239903862,"228":0.025338975024678204,"229":-0.08321331446171173,"230":0.05491390977717902,"231":0.023745982305526606,"232":0.0019088009450610904,"233":0.0287908602244615,"234":-0.023874742819967227,"235":-0.06027384363383927,"236":0.03059442337556576,"237":0.04328830101507921,"238":0.05858890800157645,"239":0.011722719653192762,"240":0.01354471125001801,"241":-0.05010885101673073,"242":-0.0584877820806538,"243":0.026348382400462438,"244":-0.05326284125285696,"245":0.10469163255359243,"246":-0.03061737518024589,"247":0.004104894134739056,"248":0.0742567627650707,"249":-0.07360936827929265,"250":-0.07175076658585995,"251":0.10583708139403543,"252":-0.008463385521757,"253":0.12175614977696092,"254":-0.06515647849752117,"255":-0.0022905448498825457,"256":0.10154210750806825,"257":-0.054120129756899026,"258":0.051320187045123214,"259":-0.042455037352187794,"260":0.043738615832888766,"261":0.034357004425661905,"262":-0.03719235566136223,"263":0.013591340061681024,"264":0.011467404915979817,"265":0.05972932477154132,"266":0.004963825122659588,"267":0.04748685183096619,"268":-0.06444445711708204,"269":0.013541785414022425,"270":-0.04247865530086689,"271":-0.035904165139778975,"272":-0.012123579900079983,"273":0.04832837049719472,"274":-0.04120745843623819,"275":-0.009167191760301783,"276":-0.1056561588412382,"277":0.0590992589275701,"278":0.008485621457291696,"279":-0.03854798465156465,"280":-0.10044362989175726,"281":-0.003877889816350831,"282":-0.021153122242288856,"283":-0.012129733484358102,"284":-0.0046970037468152,"285":-0.010125074293737569,"286":0.12508805094064873,"287":-0.10812091042219393,"288":-0.013921246480801308,"289":0.061990536559654606,"290":-0.0007569074512495615,"291":0.05910896801571597,"292":0.08723232461285595,"293":0.018560313985143132,"294":-0.005236326082405448,"295":-0.08187226110453853,"296":0.012436041295932813,"297":-0.019967064616325133,"298":0.034455985521903675,"299":-0.012463965524732267,"300":0.15820248679406237,"301":0.06804780946518853,"302":0.051446476733144814,"303":-0.031089223872750104,"304":0.0014108264043115005,"305":-0.025897628940847666,"306":-0.04097019648681572,"307":0.02534053851978735,"308":0.05847181874878783,"309":-0.017681792967548637,"310":-0.01572736188545622,"311":0.002893824231364611,"312":0.026049146424070194,"313":-0.04978647716815606,"314":0.036570382085425394,"315":0.05222105470260443,"316":-0.0341010921259638,"317":-0.02357429624250819,"318":-0.013832266318609211,"319":0.07439788100260859,"320":-0.12041367124956101,"321":0.03974050787580989,"322":-0.07104472075060322,"323":0.0397652751285459,"324":-0.0048008127225089795,"325":-0.018192306115829754,"326":-0.018798065778203525,"327":-0.032248955979145254,"328":-0.05017261144249117,"329":-0.05690942290053259,"330":0.01835144754357896,"331":0.033010703553683705,"332":0.011076020832530493,"333":-0.003182907271067005,"334":0.10491928388461078,"335":-0.09265624583038294,"336":-0.03044672633524074,"337":0.020071071891104176,"338":-0.05201163975694655,"339":-0.08499638744313591,"340":0.042857969946364316,"341":0.05300586150631475,"342":-0.08770132514475718,"343":-0.0017451513558466095,"344":0.018246436244773564,"345":0.0057007752641642295,"346":0.05808623304632437,"347":-0.012322163023735387,"348":-0.004191735695802464,"349":-0.06481828652550643,"350":0.006106750049561128,"351":-0.05545895109361352,"352":0.05635696716615213,"353":0.04727651190862769,"354":0.009205122077965054,"355":0.06405121250856673,"356":-0.027186380355361636,"357":0.03797303060291285,"358":-0.0047243201149685405,"359":-0.012718723623364367,"360":0.017163095304698166,"361":-0.011095714266015074,"362":0.0088790900308263,"363":0.021796317434102888,"364":0.06883095999328408,"365":-0.005514204611165432,"366":0.04798285796119763,"367":0.028667752598384676,"368":-0.06601080352341242,"369":-0.021030120429048085,"370":0.0654332833934075,"371":-0.03300462083587847,"372":-0.08797824361994497,"373":0.049170150377751666,"374":-0.018930057287396614,"375":0.018022441115672715,"376":0.11671882924949918,"377":-0.003956899577097017,"378":-0.006979355537245801,"379":-0.10184508000597829,"380":0.046850977214968344,"381":0.02038171190886835,"382":-0.007480589426892025,"383":0.07738920868445787,"384":-0.06308166049058805,"385":-0.008819476607212901,"386":0.015229631251151864,"387":-0.04098425578139668,"388":0.0803195595861425,"389":-0.009473150720968415,"390":-0.07069033397632175,"391":0.05637502772744918,"392":-0.01515892813035781,"393":-0.056956563537673796,"394":0.018182706117775286,"395":-0.013196681237007088,"396":0.0747777268662381,"397":-0.011207146152378637,"398":-0.07353265904375651,"399":-0.04680206966731668,"400":0.03885083233957927,"401":0.04017827332008188,"402":0.08609906605416633}},{"sx":1,"sy":1,"depth":403,"w":{"0":-0.014982184310797413,"1":-0.007680591417317673,"2":-0.030041039624637157,"3":-0.017017641446633088,"4":0.06149325425367362,"5":-0.031823036631544906,"6":0.06686108324315132,"7":0.028377046215794764,"8":0.052399255793335375,"9":0.015067427255846073,"10":0.05699409375931608,"11":-0.06633659418591492,"12":0.05586943806311927,"13":-0.02662817518486183,"14":0.00411795370970988,"15":0.02554198822799658,"16":0.017776450861851333,"17":0.01865704506166145,"18":-0.012837647957376531,"19":0.024210852176234105,"20":-0.06618154543623074,"21":-0.016140998144279224,"22":0.04049708727544749,"23":0.08068322922077384,"24":-0.015718704315649458,"25":-0.05977502126178785,"26":-0.018943319047397534,"27":-0.049580377968028666,"28":-0.01205997169677891,"29":0.003604849756486049,"30":-0.0679743971934333,"31":-0.045411190680567,"32":-0.0120206430179188,"33":0.005186266042724725,"34":-0.014133070855083231,"35":-0.035001651134418124,"36":-0.05910948416391581,"37":0.10506556090290704,"38":-0.023406868439558623,"39":0.010688386676226269,"40":-0.05658971930300147,"41":-0.008388860430477941,"42":0.043474693643032324,"43":-0.037161968247016015,"44":0.08944329956536062,"45":0.08274495529109,"46":-0.04312816759252921,"47":-0.03172433997576713,"48":0.033254382841477366,"49":0.06651787130498858,"50":0.007461771233669024,"51":0.046840673352413896,"52":0.06324284306409353,"53":0.028543824225462505,"54":0.03233991768070492,"55":-0.07261452512869881,"56":0.06584391697107272,"57":-0.032853671290990843,"58":0.029719342595445508,"59":0.04970220320021823,"60":0.016878842648091582,"61":-0.004741347825629749,"62":-0.017109204681586086,"63":-0.1217362562751039,"64":-0.021368129277499974,"65":0.007952725573133137,"66":-0.0705045793959799,"67":0.0036362599573288292,"68":-0.06768586980176844,"69":-0.07302622831899379,"70":-0.0008129979670802148,"71":0.0063824718061979745,"72":-0.007798069487929083,"73":0.00009062618120504749,"74":-0.06327059427018768,"75":-0.009580242444844615,"76":-0.013325951512482974,"77":-0.08813325519927798,"78":0.036973331043894525,"79":0.026586276012875415,"80":0.004210180392672048,"81":0.010677245928017694,"82":-0.06051695685746754,"83":-0.01412506402524283,"84":-0.09136923798067546,"85":0.012390966350997604,"86":-0.03332477676781843,"87":-0.07861895826439785,"88":0.14782943150201844,"89":-0.010880303633778355,"90":-0.024870951815909804,"91":-0.0705062479998346,"92":0.0067289494675375865,"93":0.07055526325373677,"94":-0.039830096569486745,"95":-0.03660540769394014,"96":0.07688905629034871,"97":0.09814682108429898,"98":-0.05865629267769359,"99":-0.007308090032347481,"100":-0.01834207735452064,"101":0.05016085335722924,"102":-0.04630961552052184,"103":-0.0920238817479145,"104":0.015158821481685465,"105":0.037841787098784656,"106":0.03638594445580224,"107":0.019518892783160487,"108":-0.09246603560463305,"109":0.05311389866635001,"110":-0.056160007672536004,"111":0.003596216850118367,"112":-0.061291980650882254,"113":0.026387171390791657,"114":-0.05697565356761737,"115":0.01651872380484292,"116":-0.04092839981087999,"117":0.009665728736989081,"118":-0.01231101493851783,"119":-0.0154070494158118,"120":-0.009831118162674256,"121":-0.05836434781446405,"122":0.07547825149170179,"123":0.11877041636723701,"124":-0.11534661899778093,"125":0.045403779962875424,"126":-0.017660467461887343,"127":0.07218975668050408,"128":-0.06323187085869619,"129":-0.03359568030677961,"130":-0.01896844818316462,"131":-0.06966985743884906,"132":-0.029057710236805836,"133":0.03631263145782006,"134":-0.014160372973710658,"135":-0.034707305243228494,"136":-0.011512612923044905,"137":-0.023981401171653847,"138":-0.012645062379192197,"139":-0.04101961715689468,"140":0.04130916948336836,"141":-0.022870396605413904,"142":-0.12261640342953706,"143":0.0174029883952023,"144":-0.07617807566939098,"145":0.03170572661124228,"146":-0.035034127743806605,"147":0.10784585681022733,"148":-0.015050669819374226,"149":-0.0006020238022176129,"150":0.03392794562938651,"151":0.055928171782244754,"152":0.04733151547495968,"153":0.05589194249715349,"154":-0.04162524804018189,"155":0.05125498226121112,"156":-0.020022232419808012,"157":-0.0038975545273120136,"158":-0.079544427110406,"159":-0.01756024622208056,"160":0.02773695258248539,"161":-0.026726788981516637,"162":0.027412212752859086,"163":0.035538595140050595,"164":-0.07293796063778701,"165":0.007691304271038352,"166":-0.021213213350163695,"167":-0.05650894825478047,"168":-0.07569791278473782,"169":-0.008390711080772302,"170":0.08618246658988009,"171":0.009314144283314112,"172":0.04749302638762866,"173":0.01651794455979504,"174":0.019079245964557737,"175":0.019333202918955954,"176":0.0018942207324275477,"177":0.023442551445763224,"178":-0.05216687338900849,"179":0.02326814947683763,"180":-0.046840060124235416,"181":-0.04954145900525903,"182":-0.036342777904046185,"183":0.04634274924617633,"184":0.006208370191787593,"185":-0.00856006924171065,"186":0.03441709553117573,"187":-0.025287800318031885,"188":0.04594337153728007,"189":-0.003021946670824847,"190":-0.1608179629828474,"191":0.061362230168111806,"192":0.03265634219694363,"193":-0.028570276815182438,"194":-0.011670026542372444,"195":-0.02320505943678989,"196":-0.0032379637807520107,"197":-0.02543531385203929,"198":0.021383058019409682,"199":0.06590801952782577,"200":0.058116989350662056,"201":0.036038448034997506,"202":0.04861060378181449,"203":-0.005297651266640704,"204":-0.02298837942679061,"205":0.04392245431989614,"206":0.06928060261865089,"207":0.02079804766034402,"208":-0.03572462605363243,"209":-0.012162333753857684,"210":0.03638163873270197,"211":-0.008731028423225642,"212":-0.024197106509800788,"213":-0.027307683125534363,"214":-0.013877569369349028,"215":-0.03701541446928904,"216":0.03735642446947584,"217":-0.02099859887952021,"218":-0.03456722851013885,"219":0.022225575474508753,"220":0.027888571964211427,"221":0.03324510600489939,"222":0.0016033065629074905,"223":-0.05188068211676926,"224":0.08096518401466193,"225":0.13153018488378626,"226":0.008004917258024517,"227":0.038749745512847475,"228":0.03267125679810514,"229":0.004308906996510552,"230":-0.045683497358036236,"231":-0.036169428716368926,"232":-0.075984540701189,"233":0.029591082377192855,"234":0.002477428707350757,"235":0.009110760764866131,"236":-0.02816012490829989,"237":0.07477029943790905,"238":0.02330647398564936,"239":-0.004315645106918559,"240":0.020854130130627997,"241":0.05936321973839957,"242":0.0746337885578496,"243":0.04235255762893609,"244":0.007675748824848784,"245":0.09152849366615803,"246":-0.11959508819152294,"247":0.0344372483629035,"248":-0.03466631921212908,"249":0.04959351682450643,"250":0.04364149634089634,"251":-0.030192795803679697,"252":-0.03617346220687567,"253":0.06653984879062992,"254":0.01637979274867805,"255":0.0036783385942213945,"256":0.02893740745413204,"257":-0.055160302935711385,"258":-0.021519226407618483,"259":0.03658288944274912,"260":0.012869305657366157,"261":0.007545947479635339,"262":0.07987231869103542,"263":-0.0502698798993723,"264":0.02015026319973827,"265":-0.14719006728111061,"266":0.00901521496980281,"267":0.025793001190734254,"268":0.008287685266227411,"269":0.049078228696322675,"270":0.021737988013423172,"271":-0.071188728770059,"272":-0.046089376548197766,"273":-0.0506471611441236,"274":0.027460329446025295,"275":-0.0132058568971675,"276":-0.11876346700167406,"277":0.02780111963063284,"278":-0.05298591454550364,"279":-0.007993498491666464,"280":-0.0055943921888066085,"281":0.01422317386064557,"282":0.010482298470643529,"283":0.06787378800747608,"284":-0.07139308736567479,"285":0.0062504105904629325,"286":-0.025572850634329767,"287":0.00524875710919449,"288":-0.019924343290630687,"289":-0.042660502236265885,"290":-0.086290200877399,"291":-0.042358848703955565,"292":0.1043329097962774,"293":-0.06168615009100934,"294":0.008934415812998694,"295":0.010380443237563182,"296":-0.07584118347345807,"297":-0.03874553055980297,"298":0.04887826426813391,"299":0.04673198607535062,"300":-0.041062937326815714,"301":-0.029678090711869616,"302":-0.14742341128087935,"303":-0.02746241445309279,"304":0.06196743715356024,"305":0.06362669288353986,"306":-0.021087204754629427,"307":-0.008077112439891627,"308":0.014652366424235046,"309":-0.0678773673523916,"310":0.07585509958569032,"311":0.007022623546994898,"312":0.04685298205538624,"313":0.05338185924198936,"314":0.0422934956132225,"315":-0.019317765000787912,"316":-0.004309764469014064,"317":0.015230454649641232,"318":0.01257207265694039,"319":-0.046242276345130874,"320":0.05791018673848916,"321":-0.03036827472270034,"322":-0.03274306442510566,"323":0.02701182186357851,"324":-0.12958502244488768,"325":0.0005734179059369691,"326":-0.04029436932462976,"327":-0.004576401683202357,"328":0.012659439978555717,"329":-0.035416181074988624,"330":0.04155248911856221,"331":-0.03414765196169173,"332":0.05532001438765418,"333":0.072233530373999,"334":-0.04633496791573088,"335":0.11392281013549103,"336":0.06042064505981568,"337":-0.06052882171195512,"338":-0.03206151193057075,"339":-0.01702274314047678,"340":-0.04460842733335513,"341":0.030307740554460304,"342":0.042205351404454874,"343":0.07240571166985998,"344":-0.008632269345173464,"345":0.006927763429232586,"346":-0.005696629887214809,"347":0.0044441022568336664,"348":-0.010033685207965916,"349":0.029912196013383383,"350":0.02227493002452864,"351":0.06713537922808929,"352":-0.021159981755000657,"353":-0.0003427515158777163,"354":-0.018315921243030917,"355":0.002211702149575042,"356":0.06430940584245864,"357":-0.0805909578197661,"358":0.06004949968286252,"359":-0.00031446095664534716,"360":0.06286084363823369,"361":-0.005467591070952037,"362":-0.00883711922782733,"363":0.017514751578696156,"364":0.0015389775822101472,"365":0.02023425688170457,"366":0.0069192272372691505,"367":0.0010726899423082069,"368":-0.03840207693272575,"369":0.06098774001828703,"370":0.058522555102328774,"371":0.016096993195631692,"372":0.07026498350299752,"373":-0.029189752453361157,"374":0.05496774758250283,"375":0.04829613948784025,"376":-0.03544768426388919,"377":0.013378875506044023,"378":-0.00574448215367552,"379":0.01748228570307019,"380":0.037433710986862025,"381":-0.024665784170065187,"382":0.0019452840143586384,"383":0.08321242633497242,"384":0.050725776463216646,"385":-0.04578234193174363,"386":0.0034683857188993533,"387":-0.009299634190468666,"388":-0.003545155466675261,"389":-0.03048978036335054,"390":-0.01372166336306261,"391":0.041835802827137544,"392":-0.005590706580457674,"393":-0.020007979751174482,"394":-0.05760909242189165,"395":-0.05933430427015482,"396":0.03463891392453744,"397":0.012304603756627569,"398":-0.08121452779593799,"399":0.016969459700029648,"400":0.08878681793226799,"401":-0.013731226997379333,"402":-0.026579363552598878}},{"sx":1,"sy":1,"depth":403,"w":{"0":0.05693720758367888,"1":0.0008937699828151593,"2":-0.053959352315044284,"3":0.017713570699834997,"4":0.02399844661350607,"5":0.04444576062525198,"6":0.026155846191106318,"7":0.01162287387306412,"8":-0.07345865692950915,"9":0.00697104644456725,"10":-0.11348442637937577,"11":-0.05211826422115304,"12":0.04975977893473505,"13":-0.061186221345512055,"14":0.008797702862728097,"15":0.03862341278635847,"16":0.04346343645708906,"17":-0.0033928230063557177,"18":0.02338909227962244,"19":-0.11402130871657273,"20":-0.030943306789771887,"21":-0.04807620555520389,"22":0.026874274427361858,"23":0.02630742152439782,"24":0.05150256903422888,"25":-0.060478241099368994,"26":0.05295501521515877,"27":-0.07192634630564637,"28":-0.006867486336183879,"29":-0.031070114325900466,"30":0.027846725930619824,"31":-0.006470160189532759,"32":0.02902609473668667,"33":-0.01788856693655532,"34":-0.07779710281049258,"35":-0.07521843160913053,"36":-0.034878963505663725,"37":0.024038143171281123,"38":-0.038348061843050264,"39":0.04700755135578648,"40":0.00966282750801796,"41":0.023542202737873726,"42":-0.07179771397223773,"43":-0.0889479230329712,"44":-0.05103266869419781,"45":-0.04345543521762616,"46":0.0030356519524748116,"47":0.07665722628610562,"48":-0.11165180412922358,"49":0.003677528123543376,"50":-0.010181216058347719,"51":-0.023902861014864926,"52":-0.032188551642861885,"53":-0.11240497751345536,"54":0.0006079749323328038,"55":0.04029112423663199,"56":0.09142066035493117,"57":0.039089385991426445,"58":0.12850757555237505,"59":-0.02832687105252805,"60":0.018530207723627505,"61":0.03971989416830817,"62":0.030396509974493585,"63":0.02234325806291716,"64":-0.043236661621738746,"65":-0.05927685974051328,"66":0.06764348781584277,"67":-0.06930162436668232,"68":0.05549174900234201,"69":0.06079801879342892,"70":0.00039858373964570996,"71":-0.12492299689691079,"72":-0.017666967441395707,"73":0.010442894568780763,"74":-0.0693467058494641,"75":0.016662884624678832,"76":-0.06295367223024535,"77":-0.004972880130769876,"78":0.03273677170288694,"79":0.03765180560422241,"80":-0.07699713295375492,"81":-0.0038500417992406305,"82":-0.07904378554999211,"83":-0.11159112476555781,"84":0.04674407115647189,"85":0.03770663607018709,"86":0.00413724052003773,"87":-0.017591197645896846,"88":-0.05018371466597192,"89":0.0027592156598561972,"90":0.04478876964325128,"91":0.0029091620162606325,"92":0.058281135691530934,"93":0.017012308322171727,"94":0.08991610852958068,"95":0.03626961649935778,"96":0.04559559951990111,"97":0.006009619291657866,"98":-0.01931015218976981,"99":0.04029602590539825,"100":-0.044112809821756846,"101":0.030630556810688873,"102":0.04963951357726046,"103":0.0018109727388850745,"104":0.0030321228843231984,"105":0.09570282224106934,"106":-0.06919377242215272,"107":0.055375206956484374,"108":-0.00424844201689943,"109":0.020257324211752987,"110":0.021597832909484152,"111":0.10004821279910042,"112":-0.0033033021574144,"113":-0.01627996929493188,"114":-0.01817636411130816,"115":-0.053285886978556955,"116":0.06906015181888366,"117":0.005756588527824124,"118":-0.12353650056470696,"119":-0.06380187085442829,"120":0.000854351517441852,"121":-0.05737889218624415,"122":-0.06759118039720848,"123":-0.06066747548463958,"124":-0.017406414887927022,"125":0.03360836680299923,"126":-0.08389760637173016,"127":-0.09055605123272724,"128":-0.01044118755596629,"129":0.01196570160627195,"130":0.052126609125007814,"131":0.08964918148393733,"132":0.02073701096746699,"133":-0.10959593604412445,"134":-0.13036343147411827,"135":-0.048355279393257386,"136":-0.012285360874413837,"137":-0.030126176734410044,"138":0.032303598612677675,"139":0.02743596505883184,"140":-0.023125820564173807,"141":0.0312792928208753,"142":-0.053427958096786,"143":-0.019710288573550065,"144":-0.027291710167192198,"145":0.1003305018700768,"146":0.03509132860999015,"147":0.09348134429829633,"148":0.050716589714199276,"149":0.039716270835682264,"150":-0.02718190787572186,"151":-0.00774661255442033,"152":0.05798358941853502,"153":0.04230121491078146,"154":-0.024102387711058024,"155":-0.05819859434417294,"156":0.06413489401693977,"157":-0.043073325965374346,"158":0.025758234088909066,"159":-0.025454754665035516,"160":-0.00504939380471498,"161":-0.05172779627286353,"162":-0.010995684134997163,"163":0.015684622350931002,"164":0.10820999496479902,"165":-0.024572723547316096,"166":0.0374737358265812,"167":0.07374380055677066,"168":-0.04371080072882929,"169":-0.008062070914583027,"170":0.02798692407805399,"171":-0.11012182981618618,"172":0.08168557262544367,"173":-0.05093750611357387,"174":-0.02840108157013728,"175":-0.062447382695703796,"176":-0.0548993475327968,"177":0.049395444492943315,"178":-0.00990722218763162,"179":-0.08238982403521233,"180":-0.043856903484827084,"181":0.06984003515996012,"182":0.03410225270963177,"183":0.029959255984198782,"184":-0.0006454278099307438,"185":-0.001682635566270239,"186":0.05658248981612382,"187":-0.022336854452329535,"188":-0.02338940679990992,"189":-0.006642337050670653,"190":0.00805515875458861,"191":0.04780448415544456,"192":-0.04981959083621206,"193":-0.016950854695687814,"194":0.034123609086877324,"195":0.048122595357700894,"196":-0.010228282859665058,"197":-0.06984706363346273,"198":0.06414283073989271,"199":-0.03204647154729391,"200":0.03754314608207205,"201":-0.06303688262058174,"202":0.1473650306187505,"203":0.03563055034786843,"204":-0.006005129427579916,"205":0.02575395541750165,"206":0.08430101431361646,"207":-0.0054584657201739665,"208":0.05697119455903508,"209":-0.03784778642905165,"210":0.04857900825790153,"211":0.032242094089738514,"212":-0.027205646172578788,"213":-0.0459256039981829,"214":-0.11144577094761667,"215":-0.027006655293390053,"216":0.0025807724364667866,"217":0.02744446798810162,"218":-0.013078917524897267,"219":0.016815263561543586,"220":0.028019482740897148,"221":-0.007945015961890619,"222":0.012643658006715037,"223":-0.038572484398115066,"224":-0.09007500431892596,"225":-0.027266261010018118,"226":0.0704982681724136,"227":0.013169466101927745,"228":0.0006510000115852039,"229":0.02645881551449679,"230":0.06112189845884383,"231":0.026472329914323092,"232":0.028902914666113635,"233":0.0031205524569155466,"234":-0.029091852196512814,"235":0.05523021276076136,"236":0.015962612868521017,"237":-0.050589307311404826,"238":0.06095396297089006,"239":0.046127719643232784,"240":-0.06215746087858164,"241":0.07621971574562893,"242":0.12747392785533693,"243":0.08589705498836293,"244":0.04806093247245248,"245":0.10555490370540906,"246":0.002332076745663064,"247":0.012013480487338045,"248":-0.045673880393910536,"249":-0.02704839897409689,"250":-0.04141062463622494,"251":0.008074971591769023,"252":0.08739528132623145,"253":-0.013498863698459094,"254":0.12717490341563656,"255":-0.0900791414769848,"256":0.061843458889712516,"257":-0.12275541452937407,"258":0.06620353872360096,"259":-0.013548451003748288,"260":-0.0948974969562589,"261":-0.07489442888062697,"262":-0.10502347821643031,"263":0.03996501484278831,"264":-0.055994939144462165,"265":-0.05002008866805417,"266":0.06883100080864424,"267":-0.042534209327179336,"268":-0.0011773848035139325,"269":-0.10167455385384923,"270":0.003987109813798704,"271":-0.020522765581643773,"272":0.059024913025533116,"273":0.050874250374681684,"274":0.02857307222560951,"275":0.0842284709831564,"276":-0.07990265601309712,"277":0.04971418176088782,"278":-0.07856063153611878,"279":-0.006231607485050031,"280":0.056974711396075454,"281":0.06666298699351499,"282":0.037030726715036856,"283":0.05704694252331509,"284":-0.04205288618981962,"285":0.08171651559652689,"286":0.03539232615609467,"287":-0.04142182101386997,"288":-0.022523859895175632,"289":-0.04847217059981904,"290":0.07092691205387706,"291":0.003653690637876947,"292":0.002168321122955041,"293":-0.014349815016592516,"294":-0.006561464368709596,"295":0.06306607114793052,"296":0.004072025349856914,"297":0.12062513538047215,"298":0.019374413686199656,"299":0.034208777209955424,"300":-0.012492232535605,"301":-0.049756410533718654,"302":0.046560010125386186,"303":-0.023321295640226832,"304":0.0033762226548003007,"305":0.028866449592133,"306":-0.024357087619412243,"307":-0.03397223587753271,"308":0.05085443544419177,"309":0.047518289011476506,"310":-0.03990457595431587,"311":-0.013116433598374016,"312":-0.0025431414861350485,"313":-0.009639924181170777,"314":-0.007176866112787654,"315":0.02933560076041389,"316":-0.002201523099602473,"317":0.005343921055635884,"318":0.010218264897144875,"319":-0.021170393352384055,"320":-0.020132582484314432,"321":-0.060130990213659176,"322":0.06483187171976794,"323":-0.07634156208773246,"324":-0.011116772402552506,"325":0.002591662437688146,"326":-0.03693922620105842,"327":0.09973572999687506,"328":0.0691456401412452,"329":0.08345591681496042,"330":-0.014756852745136053,"331":-0.08443738055576969,"332":-0.02142346375999656,"333":-0.028254774160907825,"334":-0.049606484601754375,"335":-0.09766299678599721,"336":0.03317748969891149,"337":-0.017470416214866506,"338":0.1290141481633864,"339":0.010180728550702348,"340":-0.0012190028276380066,"341":0.0009024016351256729,"342":-0.02430796796022174,"343":-0.12204219064472877,"344":0.01343419710799592,"345":-0.016339022928462642,"346":-0.015190753959561449,"347":-0.07323944791010668,"348":-0.08836199206913638,"349":-0.053782115910971616,"350":-0.023867428710628465,"351":-0.025184976972133833,"352":0.061167092779664964,"353":-0.05380672965741331,"354":0.11203728983048951,"355":0.008805428780307245,"356":-0.030075931443912973,"357":0.02204908266291039,"358":0.17767446632331943,"359":0.022162627758450102,"360":-0.018022427047342908,"361":-0.012094019490274917,"362":-0.017077188361029873,"363":-0.03781442138862838,"364":0.0656558844197878,"365":-0.06750215042396729,"366":0.05592819268711457,"367":0.06679300180260876,"368":0.12791541353704106,"369":-0.012676994199316423,"370":-0.0430418168773668,"371":0.12645123472526912,"372":-0.13271675350377146,"373":0.009342874787351484,"374":-0.02650025255306299,"375":0.0020446898592902784,"376":-0.08806393574211706,"377":0.0009380632889936503,"378":0.01060225014859231,"379":-0.018529008038986987,"380":-0.002285104701666951,"381":-0.024607965141094052,"382":-0.08294338253037827,"383":0.11305255674613525,"384":-0.05387100875738656,"385":-0.006328041746597895,"386":0.011021875450335726,"387":0.03676577638250505,"388":0.03358922514224466,"389":-0.00293895633692645,"390":-0.02278683402616751,"391":-0.018958117487656037,"392":0.05839071907853782,"393":0.01576299934718365,"394":-0.02354743807164288,"395":-0.04883589430985302,"396":-0.03507229505798225,"397":-0.004485719458187264,"398":-0.01793512936147611,"399":-0.03764960840213128,"400":0.02494683688890895,"401":-0.02673866576729435,"402":0.04075518395167866}},{"sx":1,"sy":1,"depth":403,"w":{"0":-0.020963198792758785,"1":0.01835484031858032,"2":0.005506288379628869,"3":-0.01655609932538222,"4":0.05031640103988221,"5":-0.02971011338039329,"6":0.021883996945687358,"7":-0.04228574107956367,"8":0.06559885651582067,"9":-0.04815227672275467,"10":-0.07109094360214369,"11":0.06713808870006308,"12":0.043020160646390485,"13":-0.03780160159393086,"14":-0.0086949811548252,"15":-0.008808918551440191,"16":0.04959974839727097,"17":0.00876132357284043,"18":0.08558627316567118,"19":-0.0022294835960774777,"20":0.05991990421343543,"21":-0.012696423705114571,"22":-0.027883011839879897,"23":0.07686909062234501,"24":0.017042056500432237,"25":0.005827255432960789,"26":0.05254401494122282,"27":-0.00929604068679545,"28":0.043225960381445036,"29":-0.015622313223661064,"30":0.02274981334037168,"31":-0.024322857620086683,"32":-0.10113448418588285,"33":-0.032279454003401306,"34":0.03571325926670223,"35":0.07617721664389243,"36":-0.0001087354134726047,"37":0.06425310786014014,"38":0.014547077400218556,"39":-0.018419316066016,"40":-0.08012759049334668,"41":0.04577047949503834,"42":-0.005809232006919238,"43":-0.08050725675817078,"44":0.030931338552469427,"45":-0.13094815863680428,"46":0.08468928430925277,"47":0.036962215382083226,"48":0.05731080312974652,"49":0.018982758236176858,"50":-0.01277228323782181,"51":-0.04566273610018145,"52":0.04134830207819867,"53":-0.06794361095343265,"54":-0.04792370037066484,"55":-0.0872122140331241,"56":0.08761456131731907,"57":0.00016251161356813023,"58":0.018877390218370812,"59":-0.06850763811407565,"60":0.0006359592226291721,"61":0.011791091946440355,"62":0.03601578164378854,"63":-0.015293106039942654,"64":0.0347793896378916,"65":-0.07842485733973234,"66":-0.13607753120927563,"67":-0.016544043203385785,"68":-0.005763490605863671,"69":0.02693785902981753,"70":-0.015130994517230776,"71":-0.05608832602264916,"72":0.05542796635227325,"73":0.01687329478098807,"74":-0.031818629687908946,"75":0.02081739818954989,"76":-0.07671412928022511,"77":-0.0023075054788046353,"78":0.019252787746322303,"79":-0.0007164438396050848,"80":0.0033077450706928096,"81":0.05335883008427812,"82":0.08747669511209819,"83":0.0053627853799701536,"84":0.00019304773821155144,"85":0.031673639258787065,"86":-0.006202648431823999,"87":0.05628725929495261,"88":-0.013942622158071958,"89":0.004816768903945714,"90":-0.024282999105899674,"91":-0.049102782923071644,"92":0.09593940859007914,"93":-0.004789277768190016,"94":0.005242933030781954,"95":-0.05136256325456949,"96":-0.0180921534541216,"97":-0.03306128422603155,"98":0.06100292135533556,"99":0.11147986765153702,"100":0.0482177959857633,"101":-0.06787198918641743,"102":0.04935849729089555,"103":-0.04885048936954698,"104":0.05170911260986823,"105":-0.06493682875096853,"106":0.0006392811958429185,"107":0.040211963277558826,"108":0.04064666809094726,"109":0.029148989748488594,"110":0.0019493494755918525,"111":-0.025508576577094065,"112":0.0412679514973828,"113":0.01364595847457144,"114":-0.05499315344478758,"115":-0.050167618488011614,"116":0.012797851522314312,"117":0.0188219098075125,"118":0.034996218571851215,"119":0.019146295605300265,"120":0.010594965133419124,"121":-0.0034026925715529743,"122":-0.043996166138652,"123":0.02791031113296851,"124":-0.01785029825166522,"125":0.006856694361231646,"126":0.0034359022646044436,"127":0.045222033294895526,"128":-0.08637403349074882,"129":0.08493960619488666,"130":-0.01163480919841619,"131":-0.08610459521806202,"132":0.03719753801192076,"133":0.07792587398603054,"134":0.03706703121977901,"135":0.0681425461596558,"136":0.035752827415081505,"137":0.016013754364185548,"138":-0.11975218311634557,"139":-0.007917339999642796,"140":-0.02546394787173725,"141":0.028538424048851065,"142":-0.04362958044792597,"143":0.005627638948466012,"144":-0.04760685363349116,"145":0.057315531456545464,"146":-0.007433170163150911,"147":-0.030148193825733312,"148":-0.03817303653904608,"149":0.003399642121179409,"150":-0.0010202907252093237,"151":0.01142955383002215,"152":-0.04158279363187655,"153":0.06416331294848929,"154":0.05761406248116942,"155":0.03307475178557634,"156":0.09109889349960353,"157":0.014508782225136003,"158":0.04572033749256956,"159":0.010957996345123623,"160":0.05604578002821054,"161":-0.04942850490904506,"162":0.03160515145982709,"163":0.011448490537420678,"164":-0.089391858986763,"165":-0.04364641923612891,"166":0.018307102986576403,"167":-0.026105030706517405,"168":0.08927262230206229,"169":0.00339155562691913,"170":0.1209999791890163,"171":-0.034758059764245515,"172":0.008173309046213731,"173":-0.005110600044624129,"174":0.035481813259801674,"175":-0.08667426191389944,"176":-0.026652548627732944,"177":-0.001547001184489587,"178":0.06360894349026054,"179":0.01830218888301912,"180":0.09006041949533897,"181":0.0516857137966539,"182":-0.0023426011345173167,"183":-0.002170971943427771,"184":0.046863810235473015,"185":0.06411206580755698,"186":-0.030049336420456554,"187":-0.07996782871549125,"188":0.005906542218264957,"189":0.05793624022728382,"190":-0.0440661781387004,"191":0.02139575427079735,"192":0.03063982776325285,"193":-0.041955257912662414,"194":-0.01948134085361407,"195":0.038659442913183066,"196":-0.03232570400133023,"197":-0.02821667819492815,"198":-0.014007062653075057,"199":0.09473921348733495,"200":-0.04368096483885617,"201":-0.03015457826628705,"202":0.006478876288645843,"203":0.00005172125087084195,"204":0.09353464509885678,"205":-0.04168420667543824,"206":0.0510817934632848,"207":0.01984921051738551,"208":0.035295200909480184,"209":-0.047417444791747525,"210":-0.06790574526383468,"211":-0.03153897614227529,"212":-0.03418702366449255,"213":0.050436164895753546,"214":0.004841388392081928,"215":0.05340643692963033,"216":0.10939137937824109,"217":-0.011907993424830903,"218":-0.09511913581116634,"219":0.06449383881494648,"220":-0.0018471538865639544,"221":0.03130735567193232,"222":-0.04058861980073267,"223":0.058476491163182834,"224":0.021491096275811312,"225":0.006896760911253576,"226":0.028109891642699777,"227":0.004057431078034924,"228":0.028065710909883083,"229":-0.011565631217431985,"230":-0.0730680435118754,"231":-0.024987924997857777,"232":-0.04988334072457642,"233":0.052488877933794906,"234":0.028291142773694752,"235":0.02380396781328805,"236":-0.08663925325713698,"237":-0.008444900968027535,"238":0.007288226023751092,"239":0.032037685266336165,"240":-0.006471998143483652,"241":0.006597954744608527,"242":-0.018804578959424993,"243":0.021774496095498412,"244":-0.09101641280330428,"245":0.010617781035619169,"246":-0.02609485986004047,"247":0.10167682555099855,"248":-0.022039475191201564,"249":0.11311598219796373,"250":-0.06028447196538318,"251":-0.08010066210125169,"252":0.009371935795871327,"253":-0.030264089293351823,"254":-0.01558285768490493,"255":-0.061445990878554235,"256":0.018332779757849596,"257":-0.05787818440607225,"258":0.00015223973173898102,"259":-0.016898258316239714,"260":0.028714104513424644,"261":0.06320521328828128,"262":-0.02361212086366992,"263":0.09260546100166904,"264":-0.020640960874851122,"265":-0.014000270659873837,"266":0.036940662010187746,"267":-0.061786967823595614,"268":0.0313104718587862,"269":-0.005786767793335182,"270":-0.08170109535514439,"271":0.00240179431563028,"272":0.00546623682882226,"273":0.010909270932741329,"274":0.012428320889839157,"275":0.11298712792696672,"276":0.101564032284947,"277":-0.10601432537638145,"278":-0.04107873139700262,"279":0.0013018349378255743,"280":0.00534292823932868,"281":0.03858300853238494,"282":0.007264800329852468,"283":0.03199055214069855,"284":-0.09704458674655596,"285":-0.0003088369505973912,"286":-0.08832028173217757,"287":0.045596320601139925,"288":0.046270564673387145,"289":-0.01587303229561488,"290":0.13873218091670653,"291":0.02366924142309662,"292":-0.016505703983552042,"293":-0.07078748128859634,"294":0.03341877716603887,"295":0.030683086681912608,"296":0.0320384610625878,"297":-0.041347840586968956,"298":-0.035422121803652076,"299":-0.004885275822031895,"300":0.05777697783733949,"301":-0.04826631516757945,"302":0.00426138992874864,"303":-0.05982458420916598,"304":-0.0339945082924137,"305":0.06429362669610299,"306":0.06390417266568794,"307":-0.09961897778516277,"308":0.009348906538631433,"309":-0.0696456838888278,"310":0.011183642564497717,"311":0.002641574307629182,"312":0.06441236331958894,"313":0.00370791759425799,"314":0.018431014400897786,"315":0.03119167281918387,"316":0.06159483367663553,"317":-0.07288474526033688,"318":0.0037795846583001708,"319":-0.029628295229690797,"320":-0.00882310000106789,"321":0.059882906449721884,"322":0.0022499566885244523,"323":-0.00730689086177436,"324":0.05766915121036957,"325":-0.045050838929208095,"326":-0.06189435453171467,"327":0.010063027702309706,"328":0.042999824011633846,"329":-0.04704117745643382,"330":0.015118103970496415,"331":-0.005328800717168439,"332":-0.025635894505348585,"333":0.0019690613084770484,"334":0.010011508166429697,"335":0.05870882011523705,"336":-0.012887880998834525,"337":-0.03589430201542024,"338":-0.030240760651804366,"339":-0.09639225048957417,"340":-0.039992550644923575,"341":-0.07493300315028435,"342":0.10448659249627978,"343":0.0231831543889786,"344":0.044923789387535225,"345":-0.003992955506939033,"346":-0.021671178897450558,"347":0.030682612013787823,"348":-0.02651781390679647,"349":-0.047778413805101554,"350":0.07063843962910601,"351":-0.0115365303634359,"352":-0.007421598815972649,"353":0.011253423300674246,"354":0.0375198586095334,"355":0.04863655114578467,"356":0.06790052286685216,"357":-0.042106918369555886,"358":0.05969037943156977,"359":-0.08730368885683819,"360":0.015858142583518583,"361":0.012544373509671273,"362":-0.011454855362483161,"363":-0.03759848330428117,"364":0.00465974694269743,"365":-0.07575830853778945,"366":0.008049451649142194,"367":-0.05847703242059549,"368":0.03838088264145412,"369":0.07183586675170267,"370":0.006437500253323612,"371":0.04257427819816961,"372":-0.014589098518436087,"373":-0.07255880256047109,"374":0.00462843933716395,"375":-0.05967756851208619,"376":0.01751399355507726,"377":-0.009950807491548535,"378":0.0942061246527785,"379":0.07136264509366388,"380":0.04190273368226787,"381":-0.06345704438365982,"382":0.008321647154232318,"383":0.01278172761030064,"384":-0.03482765759703509,"385":0.06960803398091198,"386":-0.06684263019026158,"387":0.0024811953106112007,"388":-0.03098591290618756,"389":0.03055471602731743,"390":0.02466302323656353,"391":-0.06419843858804174,"392":-0.010307304182838442,"393":0.04903683264239689,"394":-0.09208463294006068,"395":-0.07436285116693708,"396":0.021073758205054,"397":0.004261507949243324,"398":0.024228397326332127,"399":-0.015123389185843786,"400":-0.014729925869887006,"401":-0.052221684400658205,"402":0.05211390511995205}},{"sx":1,"sy":1,"depth":403,"w":{"0":-0.04287634782560957,"1":-0.00031401728027967765,"2":0.014651129236385512,"3":0.022215582509428837,"4":-0.08325800729827763,"5":0.03817942591613759,"6":0.0021856478588113295,"7":-0.04959929819540853,"8":-0.03185278589652452,"9":-0.041898107282380054,"10":-0.020739987533509006,"11":-0.027452652460007047,"12":-0.03698842787315479,"13":-0.03235729017101517,"14":-0.02662888401758475,"15":0.12213159112928401,"16":-0.07570542906000345,"17":-0.015424568531025409,"18":0.027567828732144285,"19":0.05431272108252913,"20":-0.013791929882231869,"21":0.035531075674979457,"22":0.0175042121436073,"23":0.08805798676730041,"24":-0.03698258479854152,"25":0.07083591940198908,"26":0.0008562039606426931,"27":0.03169705856666614,"28":-0.025542938136159384,"29":0.0629032609944005,"30":-0.015470093164287735,"31":0.05043329165991096,"32":-0.011649838638702703,"33":0.009284401802270931,"34":0.0874391686521152,"35":0.045328741453401225,"36":-0.009161882800447831,"37":-0.021094263556574056,"38":0.06790716754504754,"39":-0.017370613256475827,"40":0.06017114427586882,"41":0.001506987068276956,"42":0.057277418971618,"43":0.051367946065048894,"44":0.009362319044648428,"45":-0.09557837598167856,"46":0.07474680824290023,"47":-0.013876276033593656,"48":-0.1175063579734671,"49":-0.03886279375299378,"50":-0.09436200858826585,"51":-0.019550439880011053,"52":-0.03771646084185879,"53":0.04130729305548132,"54":0.10303599986772899,"55":-0.16859020703405925,"56":0.06337802381759298,"57":0.043604608334007505,"58":-0.08046985721005022,"59":0.05713005864794405,"60":0.048200796013094384,"61":0.01716326448712114,"62":-0.051157783587872874,"63":-0.004403117967340006,"64":0.07837064690245324,"65":-0.02131710802564816,"66":0.026512633034598814,"67":0.009532696494302039,"68":0.048428509350727,"69":0.01671372101671277,"70":-0.05044059110080917,"71":-0.0018720391039009623,"72":-0.00552973146791736,"73":-0.0038302481213538927,"74":0.06305701838609758,"75":-0.039788339138911825,"76":0.013517260300897158,"77":-0.10770889622715266,"78":-0.08019078076455928,"79":-0.08143666497469251,"80":-0.059607846356057564,"81":-0.04168898667095274,"82":-0.030747521441861637,"83":-0.07415241146106209,"84":-0.021796797702043173,"85":0.05175879215567337,"86":-0.010656026202740209,"87":0.07294711564392108,"88":0.0030471366687064285,"89":-0.0009257357863592488,"90":0.07778718581152001,"91":0.10631984429714929,"92":0.017047164293924683,"93":0.01579442124459125,"94":0.02143232193517418,"95":-0.0001815436657174178,"96":0.007068666853368852,"97":-0.03316512090935573,"98":0.037980749600158396,"99":-0.05659461772805495,"100":-0.08220705188767786,"101":-0.0011010137527525526,"102":0.011034623254134325,