{"layers":[{"out_depth":403,"out_sx":1,"out_sy":1,"layer_type":"input"},{"out_depth":50,"out_sx":1,"out_sy":1,"layer_type":"fc","num_inputs":403,"l1_decay_mul":0,"l2_decay_mul":1,"filters":[{"sx":1,"sy":1,"depth":403,"w":{"0":-0.004353597340854194,"1":0.11908554559096854,"2":-0.09758561239742226,"3":0.0435011741767347,"4":0.0331131719675607,"5":0.02188216217251872,"6":0.043649262220170404,"7":-0.08749762597327622,"8":0.03005422329032953,"9":0.03474456160926849,"10":0.020904257088524114,"11":0.04859573537769409,"12":-0.07547919845720368,"13":-0.0013832257010963022,"14":-0.07856361202224725,"15":0.021986276286101145,"16":0.004536237976321204,"17":-0.0138114461488549,"18":0.044424722409124505,"19":-0.0533660100761755,"20":-0.012220271593925336,"21":0.01051874059862512,"22":0.003447052197998217,"23":-0.026944714646711127,"24":-0.0245558417234094,"25":0.007681822221192844,"26":0.04041433855382517,"27":-0.03210241615890723,"28":0.025256335443931386,"29":0.001345163884490776,"30":-0.03799825625405705,"31":0.03816104837418682,"32":0.061861684701946154,"33":-0.05580186550923666,"34":-0.051141288025226175,"35":0.0017447740038384315,"36":-0.12363137979045073,"37":-0.0005926295249766499,"38":-0.026883570798306906,"39":0.01675215883509488,"40":-0.048320495569261074,"41":0.029772840025844502,"42":-0.004393402221097502,"43":-0.03625916893482502,"44":0.029295312674773595,"45":-0.02588427082231722,"46":-0.007267346861662656,"47":-0.05010602525088524,"48":0.03556016433968506,"49":-0.039836876373685486,"50":0.04647570240676282,"51":0.03665029710311099,"52":0.022593248717589064,"53":0.018232974503941412,"54":0.008651899309680945,"55":-0.014105508886270516,"56":-0.00452902547980782,"57":-0.04941529766200785,"58":-0.025368154451100848,"59":0.007912527398923631,"60":0.019171757513976276,"61":-0.02224188947921407,"62":-0.023213798184946365,"63":0.010332717873526052,"64":0.08165298147498863,"65":0.014091256772467265,"66":-0.016988769132295228,"67":0.02813525194827319,"68":-0.06520250716277297,"69":-0.0009449009502648479,"70":-0.0051140209530786355,"71":0.03700915070095231,"72":-0.02988257790469366,"73":0.01992998776500271,"74":-0.019013047189620956,"75":-0.05873102146205868,"76":-0.026220797791325745,"77":0.01372042757442676,"78":0.007056836836962149,"79":-0.022785059829899285,"80":-0.0328285678688585,"81":-0.06935726916864929,"82":-0.05108388533444957,"83":-0.00583444089151147,"84":0.027984748503947634,"85":-0.0004794777664184895,"86":0.009745159386150216,"87":-0.003135794504434208,"88":0.0749145533187889,"89":-0.05656532086603259,"90":-0.02619846601004007,"91":-0.005547243734986224,"92":0.029105656029498866,"93":0.017604272848455782,"94":-0.006141048904101003,"95":0.0087285599978667,"96":0.080115888954872,"97":0.02089724203067367,"98":-0.09589194664918263,"99":-0.013761132996470067,"100":-0.020617789501550837,"101":0.0030348122029895223,"102":0.031131508309974572,"103":0.0017195092609090111,"104":0.06149636977411989,"105":0.008417057775598867,"106":-0.009211558332282783,"107":0.007692288281294915,"108":-0.044875204875956545,"109":0.03181735678056441,"110":-0.0217301950582954,"111":0.025396676214232278,"112":0.0017623234690221723,"113":-0.09392223754485614,"114":-0.04393991343836836,"115":-0.016488106977388506,"116":0.009159329554132872,"117":-0.049611443101745284,"118":-0.03000356647054044,"119":0.0009280511835462997,"120":-0.0744290238862474,"121":-0.04560959672509682,"122":0.034011912590385864,"123":-0.04998282517721195,"124":-0.06450993919325276,"125":-0.011492177408653942,"126":-0.02778056738045617,"127":0.02274819172314903,"128":0.027863613646259968,"129":0.04151177394018278,"130":0.013571822154450248,"131":-0.008999297298715972,"132":-0.05204300056805559,"133":-0.030490979038880643,"134":-0.007561744810990297,"135":0.031207520471536722,"136":0.05014599939843286,"137":-0.05429133930545923,"138":-0.02429475848234335,"139":-0.03969333425303545,"140":-0.007683812123206914,"141":0.00922171376019922,"142":-0.04377975956092706,"143":-0.03314373094313833,"144":-0.07401194166443392,"145":0.03733025539290063,"146":-0.08088217983558123,"147":0.05250923275843613,"148":-0.05027780517503926,"149":0.0800500611059695,"150":0.04717539968097826,"151":-0.019372387377699467,"152":-0.046680067610795135,"153":0.009432503253399685,"154":-0.020890525804452127,"155":0.0701994676542924,"156":0.021193415819525576,"157":-0.02986964869381538,"158":0.02469185538335045,"159":-0.005534928431468935,"160":-0.03653889818739071,"161":-0.07971575485583866,"162":-0.0016956423760316182,"163":-0.056755432666981166,"164":0.060571485827882236,"165":0.0550438837158869,"166":0.09857696308833984,"167":-0.014853171549080033,"168":-0.022439748349382962,"169":-0.027891838436244685,"170":0.023941666219867937,"171":0.015913131018697416,"172":0.05672275726300277,"173":-0.03592208363909781,"174":-0.02070247375732936,"175":-0.06502808858576697,"176":0.056536912179837015,"177":0.03226582072622401,"178":-0.023899019173261406,"179":0.007464756347752902,"180":-0.06978121856835337,"181":-0.009390352463641278,"182":-0.13843344062855423,"183":0.05316358688260813,"184":-0.05717092217842466,"185":0.035413317611427304,"186":-0.04229326346873343,"187":-0.08055214050299829,"188":0.004860737606264259,"189":0.0713658169993641,"190":0.009380657239497504,"191":-0.03984514123622883,"192":-0.030186786625819282,"193":0.026633729323239843,"194":-0.01731278609078776,"195":-0.05021947881876589,"196":0.014452546623875935,"197":0.10353625494408836,"198":-0.016022424740254684,"199":0.041919240099319716,"200":0.00739212165500654,"201":-0.08533134385001752,"202":-0.007125213882789771,"203":-0.011804120331865498,"204":-0.06796919851218815,"205":-0.04095209419566605,"206":-0.02418575598532422,"207":-0.0057397967794753976,"208":-0.022812132114511514,"209":-0.07305313678182059,"210":-0.001987178939499573,"211":-0.03625021874445503,"212":0.007017372314062944,"213":0.033628024855004365,"214":-0.029486060091288808,"215":0.07293825134756785,"216":-0.01334513077649919,"217":0.011881933028001569,"218":0.04022365051374084,"219":0.04464393840811982,"220":-0.01772726243029866,"221":-0.036749641018463855,"222":-0.012224571914319887,"223":0.030772258014392033,"224":0.0825749133772262,"225":-0.03885801297416607,"226":-0.04931537712213113,"227":-0.0656026094528493,"228":-0.03297984284184698,"229":0.03589639791770895,"230":0.03654294782087825,"231":0.03911737793334631,"232":0.09984645943380267,"233":0.0060794840249650236,"234":-0.06842694463788306,"235":-0.04729375528682909,"236":0.06374600504005942,"237":0.10714409672023703,"238":0.030644049594467804,"239":0.017929357149184325,"240":-0.06910961172178871,"241":0.051936889150619614,"242":-0.01744092506301264,"243":0.02107698612304915,"244":-0.016282032227619432,"245":0.012208481671607287,"246":0.035602655575548564,"247":-0.06290206875044922,"248":0.007605816165456927,"249":-0.028100403404825218,"250":-0.03687840685077859,"251":0.02262111797210403,"252":0.03780438550320547,"253":0.05575310474555544,"254":-0.04139110652731103,"255":0.04590226884901359,"256":-0.024468132748726293,"257":-0.013032028310736122,"258":-0.010317676006382134,"259":0.02046758554734427,"260":-0.03539074096572955,"261":-0.028082102053607078,"262":0.0018416610882466256,"263":-0.05130966244998808,"264":-0.07981904757948419,"265":0.030161234891368346,"266":0.017683613379049886,"267":-0.05048204904286696,"268":-0.04676856102434611,"269":0.0018896272616689288,"270":0.0033160617362993122,"271":0.04245345620816725,"272":-0.038927729337400976,"273":0.07411021684194627,"274":0.06252569284451623,"275":0.13256778349215864,"276":-0.003024760788470117,"277":-0.010715669003411941,"278":0.004374407860102399,"279":-0.03739204123271166,"280":0.008260265154028472,"281":-0.0377106767439658,"282":0.048889519637557895,"283":0.12168659756416406,"284":0.006706230291157758,"285":0.0030542304758594922,"286":0.08488574628332934,"287":-0.010895782030812365,"288":0.0037387144054698207,"289":0.07102337642538295,"290":-0.004812818356433254,"291":0.006544275565447856,"292":-0.0583229164732028,"293":0.038356900235585745,"294":-0.037078899537449576,"295":0.04221274617533605,"296":0.023987194811549657,"297":0.0007288193893274761,"298":-0.015228650424833708,"299":-0.03096580469491946,"300":-0.01405592996121935,"301":0.01398234825231821,"302":-0.04646386802545243,"303":-0.027432356354643993,"304":0.027224686853221335,"305":-0.03863090373004958,"306":-0.007707312585298489,"307":0.03005919202630036,"308":-0.04438475147400284,"309":-0.015623538351177729,"310":-0.02822226517004266,"311":-0.14583900949199952,"312":0.022321868601377283,"313":0.0493628668208291,"314":-0.02256120427376527,"315":0.027690170587963445,"316":0.012822676005950148,"317":0.09865356583539196,"318":0.010843694415210065,"319":-0.05689008864766117,"320":0.01540067453882512,"321":0.01150696465178065,"322":0.09051126390556276,"323":0.027503740982561205,"324":0.060352773911412846,"325":0.0324511571788212,"326":0.006559247353982171,"327":0.05949322912010051,"328":-0.044653001251458234,"329":-0.06575035553515751,"330":0.05488882499114669,"331":0.02821683449339915,"332":0.0123419043911638,"333":-0.01340234833933255,"334":0.06751454207447107,"335":0.027991762725369913,"336":0.0025003250533037814,"337":-0.01998871508137792,"338":0.11097012094394443,"339":-0.09243999402647615,"340":-0.06269834041967502,"341":-0.05375926842498785,"342":-0.022967512093807152,"343":-0.025394115006158072,"344":-0.0146214697357991,"345":-0.013389655793642888,"346":-0.00912975457134119,"347":0.06218931762245054,"348":0.05594162015287761,"349":0.057248393262214016,"350":0.020551775132287398,"351":0.01262964928110723,"352":0.03554525097063429,"353":-0.011502606544797046,"354":0.042656414557855835,"355":-0.030866598041958127,"356":-0.07053598917462689,"357":0.07867052509392382,"358":-0.1331081436473939,"359":-0.05785762065726112,"360":-0.020459101889413515,"361":-0.057619331019144626,"362":0.029490892823787203,"363":0.030939438819748463,"364":0.08054886035438467,"365":-0.017223872225876836,"366":-0.010939929705350387,"367":-0.045401494491589735,"368":0.019140386418504223,"369":0.04588815636097074,"370":0.01627902528028678,"371":-0.058437861438170584,"372":-0.02097340432124158,"373":0.04925015231998386,"374":-0.06573167822298379,"375":-0.04181250925018545,"376":-0.016903182089420495,"377":0.07390416408932775,"378":0.008097118288754148,"379":-0.004361443595501591,"380":-0.08137220604548008,"381":-0.01877519063968193,"382":-0.0080229198248841,"383":-0.02880099110892152,"384":-0.051711996344737235,"385":-0.09875952649104662,"386":0.013015972591679591,"387":-0.06941279606444546,"388":-0.01425079102861774,"389":0.0023685173955336055,"390":-0.005693450755299616,"391":-0.06141534569848934,"392":0.05038431323248178,"393":0.022188915437412454,"394":0.014640116691181485,"395":0.034086560013669116,"396":0.03487425440939439,"397":0.020826486667234252,"398":-0.040090679608091234,"399":-0.020168243677185192,"400":-0.0742752909680915,"401":0.006205235429051696,"402":-0.019923259900935002}},{"sx":1,"sy":1,"depth":403,"w":{"0":0.0406581322291968,"1":-0.0660346737726489,"2":-0.08790104002627426,"3":0.01879866750137634,"4":-0.019869445569960127,"5":0.024427167203784867,"6":0.045598893095970594,"7":-0.018786487501977655,"8":-0.03177001305772058,"9":0.013541589270529689,"10":0.0069006415672108155,"11":0.005419034019682998,"12":-0.07302034342909296,"13":0.059359489627422574,"14":-0.09763283413429628,"15":0.040974429134904226,"16":0.017134381974945156,"17":0.0071540887035275525,"18":0.020143642398334636,"19":0.024316104362955046,"20":0.02877258679432659,"21":-0.06031989212429536,"22":-0.04915757520111309,"23":0.013534055654350488,"24":-0.06224616359567789,"25":-0.12572111830841212,"26":0.04987013900073949,"27":-0.014906594341717132,"28":0.005256002811195613,"29":-0.030019211544212675,"30":0.019169615777692384,"31":0.02476389498125318,"32":0.014299310488165672,"33":0.0607847600401324,"34":-0.032080514358690145,"35":-0.032926030953480144,"36":0.03383229373761674,"37":0.002247935716636209,"38":0.08710950847435567,"39":-0.015294027397797538,"40":0.060491567699529084,"41":0.04915562479398219,"42":0.02815948357874207,"43":-0.04669111063997984,"44":-0.0840834828060069,"45":-0.027465185356425902,"46":-0.02915805222770629,"47":0.026120247870608723,"48":0.044323914960469724,"49":0.015243340636160197,"50":-0.0006443642180603498,"51":0.00982347327292184,"52":0.019400332927249273,"53":0.07010837878685287,"54":0.06016231420515488,"55":0.026009180181495336,"56":0.027423336464154867,"57":0.0498876884084587,"58":-0.007339128517530978,"59":-0.018279753969483312,"60":0.04717771031388572,"61":-0.00594363621793459,"62":0.047672998118877076,"63":0.01604646537705662,"64":-0.03349049666654432,"65":0.030846856880253168,"66":0.00033496952386168825,"67":0.013058261022841269,"68":0.10202150424478831,"69":0.03553627474038116,"70":-0.06949853811199144,"71":-0.03601227400384955,"72":0.01593198401744905,"73":0.06118269743805516,"74":-0.026543665824078688,"75":0.09899268140300457,"76":0.007037486485869475,"77":-0.014419966963522853,"78":-0.0206365288364965,"79":0.01030788282611332,"80":-0.053478682923168576,"81":0.05909954124137932,"82":-0.04099057493675153,"83":0.04694749809364566,"84":-0.007024384510116322,"85":-0.007333481906617284,"86":-0.0018069666051687041,"87":-0.0935008113106594,"88":-0.003765328001671925,"89":0.03670392777043276,"90":0.039885454068707735,"91":0.02078881684201202,"92":0.031053934538670166,"93":0.06637120510362586,"94":-0.08867184451138108,"95":0.03267105141329374,"96":0.0008491240917491487,"97":-0.07011804527930567,"98":-0.0006125418219137646,"99":-0.0006162874015405617,"100":0.06654910172182237,"101":-0.03449535171534396,"102":-0.020358341853370928,"103":0.03297855012193249,"104":-0.001825221317914943,"105":0.06441019342680267,"106":0.015344157032773871,"107":-0.022798704475319374,"108":-0.05498967743848429,"109":0.06330637193247725,"110":-0.017724039806068695,"111":0.042388482742931104,"112":0.014128868177441986,"113":0.06064886353595538,"114":-0.06286169632378438,"115":0.07005587005281316,"116":-0.010424647824255492,"117":0.04982348789663776,"118":0.07507819213282996,"119":0.027860122338734524,"120":-0.08624229568514934,"121":0.029779779505730065,"122":-0.06559075223728338,"123":0.02867831276076477,"124":-0.04571857240841601,"125":0.05435570158742833,"126":-0.03399421691992091,"127":0.04810828173869736,"128":-0.09422755305583819,"129":-0.0902094528792936,"130":-0.010090132041939466,"131":0.02111205495764476,"132":0.03837580711597136,"133":0.010179497650173064,"134":0.09478819322121988,"135":-0.051639546971547975,"136":-0.025100696667612058,"137":0.004808101670897909,"138":0.002531775816014471,"139":-0.12623832976049298,"140":0.006330956992799512,"141":-0.0772984373572052,"142":-0.028621115495863464,"143":-0.03427953021798233,"144":-0.009319366272479625,"145":0.05395707923958596,"146":-0.011788055969859624,"147":-0.024868754973509894,"148":-0.04912463608763448,"149":0.08544334333589337,"150":-0.037486399445294576,"151":0.06064114529394678,"152":-0.007164331145741422,"153":-0.06811353359335909,"154":-0.08023458312197687,"155":-0.0212258506580203,"156":0.055119698547784986,"157":0.08429444196924635,"158":0.013571684052796818,"159":0.056543700337215556,"160":-0.06599041819895834,"161":-0.11036099107531094,"162":0.0009686541180317465,"163":-0.09826431319223834,"164":0.0001488166159518266,"165":0.0355250290539862,"166":-0.04547745744409806,"167":0.01001371759873931,"168":0.006159479181600929,"169":-0.07356179077190378,"170":0.041677411698345414,"171":0.03817692866512845,"172":0.007069820887653769,"173":0.005419270058997611,"174":-0.0018667715183978812,"175":-0.026826827195158165,"176":0.07475015536100806,"177":0.09228971901949722,"178":-0.03778071985139436,"179":0.006572801857122922,"180":-0.11724953241153462,"181":0.06351266078200737,"182":0.019119067904169226,"183":-0.07162057054899673,"184":0.03864534359373386,"185":0.012974461196651984,"186":-0.031245104320737804,"187":-0.019392268800147185,"188":-0.052130084530726824,"189":-0.027388333333436196,"190":0.0027824726845538856,"191":0.01827114764792792,"192":0.053102861303902245,"193":0.04789095918525181,"194":0.0355106291131184,"195":-0.031259017893272456,"196":0.07668135842194886,"197":0.00027210497069788596,"198":-0.08734951514227654,"199":-0.04418899090335036,"200":0.01833503362479023,"201":0.019140876301903205,"202":0.03153431507541048,"203":-0.05587800628972752,"204":0.07552647468804233,"205":0.10054473788261639,"206":0.002175383300006799,"207":-0.03508161376359022,"208":0.0737437151920842,"209":0.03161875599493626,"210":-0.010196953713844414,"211":0.015441845948969128,"212":0.004177434999042343,"213":-0.023842019735357847,"214":0.013121942165087159,"215":-0.05870053511670248,"216":-0.06628320803920631,"217":-0.03280775913939968,"218":-0.05621322076885334,"219":0.02133667466490351,"220":0.009780145036750705,"221":-0.11930336904849889,"222":-0.11494031559255648,"223":-0.022571241957065755,"224":-0.06280173092886265,"225":0.032478674059577474,"226":-0.03211705894848188,"227":-0.03286337839762055,"228":-0.05193275318758747,"229":-0.027654673435889326,"230":0.024854963897365343,"231":-0.06365340666112805,"232":0.0218930246329587,"233":0.0658942010369519,"234":-0.016824333583673617,"235":-0.0006219813129025769,"236":0.03430902358485442,"237":-0.04927492252575338,"238":-0.01938948301547369,"239":0.011062114599969817,"240":0.056194036467026434,"241":0.04210885889211257,"242":0.05983758455125402,"243":0.04709144213720162,"244":0.006339530092822461,"245":0.03906891237443287,"246":-0.024384799718354624,"247":0.022856974586040475,"248":-0.0029400889545519466,"249":0.0641029594436486,"250":0.03991426335146976,"251":-0.041993198160864366,"252":-0.013867858376205673,"253":-0.07502320411526173,"254":-0.06269734137073991,"255":0.029837717457878974,"256":-0.02893841467593005,"257":-0.03176721017299613,"258":-0.03598108858859294,"259":-0.1381003624004817,"260":0.041409199808995226,"261":0.037153967583862385,"262":0.01759653041592501,"263":-0.038988565518316615,"264":-0.015646883199015294,"265":-0.061539859414938676,"266":0.03148124660091788,"267":0.03803458586063311,"268":-0.04756592553694145,"269":-0.054917951405127605,"270":-0.0782994105284696,"271":0.0643892774603578,"272":0.06882990061097405,"273":-0.04352164455653599,"274":-0.11560972161165754,"275":-0.04333551339515788,"276":-0.07418710183144901,"277":-0.006069168725136024,"278":-0.023529274601574793,"279":0.04618954270717235,"280":0.033682740294901606,"281":-0.008799126777306633,"282":-0.01878791782433909,"283":0.03820923489862871,"284":-0.06559443905236746,"285":-0.01529075948237504,"286":0.0711474529212306,"287":-0.04374157406770009,"288":0.030191996050413086,"289":0.03940764059617131,"290":-0.01925808045113928,"291":-0.006759858426922045,"292":-0.04447978735229673,"293":0.035167018681099116,"294":0.009768056092132932,"295":0.019677182981066313,"296":0.07590976425457094,"297":-0.012110383973736276,"298":0.08496474697658984,"299":-0.00010053115165547896,"300":-0.005406968910758505,"301":0.048255010634975115,"302":-0.07237138730823905,"303":-0.07005014686306832,"304":-0.02479904088439306,"305":-0.024749316867202553,"306":0.024753163535885067,"307":0.011368780174152469,"308":0.01840190615766392,"309":-0.05549560158920263,"310":0.11408194570275777,"311":-0.029961098359047648,"312":-0.013048198482793174,"313":-0.011391533666336265,"314":-0.03456435522360202,"315":0.0520582576947032,"316":0.03971521174879787,"317":0.06458473147034043,"318":0.00039990983111704075,"319":-0.051437283924250274,"320":0.019884682159951778,"321":-0.10507874498768444,"322":0.0015567423196682468,"323":0.013502952563569372,"324":0.07813179654171849,"325":-0.09466856065145998,"326":0.10830973721980729,"327":0.03686438818280735,"328":0.06758130018687974,"329":0.00943202550414327,"330":0.050628034556675014,"331":0.07859750160110487,"332":-0.004557745024456324,"333":-0.000005723612417898701,"334":-0.0074117699357653,"335":-0.08246447940079092,"336":-0.0004872729482858914,"337":0.029291788095538063,"338":0.001025647560224897,"339":-0.05773338335467324,"340":0.040547159871986004,"341":0.0385025271360174,"342":0.03946234232784006,"343":-0.0018725980236322934,"344":0.0009277960797932037,"345":-0.06666243767445032,"346":-0.07163617940836166,"347":-0.025537934329639356,"348":-0.08347205451123048,"349":0.0480057065425026,"350":0.027615561356829132,"351":-0.04205833842295418,"352":-0.005864610941173091,"353":0.003059874311160763,"354":0.021422325699559694,"355":-0.017385256160214885,"356":0.02191576602253193,"357":0.01679142159382631,"358":0.057385605791582826,"359":-0.056312599243381486,"360":-0.01901082246057401,"361":-0.0027973756126018026,"362":0.05200652451152881,"363":-0.01813472478330263,"364":0.017868682574373424,"365":0.013189126550367244,"366":0.10371693964695862,"367":0.01423254036571256,"368":-0.004434338340300491,"369":-0.05310812108306995,"370":-0.0633952365996266,"371":0.09205929406691848,"372":-0.10728146512418892,"373":-0.04888498326564112,"374":0.022430606243626538,"375":0.12872647495081999,"376":0.01844488423457887,"377":-0.05574360111129987,"378":-0.03627825821986688,"379":-0.061424732741111834,"380":-0.026244586891146487,"381":-0.054355857756973394,"382":-0.03759710191770239,"383":0.030630971102643702,"384":0.004012944624049802,"385":-0.027029158633795645,"386":-0.043253458296733195,"387":-0.017249874218213706,"388":-0.0319714132778896,"389":-0.07234223760018513,"390":0.03889971636565999,"391":-0.0540640428572107,"392":-0.04811475138347468,"393":0.021518356106777232,"394":-0.012471137958468964,"395":-0.03250830681079827,"396":-0.04822781390015855,"397":-0.09685814496257739,"398":0.043972256354344263,"399":0.06489425764179312,"400":-0.025200683384517333,"401":0.032637085128454896,"402":0.08797211259052952}},{"sx":1,"sy":1,"depth":403,"w":{"0":0.016593639396919005,"1":-0.06732285827082726,"2":0.010093564282544775,"3":0.031037052792586752,"4":-0.0661452076619431,"5":-0.0658071176690234,"6":0.02486646782366358,"7":0.07641138612442507,"8":-0.048073231659828825,"9":0.04214192172176084,"10":0.013271765635688769,"11":0.03724240801059463,"12":-0.006271549687194811,"13":-0.08443135210491079,"14":-0.0028859047611918217,"15":-0.03197487969406698,"16":-0.06017720868420838,"17":-0.001574462606353551,"18":-0.03187134845511655,"19":0.013563177806662363,"20":0.07766310311674145,"21":-0.07656216167880239,"22":-0.059680933263334165,"23":0.03279267909094345,"24":-0.0003100008684533759,"25":-0.01974700287423202,"26":-0.04230904235500527,"27":0.030590366877299442,"28":0.0705108112976003,"29":-0.05039488106137898,"30":0.07915604208903358,"31":0.02226068475619891,"32":0.024695926766955627,"33":-0.002921473888118482,"34":-0.0078056068967662555,"35":-0.033872372352094775,"36":0.03592767455882452,"37":0.04520081706291998,"38":-0.013007150470981436,"39":0.00719347340030233,"40":0.05361846038285495,"41":0.07190509671220735,"42":0.08916957409756918,"43":0.03495414583277572,"44":0.005885850609651316,"45":-0.00863046356100724,"46":0.1814256683846518,"47":-0.026036138040144638,"48":-0.09786862701796177,"49":0.06876682788491108,"50":-0.015760549669561207,"51":0.04952224721657971,"52":-0.0374492544944545,"53":0.04670582754827055,"54":0.03357942421918427,"55":0.008215978386040523,"56":-0.017295964676398396,"57":0.05020643858646642,"58":0.0013416412149299035,"59":0.008129116485839426,"60":-0.058745811731169266,"61":-0.010826737750351548,"62":0.014573068547665406,"63":0.06417781282081125,"64":0.028518753057211077,"65":0.00598946293748935,"66":-0.03837885737087329,"67":0.02092796959734448,"68":-0.010652577034710937,"69":0.009830832467398444,"70":-0.061309853767255736,"71":0.014807222937455762,"72":0.04892934444270596,"73":0.0653129390221851,"74":-0.04981334819667799,"75":-0.007310910026013239,"76":0.03501457925054552,"77":-0.0014585539145282578,"78":0.041945610234497395,"79":0.025786584680721588,"80":-0.013770638308511947,"81":-0.054960700802824225,"82":0.0033242215960110656,"83":-0.011080652211388887,"84":-0.03846973875192225,"85":-0.06545081970775217,"86":-0.042816284708630685,"87":-0.024609323435929212,"88":-0.005698777803986467,"89":-0.07363129723991525,"90":0.02041007734178531,"91":-0.021762056500303134,"92":-0.054608109218935386,"93":0.05222693667937228,"94":-0.07170085528872436,"95":0.04023562904180472,"96":0.05988188650203266,"97":-0.005317055606000834,"98":0.038970563624664695,"99":-0.0241036286022409,"100":-0.026420115212814736,"101":-0.025909960667693143,"102":0.01840513667534315,"103":0.003687374822490187,"104":0.005972168274418375,"105":-0.03829952550808316,"106":0.023173819270249932,"107":-0.053049687120117775,"108":-0.01345933127269438,"109":-0.031929696206429485,"110":0.0787368309907918,"111":-0.010455216713047676,"112":0.042470083539640754,"113":0.005414241852126767,"114":0.02020111179077735,"115":0.03884711458133274,"116":0.0012760885875535708,"117":-0.04015870844437889,"118":-0.0040126901454948845,"119":0.022117426009866752,"120":0.029193554735670736,"121":0.015022262573370653,"122":-0.011665919232785295,"123":0.07950220104751465,"124":-0.12347074032194152,"125":-0.02731267838304454,"126":0.0038785511159020783,"127":-0.01964063124779933,"128":-0.0014903525582394266,"129":0.05802876935082999,"130":-0.019934658319219742,"131":-0.03937318741212946,"132":-0.031004235521525075,"133":-0.024655402655519784,"134":0.019873789729287175,"135":-0.056077261119972945,"136":0.06285856114445994,"137":0.024917533557414943,"138":0.01465766871276231,"139":0.002091894481451011,"140":-0.06554218425198409,"141":0.0814154248117996,"142":0.01619786852627588,"143":-0.05596162302229084,"144":-0.029796106445609077,"145":0.018140641014151776,"146":-0.05114227488851477,"147":-0.022097085797418446,"148":-0.049610815230957984,"149":-0.07027835851056408,"150":-0.09421815869709822,"151":0.031298915000424726,"152":0.03242873211060524,"153":0.037980706478233255,"154":-0.003592185273930127,"155":-0.10733628505313954,"156":0.004844672785319962,"157":-0.004594544245481031,"158":-0.06357831150146225,"159":0.05278978977279401,"160":-0.07942276420617908,"161":-0.036632610436748425,"162":0.06251219913588991,"163":-0.10648018506416258,"164":-0.12788119222505953,"165":0.006803999714994034,"166":-0.0526138481301399,"167":0.009914342796760825,"168":-0.007499130585534254,"169":0.007579437838894851,"170":-0.02885788093403861,"171":0.062041915380590965,"172":-0.05531465887867648,"173":-0.021575584726515426,"174":-0.05905419872649402,"175":-0.0003044913872351547,"176":-0.03929795013843112,"177":-0.03765163219294907,"178":-0.09314243064118291,"179":0.003497259115216836,"180":0.061176422512151,"181":0.01704830257400781,"182":-0.05639717262760821,"183":0.042783301337291704,"184":-0.0305176673769965,"185":-0.1148597857365893,"186":-0.016668913426662747,"187":0.10698302150122574,"188":-0.0130013823593355,"189":0.032190737142723455,"190":0.008897008491863048,"191":-0.006517283205969758,"192":-0.060329820150448646,"193":-0.042130106551845584,"194":0.023250279071178364,"195":0.025061221836081202,"196":0.02508374977797949,"197":0.08671637292866143,"198":0.02334888254015935,"199":-0.028610352428732475,"200":0.013500587002363723,"201":-0.061302905028759735,"202":0.0715146041301352,"203":0.059002015874818674,"204":0.0895686717417937,"205":-0.07121462832923531,"206":0.06470076848777723,"207":0.004383583593146301,"208":-0.06086858210061543,"209":0.020509918521167844,"210":-0.006521486968650279,"211":0.07011957085402552,"212":0.05496394340187165,"213":0.02017865342257937,"214":0.029739427437565948,"215":-0.02309927404145627,"216":0.00482682951318414,"217":0.06690581722399921,"218":0.06925078988521043,"219":-0.07823528017611454,"220":0.09065261986602817,"221":0.012916218026160824,"222":0.05926172851144269,"223":0.02623246423575991,"224":-0.05541850614907617,"225":0.016888959756933122,"226":-0.03963080260377762,"227":-0.03917384471274752,"228":-0.02272271412954865,"229":-0.01297066216625353,"230":0.10525435031568278,"231":0.029524359049553188,"232":-0.004485063939395416,"233":0.05796868904734152,"234":-0.10422285238073555,"235":-0.004956714431355058,"236":0.06948689986256355,"237":-0.03580585699077033,"238":0.009658053625270571,"239":0.07104087545490563,"240":0.03299734904777118,"241":0.08855690743652483,"242":-0.02137565550727505,"243":-0.007668879371811133,"244":-0.02269002188111042,"245":0.006069994874788006,"246":0.004297948638288285,"247":-0.001990457011499778,"248":0.012597053304520886,"249":-0.0343882298870516,"250":-0.030790373927109798,"251":0.007981415241140955,"252":-0.008094514132529224,"253":-0.03919678606521461,"254":-0.10350264943786479,"255":-0.019826895175896617,"256":-0.02292072163870487,"257":0.07330856515713068,"258":0.0016141786600872147,"259":0.05595936830730984,"260":-0.043803390505691084,"261":0.0541418790169877,"262":-0.05123919583623553,"263":0.11901055225455368,"264":0.050054121321639715,"265":0.033197926279673974,"266":-0.05959113948246481,"267":0.046108377019549,"268":0.04703795374733888,"269":0.02478871910054181,"270":-0.04699967520834737,"271":-0.054215762266488485,"272":0.016581676617913987,"273":-0.052578980477326814,"274":-0.01688969456913447,"275":-0.05023097751790019,"276":0.06394911100093796,"277":0.024073323569725393,"278":0.026557356952480578,"279":0.00165632636255231,"280":0.06608012849866197,"281":0.019883685253121206,"282":-0.035878531788810765,"283":-0.08590892637384323,"284":-0.008247893013408154,"285":-0.0354546838195555,"286":0.034499345502046315,"287":0.07689533940161321,"288":0.039940125047571225,"289":-0.007198036606169737,"290":0.020820620651994647,"291":-0.00011725725436447186,"292":-0.04970714639174218,"293":-0.015449773496091442,"294":-0.03327556356126572,"295":-0.049851333086675144,"296":0.0040713246985715785,"297":0.012150182465412053,"298":-0.02259991825470065,"299":-0.030364316297828965,"300":-0.07631459091984531,"301":0.00559729092125977,"302":0.0046244948192273655,"303":0.0572033281196734,"304":-0.03609757430708835,"305":-0.031893306283497756,"306":0.05310057326152934,"307":0.05733880799447701,"308":0.01208809168795697,"309":0.024614131016476654,"310":-0.0021784547990426686,"311":-0.02117720071022591,"312":0.004955349020239543,"313":0.0331293464284541,"314":0.05666277701311337,"315":-0.08164162651876385,"316":0.011659693158583043,"317":-0.0312952572582434,"318":-0.02430415003471701,"319":-0.032272325157153385,"320":0.02917557532566794,"321":0.029452524157491975,"322":-0.038396479379166897,"323":0.016294926868656072,"324":-0.029009878848257623,"325":0.02661502633942387,"326":0.010508304238991116,"327":0.022611614975527265,"328":0.07019801389101282,"329":0.009330845880383977,"330":0.05358210488234203,"331":-0.059481884653633514,"332":-0.020630133280261424,"333":0.003892609575369244,"334":-0.06632234725926214,"335":-0.10643017809382324,"336":0.07540419951224815,"337":0.042226866383271146,"338":0.003511002722513493,"339":-0.05665912110325052,"340":0.06998588459524392,"341":0.027882374387427696,"342":-0.004630285955407546,"343":0.06863164843836093,"344":-0.04580347715578973,"345":-0.021023249918161426,"346":0.008541336114921177,"347":0.08744790629947038,"348":-0.09474741207196219,"349":-0.05779007368328066,"350":0.09575464917756944,"351":-0.03614396043929207,"352":-0.016454177519846187,"353":0.017056052294851194,"354":0.009763368054090352,"355":0.11528468449956444,"356":-0.02765274713233752,"357":-0.1246458551891994,"358":0.00239540821326269,"359":0.047550134580871484,"360":-0.024036644637870086,"361":0.08879502263569106,"362":0.02929914738978085,"363":0.09816838887753589,"364":0.03790790555437648,"365":-0.07415532441911782,"366":-0.0660752074508796,"367":0.01414848665148009,"368":0.04086035222128076,"369":-0.07672750143936237,"370":0.04930776709019708,"371":0.05201777705983593,"372":0.046345472226186034,"373":0.0043610274051647385,"374":0.016734655245796662,"375":-0.03577456090300832,"376":-0.0910084006469813,"377":0.006951305521665588,"378":0.06656818985436896,"379":-0.0251216504189391,"380":-0.039833613283696716,"381":0.019614665795656357,"382":0.02936705316961696,"383":-0.03189864573938282,"384":0.07493288543632821,"385":-0.0034225335206303294,"386":0.02718713148713722,"387":-0.0010436988620571783,"388":-0.023497772470666898,"389":-0.02624228431300153,"390":-0.04780972785175553,"391":0.002422127992313356,"392":0.009711614546210263,"393":-0.05335313426781141,"394":-0.10605600604835988,"395":0.031056982932429155,"396":-0.02879275884497628,"397":0.0370421723009774,"398":0.00790294870832828,"399":-0.03341126719938494,"400":0.016004295607661756,"401":0.016479142546293207,"402":0.09198814674899428}},{"sx":1,"sy":1,"depth":403,"w":{"0":0.043296558154862656,"1":-0.05320145398073724,"2":-0.12109679547983684,"3":-0.05178057144661823,"4":0.005010127340971221,"5":0.04283312933622898,"6":-0.019813203230642,"7":-0.01753799272023047,"8":0.026341857631314147,"9":-0.041514218299505856,"10":-0.04093656777434261,"11":0.017766838094086652,"12":0.034134015423270304,"13":0.060118942178283175,"14":-0.009375338496537728,"15":-0.08030409232768429,"16":-0.04680371302424684,"17":-0.016740228385852915,"18":-0.023537352644672514,"19":-0.01744872985397873,"20":-0.0397314149098974,"21":-0.13485262964412756,"22":0.07447028168699642,"23":-0.04336663080423434,"24":-0.060997369231671345,"25":-0.04337430362794082,"26":-0.055540054764963084,"27":0.10250111565606658,"28":-0.011606081783628246,"29":0.038416734851870506,"30":0.00533003648352461,"31":0.09322826879775138,"32":-0.041671790760156625,"33":0.0016727007924199442,"34":-0.06783941877373123,"35":0.01627281411968138,"36":0.047094866811469765,"37":-0.01502019030849313,"38":-0.02200761421533469,"39":0.033582306449232116,"40":0.07001958186006606,"41":-0.022012159651578034,"42":0.04953960704208954,"43":-0.023028049523435054,"44":-0.027660733154992345,"45":0.010910905854156085,"46":-0.0033413916208217508,"47":0.022846271468071857,"48":-0.05308442743821348,"49":-0.005578085152398366,"50":0.009369957365302465,"51":-0.045372677459380686,"52":-0.06720738661562087,"53":-0.07758406902783892,"54":-0.0005542110781817902,"55":0.020392253009146648,"56":0.0006457645418008966,"57":0.0034165563639765592,"58":-0.03257752085801989,"59":-0.06158086793392994,"60":0.0001175334486374012,"61":0.07349399432804113,"62":-0.019911712013495526,"63":-0.056270753635686295,"64":-0.09350979562783165,"65":0.10841945460755355,"66":0.06059256364585834,"67":0.004252661495316676,"68":-0.01789890074858741,"69":-0.0412860722530524,"70":-0.037099034193188246,"71":-0.0359745635955377,"72":-0.025511986631849053,"73":-0.030615514715469982,"74":-0.02964917301053182,"75":0.1041701465602921,"76":0.09822291851935767,"77":-0.0562839372435653,"78":-0.015409525559311448,"79":-0.002884411708609377,"80":0.04168014268985289,"81":0.05396121578910519,"82":-0.0539392434434968,"83":-0.0538801401994437,"84":-0.024841069011490934,"85":0.012256276841779094,"86":-0.039345622623388574,"87":-0.017645915183391793,"88":0.03215400239879677,"89":0.011249653898834444,"90":-0.006466300825893541,"91":-0.01922120845464934,"92":0.015379704192498978,"93":-0.014558181962597097,"94":-0.039525499140877794,"95":0.009061612252276694,"96":-0.005442106177324315,"97":-0.08885040777717802,"98":0.02404068483956716,"99":0.03206651031827116,"100":-0.027821293150915635,"101":-0.07170748112595596,"102":0.006480624288079257,"103":0.01854592036704792,"104":0.03004112141781563,"105":-0.06895870461507848,"106":-0.05388112187214075,"107":0.06573223811243291,"108":0.04408484524266364,"109":-0.049455990817697054,"110":0.01982161109726826,"111":-0.030585477590232904,"112":-0.05458844842949793,"113":-0.04747573772614551,"114":0.05708324580478519,"115":-0.021720740003330814,"116":-0.01017842883886686,"117":0.07687416182546483,"118":-0.019291390965094437,"119":-0.051486562865839025,"120":0.06857142397348977,"121":0.03548104236766179,"122":-0.034495481222797976,"123":-0.027596953683054613,"124":-0.05576131513646438,"125":-0.02566428745154766,"126":0.05231274169410362,"127":0.0038260080994650305,"128":-0.008917320577767457,"129":0.0034444348766299237,"130":-0.010420029596520277,"131":-0.009169027934231263,"132":-0.03779374741975511,"133":-0.00749416200053195,"134":0.007231003101810749,"135":-0.07256686146196543,"136":0.06660590319555725,"137":-0.04185358862744923,"138":-0.018134331542260684,"139":-0.036203439040056004,"140":0.0646756555328854,"141":-0.018913040731543554,"142":0.023101393768225318,"143":0.04356754488263717,"144":0.03800996362069252,"145":-0.029125680758018715,"146":-0.015754832972562676,"147":-0.09065341717122088,"148":0.06170571804486895,"149":-0.01970461147322766,"150":-0.09148769637807803,"151":-0.04906515745376168,"152":-0.01997909478439439,"153":0.04060675872156589,"154":0.03872717915906223,"155":0.008777128634293547,"156":0.052909945012510555,"157":0.03286316201913005,"158":0.0065244376515253485,"159":0.05732670595493778,"160":0.03662148979413373,"161":0.008535287438451254,"162":0.009627520249593123,"163":-0.005471865456651672,"164":-0.03571705908320327,"165":0.047845737264277585,"166":0.04354651645254957,"167":0.03299743186253524,"168":-0.041978715479971576,"169":-0.03580396102137742,"170":0.04240086440458431,"171":0.02255216871669144,"172":0.00895275766655205,"173":0.024294147536481337,"174":0.0018223438248870243,"175":0.011974272957416585,"176":-0.06164169149367297,"177":0.06097002957832086,"178":0.05809682588702275,"179":-0.07726265460081858,"180":0.03841638179852972,"181":0.01850683985498323,"182":-0.06657513240279343,"183":-0.06503595913363784,"184":-0.07580453876039613,"185":-0.012790780416386848,"186":-0.01634777405907303,"187":0.06216772550517218,"188":0.002148727048281543,"189":-0.03669798304807063,"190":0.027116477757312893,"191":-0.035565454905567145,"192":-0.11218240950419216,"193":0.015223787551282559,"194":-0.0046544295366318465,"195":0.007485734617903148,"196":0.0017023568398767067,"197":0.03813429001520395,"198":-0.0756763198257732,"199":0.01826353465284723,"200":0.0814753839163987,"201":0.020239452289443963,"202":0.033266431108333376,"203":-0.035405782459302135,"204":0.04896681927369636,"205":0.024713880174947665,"206":-0.008016134207461558,"207":0.09496172210512108,"208":0.010817678772857475,"209":-0.0218596727534491,"210":0.01960625478543188,"211":-0.019277825399871804,"212":-0.05152865241806865,"213":0.03681317809390541,"214":0.03532899352356182,"215":-0.04578675756117101,"216":0.00910302186908402,"217":-0.059144896516661674,"218":0.0007598435622800675,"219":-0.048942920971040166,"220":-0.02665436723278015,"221":0.0023297354872113744,"222":0.01881913623874706,"223":-0.0017185628725907062,"224":-0.020587259499316276,"225":-0.10206275914872891,"226":-0.003950626686795894,"227":0.059922257696988654,"228":0.002460276838009199,"229":-0.011657165382053485,"230":-0.002786581677638392,"231":-0.003763731800878627,"232":-0.03220030341139234,"233":-0.08085159022622213,"234":-0.042799203229159324,"235":0.05538788507183171,"236":-0.05851854626313651,"237":-0.038980513874630626,"238":0.01870955551778756,"239":0.04354353021223794,"240":0.04714287046260803,"241":0.09551305909473733,"242":-0.00027235788389453724,"243":-0.05741352333321835,"244":-0.05158262531952337,"245":-0.05299372343347691,"246":0.03161435805024117,"247":-0.069533350709919,"248":0.08555066013965279,"249":-0.022283040724714685,"250":0.031679792651179886,"251":0.037125362758984606,"252":-0.01374179993196425,"253":0.07660171753843267,"254":-0.10804880133065431,"255":-0.10388413356728521,"256":-0.09822254781062145,"257":0.0779852344908342,"258":-0.05840588168314054,"259":0.09400590566236557,"260":-0.02492805869370034,"261":-0.07724779540213135,"262":0.006768501644748333,"263":-0.06048336377260128,"264":0.049132254900046864,"265":-0.025074901002909985,"266":0.013387992314306239,"267":0.030196267040598274,"268":0.07849321662710865,"269":-0.02316799171880139,"270":-0.07596618504847844,"271":-0.05915512057042633,"272":0.073534187009531,"273":0.03527354642466494,"274":-0.03452234055519336,"275":0.0134525978861469,"276":-0.009030848532114109,"277":0.0750734472103716,"278":-0.03166711884780393,"279":0.028522390268737288,"280":-0.05834926823368306,"281":0.09475908089459029,"282":-0.02020223029370018,"283":0.07387154589661564,"284":-0.057077403794407115,"285":0.09398872844953385,"286":0.00585384375539725,"287":-0.1263182131746994,"288":-0.04514106026573646,"289":0.06972801233459948,"290":-0.0614317894878766,"291":0.07031412947906013,"292":-0.06650207893042319,"293":-0.03665375622674366,"294":0.05872189842195034,"295":0.08557647767521229,"296":-0.02530832975068794,"297":0.02467241735480267,"298":-0.04690941920325609,"299":0.04467453583716099,"300":-0.04345016343122105,"301":0.060176494335797893,"302":-0.020925862153307495,"303":-0.09817303493571974,"304":0.017774277096787687,"305":0.03574878805825062,"306":0.02753864300080869,"307":0.07217165515436956,"308":-0.03409327582883076,"309":0.0011063142818411144,"310":0.05888892142885726,"311":-0.05878875343257968,"312":0.0760029044822198,"313":0.03577447899752166,"314":-0.06595310012094804,"315":0.06013701158234519,"316":-0.007370410935150903,"317":-0.017189127491092502,"318":0.013912858402817137,"319":-0.034564914752755756,"320":-0.06248008267734842,"321":0.09935151974119824,"322":0.05770477027913983,"323":-0.10081575274404808,"324":0.10117208290303611,"325":0.0031126893903840134,"326":-0.06095643110340874,"327":0.013439434955304199,"328":-0.10657530309551189,"329":0.02666027679613891,"330":-0.0831405280609421,"331":0.04981595700740704,"332":0.0022697872941535636,"333":-0.09189063024008624,"334":-0.02121103680358722,"335":0.013094161836530338,"336":0.021508098305196663,"337":0.0284111606004767,"338":0.06066088917559757,"339":-0.07942690071601502,"340":0.015266558240122657,"341":0.03214279309702661,"342":-0.008726505318280064,"343":0.04996289941472742,"344":-0.02510038417254223,"345":0.04826289827200287,"346":-0.028459287170518793,"347":0.025142933758349306,"348":-0.06436050558570845,"349":-0.03489833015914696,"350":-0.020806000696066786,"351":-0.07929451599330976,"352":0.040559828518640394,"353":-0.039107126515371966,"354":-0.08978947530186612,"355":-0.0038046530536790784,"356":-0.00011196413318595104,"357":0.016531298349094517,"358":-0.04592201466054977,"359":0.043063924920859156,"360":0.013244674107108329,"361":0.07878024262677052,"362":-0.07222534714367745,"363":0.09074779276839383,"364":-0.005004694433370893,"365":0.03579480038219299,"366":-0.03897334760828268,"367":-0.04114344184191289,"368":-0.01876371011121903,"369":-0.04001999851084205,"370":0.044706376711484766,"371":0.020281225340573174,"372":0.009809926342438236,"373":0.056037179706467447,"374":-0.003248479161457909,"375":-0.00865026042178424,"376":-0.10059937697132487,"377":0.06135758436037087,"378":-0.07879414509068149,"379":0.07037206764475727,"380":-0.04501362158223579,"381":0.004021386854594806,"382":-0.0695988219536342,"383":-0.02272483389107243,"384":0.013201978397328914,"385":-0.007223375429462673,"386":-0.0009320626146823261,"387":0.05252698154215068,"388":-0.00554322542441714,"389":-0.014496270774461667,"390":0.009736077354780173,"391":-0.10103686257892625,"392":0.0461709630900781,"393":0.0564692711948108,"394":0.0008818060975801513,"395":-0.045386449444313456,"396":-0.04671702159783958,"397":-0.06611920458495364,"398":-0.013669299677540082,"399":0.031005393717593057,"400":-0.053928093668194045,"401":0.06182724977174772,"402":0.10563551483497843}},{"sx":1,"sy":1,"depth":403,"w":{"0":0.05099513711670349,"1":0.04793344420733902,"2":0.001088016577719258,"3":-0.036443179212122784,"4":0.01600387765626791,"5":0.08299966305837977,"6":0.04679399103781358,"7":0.0069714568667222695,"8":-0.07857517789812152,"9":-0.055061709634841305,"10":-0.13510803236889435,"11":0.003379600790101892,"12":0.08157017301621568,"13":0.0530075959873011,"14":-0.06508756281179776,"15":-0.006653447930647891,"16":0.04892955421730759,"17":0.055675721325222714,"18":0.03575247580608024,"19":0.0256921385423094,"20":-0.014929448634593367,"21":0.09826445869544587,"22":0.00777175228765963,"23":0.035584407040796406,"24":0.04516057591748224,"25":-0.01925133932185395,"26":0.005927903463590318,"27":0.00010219845019459433,"28":0.03246855450146499,"29":-0.05019390774219177,"30":0.06841563058799084,"31":-0.01793607946022715,"32":0.03165167313939169,"33":-0.041117222742043165,"34":-0.03592643972267063,"35":-0.02131309052858662,"36":-0.09939393257494729,"37":-0.013726791958515287,"38":0.08217726850968353,"39":-0.0023019233576840816,"40":-0.010864220159746968,"41":-0.034596030530098604,"42":0.11643594389837805,"43":-0.04028535793668286,"44":-0.029838244290673048,"45":0.11513636683117753,"46":0.07894892498859224,"47":0.10673819990039315,"48":0.029896108391465594,"49":-0.06911769694506939,"50":-0.02876378635910409,"51":-0.0803551678681928,"52":0.027291111201506027,"53":-0.047327469608705215,"54":-0.046022511127819625,"55":-0.03941045055559815,"56":0.01615249623106722,"57":-0.01657753267501855,"58":-0.036339481206310455,"59":-0.06657003491121692,"60":-0.040902535279631426,"61":0.02348213840084346,"62":-0.05576313736380669,"63":-0.0720180976417472,"64":-0.00043337196808829393,"65":0.051968511102930624,"66":-0.056372050303276744,"67":-0.03472937947955467,"68":0.03189200994725054,"69":-0.06614423812977019,"70":-0.013952538965854296,"71":-0.022724396573826553,"72":-0.023414118716052264,"73":0.03799634116199392,"74":0.06512341213605796,"75":0.013655782824602882,"76":0.004345197500207166,"77":0.02567898338922288,"78":-0.08235756654780484,"79":0.05421396513725449,"80":-0.02120222294834057,"81":0.026080202042947,"82":-0.028776238033259426,"83":0.04224557920485084,"84":0.05884117444224318,"85":-0.05520450234482229,"86":-0.011867615734366987,"87":-0.039707344318272886,"88":-0.03758936377448387,"89":-0.004568033225512758,"90":-0.0037937906781623128,"91":0.0029111933877000265,"92":-0.06508971350107494,"93":-0.007737425745700227,"94":-0.017272666083657684,"95":-0.047402565000171676,"96":-0.04061616881994441,"97":-0.06164487395632258,"98":0.03728066756948874,"99":-0.0060274056644563125,"100":-0.0559650587305509,"101":-0.04058542239516773,"102":0.01926151035403407,"103":0.0379865949886984,"104":-0.03330762753523546,"105":-0.0868478840852639,"106":-0.002098183028982286,"107":-0.08653919042603404,"108":0.012024901593101404,"109":-0.10280637801582843,"110":-0.001393966320849914,"111":0.07704242359961407,"112":0.0011922394168065356,"113":-0.04499887081602818,"114":-0.02522183283004466,"115":0.041092080247301536,"116":0.06368917633537045,"117":0.002983200965790805,"118":-0.13445417146277897,"119":-0.013240572563085888,"120":0.01975105480506683,"121":0.03412377703217973,"122":-0.044185094223212894,"123":0.06098392111507134,"124":-0.0387568599001444,"125":-0.042328834803481256,"126":-0.022612078005668158,"127":0.02449938419685257,"128":-0.002112512980033234,"129":-0.05604679576491989,"130":-0.03422155947742815,"131":0.021489256513337242,"132":-0.0889363404415381,"133":-0.06595696273051188,"134":-0.014647032826701602,"135":0.027312793971837272,"136":0.014498054667952702,"137":0.04121471584018027,"138":-0.019400328452507377,"139":0.08154454679075697,"140":0.016434549614499513,"141":0.04158882852905869,"142":-0.11230804846820791,"143":0.01954763433852449,"144":-0.01778421292928676,"145":0.07923955806778626,"146":-0.02055802092987227,"147":0.06880743757906403,"148":-0.04566018005965922,"149":-0.03214377152303016,"150":0.01605243723473961,"151":0.01879013090361303,"152":-0.05325566109966209,"153":0.04824424319104195,"154":0.03652147780397748,"155":-0.02243799596878308,"156":-0.007371274531364759,"157":0.04350085753214776,"158":0.05079096010583608,"159":-0.030797937041348422,"160":-0.07078491771892265,"161":-0.01581650923182985,"162":0.09525298462551333,"163":0.0077765922244547505,"164":-0.13372166557732953,"165":-0.05228261043096814,"166":-0.039613347199561305,"167":0.0017529199696263281,"168":-0.029629060089201978,"169":0.016287929336086762,"170":0.07256889749084369,"171":-0.05052407182355269,"172":-0.009205559558144326,"173":-0.02090736861270698,"174":-0.0014821250965082024,"175":-0.09929865794589353,"176":0.02803094433089133,"177":-0.03857827333933181,"178":-0.009712112849843763,"179":0.07765303858187853,"180":-0.08052348839163981,"181":-0.039455462430306426,"182":0.05564602209702544,"183":-0.028328854710713506,"184":0.02433746446294272,"185":-0.07831826398795488,"186":-0.037372881136700765,"187":0.024903982879501293,"188":-0.04305190642650613,"189":-0.072965927882161,"190":0.0356746958716815,"191":0.09109234981786336,"192":0.007444966946040096,"193":0.07826879782769765,"194":-0.0519114783269069,"195":-0.04345497406034834,"196":0.020547552776359525,"197":-0.07820337362976071,"198":-0.0517148457373242,"199":0.004096904599210146,"200":-0.0028325966418886487,"201":0.05044607430271256,"202":0.029843650548992802,"203":0.02398104723477433,"204":0.005908729096236659,"205":-0.011019407078548272,"206":-0.019657295548433856,"207":0.010187264282867262,"208":-0.023300649665213374,"209":-0.016626388717898864,"210":0.00551844158380213,"211":-0.05216715087063624,"212":0.014857717746019385,"213":0.06493883984229741,"214":0.07019818725591687,"215":-0.027730418427959654,"216":-0.0008833431881209771,"217":-0.008026576568130297,"218":-0.00843197593635355,"219":0.06286689174719226,"220":-0.02580232453022105,"221":-0.00577910177518917,"222":0.11883488381549538,"223":-0.003444277482599142,"224":-0.04826328041627225,"225":-0.06476404727384837,"226":-0.06487862313822568,"227":-0.017456535837914827,"228":0.07510438961593932,"229":0.04319586037346274,"230":0.02429347868611753,"231":0.015013245130974304,"232":-0.04477090400058169,"233":0.07556703792323785,"234":-0.024090920442639482,"235":0.018283745235484816,"236":-0.019010245306546693,"237":-0.01901012777362317,"238":-0.08620596111594084,"239":0.05707889979804792,"240":0.055235524280118256,"241":0.010443089659813247,"242":-0.010671225399086678,"243":-0.04761348151166423,"244":-0.04944602351791502,"245":-0.04950107695172908,"246":-0.023332546724740992,"247":-0.013695605272600605,"248":-0.01404099955974496,"249":-0.06495541945284317,"250":0.04862619403607529,"251":0.024478314090853798,"252":0.02792799961373057,"253":-0.06322537197561483,"254":-0.022535702236047936,"255":-0.1556531939360505,"256":-0.016393974440390202,"257":-0.021095034433290135,"258":-0.0042358292671646845,"259":0.04886303285677632,"260":0.056473461618384665,"261":0.02651036250043814,"262":0.06953629608299036,"263":-0.030737762321025673,"264":0.05173072320156075,"265":-0.03387986309457619,"266":-0.019438562161514367,"267":-0.06569509870604573,"268":0.0054747913610385494,"269":-0.0075698786836247405,"270":-0.023011722686818926,"271":0.0017704520014929796,"272":0.035713854012231455,"273":0.022555878436299182,"274":-0.05088113680461996,"275":0.017132473627531276,"276":0.0010821207923106862,"277":0.06109534466078869,"278":-0.019025831434420673,"279":-0.04196928748842437,"280":-0.004886159641165629,"281":-0.03941108443827464,"282":0.060057751091751876,"283":0.034281129886036966,"284":0.021257779296029147,"285":-0.012130498994081907,"286":0.06268033244495208,"287":0.054612363898490564,"288":-0.0365184717655178,"289":0.13006759427645823,"290":-0.04070109740390187,"291":-0.020192797396293257,"292":0.017266072298051785,"293":-0.07732188798198282,"294":-0.07988862520460087,"295":-0.052746174922764455,"296":-0.020332009849459015,"297":0.0563327447626853,"298":-0.00941235971149913,"299":-0.12618367745499953,"300":0.0667033671145321,"301":0.0028805560169186052,"302":0.04104283254654133,"303":0.0872343491391025,"304":-0.011390302406772022,"305":0.02449692748164003,"306":0.11217744971592332,"307":-0.12723836189839655,"308":-0.006447198195728563,"309":0.05776030783468272,"310":-0.038380340703709805,"311":-0.006324926268267885,"312":0.01738595642847882,"313":-0.03278242011547904,"314":0.07322431682440968,"315":-0.0006394871341153101,"316":-0.0074142681005200314,"317":-0.025177036261029098,"318":-0.03340782889965007,"319":-0.06772176344303767,"320":-0.008170558919043808,"321":0.04601527578437032,"322":-0.06781492697746899,"323":-0.024154234609467036,"324":0.05350293460483292,"325":-0.006283964640901472,"326":0.06320759525774844,"327":-0.08249280852802258,"328":-0.03970158462803496,"329":0.11085289016087,"330":-0.019013897031288345,"331":-0.07095823982026378,"332":-0.025544754232550326,"333":0.010047923905242133,"334":0.014488628731222574,"335":0.08878019603598027,"336":0.05270674812913307,"337":-0.025383059388636865,"338":0.0412267147168681,"339":0.02035952847057584,"340":0.00785816606450657,"341":0.01226061026914962,"342":0.0701967011227209,"343":0.020634918157580007,"344":0.006665018693534795,"345":0.026572288434784302,"346":-0.020929476928426758,"347":0.049916317705951195,"348":-0.021605374573531604,"349":0.0719300998399791,"350":0.0684168664184108,"351":-0.13689668639792835,"352":0.03143913471152435,"353":-0.0066502351357839995,"354":-0.01762799297684698,"355":-0.06950350852587993,"356":-0.021934677372309707,"357":0.003724464782697166,"358":0.021810515594226858,"359":0.04895277020673373,"360":0.022950121980731812,"361":-0.06895756479924628,"362":-0.07023333418048192,"363":-0.04981632558770448,"364":-0.03466227416999631,"365":-0.12125433932772317,"366":0.014764223777277485,"367":-0.0404560455329912,"368":-0.07932089566951685,"369":0.02208640182210825,"370":0.025259490866208663,"371":0.01724486754068213,"372":-0.0037493783833688456,"373":-0.03034443231602699,"374":0.061420773388293326,"375":-0.06202532873658935,"376":-0.027538974621021662,"377":-0.017615295373118154,"378":-0.07509575430249572,"379":-0.047065785100605634,"380":-0.025775398898409706,"381":-0.02372492437427156,"382":0.05292435520858793,"383":0.09224091494794562,"384":-0.055470120430838384,"385":-0.06600112830489156,"386":0.023082233416751866,"387":-0.03731893740339522,"388":0.08194318835345293,"389":0.07772925141500242,"390":0.09793680092383272,"391":-0.0276346700327604,"392":-0.032815939087397605,"393":-0.005171080097892896,"394":0.05842324807160368,"395":0.04842605382898936,"396":-0.05912887143976944,"397":-0.11729535165065899,"398":-0.012444769832410486,"399":0.0697067119921185,"400":-0.005338512192314264,"401":0.01675518727673515,"402":0.04384215609357695}},{"sx":1,"sy":1,"depth":403,"w":{"0":0.04911695756530156,"1":0.094167249739832,"2":-0.05365106931427144,"3":0.051197323107896896,"4":0.02137334430454758,"5":-0.02525856182620946,"6":0.0014597237617740497,"7":-0.023756997383202087,"8":-0.01354063428347146,"9":0.03653070011694577,"10":-0.0077421886238522,"11":-0.0017614985044171073,"12":0.03139005213368628,"13":-0.014273084247929764,"14":0.09219595057431472,"15":0.03975934450240757,"16":0.07190407222056847,"17":0.04831344324338202,"18":-0.024376815015828765,"19":0.03872160572395327,"20":-0.03917154920277104,"21":-0.00920580930144543,"22":-0.10757587363841264,"23":0.02281192448852095,"24":-0.07637973172102236,"25":-0.007434672417190873,"26":0.04266558321910393,"27":-0.0799479474402223,"28":0.061424456282354205,"29":-0.04838342469919022,"30":0.08107614543294432,"31":-0.07094504467755464,"32":-0.0030782715091203514,"33":-0.05608816543297569,"34":0.03259300344013279,"35":-0.05974312067297356,"36":0.002078008934619906,"37":-0.04670035027291419,"38":0.005984291012240844,"39":-0.05632170187325604,"40":-0.05985648460503586,"41":0.005126939630690638,"42":0.00650401655394731,"43":0.06562210494778888,"44":-0.015020153067169926,"45":-0.06511206469252832,"46":0.052921262639123945,"47":0.031013904537684073,"48":0.011367112366666309,"49":0.02481932127545354,"50":0.04805063747975511,"51":0.12747732272371465,"52":0.11063085789789615,"53":-0.026392552665977474,"54":0.0673304699784185,"55":0.03724686746912594,"56":-0.005720709039909638,"57":-0.015849729990308408,"58":-0.020380171697803966,"59":-0.027841276998669794,"60":0.0294440686623291,"61":0.05665640112843347,"62":0.012549358650255601,"63":-0.0006851244888067255,"64":-0.000842128578763454,"65":0.022181344341385308,"66":0.08194684805883912,"67":-0.0036000116743690118,"68":-0.061106639707472,"69":-0.018508871280614125,"70":0.023768492985250272,"71":-0.002594439857024925,"72":-0.06884784278842751,"73":0.07727865616659027,"74":-0.057363003352726774,"75":-0.016614853640456007,"76":-0.02022138552766682,"77":0.007720982123761305,"78":0.041604950412006125,"79":0.0419629055285977,"80":-0.053680999751798505,"81":0.04510544846367836,"82":0.031168615642009238,"83":0.015401146617484226,"84":-0.04286529585934665,"85":0.06560574791045028,"86":0.03354090268037303,"87":0.004199820579154817,"88":0.008979174421770642,"89":0.02193428686845453,"90":-0.0521134752016675,"91":-0.09445019360103071,"92":-0.00036363019869680487,"93":0.005066781920736949,"94":0.08373135184182774,"95":0.04562208214198642,"96":-0.000587379114404076,"97":0.07799409280983467,"98":0.07344775065043677,"99":-0.01717223023489909,"100":-0.019609675983815748,"101":0.04204013477650701,"102":-0.002916417243955756,"103":-0.0340463764222402,"104":0.021239986825051776,"105":-0.003974662063082403,"106":-0.06486938082625872,"107":0.0071595145900705546,"108":0.02359168234403389,"109":0.10258009516535206,"110":-0.09235324949998369,"111":0.04658590018948486,"112":-0.07627674930484624,"113":-0.03521607447475608,"114":0.016522082438498054,"115":0.019357914479147753,"116":0.05815236220022158,"117":-0.05298806086482052,"118":-0.04500062257138972,"119":0.06166699866050563,"120":0.012689660312007954,"121":0.03318771264151727,"122":-0.0065332485571792005,"123":-0.03987322358055781,"124":0.00948383085924513,"125":-0.04702741893985033,"126":-0.012722239692156573,"127":0.06535368135513565,"128":0.015211673482968016,"129":0.019381288082695035,"130":-0.04704385950137179,"131":0.015764666838934932,"132":0.03061648163057158,"133":-0.030926070988094568,"134":-0.10012616371473397,"135":-0.10619136101205726,"136":0.01814331365893464,"137":-0.004292199191177107,"138":-0.004008998336058112,"139":-0.03964557960544667,"140":0.039490098037983555,"141":0.0219368063232276,"142":0.06062072345046466,"143":-0.005979769102778321,"144":-0.04460061618506894,"145":-0.09319893748856095,"146":0.09837417374890654,"147":-0.040228451206750865,"148":0.03748098251472937,"149":-0.020764004277343286,"150":0.10531480894712003,"151":-0.05794861669045983,"152":0.001988537327058867,"153":0.02081743854466357,"154":0.03718249156370967,"155":0.053910319043690126,"156":-0.03704984337242112,"157":-0.05318891488505096,"158":-0.043935840882038904,"159":-0.013219033571502753,"160":-0.04314023189659415,"161":0.0042585792807631655,"162":-0.09077939377564415,"163":0.03753316278038162,"164":0.01442202862743237,"165":0.03478001525950047,"166":0.019408226906239903,"167":-0.04923364892063206,"168":0.00010400142429077669,"169":0.039942818997489304,"170":0.03442262474666342,"171":-0.008946081247551241,"172":0.007364062572608857,"173":0.01128853109105031,"174":-0.022016850236248,"175":0.040334657958613344,"176":-0.03914068698076511,"177":-0.07547577669965287,"178":0.026661840760247236,"179":-0.019608187672051372,"180":-0.01059134858262725,"181":-0.0569146530171299,"182":-0.004357997089296321,"183":0.04360456035898163,"184":0.04298915768168854,"185":-0.008378945182699033,"186":-0.06563863868526265,"187":0.02303637086031518,"188":0.007933591655832076,"189":0.011181918980587456,"190":-0.06067024718728402,"191":-0.027690152756539528,"192":0.011470713004930737,"193":-0.04103695862346946,"194":-0.04482934881305828,"195":0.06268687239812397,"196":0.032240758601713694,"197":-0.0557585328243904,"198":0.016441298062220156,"199":0.008420335772711385,"200":-0.007304278322132091,"201":-0.08052866332890628,"202":-0.024251489122050884,"203":-0.12295343532531516,"204":-0.008226895031471745,"205":0.04332697008481252,"206":-0.058384768268120064,"207":-0.056117236044761945,"208":-0.06587403587153197,"209":-0.06365820443046817,"210":-0.0895533329207679,"211":-0.03715026751133428,"212":-0.010758708781505312,"213":-0.015820574017683522,"214":0.03883250039629366,"215":-0.013905162788861773,"216":-0.07064296184344816,"217":-0.04953892440035865,"218":-0.027947956066234843,"219":-0.009883444457981621,"220":0.019586861843708454,"221":0.09873522807632075,"222":-0.1301206723761226,"223":-0.0020772749914868285,"224":0.03919986149808667,"225":-0.04176896174707879,"226":0.060481224199267984,"227":0.013020329195698963,"228":0.023033807522125728,"229":0.11769986996460653,"230":0.003851517020517014,"231":0.06506417072222119,"232":0.002922533959933058,"233":-0.01082068907045303,"234":0.0632953062710787,"235":0.0371986518554904,"236":0.056910372819236395,"237":-0.022388025091036094,"238":0.020321954720575595,"239":0.015490011834614513,"240":-0.02795668817459998,"241":0.02552546366960636,"242":0.03794541652345541,"243":-0.00471326479934723,"244":0.058573237872674544,"245":0.02823838049090022,"246":-0.029860969525510428,"247":0.007046307366803672,"248":-0.06126376436631455,"249":0.03760612639381114,"250":0.03749849242634179,"251":-0.020486755201651666,"252":0.020637858465940278,"253":-0.002136384597979878,"254":-0.015906244841977394,"255":0.005793626124585306,"256":0.029399892012511353,"257":0.015771511506214985,"258":0.03776748333978688,"259":0.0007017612564087683,"260":-0.028136734413868953,"261":0.020897024676735616,"262":0.051786607068321,"263":-0.05327979855666214,"264":0.006861562821210383,"265":-0.07975915650833564,"266":0.07057242118485788,"267":-0.09817844309894254,"268":0.0389078263739905,"269":0.06167751423905283,"270":0.05778677733542662,"271":0.006032201475418577,"272":0.07090768351330225,"273":0.0180358119057707,"274":0.02548629659003731,"275":-0.024861096581261136,"276":-0.12041112057634261,"277":0.014226821197350876,"278":0.06076840589553575,"279":0.027318564233779236,"280":0.022906896783131847,"281":-0.0381215166675483,"282":0.12424620506218004,"283":0.05480818363122427,"284":-0.04307303522669786,"285":-0.021365171952174692,"286":-0.05848050068238777,"287":0.005144025917498502,"288":-0.015987879586701014,"289":0.07589321823954381,"290":-0.03417339172761927,"291":0.0250087522629264,"292":-0.0358518445896857,"293":0.01232645148128578,"294":0.01424263950075024,"295":0.06278036810326583,"296":-0.06511678156280558,"297":-0.015786058585229617,"298":0.05752931786179934,"299":-0.014293122890153996,"300":0.0402218976063047,"301":-0.0384175929759124,"302":0.05977023074668161,"303":0.03513424717388889,"304":0.06572296776725768,"305":-0.00916696501081056,"306":-0.022157390202336057,"307":-0.004813534493231954,"308":-0.05872370651698529,"309":0.053168852800051,"310":-0.08832171565858088,"311":0.008308506603424201,"312":0.03419316746374018,"313":0.031934297972002444,"314":-0.059190795812068944,"315":-0.023488563852196127,"316":0.010458498738795195,"317":-0.011137770260517665,"318":-0.11701240130742127,"319":-0.003786629141687625,"320":-0.05267816574891726,"321":-0.08980890534668969,"322":-0.038470095027126165,"323":0.02763849074656331,"324":-0.03756876191094548,"325":-0.048099510752451904,"326":0.017218356401924765,"327":-0.06487561581805149,"328":-0.002625239438562542,"329":-0.017443751975219572,"330":0.04675923748666922,"331":0.0792306817759604,"332":-0.032013009486558754,"333":-0.07959503322245588,"334":0.044133294604349484,"335":-0.041205959859880396,"336":0.01584866388669902,"337":0.08151885893783097,"338":-0.009221787304265636,"339":-0.041732495013458624,"340":0.05424178546294125,"341":-0.067930554924643,"342":-0.005081700447816788,"343":0.008913281304620227,"344":-0.02417368158143964,"345":0.04229855061904329,"346":0.037921072098364095,"347":0.0005355553663762558,"348":-0.03150344807678636,"349":-0.08611055913423038,"350":-0.025841598496264214,"351":0.02788743284460072,"352":-0.12122934565171976,"353":0.11391205728343948,"354":0.018252317139834474,"355":-0.034734509857091915,"356":0.09951846013770102,"357":0.02537367155939538,"358":-0.03914680866769974,"359":-0.037004973997078396,"360":0.06273981492587884,"361":0.06465002440445705,"362":-0.00020684847834808663,"363":-0.02309115467839159,"364":-0.05729561962420925,"365":0.08282567499269283,"366":-0.03969590681060892,"367":-0.007634898077825691,"368":0.05142233584978292,"369":-0.006816851464309206,"370":0.010410364481313217,"371":0.04646047659584174,"372":0.015103011519735482,"373":-0.062992008997289,"374":0.012778644633427606,"375":-0.019442481400782717,"376":-0.10244501197721324,"377":-0.006118754863363449,"378":-0.04162532738154852,"379":0.06612196284533883,"380":0.003506981431726901,"381":0.0848751610194876,"382":0.055228809022386735,"383":0.04504159434934598,"384":0.003244596132974401,"385":0.007744810814174763,"386":0.06182709739625656,"387":0.003962265549146087,"388":0.02758384130667143,"389":0.0002901243236801389,"390":-0.0024121190856240212,"391":0.007454803465506636,"392":-0.028972981922161047,"393":0.05456860633109024,"394":0.00787574147129673,"395":-0.007582330328957378,"396":0.05157548545795807,"397":-0.07222827057955877,"398":0.044035802278822325,"399":-0.015261447313070923,"400":-0.03940569533372777,"401":-0.08038298730476195,"402":0.1017000945698984}},{"sx":1,"sy":1,"depth":403,"w":{"0":-0.0010448890764463924,"1":0.03221393473832261,"2":-0.03655270612868422,"3":0.026959907365105257,"4":-0.07890733002212885,"5":-0.006175624295934905,"6":0.08683202242307271,"7":0.006294075425188728,"8":0.03323491238628638,"9":0.032699650412260306,"10":0.019690056239614753,"11":-0.054771344020723936,"12":0.01694662837550578,"13":-0.02045566566801374,"14":0.054351147486847905,"15":-0.08215124115840118,"16":-0.01103292754981989,"17":0.07900465246670407,"18":-0.06287395814405829,"19":-0.06521412970389313,"20":0.09744375397236159,"21":-0.018719764657195322,"22":0.007651054756368927,"23":0.014410557627431528,"24":0.05526073713837752,"25":-0.04936095869108584,"26":0.02162144214241414,"27":-0.0395709236669936,"28":0.10065320841785336,"29":0.1067235209970485,"30":0.021727829658081312,"31":0.046567850976681695,"32":0.0063948144431161015,"33":0.06080185850382751,"34":-0.0013187991787350056,"35":0.038389055441844296,"36":-0.007858916791433695,"37":-0.053072001527420386,"38":0.025927068160225813,"39":-0.03717209143448427,"40":0.05312967735644554,"41":0.029377714668051072,"42":-0.02686672762185388,"43":0.005812175874084404,"44":-0.025139032992721938,"45":-0.09074207765897557,"46":0.0171968843940761,"47":0.008431475500750539,"48":0.01692389489756276,"49":0.09686472688964787,"50":0.00459621396211889,"51":-0.005251353291846374,"52":-0.12415176065492876,"53":-0.021010129432710568,"54":-0.07280197468119252,"55":-0.11455785723895257,"56":-0.01922845348807349,"57":-0.017041711004350334,"58":-0.02606956078043399,"59":-0.015017598202728391,"60":-0.04703627669593098,"61":-0.02445475185384429,"62":0.05806601997393541,"63":-0.04309401556088088,"64":-0.09528731347189859,"65":-0.004632958838914227,"66":0.010215882667029937,"67":0.07039428986093908,"68":-0.10533819802179917,"69":0.06416253488501615,"70":0.007968185700055032,"71":0.005529563464687768,"72":-0.10857283386267806,"73":0.03012262974590305,"74":0.014554921737305089,"75":0.05910871969618191,"76":-0.0625556649765972,"77":-0.027062714728968644,"78":-0.03939323270576933,"79":0.0003055523950073749,"80":-0.0070603539757908545,"81":-0.08792053858504481,"82":0.07555729624798134,"83":0.03462802615149895,"84":-0.02368041872579767,"85":-0.04112055466349976,"86":0.05173234688824891,"87":-0.10020031429365253,"88":-0.006368802517470897,"89":-0.01369729114350581,"90":-0.06684730273312713,"91":-0.09107770043399029,"92":-0.021740402821099084,"93":0.01810539989482059,"94":-0.041769355626266255,"95":0.014100704187793134,"96":0.06272681917540865,"97":-0.00919251424562965,"98":-0.037081045179279126,"99":0.006510397288616031,"100":-0.0777358999636927,"101":-0.04126955077745448,"102":-0.05803717006149972,"103":0.0766571012569921,"104":-0.0863302322577865,"105":-0.040069432581553766,"106":0.038993910225310964,"107":-0.004415698199883618,"108":-0.06151292641866068,"109":-0.01421159575963999,"110":-0.009754395227292332,"111":-0.031296020024410585,"112":0.08934166163243883,"113":-0.058214347789956045,"114":0.020028086641903458,"115":-0.001882877717470408,"116":0.021667780198426446,"117":-0.05948203674790929,"118":0.0742674292709195,"119":0.020502953806333064,"120":0.005565588470533712,"121":-0.07542131988564806,"122":-0.04021300053826185,"123":0.096146023317139,"124":0.038485059386091834,"125":0.04285848800351294,"126":0.10032318727804,"127":0.017211069685011186,"128":0.03657108338141195,"129":-0.03943920708897352,"130":-0.03670335505098254,"131":-0.020371642988418516,"132":0.01620941199953823,"133":0.06133804479226511,"134":0.03215261136485273,"135":-0.07640242946713709,"136":-0.025235345711084347,"137":0.038336041941415946,"138":0.04872132598919371,"139":-0.005981846147407123,"140":-0.04282023998560025,"141":0.028554651434625173,"142":0.048396970691183,"143":-0.01356066168441931,"144":0.027815615255795983,"145":-0.02237839703587638,"146":0.02962656485867815,"147":-0.048634390816760166,"148":0.004200408477655475,"149":0.016038378013408523,"150":0.03938866265424332,"151":-0.017200599496127403,"152":-0.030111985837521674,"153":0.001093961368523877,"154":-0.01924650411393339,"155":-0.050296889868567805,"156":0.05613232477333551,"157":-0.033582091428914954,"158":-0.07793371269097256,"159":-0.004287380832185852,"160":0.03638224032069472,"161":0.04094618452670303,"162":0.06195726273260931,"163":-0.0025308965499000035,"164":-0.0036490864297016048,"165":-0.11651554903794867,"166":0.0031226218012751464,"167":0.002654374890925211,"168":-0.10056096349327534,"169":-0.026513420693466575,"170":-0.042595383704492396,"171":0.03069417021237535,"172":0.022496894741713996,"173":-0.03859981881172999,"174":-0.03859702587737213,"175":-0.000536905105699336,"176":0.0021218951164875435,"177":-0.013840536726676032,"178":-0.03918057621128345,"179":0.01026471446111931,"180":0.034207768443371665,"181":0.08633688347403268,"182":0.010874489436026655,"183":-0.021790957702581226,"184":0.028225201115863865,"185":-0.056276150306911986,"186":0.029315241615454145,"187":-0.09993876508331125,"188":0.062271837500285795,"189":-0.018684597564083485,"190":0.1289928249409923,"191":-0.03121163196041371,"192":0.10478182931361864,"193":-0.04616849551375857,"194":-0.0187662748620432,"195":0.07713504850284525,"196":0.035758710866440016,"197":-0.0041437715365811225,"198":0.03395969254409343,"199":-0.018829898864252965,"200":-0.010380127492819444,"201":0.08081890294234943,"202":-0.012705920113296893,"203":0.08867585248710348,"204":-0.03011165678513319,"205":0.007897043435193948,"206":0.04912729086669247,"207":0.043613464891536884,"208":0.01182678756424116,"209":0.05459401983950048,"210":0.03651353550795771,"211":-0.04688197530666414,"212":-0.03304447084501942,"213":0.029273622699787567,"214":-0.005325750884546481,"215":0.023877671237192713,"216":0.021195081083669926,"217":-0.03946693311045901,"218":-0.003430715654294323,"219":0.021721683309056522,"220":0.05356541119907785,"221":-0.004352068217236976,"222":0.02415427821230639,"223":0.01960634378901258,"224":-0.049285195646655254,"225":0.10290714758271512,"226":-0.051359483347529634,"227":-0.05979311401468127,"228":0.009042344595313459,"229":0.03415827980395263,"230":-0.03875912932426487,"231":0.03718710552252452,"232":0.048100502440080725,"233":-0.0037131883854900436,"234":0.09184726876319674,"235":0.01340292770219151,"236":0.007998877788946552,"237":0.02002819096109143,"238":-0.010060730955174848,"239":-0.0036878932970732963,"240":0.0027525046858970386,"241":0.031879543593586905,"242":0.033923666744620475,"243":-0.03381390303597902,"244":-0.04234561259942534,"245":-0.004732688514397567,"246":-0.053764582100362585,"247":0.004530636970405452,"248":0.09596842051424391,"249":-0.017616948909431964,"250":0.03538901368458179,"251":0.09586503588896039,"252":-0.031212712709655574,"253":-0.011163596535571224,"254":-0.005810923866906816,"255":-0.019984109595858147,"256":0.03825968232309379,"257":-0.07490139827927378,"258":0.02779137138762984,"259":-0.05996029905157532,"260":0.08960093591846698,"261":0.006070431805131961,"262":0.058162100151969126,"263":-0.005193020296189783,"264":-0.14139498784045454,"265":-0.09296434921802291,"266":-0.038794442073465406,"267":0.009512651121802738,"268":-0.03164258014592094,"269":0.0944287169177717,"270":-0.10887785791351447,"271":0.048361867976327334,"272":0.01866851769921021,"273":0.011711570771120252,"274":0.009254297282489566,"275":0.09771642139812242,"276":0.016149669167847432,"277":0.021688028347954896,"278":-0.0017037147534964276,"279":0.06215979127803369,"280":-0.024417939292284394,"281":0.0914661885951977,"282":0.05853255617197088,"283":-0.041356435268852916,"284":0.005345573182250697,"285":0.05186587644069191,"286":0.014957400588099528,"287":-0.03689458765413386,"288":-0.040706061692293065,"289":0.019439202699782675,"290":0.016908842581953496,"291":-0.043621243950341546,"292":0.0031588169735503897,"293":0.07010834964236956,"294":-0.0016150826858337974,"295":0.02073450069952157,"296":0.07006213891339365,"297":0.04623638176714868,"298":0.012868532508156599,"299":0.028343394962649343,"300":-0.033864773101514235,"301":0.09658449062557914,"302":0.07145268528296372,"303":-0.0009578771917877063,"304":0.08383138523044983,"305":-0.023566816781253292,"306":-0.12824125990055418,"307":-0.050043268669313905,"308":0.00846654643849125,"309":0.029703701548373002,"310":0.0923236024478008,"311":0.02222044613761761,"312":-0.06716522008126914,"313":-0.01498011403256896,"314":-0.04893825889453478,"315":-0.0551668983794623,"316":0.04690747998383452,"317":-0.012225356219903265,"318":0.05572423795672967,"319":0.042006103344477776,"320":-0.005655878096260033,"321":0.0770120694698399,"322":0.05172872513111517,"323":0.053159998311967334,"324":0.04068162484506386,"325":0.0052722836551069435,"326":0.013422005189610476,"327":-0.022744297441546636,"328":0.01279578532355956,"329":0.06222145065763561,"330":0.028504330252156894,"331":0.06146452233007758,"332":-0.03035951169225524,"333":0.0002710348193433938,"334":0.049928840216353125,"335":0.0164018192245092,"336":0.06104522629365202,"337":-0.013594017858344406,"338":-0.0069362658084982255,"339":-0.026188010796139236,"340":-0.06693135732404612,"341":-0.019456828479061286,"342":0.041253009953945693,"343":0.04753738862886376,"344":0.040768872267834336,"345":0.047015595320253574,"346":0.03634160713158815,"347":0.04304894098036624,"348":-0.0005171460901823325,"349":-0.07677343730218103,"350":-0.01987325339913257,"351":0.05487863058582908,"352":0.06473477036321787,"353":0.15718981818460556,"354":0.006609532636403143,"355":-0.015370669136482306,"356":0.04342804567955701,"357":-0.002116186422910587,"358":-0.0774379795765692,"359":-0.030446662628499425,"360":0.09671377065435995,"361":-0.013876245245147674,"362":-0.059160077811444806,"363":0.02891831218807936,"364":0.024198549472891434,"365":0.1061108113181111,"366":0.03671919709373534,"367":0.009230342441988334,"368":-0.06676213834170598,"369":-0.04828436194445443,"370":0.05978622163234286,"371":0.027697301626445268,"372":0.05487833392107353,"373":-0.022198593338348987,"374":-0.09868520785250721,"375":0.12075449851168688,"376":0.011663390972453471,"377":-0.0015679772848247108,"378":0.04715323892291865,"379":0.03398369071214274,"380":-0.04278065483957032,"381":-0.05500271212187686,"382":0.03142463658581835,"383":0.05234044938330621,"384":-0.007983728823174602,"385":0.03303703374306531,"386":-0.03727342672857074,"387":-0.06515905488209088,"388":-0.0537438559076859,"389":-0.061328219024131735,"390":-0.07717348230254438,"391":0.05782565538361623,"392":0.03864883818444395,"393":0.010329223293531866,"394":0.015336723907716369,"395":0.03610852398271192,"396":-0.0029297507325849142,"397":0.023839468841834164,"398":0.012909782539376009,"399":0.0212835129432998,"400":-0.06901919088786894,"401":0.108931025125107,"402":-0.05876576011479712}},{"sx":1,"sy":1,"depth":403,"w":{"0":0.04005874384381442,"1":-0.03075753787203643,"2":-0.012238174492994799,"3":0.06915657268239513,"4":0.01819685201757939,"5":-0.12488637930492592,"6":0.0002478526374118793,"7":0.0006211180880602117,"8":0.044164076663945485,"9":-0.00023666014887899485,"10":0.009509446291698878,"11":-0.0011191340145742011,"12":-0.06806438943883254,"13":-0.032980106403975445,"14":-0.012128961564693792,"15":-0.02423465642338134,"16":0.03541784440037138,"17":-0.06388771405526064,"18":-0.0584504805318495,"19":0.011717977855086204,"20":-0.01717170748492297,"21":-0.060725180450055885,"22":-0.022949467212699422,"23":0.015867569734806734,"24":-0.003656586725533153,"25":0.03177022852183185,"26":-0.013641174542935057,"27":0.008782488679182325,"28":-0.025586953480976393,"29":0.03304166872664914,"30":0.021934729352577228,"31":-0.050596219895245154,"32":-0.015909735676105135,"33":-0.01764121463741109,"34":0.0023036474204276665,"35":0.029599124868049675,"36":-0.03648844518231268,"37":-0.01981505404099421,"38":-0.05369344231264187,"39":0.06436792860879734,"40":-0.03945845976772713,"41":0.024692761681398213,"42":-0.042921675639264606,"43":0.044665709979223714,"44":-0.010697515050570976,"45":0.009540381705696483,"46":-0.06016929973020927,"47":-0.005781685804004601,"48":-0.006734565049806554,"49":0.022838427900224324,"50":0.0038928480356301104,"51":0.0371649886223428,"52":-0.034201369003979805,"53":-0.04211451655821686,"54":0.021539636440308214,"55":0.018519979764202225,"56":0.061688412345077756,"57":-0.016941927160344573,"58":-0.05827781814582687,"59":0.001689688467105298,"60":0.022542521725104965,"61":0.024419385804192496,"62":0.03730870699614342,"63":0.03624602395540537,"64":0.041407638035202546,"65":-0.06105921525678276,"66":-0.011751718307962724,"67":0.07228857498046984,"68":-0.04361330617079169,"69":-0.020019348376763602,"70":0.02506406397674186,"71":0.015435761316138809,"72":0.01342009570980619,"73":0.051390915138316985,"74":0.022380284911064672,"75":0.053338211995208315,"76":0.009052158934523722,"77":0.007959669849363278,"78":0.023176814531361233,"79":-0.05404310183431629,"80":-0.013208343079316068,"81":0.04915480282526256,"82":-0.04729270258174898,"83":-0.008197720955573659,"84":-0.06047290161329684,"85":0.04802386223234609,"86":0.019534603489537523,"87":0.07653982151240384,"88":0.013996275794590889,"89":-0.0020647799288962625,"90":-0.028202642753314175,"91":-0.06773872918828357,"92":0.07614402928981939,"93":0.02922930571024381,"94":0.0022628439045279795,"95":-0.03676367216388779,"96":-0.04513831504763819,"97":0.05195410059286547,"98":-0.010980351004396073,"99":0.010025975460041995,"100":-0.08021985677996883,"101":-0.08935931452289468,"102":-0.03908053097318578,"103":0.04515026509665795,"104":0.013126981384309858,"105":-0.0012394840522913452,"106":-0.0797302026727208,"107":0.060366726464438185,"108":0.06364869337484637,"109":0.05769841550642739,"110":0.04685348117381444,"111":0.025731449859636234,"112":-0.02445473934817838,"113":0.00800020495036949,"114":0.026743057994764792,"115":0.003392499939608183,"116":0.047812836076084456,"117":0.06415829261525592,"118":0.01949550692374872,"119":-0.0035289492487411388,"120":-0.06208966811736944,"121":-0.02323214074536982,"122":0.06451660159762788,"123":0.031764688439578664,"124":-0.0598787970286623,"125":0.025880497423898478,"126":-0.0159196890574477,"127":-0.03480172534225791,"128":-0.09918137866507312,"129":0.055241227288292984,"130":-0.04431436954164276,"131":-0.1181827352173097,"132":-0.01787951667787875,"133":0.024394076363958673,"134":-0.006596264128360313,"135":-0.0458660290136472,"136":0.019669367641702244,"137":0.06371681002699232,"138":0.12931615124402535,"139":0.0065936465622139845,"140":0.11691933271673137,"141":-0.0015716248777532685,"142":-0.13423252654657178,"143":0.0946778746465769,"144":0.01924290781641355,"145":0.01083613328018564,"146":-0.03186310539414988,"147":-0.031765736746668445,"148":0.038947589983667034,"149":0.030592369787442144,"150":0.07750549090465889,"151":-0.0745346612361744,"152":-0.10040592666252156,"153":-0.062457585309102864,"154":0.059299712723459984,"155":0.01850665153515974,"156":0.04491576874807213,"157":0.029998114115928846,"158":-0.00642406472141518,"159":-0.02308901169609207,"160":0.0061600966491458355,"161":-0.016098474195293793,"162":-0.020892508291343904,"163":0.040917184819696924,"164":0.01420220795782142,"165":-0.04787261406907036,"166":-0.024744661254331217,"167":-0.05278599919960228,"168":0.0911012562682,"169":-0.000556373710548696,"170":0.12521917285508266,"171":0.0807979393412904,"172":-0.04661501092631694,"173":0.02233283275971404,"174":0.011039424689275195,"175":0.034578430275730064,"176":0.0171745126891877,"177":-0.09906769858350045,"178":0.048526031872773705,"179":-0.008754224116005264,"180":-0.09550195202279847,"181":0.007728149753473739,"182":0.06546240296517206,"183":0.0018780333144629295,"184":-0.05656739041666799,"185":-0.018428611773828877,"186":0.0016255250631928746,"187":0.05135661489075086,"188":-0.0032559653550144597,"189":0.04450673227952907,"190":-0.002551970766569873,"191":-0.007160443364317273,"192":-0.005542617242429713,"193":0.008675272812590194,"194":-0.052975457370155236,"195":0.13315450948791477,"196":-0.006513068534436939,"197":-0.044414274672126344,"198":-0.051394185325180496,"199":-0.04497809360001731,"200":-0.009060577338903765,"201":-0.02073336425469303,"202":-0.022542021082086514,"203":0.031412160054182105,"204":-0.05940806140532647,"205":0.0008455433235197886,"206":-0.010882517034368846,"207":0.02449179140754348,"208":-0.08499535733218522,"209":-0.0028498211495279753,"210":-0.027360668592079276,"211":0.06829058158810004,"212":0.040787167729879156,"213":0.09193746216297025,"214":0.0001354773939618181,"215":-0.04315505223367926,"216":0.042493818201749155,"217":-0.005824043181528009,"218":-0.0015505027755246504,"219":0.006670981247582729,"220":-0.03757755576150511,"221":-0.06768143277953703,"222":0.026583134370539767,"223":-0.08659939915653363,"224":-0.04509724187376207,"225":-0.06385914342572795,"226":0.010887593388826519,"227":0.07841492950517094,"228":-0.04997664891888431,"229":-0.05849977435496865,"230":0.062179792350685,"231":0.023648168610814334,"232":-0.0865454626067741,"233":0.006482237928018983,"234":0.0026498142042492867,"235":0.008178106839276911,"236":-0.09514457172128549,"237":-0.016976960310603667,"238":-0.013109315549075153,"239":0.07965364022457444,"240":-0.023679133647294934,"241":-0.08481442468247657,"242":0.014325738759277945,"243":-0.0076270438518294004,"244":0.09989884627145333,"245":-0.0003482480055261094,"246":-0.032936250412130955,"247":0.03656096254422197,"248":-0.01639489810226033,"249":-0.0437640302191583,"250":-0.009582472985079181,"251":-0.007898854647614908,"252":0.004303797153243001,"253":0.04954750467879065,"254":0.06301152986698041,"255":0.031291744784318724,"256":-0.04318280646341684,"257":-0.00044634003802186694,"258":-0.057429114803362394,"259":0.009682154534111455,"260":-0.10252289379817554,"261":0.015189488323660863,"262":-0.028428920436321156,"263":-0.11437710041382616,"264":0.04910921041029764,"265":-0.012832576727404654,"266":0.08547213765735574,"267":0.10422445963155622,"268":-0.06233657913261447,"269":-0.05764725544775941,"270":-0.06685704063129873,"271":0.08158190813134017,"272":-0.05293056807677786,"273":0.06600673189169265,"274":-0.04266582215731995,"275":0.004768061351611848,"276":-0.001402817416435892,"277":-0.043614466388733515,"278":0.056420351315456405,"279":0.0742326123418261,"280":-0.0790706493205839,"281":-0.026918780882712635,"282":0.005688786624392551,"283":-0.03320984396393742,"284":0.001248666529617686,"285":-0.02888557353805059,"286":-0.06544727677217353,"287":0.007654975775000238,"288":0.08920699362789018,"289":-0.0014422279627976217,"290":0.0083897328613447,"291":0.009516008168044106,"292":0.034856493329608156,"293":-0.042283937032634646,"294":0.07077244185074448,"295":-0.07907402047664479,"296":-0.007049944224897593,"297":-0.013057507437659294,"298":-0.008079885172444646,"299":0.06667577265801292,"300":-0.013509787027402858,"301":-0.07556577799030753,"302":-0.09721582614443307,"303":0.027644498867634554,"304":0.0465883453796463,"305":0.0682620019389141,"306":-0.044515416223412665,"307":0.06635720087136565,"308":0.007735876573897211,"309":-0.02525072796660177,"310":0.09979242867662713,"311":-0.017905896292284222,"312":-0.008334963119757172,"313":-0.022657675310106075,"314":0.037476153507982335,"315":0.04028780469056527,"316":-0.035608752537747514,"317":0.00975654199343184,"318":-0.05771838193062569,"319":-0.07118660731472198,"320":0.05923592327624091,"321":0.020762299726923606,"322":0.060849067063553565,"323":-0.11009115434300004,"324":-0.006940687016685757,"325":-0.010415194359428148,"326":-0.014793986313001002,"327":0.0379498005490473,"328":0.021386142526596014,"329":-0.0060298245326867415,"330":0.03229429975557447,"331":-0.032118905428375255,"332":-0.041722843371220085,"333":0.010079267168295106,"334":0.05824653263321918,"335":0.07600465255774327,"336":-0.06496956741056817,"337":-0.01563863458056743,"338":0.04650338414987382,"339":0.026702378181531577,"340":0.06261468016090521,"341":-0.015331675060165475,"342":0.007851480710920154,"343":-0.02073543005841476,"344":-0.030847710157351386,"345":-0.09352282476555603,"346":0.1030766498631913,"347":0.02194796553107184,"348":-0.02062621744908378,"349":0.008362106581300703,"350":0.01705685076404262,"351":0.0012317715773541604,"352":0.06792118518824733,"353":0.1407935855512235,"354":0.09591619730488193,"355":0.031101258848038493,"356":-0.03776584533757342,"357":-0.014993747873159314,"358":0.06014702943114322,"359":0.008680819896440931,"360":-0.004300713305140326,"361":0.04409474878247223,"362":-0.017308563554868317,"363":0.014053326494191857,"364":0.0748086397254386,"365":0.03516265573487795,"366":0.00013530249214986206,"367":0.05534103208499347,"368":0.022487337556648918,"369":0.07884359146333164,"370":-0.02004865611261208,"371":0.025147858660783097,"372":0.0037489423245391277,"373":-0.09506215659221534,"374":0.0027159174477980994,"375":-0.04924014389237257,"376":0.13698574152935994,"377":-0.014458637030168706,"378":0.04080108279174776,"379":-0.05319206398944721,"380":0.05145049169452244,"381":0.08359041357716857,"382":-0.06892185427873969,"383":0.027775268823793893,"384":-0.012696776740953214,"385":0.03694420828498657,"386":0.008697932836484575,"387":-0.018918254354338932,"388":0.047922452538895544,"389":-0.07755459080451847,"390":-0.05921890593744067,"391":-0.006416381873066416,"392":-0.0709655489215872,"393":0.041312174806742215,"394":-0.009759353405151204,"395":0.0029496266439139893,"396":-0.009139297188427212,"397":0.03897726560289908,"398":0.02728656693014725,"399":0.012637826259003141,"400":-0.05945778490729453,"401":-0.028387060524974705,"402":0.00715299578913051}},{"sx":1,"sy":1,"depth":403,"w":{"0":0.035258267098098234,"1":0.0943992058191361,"2":0.046334276221903135,"3":-0.0766190115807951,"4":-0.03283918801893983,"5":0.0025223942693796022,"6":-0.059315637393652206,"7":-0.07355644975118714,"8":-0.026123780732655907,"9":-0.01790085686313144,"10":-0.05822221445577087,"11":0.05946698843839112,"12":0.0058882172625489854,"13":0.038301536680635635,"14":0.00667106037656851,"15":0.06460981702025205,"16":-0.028820199684180627,"17":-0.019033490245921148,"18":0.08967329738492996,"19":-0.036558252878502555,"20":-0.0033153798956448246,"21":0.09751253667798865,"22":-0.02440502200424018,"23":-0.011669934658700308,"24":-0.06803984419136525,"25":-0.05881499384124761,"26":-0.016504379021543936,"27":0.05788530030162275,"28":0.0041770673672865445,"29":-0.004743509879572227,"30":0.0363771984712895,"31":-0.004762505236894392,"32":0.058734927426749725,"33":-0.03618235793613522,"34":-0.06064881308285631,"35":0.07312084248244778,"36":0.026301390036598878,"37":0.041658289733834265,"38":-0.05734441255877276,"39":0.010264310383095148,"40":-0.017567870840749965,"41":0.08108770813866462,"42":-0.032936769724820535,"43":0.014798190015979013,"44":0.0008085400693299645,"45":0.027233293054504396,"46":-0.004528524074745475,"47":-0.053223454689043444,"48":-0.03223221499816507,"49":0.018415129679621556,"50":0.03100738586699702,"51":-0.09759967534328017,"52":0.0018783845713189165,"53":-0.0019326740271191924,"54":0.05630503681829435,"55":0.0013510705636779962,"56":0.03508062816512928,"57":0.012338389151945756,"58":0.014376881018184417,"59":-0.0719176426480943,"60":-0.010836184861015846,"61":-0.007721671230624976,"62":-0.010088082350641374,"63":0.028764144686193642,"64":0.050582671619304236,"65":0.02112242711480933,"66":-0.008770632469874506,"67":-0.07937173688547049,"68":-0.0021528771572265457,"69":-0.09937892145976719,"70":-0.030167047925625932,"71":0.029454240210798305,"72":-0.10255580473388251,"73":0.07509461882764214,"74":0.010228123307555098,"75":0.01250346196166545,"76":-0.028889662934680326,"77":-0.09191436747406838,"78":0.07556089613223717,"79":-0.10878106922480968,"80":0.005874061245258919,"81":0.035842520122943256,"82":0.028467613706520463,"83":0.0451128568280925,"84":-0.020717253789334537,"85":0.06597850860909706,"86":-0.034713636496204146,"87":0.04767502574250486,"88":0.07037010523319644,"89":-0.05784962515188466,"90":-0.03203438876141463,"91":-0.018696342878732727,"92":-0.044574638611107956,"93":-0.004821694511769431,"94":-0.10739659966893063,"95":-0.013675289504934051,"96":-0.004794216369961961,"97":0.02757976746644703,"98":0.008722503514581174,"99":0.026779139772924097,"100":0.010800415942611614,"101":0.017018784335149955,"102":0.016323560407444634,"103":0.031796727705434825,"104":-0.021796696862916857,"105":0.02726606866865958,"106":-0.06718633736754472,"107":0.12853686002694323,"108":0.010399268608711348,"109":-0.006363394301011362,"110":0.03837410782324996,"111":0.0024617794521359995,"112":0.004973880182745744,"113":0.06217269867051342,"114":-0.06801255454397481,"115":0.023771142982407067,"116":0.03524034577470264,"117":-0.03246386834739939,"118":-0.0017027665189028303,"119":0.014068159432686621,"120":0.002450661767412532,"121":0.06996721173877223,"122":0.05098088432572665,"123":-0.07400375573049271,"124":-0.020277939501169077,"125":0.01500035154071893,"126":0.019539076687127534,"127":0.005356268135548076,"128":0.09122024223973932,"129":0.04170962808914899,"130":0.0914826391942733,"131":-0.08036509030614235,"132":0.029101800184156992,"133":-0.007795681044241453,"134":-0.03153417673357068,"135":0.07020783632637452,"136":0.005721212574958814,"137":-0.008040564042446087,"138":-0.007523137111659233,"139":0.060048807108525636,"140":-0.03232982461209255,"141":-0.02840929494025514,"142":-0.025418501070932253,"143":-0.06604749779054236,"144":0.028151797832839186,"145":-0.005614477365799722,"146":0.012939735094058592,"147":0.02552107390591644,"148":-0.014702129699392013,"149":0.02401283330108851,"150":0.018295816454997255,"151":0.036545700405020295,"152":-0.014377409908864847,"153":0.04843889686184517,"154":0.016093552818224915,"155":-0.027082281456240965,"156":0.04981004617117723,"157":0.07558004497790635,"158":0.013854460513438277,"159":-0.05021877009541973,"160":0.005900768886030683,"161":0.02258400248799731,"162":-0.006833649557303483,"163":-0.017663535934524896,"164":0.03252791532480964,"165":-0.016891341646300937,"166":0.05273137326486324,"167":-0.008231445448205903,"168":0.032445575279005705,"169":0.02268031967176974,"170":0.06840568600041662,"171":0.09877876868428467,"172":-0.008964822826856917,"173":0.02763227623997316,"174":-0.05914055106402576,"175":-0.0013563867760827976,"176":0.06636292146056402,"177":-0.08820440655859278,"178":0.02067305784384471,"179":-0.002553232202399707,"180":0.12791854853093035,"181":-0.015530187296830242,"182":0.09635270753080906,"183":0.0870778330230738,"184":-0.03534973369451206,"185":-0.013020631902287642,"186":-0.00556259038829491,"187":-0.0037658717149436226,"188":-0.04138982422607746,"189":0.029658418170314227,"190":-0.014579129236432474,"191":0.07202916658576804,"192":-0.01473423271072908,"193":0.010065434183805445,"194":0.018569838478206105,"195":0.10664455405630595,"196":0.03252955124025593,"197":0.012921404222046469,"198":-0.0836964615220483,"199":-0.02329795722979992,"200":0.013745409244206221,"201":0.0007513861718462419,"202":-0.07647576052703545,"203":0.01693596462470499,"204":0.037234183622753075,"205":0.03520037942819126,"206":-0.021847855717016768,"207":-0.0015378858716816905,"208":0.10478177035876055,"209":-0.06687587075499797,"210":-0.011553059295690378,"211":-0.02035079302002349,"212":0.030191096787339743,"213":-0.03493200124926398,"214":0.006401693572535272,"215":-0.04545883435562534,"216":0.006377044262325826,"217":-0.06019017361181271,"218":0.058295174123073855,"219":-0.005131728858559696,"220":-0.0020954866311739947,"221":0.05139645160531223,"222":-0.0020168608246681316,"223":-0.025134696943913373,"224":0.0057285147440239385,"225":-0.0037613737305311804,"226":-0.008265907345679826,"227":0.023689497614384734,"228":0.028172615523579733,"229":-0.07069315966557747,"230":-0.028842063635089028,"231":0.06395478248007543,"232":-0.04464847343751102,"233":0.12385255117133921,"234":0.01866453291087573,"235":0.013638222623461996,"236":0.012223311172159376,"237":0.007624872209155528,"238":0.06917089448857146,"239":-0.055160718458633386,"240":-0.0374869763346956,"241":-0.06957309239702687,"242":0.010206531002489375,"243":0.014367979140452208,"244":-0.09104294715970349,"245":-0.07302649972268441,"246":0.010284894236015902,"247":-0.0013552081446643455,"248":-0.021733807704503224,"249":-0.000244451038662864,"250":0.04275771469061284,"251":0.049595948800951965,"252":-0.005829685702385311,"253":0.008803309349419555,"254":0.00805735869724741,"255":0.016929594647401788,"256":0.03276674866607047,"257":0.07997762444790915,"258":-0.06584716500037359,"259":-0.023955583623638442,"260":-0.015224497615733664,"261":-0.009468076840005472,"262":0.05279627473497134,"263":-0.028027725890226046,"264":-0.018301023453752834,"265":0.027223643384763727,"266":0.0050602629715033615,"267":-0.08769820900506621,"268":0.045608424228217516,"269":0.026733733488371526,"270":0.07081448769631749,"271":-0.03985453416999016,"272":0.041734807646159985,"273":0.027392451837273134,"274":-0.001401651251453154,"275":-0.059899820108947434,"276":-0.06504293701238849,"277":0.049169109357285135,"278":-0.04711678174210136,"279":-0.0280975646140148,"280":0.0007246877380471571,"281":-0.07468675958511908,"282":0.07401716031846746,"283":-0.017444397773705298,"284":0.07830237289977145,"285":0.026237866141678105,"286":0.06364037863318521,"287":0.07228438585488814,"288":0.01244688725374689,"289":-0.06197105405147296,"290":0.03731121341347428,"291":0.010577833323992012,"292":-0.03711691729262431,"293":0.06160160822223651,"294":-0.019010128120783967,"295":-0.010312702719882676,"296":-0.03196078753018022,"297":0.020087936282586073,"298":-0.03899383399712689,"299":-0.030778116390018852,"300":0.018964657161506426,"301":0.05644765580050516,"302":0.030964504265295872,"303":0.08687438282971427,"304":-0.022578061193250905,"305":-0.1121021923510101,"306":-0.029416208202182704,"307":-0.063158029627535,"308":-0.0016272309886773586,"309":0.016251648763528987,"310":-0.010983268240186403,"311":-0.11144762425565855,"312":0.034950418459419375,"313":0.015029844342533355,"314":-0.016360062109373005,"315":-0.04615982251439191,"316":0.028708803023664457,"317":-0.06720100826897683,"318":-0.02337024839668497,"319":-0.07983909396400074,"320":-0.050711427910045924,"321":-0.050458329754472966,"322":0.005418569459147497,"323":-0.03835811136961585,"324":0.040749159117409166,"325":0.015838900655953593,"326":0.03326888276274748,"327":0.042061485323654474,"328":-0.03238546337585981,"329":-0.05776166510628757,"330":-0.07300580033289243,"331":-0.03023437151337814,"332":0.04434812641369417,"333":0.016417815483975414,"334":-0.024938225867427322,"335":0.05416648089741369,"336":0.018909756307286193,"337":0.009307056565211674,"338":0.028373313266207907,"339":0.05211232444769517,"340":-0.10122834877526565,"341":0.07858901445220515,"342":0.004067533845777704,"343":0.033617189556798474,"344":0.0037563201479772464,"345":-0.07855706162861298,"346":0.05479993661813384,"347":-0.016186535785661118,"348":0.029972181978752902,"349":-0.004787744091553605,"350":-0.058149075769843094,"351":-0.011707554762728924,"352":-0.06540180215776789,"353":-0.0421185900133756,"354":0.009266553882918615,"355":-0.04001138422448309,"356":-0.006516966184594492,"357":-0.0755958304310846,"358":0.0032717349634005834,"359":0.0027673044706987716,"360":0.05553848043540817,"361":0.034773593875906686,"362":-0.01319757482015185,"363":-0.013679056858436374,"364":0.004971789796929541,"365":0.0905260491706482,"366":-0.021680293804702877,"367":0.018832265839564714,"368":-0.0701003074466572,"369":-0.029017351795833174,"370":-0.07033752022437864,"371":0.01624694021950681,"372":-0.05600898189337655,"373":0.00831366451130115,"374":0.032671784155253215,"375":0.005143999909767722,"376":0.0013769039867771245,"377":-0.042703930271036625,"378":0.00047863224483752053,"379":-0.030036683010942478,"380":0.052331753378147924,"381":-0.029991242116190028,"382":0.013555521410087945,"383":0.002964922115497452,"384":-0.003578440703762618,"385":0.009929064764582276,"386":0.03826834495009231,"387":0.05086095130456412,"388":-0.089490147817868,"389":-0.05476648245739516,"390":0.05668898883506832,"391":-0.03886013513912769,"392":0.022531973426280667,"393":-0.004117084504361339,"394":0.05513293979910228,"395":-0.049570031391374995,"396":0.08063521160849943,"397":0.01759345282176053,"398":0.03163016033658245,"399":0.023792725748607142,"400":0.09342274305685365,"401":-0.013642925227835263,"402":-0.06238155191346613}},{"sx":1,"sy":1,"depth":403,"w":{"0":0.016186325343843438,"1":-0.006070313415009517,"2":0.012174342236276801,"3":-0.026875506281561153,"4":-0.07894609703884839,"5":-0.04888036354328184,"6":0.016926868981884814,"7":-0.03097318678610275,"8":0.021310222324728872,"9":0.01917408280013036,"10":0.08538215169408206,"11":0.005017927511982657,"12":-0.030807058785864004,"13":-0.02452467160597372,"14":-0.04717398571793446,"15":0.054156687873553565,"16":-0.0489545110524118,"17":-0.07189884712331204,"18":-0.043064189300452145,"19":-0.03410874397904518,"20":-0.06495508518049632,"21":0.01758202437038686,"22":0.00908295761354905,"23":-0.021617297370118797,"24":0.021286497970149417,"25":-0.005296985816153675,"26":0.09259512483563297,"27":0.017018129160021458,"28":-0.06285409185948711,"29":0.015336159152534093,"30":0.002251866280940505,"31":-0.03867935791989676,"32":-0.0025408652055090683,"33":-0.013908691788367763,"34":0.02420900934220084,"35":0.0054716313674828135,"36":-0.0023071637809385735,"37":0.0072107634559886,"38":0.02886380318155219,"39":0.062141624619078996,"40":0.040436615032865594,"41":0.03810266046914617,"42":0.0029833508378263192,"43":0.10468477552089188,"44":0.03863241759211278,"45":0.029957913991226152,"46":0.050795207076560975,"47":-0.04568681675297894,"48":-0.07155914423025658,"49":-0.024043302544255532,"50":0.019759497725586734,"51":0.008411011285158844,"52":-0.010166150777937885,"53":0.04049565713390156,"54":0.052461463954920906,"55":-0.12349654373035647,"56":-0.15953326918613756,"57":0.021393793975578286,"58":-0.006700374221295503,"59":0.004422549828642319,"60":-0.006898160197458693,"61":-0.001219637035070083,"62":-0.004235907584568079,"63":0.07069766244698142,"64":0.014128466605575454,"65":-0.004190346776919625,"66":0.004818230604801851,"67":0.023196343920339126,"68":-0.08343661605212717,"69":0.03976885904264953,"70":0.02949170212453884,"71":-0.05853146877332998,"72":0.04585863409109934,"73":0.024163270493297355,"74":0.03380135269654912,"75":0.05068775000367991,"76":-0.031710935230067606,"77":-0.012788545590402734,"78":0.0471938125950805,"79":0.009297082799704866,"80":0.06669933774980949,"81":-0.06781902136378823,"82":-0.020269543179714685,"83":-0.00663023851957505,"84":0.0193731491625881,"85":-0.048300929837873506,"86":0.02448286345301108,"87":-0.034572952884872755,"88":-0.08608614354541964,"89":-0.014056522963659614,"90":0.015636865220001222,"91":-0.04773025831817276,"92":-0.022378463618647603,"93":-0.04584288406360074,"94":0.00469708177512629,"95":0.011388955179299293,"96":0.06552342033423225,"97":-0.02783497142911751,"98":-0.008321880645780424,"99":-0.05823094443458749,"100":-0.05568572636015198,"101":-0.06104460632337588,"102":-0.04874939937135906,"103":-0.058115185815195175,