{"layers":[{"out_depth":403,"out_sx":1,"out_sy":1,"layer_type":"input"},{"out_depth":50,"out_sx":1,"out_sy":1,"layer_type":"fc","num_inputs":403,"l1_decay_mul":0,"l2_decay_mul":1,"filters":[{"sx":1,"sy":1,"depth":403,"w":{"0":-0.037067622179654904,"1":-0.031478598575802395,"2":0.03463512248368437,"3":0.01761821652097922,"4":-0.010500418020620923,"5":-0.09866583804430872,"6":0.012954135460679122,"7":-0.00916955318221961,"8":-0.07835173618608576,"9":-0.031015865695362285,"10":0.012089301348907651,"11":0.00890106942114887,"12":0.04537855665361397,"13":-0.11589744586044291,"14":0.04618738307499223,"15":0.06863439351125325,"16":0.0275818377288342,"17":0.08851121546315739,"18":-0.04823056529740498,"19":-0.040700795795038304,"20":0.04230028681137878,"21":-0.017831468365380774,"22":-0.003990077764961084,"23":-0.053426862538332294,"24":-0.016175551929868526,"25":-0.0046199380330296125,"26":0.041190159802216436,"27":-0.006306461196024285,"28":-0.09816543040508441,"29":-0.050838943842269474,"30":-0.0038311125138744072,"31":-0.023482598087715016,"32":-0.04578145201015649,"33":0.01794962043373558,"34":-0.03357653148037695,"35":-0.053274669797906814,"36":-0.034668385122080043,"37":0.010332111437031099,"38":-0.021167184916735346,"39":0.0880488297634447,"40":-0.050716991238216116,"41":0.08028861904403035,"42":0.06304547648839622,"43":0.0390316639395929,"44":0.030086337308390394,"45":-0.09263078422085609,"46":0.03852838461275586,"47":-0.0957448232367381,"48":-0.02828099643944413,"49":-0.08949813727856418,"50":-0.03754710397812608,"51":-0.07819356287028649,"52":0.02294389448009072,"53":0.11929354063817856,"54":0.03579859444980953,"55":-0.020586054625097227,"56":-0.009417938935627135,"57":0.010759967946618086,"58":-0.034141972391940466,"59":-0.006061707968163602,"60":-0.03671970562410223,"61":-0.008220923306784943,"62":0.026997489191115647,"63":-0.0012361807324159,"64":-0.037612098023400486,"65":0.0022810295936601574,"66":-0.000035673243381017355,"67":-0.006100175263312402,"68":0.04792627008076391,"69":-0.034779662008049564,"70":-0.0719172693758996,"71":-0.012743471029928413,"72":0.05937728915001827,"73":-0.011510293139300838,"74":-0.06448513105216692,"75":-0.006421245950341494,"76":0.0011697392706101044,"77":0.10728182909291487,"78":0.036235019549052366,"79":-0.05716410519991919,"80":0.055053380794055286,"81":0.016649578925064745,"82":0.02214718197348614,"83":0.06962474718392568,"84":-0.043258373622739064,"85":-0.052475643571718016,"86":-0.018376578432120105,"87":0.036872802066699614,"88":0.05535183822853242,"89":-0.029974211668578228,"90":-0.03652277030304615,"91":0.07631147661302257,"92":-0.0006063971767492298,"93":-0.04567759527796743,"94":0.05066896659989445,"95":0.010741659260580832,"96":0.01808143743929163,"97":-0.03288405680709852,"98":0.025932910085596072,"99":0.031647230572888964,"100":0.05255700759594113,"101":0.08103932946562332,"102":0.04059345074246682,"103":-0.019874840540244413,"104":-0.007943125376978204,"105":-0.03843618820320543,"106":-0.005875999452690636,"107":0.027634055032115815,"108":0.012621789025635951,"109":-0.018844542550495717,"110":-0.06583071671227304,"111":0.005265412123109516,"112":-0.00426208980538523,"113":0.03953334276499695,"114":0.020679231351096502,"115":0.05105519181955136,"116":-0.03916209628754287,"117":-0.022369705759318115,"118":0.024746510041675766,"119":-0.03082793995679832,"120":0.024982737916369697,"121":-0.04403500231975458,"122":0.08624448912381402,"123":-0.11217610512980748,"124":0.018511842979644106,"125":-0.02951016896100294,"126":-0.008343868205102075,"127":-0.060033773148635595,"128":0.05576446510321057,"129":-0.10615578146109754,"130":0.021513270510615932,"131":-0.013199404354730307,"132":0.013671822656751095,"133":0.01835878880271742,"134":-0.005423222908024495,"135":-0.056685519288832045,"136":-0.021487390190461024,"137":0.034416927958557116,"138":0.02320468576765886,"139":-0.0322182257983665,"140":-0.0017147370091219031,"141":0.047104485746133205,"142":-0.09109914822400435,"143":-0.0355257294925908,"144":0.04290991748984016,"145":-0.019134605522330272,"146":-0.08716940962215247,"147":0.05456776237688888,"148":0.02490004823672072,"149":-0.057331844143294175,"150":-0.001975119007808628,"151":-0.031157869007169374,"152":0.06909288156437508,"153":0.014746231791638762,"154":0.06467439551039869,"155":0.016516114791957092,"156":-0.06004949840550057,"157":-0.032570004506460165,"158":-0.027615331641509557,"159":-0.06453204852670928,"160":-0.018862812112304134,"161":-0.06779441430381447,"162":0.09930960298952922,"163":0.002378563059369649,"164":0.04509160745233642,"165":0.02543923492596452,"166":0.0036234931638868583,"167":-0.02693587617163201,"168":-0.04934676046241765,"169":0.015425121279667279,"170":-0.0274882591944742,"171":0.10012332107270085,"172":-0.11401666088707385,"173":0.0017673310907260786,"174":0.04341318669299936,"175":0.036640211095432,"176":-0.006761141812205929,"177":0.0559478630938816,"178":-0.059254091949508855,"179":0.022323219646741575,"180":0.017203835429787394,"181":0.05833881373407608,"182":0.07981755105201593,"183":0.07525874384454675,"184":0.05073604212732585,"185":-0.016460053594967376,"186":-0.04701749861103023,"187":-0.05062599914517245,"188":0.04799847497394016,"189":-0.0893596046331518,"190":-0.06678008604349103,"191":0.10429817173519608,"192":-0.01191900983832438,"193":-0.028682573263210245,"194":-0.05309765810238713,"195":-0.018137451103158505,"196":-0.054819033842571106,"197":-0.06789926290137738,"198":-0.00724216043486951,"199":-0.003060276466822444,"200":0.08322948966943683,"201":0.006661033813260197,"202":-0.029563837524945586,"203":-0.07749987114572644,"204":0.006513269103205351,"205":-0.0363850128818544,"206":-0.07199541452747132,"207":0.031911660030519574,"208":0.022180968068776997,"209":-0.026783356030385518,"210":0.0063810294195371636,"211":0.005501553125309916,"212":0.043746559643066084,"213":-0.10085672755607435,"214":-0.09774499448051531,"215":-0.023657234683025156,"216":0.015168381329748001,"217":-0.04073694325400613,"218":-0.08043601507242636,"219":0.009890439361627475,"220":0.06075914991159854,"221":0.012660367176562978,"222":-0.03393695268691872,"223":-0.06672957712134459,"224":-0.0012869105194446475,"225":-0.03904296168879244,"226":-0.023669965926697654,"227":-0.011446764326300408,"228":-0.01426162437853549,"229":-0.006726315930637756,"230":0.058461418034582206,"231":-0.02670041123475061,"232":0.09974001718095406,"233":-0.043073304200014886,"234":0.002312276624846238,"235":-0.013049229410338096,"236":0.01250561605900684,"237":0.013753800976658516,"238":-0.07264525777055775,"239":0.005003050065389625,"240":0.02173264856989678,"241":-0.024849175898175424,"242":-0.05754762663226057,"243":-0.014525675454358709,"244":0.06851594797717074,"245":0.047427001557509535,"246":0.0013930927848059664,"247":-0.031653708889952815,"248":-0.029114251719214668,"249":-0.051373824118310735,"250":0.06884602660992002,"251":0.0268452429747367,"252":-0.023197102265019486,"253":0.07530352273559845,"254":-0.050352017130672035,"255":-0.04129972668683537,"256":0.05208936479620531,"257":0.03524649287976956,"258":-0.00936257906869955,"259":-0.028592798828182796,"260":0.05632745052674391,"261":-0.029050843129679513,"262":-0.07199231179507297,"263":-0.0452162871292402,"264":-0.031650453383326047,"265":-0.031502369868090775,"266":-0.005776959941746762,"267":-0.004183943780951867,"268":0.10923418452523712,"269":0.04790947897024401,"270":0.00786919301462709,"271":0.010052823885266972,"272":0.05833216908747847,"273":-0.05650545842220914,"274":0.018663375991714803,"275":-0.1443546127790526,"276":-0.012011547572212053,"277":-0.04094357916266279,"278":0.09427009764040581,"279":-0.03612024795112332,"280":-0.003353670489029389,"281":-0.0014914137330866723,"282":-0.03812771031302244,"283":-0.015984247069719452,"284":-0.011866924278467073,"285":0.015093512830738936,"286":0.030743135634726203,"287":-0.08303770581782088,"288":-0.0023748661384041213,"289":-0.026200687831858478,"290":-0.04400745361596555,"291":0.002470752733625996,"292":0.0026423703010128594,"293":-0.030844909360108617,"294":-0.007022220115781124,"295":0.014106789891744239,"296":-0.059862775904072005,"297":0.05087193711671612,"298":0.05276075120423139,"299":0.011081257352572257,"300":-0.07431290368993956,"301":0.036863930845594195,"302":-0.033322942509979164,"303":-0.043350690534202825,"304":-0.07352717920765388,"305":0.000767712421467597,"306":-0.04306337321183238,"307":0.011771990757484535,"308":-0.031618686922260594,"309":-0.024340067106976435,"310":0.006545246323618891,"311":0.007887130288490871,"312":-0.038088912686751186,"313":0.0007105845425215591,"314":-0.05092331609041787,"315":0.12885406244441205,"316":0.010086153032610649,"317":0.039329653591442255,"318":-0.025234432999190207,"319":-0.011799796400357151,"320":-0.022827886576267487,"321":-0.04054990508837118,"322":-0.016193089944458578,"323":0.07944679821064124,"324":0.004431381793801738,"325":0.00938109503645284,"326":-0.09118795631556464,"327":0.01901490859226511,"328":0.05913437785181224,"329":-0.03866421069125231,"330":-0.014766918655769323,"331":-0.00920716429628277,"332":-0.016185938264558258,"333":-0.040249966921432866,"334":0.06443015476601024,"335":-0.023170337423015407,"336":-0.05897356897068562,"337":0.014407297706427973,"338":0.045213543154239186,"339":-0.09997127710568766,"340":-0.024879680883668168,"341":-0.049958246038584814,"342":0.034915560355533136,"343":-0.10207154216551724,"344":-0.07680763252022149,"345":0.021646888618555717,"346":0.07819784649302262,"347":0.044482243686947975,"348":-0.009317670915506523,"349":0.045990419870687436,"350":-0.05618227486732733,"351":-0.001635261578661951,"352":-0.029518566702067678,"353":0.0538310605887461,"354":-0.014224645363226023,"355":0.01853248004645641,"356":-0.036085184727882726,"357":-0.05393385493966536,"358":-0.0156998684240797,"359":0.011931960598323065,"360":0.03517730584444084,"361":-0.06708934678607074,"362":-0.0484452218611331,"363":0.007532274085032644,"364":-0.09600597225084849,"365":0.028123172869435407,"366":0.057913016564685754,"367":0.048056081444628106,"368":0.044219739217464464,"369":0.07206486408372838,"370":-0.04318700056672823,"371":-0.14183684493242987,"372":0.0765431029392576,"373":0.03554326309994973,"374":-0.08833274799326193,"375":-0.05128485597450006,"376":0.09261254946812793,"377":0.019647097533375953,"378":0.050794531205262304,"379":0.003455981163160042,"380":0.024037188064361916,"381":-0.026953257096869604,"382":-0.000977702219215702,"383":-0.025150406731664618,"384":-0.05545818400737253,"385":-0.038638655360698056,"386":0.03561205693324404,"387":-0.033509391370143665,"388":0.00011805748066814282,"389":0.0019621185214093334,"390":0.06844306206619828,"391":0.05448003327433586,"392":-0.049716084988990154,"393":0.0493656006419596,"394":-0.023325997715971877,"395":-0.016861229530808257,"396":0.13336444183396734,"397":-0.04011278112480759,"398":0.06298685761313846,"399":-0.057361210364603336,"400":0.033017799097898315,"401":-0.003936940457699239,"402":-0.04161825813015248}},{"sx":1,"sy":1,"depth":403,"w":{"0":-0.012547952242094193,"1":0.009926985219919979,"2":-0.022572177962545813,"3":0.07553634489307068,"4":-0.03675674610492689,"5":0.006539639217888858,"6":0.03483382495450875,"7":-0.031168212935934532,"8":0.061339405258048325,"9":-0.05886419997262612,"10":0.01154927494537667,"11":0.02495001278856004,"12":0.03131792388816151,"13":-0.002854559707218073,"14":0.008216849968966997,"15":0.03688793778278104,"16":0.032981524303528534,"17":0.019562493054657588,"18":0.03276733035091931,"19":-0.04865793343990537,"20":-0.0211577417746841,"21":0.02611443230283565,"22":0.028701500016991097,"23":-0.026152116271172865,"24":0.019582363703727058,"25":0.03580810926254831,"26":-0.0182912755882661,"27":-0.02186987247310532,"28":-0.05059637457381866,"29":0.07187051847155419,"30":-0.07043487315955325,"31":0.061430975790444216,"32":-0.014960482606146085,"33":0.014123917343071897,"34":0.005794266999765025,"35":0.010409723884722246,"36":-0.06458355129992624,"37":0.0070453996445957595,"38":0.012037481408688832,"39":-0.00018105472680250378,"40":0.017575831577040013,"41":-0.001824869608852675,"42":-0.037848527274673485,"43":0.05803852357949144,"44":-0.03252749046143964,"45":-0.07582850958028813,"46":0.021421966396759487,"47":-0.027976627240408683,"48":0.03108682376924317,"49":0.04412612173941183,"50":-0.04700348060065787,"51":-0.0419866237108288,"52":-0.0379435423895063,"53":-0.007036509734573785,"54":-0.07388994498286836,"55":0.004751590602438055,"56":0.019054585111004933,"57":-0.09248305457775013,"58":-0.010167730068734296,"59":-0.021984751068180684,"60":0.0042281102344681985,"61":-0.03499841596983525,"62":0.03380328041469958,"63":0.0791606178306397,"64":0.015184070525769767,"65":-0.012519453316637319,"66":0.07519864260442548,"67":0.047925805498387,"68":0.011860832347015347,"69":-0.0923489639292493,"70":-0.018509453010372635,"71":-0.036144666266587806,"72":-0.07851940167845047,"73":-0.04640853982389457,"74":-0.0012582866462911857,"75":0.03335918970562151,"76":-0.013828355188982745,"77":-0.01605830098198475,"78":0.08857016608487829,"79":-0.014503663613562149,"80":-0.0062955584614188655,"81":-0.03158262218469061,"82":0.03915920182764708,"83":0.015721985206594166,"84":-0.06957786335214378,"85":0.03551020630275479,"86":0.004869862219751851,"87":-0.02408789750423694,"88":0.009920092090585609,"89":-0.03586160703815601,"90":-0.017456776256094597,"91":-0.08423792854031195,"92":-0.13100017134622188,"93":0.060811578379433344,"94":-0.03978826864781194,"95":-0.002904897821824869,"96":0.01085642185718062,"97":0.06694808032505713,"98":0.01200662599262942,"99":-0.09032667823319376,"100":0.0345283854660569,"101":0.044285605552629836,"102":0.008945745184392315,"103":0.08714728290812718,"104":-0.008105538568981805,"105":-0.07686362071981025,"106":-0.08845558434497346,"107":-0.009057993787526749,"108":-0.097250073984195,"109":-0.026935436445116718,"110":0.04571980404910185,"111":-0.05593282032976985,"112":-0.04599777575894481,"113":-0.04342784208058832,"114":-0.04858912294918494,"115":0.04755349275560025,"116":-0.043748957358078634,"117":0.013863279362199343,"118":0.0005000971787176326,"119":0.050692406623534005,"120":-0.04378265550591625,"121":-0.020525643096341684,"122":-0.008874959533081917,"123":0.10077636077224923,"124":-0.03367760856956417,"125":0.005181734950414249,"126":0.01754628560080293,"127":0.08867415196133992,"128":0.05391322680614668,"129":0.06023952972424184,"130":-0.08691919447593889,"131":-0.018799728455970194,"132":0.07031117947974255,"133":-0.013257069171387463,"134":0.04069891883466556,"135":0.010850070876443007,"136":0.026826074819354902,"137":0.017641811395732943,"138":0.06440885277537094,"139":-0.10670674909170531,"140":-0.052875231922686186,"141":-0.026887317238195346,"142":0.056687003576701825,"143":-0.04541302707734437,"144":-0.026216259776334346,"145":-0.00301833822228528,"146":-0.08710643721059079,"147":0.058115162721398134,"148":-0.00961832116191701,"149":-0.016366544224554306,"150":-0.01787876827489569,"151":0.035001066996144845,"152":-0.00957606517991195,"153":0.021875678127876094,"154":0.039245477422992864,"155":0.04242413198325952,"156":-0.044814001244461235,"157":-0.05455347494790239,"158":0.0017804634610793398,"159":-0.052567039041173796,"160":0.04005591581190652,"161":0.007680038168337325,"162":-0.040238191824613086,"163":-0.004714658564300624,"164":0.051176434563480096,"165":-0.041917006905108425,"166":0.056903475138991993,"167":-0.034215570464203246,"168":0.1295388704776699,"169":0.0594734009256972,"170":-0.0038868250991613094,"171":-0.0038765028718363704,"172":0.07399182693200404,"173":-0.06615083654934024,"174":-0.06667423741299829,"175":-0.031071650039441085,"176":-0.02084269735422726,"177":-0.06423291576922813,"178":0.03346852435028733,"179":-0.07612598929730985,"180":-0.021569257707235192,"181":0.010949311521232147,"182":-0.03263439784125742,"183":-0.06797677478284492,"184":-0.0000823233339374805,"185":-0.059331694993765095,"186":-0.0056020624992556625,"187":-0.05834275950237148,"188":0.12228870095695119,"189":0.034095071976612545,"190":-0.0558542860973326,"191":-0.05194189641420346,"192":0.031055262718474568,"193":-0.07545593411174406,"194":-0.04119071969375659,"195":0.0010511450714575119,"196":-0.002926769007431664,"197":-0.04645573106756997,"198":0.005030737124474468,"199":-0.06643629273348206,"200":-0.030464013526632992,"201":-0.07150056350768143,"202":0.026143917927758213,"203":-0.03516909792200389,"204":0.06020848888682911,"205":-0.014698148761559835,"206":0.01093947642602316,"207":0.03040619681804182,"208":-0.08710227407257634,"209":0.07958484060119289,"210":-0.055444073318901284,"211":-0.016871759076920075,"212":0.029692326825729497,"213":0.021819992058872688,"214":-0.004216163419141626,"215":-0.04730690957888069,"216":0.025158778105311686,"217":0.052988637084968676,"218":-0.012957742793928001,"219":0.04866643488287285,"220":0.008012894799515302,"221":-0.06032751677936155,"222":0.00328084606789858,"223":0.02774002864089623,"224":0.04340343166322449,"225":0.030109079466664513,"226":-0.016144369965005723,"227":-0.052228000728605256,"228":-0.04624155149906335,"229":-0.0747362618625325,"230":0.05256130272621585,"231":-0.019445233029630034,"232":0.060923089448349614,"233":0.04040333430392966,"234":0.10808835678092325,"235":-0.05984183968792593,"236":-0.03145088077274055,"237":0.07909053376391524,"238":0.06373420397148591,"239":0.11488423215220016,"240":-0.03004521839158586,"241":0.03554933204193157,"242":-0.038644915212528226,"243":-0.029943594685642054,"244":-0.03805815595318044,"245":0.002991347324356681,"246":0.028153867716845457,"247":-0.024711641301689617,"248":0.0012561062649566047,"249":0.0007093874444649297,"250":0.0064389515867636984,"251":0.03541867543277162,"252":-0.016029765283384578,"253":0.022423415667083755,"254":-0.007245883261590612,"255":-0.04088941479025566,"256":-0.03187644213565146,"257":0.08878971202397802,"258":-0.018867375587210376,"259":0.09447616880442943,"260":-0.015473769669552502,"261":-0.0014636404230456278,"262":0.016635743407247622,"263":-0.020985340794650992,"264":-0.10016241136399963,"265":-0.04084268422534915,"266":0.00143295325518379,"267":0.02212823678258406,"268":0.001616329617248178,"269":0.04380945764680232,"270":0.0596109313803091,"271":-0.006932712442263828,"272":-0.016111131451935396,"273":-0.002841978489381592,"274":0.012130245411379153,"275":0.0405363999272755,"276":-0.009332250529651817,"277":-0.002363249315562063,"278":-0.01152635761169395,"279":0.04525562516684759,"280":0.06282541401939717,"281":0.00043749308099585706,"282":0.025809432452280425,"283":-0.019596742545744315,"284":0.07614356041889223,"285":0.02398101160381443,"286":0.049613727937849315,"287":-0.02074807847099868,"288":0.013591658947694424,"289":-0.023241332308207956,"290":0.00403866552953093,"291":-0.05352176159463124,"292":-0.05545479761711423,"293":0.03819124112281757,"294":-0.049713161421410745,"295":0.013414790751382102,"296":-0.03792025887152348,"297":0.025536095301607848,"298":0.03809555194259482,"299":0.05342407044308717,"300":-0.009858502115236109,"301":0.03969741920058586,"302":-0.03491821687754255,"303":-0.06800055123310221,"304":0.030078015116662617,"305":-0.031311379615278204,"306":0.0743188011953856,"307":-0.00749989489506613,"308":0.036215643654753084,"309":-0.01024146905376391,"310":0.044580808045050706,"311":0.0697419879490432,"312":-0.06262205658281007,"313":0.13776642919059873,"314":-0.05118036336082338,"315":0.011287048503523316,"316":0.00924792302254509,"317":-0.018136554841782664,"318":0.04704814713754368,"319":-0.02601547377290114,"320":0.040869844444935466,"321":-0.026720848898519115,"322":-0.039997465305720056,"323":0.04977982542513434,"324":-0.025693836928797845,"325":0.029376576283587825,"326":0.03412461887212855,"327":-0.03409640024472883,"328":-0.03254653014400609,"329":-0.06931793676366277,"330":0.0013565712246396324,"331":-0.0485842902222239,"332":0.022523655902551,"333":0.03637206524794376,"334":-0.0638600489253115,"335":0.0037926452135190777,"336":0.08545494893459295,"337":0.0340484630303751,"338":-0.05847581815574506,"339":0.019853701961587367,"340":0.1469247385016718,"341":0.012676593997665825,"342":-0.06032462763515361,"343":-0.03921090140589867,"344":-0.011681678159763113,"345":0.027906863748256423,"346":0.04635560892982581,"347":-0.05648218567583924,"348":-0.009407066761405462,"349":-0.021396664228067814,"350":0.0574744831161862,"351":0.017494339612433234,"352":0.08280455102771005,"353":-0.0701230043899534,"354":-0.013018612720376905,"355":0.0014288400749938475,"356":0.0834459034477155,"357":0.046517096124866895,"358":-0.06226111517192755,"359":-0.010217474145749104,"360":-0.037530390127019385,"361":0.06071283496001413,"362":-0.013129199537185528,"363":-0.011576524802509125,"364":0.033691736499755036,"365":0.001403370426552424,"366":-0.05521610494292139,"367":-0.06237318797376971,"368":0.015109735293723852,"369":-0.020203470828117288,"370":-0.00928146341491557,"371":0.032476540464436404,"372":0.0522125142066286,"373":0.023781905561232223,"374":0.0004715452927838828,"375":0.029138465049397416,"376":-0.03771739622910438,"377":-0.0674558780498923,"378":0.07520319279278605,"379":-0.020383993471410806,"380":0.013362717994883809,"381":0.0179968031320113,"382":-0.03786079373018452,"383":-0.06355946937760372,"384":0.07116503310695109,"385":-0.020555866883490436,"386":-0.04124205132301552,"387":-0.060497241663870716,"388":0.023787067012252694,"389":-0.04638069700454432,"390":0.03373887429686452,"391":0.01687473847028993,"392":-0.05339782390192714,"393":0.030991752826315312,"394":-0.02100371310261472,"395":-0.065912250113091,"396":-0.05426072091088049,"397":0.0026041603000255334,"398":0.08210816641208046,"399":-0.024779421424415898,"400":-0.013229957991590154,"401":0.0123762240365478,"402":0.033142878152336026}},{"sx":1,"sy":1,"depth":403,"w":{"0":-0.07853781399880369,"1":-0.08583954925113461,"2":0.035807787593991315,"3":0.006883469847066323,"4":-0.0027124688506139933,"5":0.01999152635693494,"6":0.005878001347794546,"7":0.05127984823048228,"8":0.021176540662327423,"9":0.027520722840380627,"10":0.11374055133076158,"11":0.038058814922651285,"12":-0.021841605309357182,"13":-0.12877207864020007,"14":-0.03485425324114739,"15":-0.05578170882345069,"16":-0.011447419407981177,"17":0.00003170802859778191,"18":-0.03947323481498434,"19":0.03315907583185914,"20":0.03581768082751051,"21":-0.05032922048190789,"22":-0.025654787053507242,"23":-0.035512390302351926,"24":0.010912756210216874,"25":0.03201300615062209,"26":-0.02410768101235207,"27":0.04048961322422132,"28":-0.016399994765381627,"29":0.0871904405856268,"30":-0.019900532131180676,"31":0.01914857675056302,"32":0.014918619240950564,"33":-0.009159213997846466,"34":-0.005288944755970282,"35":-0.0205875168823481,"36":-0.05321893151622027,"37":0.054060738217905156,"38":0.00525496346785965,"39":-0.002184676039025591,"40":0.024903574826859037,"41":0.030420191407154545,"42":0.0272092870803977,"43":0.045583436198752554,"44":-0.012574872752231434,"45":-0.004447311744593568,"46":-0.04553645646189781,"47":-0.02388199686660959,"48":-0.025380781946093965,"49":0.0400585589048371,"50":-0.01580964243136163,"51":0.08157982653814305,"52":0.025121252361456677,"53":-0.04042141735013675,"54":-0.04510561798907862,"55":-0.0019893366672232944,"56":0.0020021761382204104,"57":-0.022767658914956967,"58":-0.08024373744870451,"59":0.002204099489691382,"60":0.011336827728921809,"61":-0.04315757869305088,"62":0.020831638130786506,"63":0.05751639185207019,"64":0.06335617478895235,"65":-0.05257943229511574,"66":0.022579981192224603,"67":-0.040138171171355985,"68":0.05660154618913508,"69":-0.0397064978028014,"70":0.04637084345069058,"71":0.00906845291373973,"72":-0.05390235898358491,"73":-0.01098296543282777,"74":-0.09212485310578819,"75":0.020444940945334274,"76":0.00248712978553992,"77":-0.005401584460776958,"78":0.01574586145766667,"79":-0.045724080293548415,"80":0.06640981006235777,"81":0.059325818206350724,"82":0.09815933080317019,"83":-0.013061178552815323,"84":-0.011971618027417056,"85":-0.0535956352877159,"86":-0.09616603622561111,"87":-0.037047094227647695,"88":0.007939072957192464,"89":0.07495320892869957,"90":-0.009539893626031016,"91":-0.05492429324496433,"92":-0.05336451029393553,"93":-0.046373554082736065,"94":-0.010995429387891435,"95":-0.07455006951157819,"96":-0.05468070416696883,"97":-0.006049872764854615,"98":-0.016604587430456723,"99":-0.04742878473440369,"100":0.04134155139956978,"101":-0.0006114854721925309,"102":0.039883190541357035,"103":-0.04263097432350292,"104":0.07352219085799191,"105":0.034276044252811784,"106":0.027912835537497366,"107":0.058440474472850404,"108":-0.024624524617070973,"109":0.019815545229080245,"110":-0.08600746061332899,"111":-0.007800175118952273,"112":-0.028399371339727288,"113":-0.00730906709152631,"114":-0.036667503122326944,"115":-0.029564696059733973,"116":0.04301025021785245,"117":0.053539119901020275,"118":0.055937588745385215,"119":-0.04488655932847822,"120":-0.020164312778696306,"121":-0.02895095720662834,"122":0.0074043338752985775,"123":-0.002626002616314968,"124":0.02245832750812819,"125":0.003438535442567783,"126":0.008106382805838122,"127":0.012632371522607802,"128":-0.12055562870237094,"129":0.04640444672108637,"130":-0.002706950157985728,"131":0.0037591756231060364,"132":0.016838830826383197,"133":0.027725745063484596,"134":0.08531774397468572,"135":-0.02933562267992359,"136":0.07066913397093684,"137":-0.017376488563692668,"138":-0.007345858786326901,"139":-0.027652523396826452,"140":0.00321690359400195,"141":-0.043272023918480625,"142":-0.027994824255456175,"143":-0.055944593212915714,"144":0.060723193719301585,"145":-0.0013681291360271278,"146":0.035099202074162617,"147":0.020238476258450756,"148":0.005309570887807069,"149":-0.018028623722578154,"150":-0.054764747052036156,"151":-0.08644197344827438,"152":-0.055104656314149826,"153":0.03744061231581324,"154":0.0066613505102600164,"155":-0.012724757978697827,"156":0.012609325049095257,"157":0.10254979058728687,"158":0.06675423882359822,"159":-0.010768912301691984,"160":-0.04974176293064277,"161":0.03667501693836949,"162":0.06068087287793174,"163":0.03059449899119869,"164":0.006980462191476233,"165":-0.016452973201397464,"166":-0.026056932475375102,"167":-0.025941642003208917,"168":-0.012014095761598152,"169":-0.01105002955487292,"170":0.03638129619830473,"171":0.0014896830258310258,"172":-0.021635867214594415,"173":-0.01293401161673409,"174":-0.024295706285932726,"175":0.002209572853772817,"176":0.0775126354228348,"177":-0.03548836486465174,"178":0.02452851227215856,"179":-0.06519966860838129,"180":0.005786425006970853,"181":0.05292180655917283,"182":-0.03465724446541136,"183":0.10527191221929792,"184":-0.04085725227662153,"185":0.014278844179106723,"186":-0.016923940276186353,"187":0.031919793651373166,"188":-0.07689064547041112,"189":-0.0200373930516896,"190":-0.0774907254177974,"191":-0.03040783109155068,"192":0.022687131664281615,"193":-0.007945874040462266,"194":-0.0325360244122415,"195":0.007690082040744797,"196":-0.06853213284842681,"197":-0.015362257809923258,"198":0.002355216378779574,"199":0.02867104722441151,"200":0.04546489455711735,"201":-0.019602392838897326,"202":-0.041044479414338086,"203":-0.15117890162684147,"204":-0.08947279519150768,"205":-0.043668434812373765,"206":0.011333985910962126,"207":0.09386227263274854,"208":-0.04955504363759679,"209":0.01513341408807372,"210":0.006702746813714429,"211":-0.07489934748127763,"212":0.017526076600277368,"213":0.0411556106261099,"214":-0.06931077888260147,"215":-0.03748774962007519,"216":-0.006401365267861653,"217":0.0032541627990304214,"218":-0.04605711726889867,"219":0.0023408841342104436,"220":-0.06661295818112778,"221":0.04092988852767837,"222":0.02868394014962022,"223":0.014618426620922465,"224":-0.057650506326794,"225":-0.0048864545836465835,"226":-0.017154727701753567,"227":0.040458445712564364,"228":0.011671194184399863,"229":0.04100809446242301,"230":0.023215365663666755,"231":-0.05603857611795708,"232":-0.0003742388901808852,"233":-0.032443881597820225,"234":0.010627976142559524,"235":0.014575667423939053,"236":0.023078411564574977,"237":0.08168009947955546,"238":-0.006402375465935576,"239":0.00043983848626999385,"240":-0.008745345539260124,"241":-0.03636097313731518,"242":0.02946089643704409,"243":0.03948209182142934,"244":0.04396354304856734,"245":0.03730682554740274,"246":-0.015382582528332422,"247":0.06733225030887034,"248":0.03267235537497947,"249":0.02657063994623059,"250":-0.06738015062410892,"251":-0.09727457819700183,"252":-0.015687950532006303,"253":-0.06396687627348997,"254":0.025373163696430646,"255":0.01618958400232591,"256":-0.0016142867125832972,"257":-0.005166300018539815,"258":0.026722139942107245,"259":-0.01871448082660121,"260":-0.06931691333316967,"261":-0.024846468664436825,"262":0.0434646232118378,"263":-0.05949420731098772,"264":-0.06621485290013401,"265":0.08221377407368081,"266":-0.01856597898572813,"267":-0.08216648300744145,"268":0.014064485687529778,"269":0.013884413199043792,"270":0.021281676786917465,"271":-0.1080604864827498,"272":0.08461002438473128,"273":0.07921404282686882,"274":0.06740738494670513,"275":-0.07085976478776515,"276":0.04078530636685073,"277":-0.02179934824261494,"278":0.016054477105164708,"279":0.06955233582176747,"280":0.03834569203549122,"281":0.029599611906791026,"282":-0.006834095482534385,"283":-0.016260351716552265,"284":0.04035853630731389,"285":0.007310811440020974,"286":0.03397919648617875,"287":-0.07591129796671939,"288":-0.051287926774341616,"289":-0.03420621586288676,"290":-0.10953958920986534,"291":0.07171936550518156,"292":-0.045218425333774695,"293":0.020550854293615653,"294":-0.0691132680317633,"295":0.004000118544334292,"296":-0.060457607949990826,"297":0.027448460968125882,"298":0.028194486096026677,"299":0.052310853495940605,"300":0.04538997731214484,"301":0.04117901036670853,"302":-0.019658648280107396,"303":-0.029848094550606746,"304":-0.06541677650756747,"305":-0.04224881088606996,"306":-0.0407468431678642,"307":-0.015913645315110102,"308":-0.09432361696144438,"309":0.0043976074635681695,"310":-0.029726222178202744,"311":0.029756618181107447,"312":-0.00950998886165242,"313":0.03358015941530864,"314":0.08984430921218038,"315":-0.025815422281890463,"316":0.0025355118461924237,"317":-0.001143835435548862,"318":-0.08446952862787134,"319":-0.04920431868891064,"320":-0.007645056975596402,"321":-0.019179858858610826,"322":0.007078580524419313,"323":0.039465124163969745,"324":0.007142323995863774,"325":0.009819836114324488,"326":-0.002452447581499974,"327":0.09657221589976113,"328":0.00276828114001245,"329":-0.03192278608585851,"330":0.007077324032495729,"331":-0.05188516339422394,"332":0.04963894829912798,"333":-0.042902902667261496,"334":-0.010946483411500183,"335":-0.0701281670615857,"336":-0.007502233952061313,"337":-0.06537880880074413,"338":0.06171451286990865,"339":0.041110239919966485,"340":-0.02409529742381903,"341":0.07359436385686409,"342":0.0018197862871052594,"343":0.07691923288637197,"344":-0.0020669222428462658,"345":-0.0010484407518388088,"346":-0.019902996469530577,"347":-0.001948888456272528,"348":0.0006994074097923365,"349":0.08679113306428292,"350":0.03536294585256766,"351":-0.08090637987645254,"352":0.04133948297370013,"353":-0.039129840012246966,"354":0.028378218573680968,"355":0.0299462306536834,"356":-0.04156539629725343,"357":-0.006260695185343568,"358":0.06026374034050407,"359":-0.015684214058461952,"360":0.020067671678538797,"361":-0.015818823861056663,"362":-0.00309083211568516,"363":0.03382249569029979,"364":0.002322050159559664,"365":-0.017571196817258883,"366":-0.05098394568601362,"367":-0.03625687911539893,"368":-0.06194500353699275,"369":0.06416427165252664,"370":-0.029366091804086482,"371":-0.026972334881407333,"372":-0.0003473274132679867,"373":-0.005972991351692851,"374":-0.09323721984572915,"375":-0.0155234742183184,"376":0.02927455237099848,"377":0.05114876694739199,"378":-0.018880445018182326,"379":0.03189784111472939,"380":-0.01752502911075704,"381":0.05506432700352453,"382":-0.06044916666041032,"383":-0.03029294638487805,"384":0.04051338967450632,"385":0.0075330978611708775,"386":-0.01929892120889461,"387":0.024637117626696813,"388":0.07231482519027044,"389":0.026247940692345952,"390":0.048552598427964305,"391":-0.01955476868502613,"392":0.01455804591582663,"393":0.008351363504707613,"394":-0.003405320581372491,"395":0.0408066212922153,"396":-0.017474890484210585,"397":0.016918688681367373,"398":0.0118618369666385,"399":-0.06573041136056741,"400":-0.0447534564540027,"401":-0.008961962287146153,"402":-0.010918190776820647}},{"sx":1,"sy":1,"depth":403,"w":{"0":-0.01569087814228209,"1":-0.00973164564154774,"2":-0.06748504945420065,"3":-0.031315246239648056,"4":0.045584718119966526,"5":0.08809325777674062,"6":-0.03525522576819133,"7":-0.04677661850857625,"8":-0.032007934223115264,"9":-0.07196752430919906,"10":-0.020952572250778092,"11":-0.028526198326839836,"12":-0.04662691568300088,"13":0.04062217797594934,"14":0.034343697232369776,"15":0.018012442502265785,"16":0.08932520331146432,"17":-0.012906793240555282,"18":-0.014816332794234778,"19":-0.0931693674808147,"20":-0.058115079646172546,"21":-0.01701508000198319,"22":0.04152717933070676,"23":0.015338444693314898,"24":-0.08956231330753635,"25":-0.05489275425528673,"26":-0.015055177105979993,"27":-0.01602864500081722,"28":0.00677528388518758,"29":-0.02544559585927983,"30":0.04773226611112472,"31":-0.044781971536611245,"32":0.012507006161591765,"33":-0.10886700779460066,"34":-0.017718296705387524,"35":0.046287839026976044,"36":0.007884955099041656,"37":-0.03252571375460568,"38":0.0076725759423773845,"39":-0.014792331719518536,"40":-0.008410789151348005,"41":-0.06310517381766478,"42":-0.010130784754055693,"43":0.05995762998852173,"44":-0.050609197694789734,"45":0.02512650763282665,"46":-0.004991375057051658,"47":0.04249415375617279,"48":0.019294371970932468,"49":-0.0694418333220117,"50":0.04790815339688955,"51":-0.10013020036397967,"52":-0.04208228994290616,"53":-0.05283829821473468,"54":-0.018408379382367678,"55":0.08787413681144512,"56":-0.0702850816045605,"57":0.0764997710018228,"58":-0.009206731637379527,"59":0.0587214186942386,"60":-0.04078889971319782,"61":0.004632967944305361,"62":-0.030852862734532496,"63":0.04609674163101218,"64":-0.00198581650782339,"65":0.070610447189924,"66":0.0199039413407841,"67":0.0576205829512893,"68":-0.09142399537269454,"69":0.031513870632864406,"70":0.0012058670662750937,"71":0.016580690285514905,"72":0.014144120385989774,"73":-0.04541675013278478,"74":-0.06919791798627771,"75":0.042845142396033924,"76":0.06463683397231962,"77":0.028116800864173955,"78":-0.05911897184358675,"79":-0.011591213571990834,"80":-0.021134348734713267,"81":-0.03826897870484138,"82":-0.012104435822802946,"83":-0.005703935337132636,"84":0.06359770880060886,"85":-0.12668069929539236,"86":0.020422937207972176,"87":-0.06340587792620314,"88":0.0014954309231393233,"89":-0.10588097591120697,"90":0.00009216670280868004,"91":0.0073603505733600616,"92":0.02934480496505246,"93":0.018024257908540866,"94":0.0037363693425260386,"95":0.01624909763851522,"96":-0.022362768720960914,"97":0.015345565217954799,"98":-0.04892989606948202,"99":0.09210938221744357,"100":0.10629115404648068,"101":0.017895393954854292,"102":-0.03697834272372195,"103":0.013148787007557752,"104":0.04059129344749582,"105":0.019425085235213545,"106":-0.07871070769223242,"107":0.03932245853522506,"108":0.0026093802162701794,"109":0.02543964983881647,"110":0.04994692147678592,"111":0.012881784481990979,"112":0.002141686433847681,"113":0.024175489311913236,"114":-0.06825949158280933,"115":0.030763301805560056,"116":0.01900676528391167,"117":0.00245535511325894,"118":-0.026431976688056236,"119":0.01594586054622369,"120":-0.030534242920508284,"121":-0.01631559565603902,"122":-0.051930766222575565,"123":0.07928219348175525,"124":-0.011319515690391135,"125":0.009220684441733684,"126":-0.03561348874552938,"127":0.018752484301399565,"128":-0.03478836589943521,"129":0.034161861715359565,"130":0.038416386839513206,"131":-0.0060512478783831865,"132":-0.08040797563642732,"133":0.060973648159260936,"134":-0.04491659697354387,"135":-0.05966716298103815,"136":0.06383577286911925,"137":-0.02707000300760686,"138":0.020471162682418637,"139":0.0034386940136772563,"140":-0.06167704947409266,"141":0.0069686755718309885,"142":0.052993985482534964,"143":-0.008604944332144164,"144":-0.009119247140606855,"145":0.018707642857827826,"146":0.07434646926456034,"147":0.043153985094535156,"148":0.00867346797458959,"149":0.08061454484732652,"150":-0.02383211698641692,"151":-0.11031720055363121,"152":0.019796822839405977,"153":0.010791077577245898,"154":0.061783362964416326,"155":0.005023581187428933,"156":0.05191453853399203,"157":-0.07110777939391894,"158":-0.058488946456811915,"159":-0.042325616880835734,"160":0.049238312353256965,"161":-0.0652570480132497,"162":-0.016436918157659797,"163":0.006812123344107461,"164":0.03557977389731025,"165":0.03188695967977591,"166":0.07142921376153692,"167":0.016368688674824168,"168":0.022980478375200862,"169":0.020376392851791415,"170":-0.001837623047309167,"171":0.07239515205371531,"172":-0.05525388715871394,"173":-0.04335960098296894,"174":0.054972161986611034,"175":-0.02595230051901039,"176":-0.029724379961361375,"177":-0.033974695783824706,"178":0.08264893398628922,"179":-0.07314090403574998,"180":-0.00869161945369149,"181":-0.022672801822556363,"182":-0.0274536552927806,"183":0.020749932512009555,"184":-0.07035067045472208,"185":0.020919801337932663,"186":0.03540886902731131,"187":-0.01152777692794312,"188":0.04987753242605889,"189":0.004779403232034972,"190":0.04988029108461281,"191":-0.02494286617086454,"192":-0.05675887047064199,"193":-0.04254092815497215,"194":0.017282727659169068,"195":0.007264140453974637,"196":0.07698087543088455,"197":-0.05952660812008082,"198":0.04090304724571252,"199":-0.015941998773599794,"200":0.05617808615773927,"201":0.042229830587746875,"202":-0.05068610099933851,"203":-0.036409523303715524,"204":-0.030048156958626754,"205":0.025050378279245174,"206":-0.00999575874177701,"207":0.042382045946539104,"208":-0.057197792958070114,"209":0.03996664342836437,"210":0.04659801329739562,"211":-0.0463661562967329,"212":-0.03472301175211511,"213":-0.031152271912196158,"214":0.05410659652459443,"215":-0.09042365721292407,"216":0.07817138037303614,"217":-0.06625205444490684,"218":0.00794977601987458,"219":-0.040406536009989495,"220":0.07664325322630433,"221":0.007873186064017997,"222":-0.005076044474311348,"223":0.012702725768737717,"224":0.017328371856142923,"225":0.04385322974719222,"226":0.023916879298750974,"227":0.024349263315203196,"228":0.04041754215657862,"229":-0.03491753991710598,"230":-0.011112087343069135,"231":-0.024180699623565848,"232":-0.09636237289069716,"233":0.0425186731613102,"234":0.11351471003230434,"235":0.0195565532770397,"236":-0.006243902254668526,"237":0.00020934638055257904,"238":0.0663374431327808,"239":-0.019920567703060936,"240":0.027350079171073852,"241":-0.037192288918982436,"242":-0.02188606795232188,"243":0.057457551121154034,"244":0.04035410134771523,"245":0.002501120579824668,"246":0.020710201563421578,"247":-0.031537107651453,"248":0.04692739610444713,"249":0.00019272821560279376,"250":0.0403091222098848,"251":0.06529462573974917,"252":0.059983848824458307,"253":0.01360936426969944,"254":0.002048421091874671,"255":0.015386683345191901,"256":-0.035722726769315954,"257":-0.020050336256898622,"258":0.010416775524055647,"259":-0.11802667735265487,"260":0.005486077897772464,"261":0.015658301435752704,"262":0.047428426139787205,"263":0.030892076528705403,"264":-0.024931515669184858,"265":-0.011982711329075886,"266":0.0012027038582647584,"267":-0.005403292400013459,"268":0.06870151491679516,"269":-0.004764717966928958,"270":-0.08090922434502298,"271":0.048865267082317865,"272":-0.050318838364686425,"273":-0.07155337958005466,"274":-0.04465721663736992,"275":0.05962414135134789,"276":-0.03532436428313193,"277":0.03947159359024666,"278":-0.027128568452533426,"279":0.04135726631518729,"280":0.02181519485005135,"281":-0.029434968352496746,"282":-0.04903316915181117,"283":-0.029522547254766857,"284":0.019046816493581153,"285":0.01848459993889413,"286":0.08942510075530558,"287":0.02441838439921014,"288":0.025693423003639436,"289":0.0241562434740136,"290":0.0431562423708579,"291":-0.0520355720500935,"292":-0.014389013690733818,"293":0.004095854001142379,"294":-0.0525679519658559,"295":-0.0592612387399685,"296":-0.03538394566169452,"297":-0.004064394768487584,"298":0.001550982760708405,"299":-0.039817443463819636,"300":-0.020117510896085763,"301":0.09748927411406162,"302":0.018671951193300305,"303":0.060590223372890994,"304":-0.024735615038343133,"305":0.04185709234709364,"306":0.08660194125031923,"307":0.16687930769189932,"308":0.062460038354983025,"309":0.07729271385655698,"310":-0.04678192334001129,"311":0.013117855852802852,"312":-0.08717037481341093,"313":-0.07153621201652761,"314":0.05780796776822388,"315":-0.024005968593906482,"316":-0.013506485437170607,"317":-0.06035597079478051,"318":0.028043559005193945,"319":-0.019184274746557206,"320":-0.0008835266004140078,"321":-0.0363949058011253,"322":0.0314738749984976,"323":-0.01416349574019354,"324":-0.02231782504255776,"325":0.016721442458410063,"326":0.04485172125508092,"327":0.07340291993639934,"328":-0.051833194523250546,"329":-0.014804128647493583,"330":-0.030477548176140783,"331":0.09142443626316306,"332":0.037858570388786046,"333":0.012326847421848036,"334":-0.06545037450745843,"335":-0.07245167951878058,"336":-0.028646406680409946,"337":-0.04204797114838097,"338":0.023440432098446855,"339":-0.0036727274612092303,"340":-0.02465042589877938,"341":-0.01847552119281884,"342":-0.012629393265890266,"343":0.009100569851269072,"344":0.049717573075823425,"345":-0.004730890806461677,"346":0.0483896937431318,"347":-0.056679452701407555,"348":-0.008900421742162799,"349":-0.052695021448491496,"350":0.06595299526977406,"351":-0.06788502725213817,"352":-0.024595885926014173,"353":0.03792257972965343,"354":0.036538339506633495,"355":-0.020462605538046352,"356":-0.09929780819173863,"357":-0.000821618566428789,"358":0.017458216503733585,"359":0.10084846228491061,"360":-0.026766198377412596,"361":-0.014602169180125647,"362":0.08790996699767176,"363":-0.026205126870723416,"364":-0.00004481422078831138,"365":-0.05005258271227884,"366":0.01013253202071567,"367":-0.0412600722900197,"368":0.05944456070716828,"369":0.09395199687808856,"370":0.05476170374227457,"371":-0.02985294726594968,"372":-0.0008325212930457372,"373":0.04242805068648374,"374":0.007804035002690608,"375":-0.002436955864508956,"376":-0.02590605410854663,"377":-0.04743520781719333,"378":0.030573048160256407,"379":0.014121266542944383,"380":-0.012760250783545864,"381":-0.016312338151799992,"382":0.03584092368691042,"383":-0.026023276234786636,"384":-0.012317853394168065,"385":0.008087529241393157,"386":0.0024471885519814765,"387":0.002967510312227632,"388":-0.07321791252431331,"389":-0.02718012585234103,"390":-0.046286554350673685,"391":0.08556425332856213,"392":-0.05572230175132189,"393":-0.04155122938781291,"394":-0.011879983408545378,"395":0.04461076525209664,"396":-0.06603092156677925,"397":-0.03801561657221962,"398":0.033557895987639454,"399":0.09838371365547283,"400":-0.027385248930889252,"401":0.045345175054501204,"402":0.0445184232172314}},{"sx":1,"sy":1,"depth":403,"w":{"0":0.03182512703989505,"1":0.00503391286695705,"2":0.0503483318742313,"3":-0.07082124887672682,"4":0.15103911974776735,"5":-0.032898008968354535,"6":0.05486376937203186,"7":0.027262629198713847,"8":-0.008987971515410236,"9":-0.0008608658996739309,"10":-0.05598253186974373,"11":0.002313834193773988,"12":0.11662509786187122,"13":0.0153476395586727,"14":-0.00029720684003788024,"15":0.052014260397217196,"16":0.04549137149226804,"17":-0.02433633389278393,"18":0.040602942729939834,"19":0.042203452535021814,"20":-0.029473854844704325,"21":-0.08169300690039785,"22":0.004867781664441278,"23":0.07384106453031114,"24":0.0481295857195238,"25":-0.04398314591808221,"26":-0.004182586714580548,"27":0.09405234148917442,"28":0.05014135636394712,"29":-0.01488776053641865,"30":0.015448167233140778,"31":0.01607828003666294,"32":-0.05089841917744967,"33":-0.008320342459159098,"34":-0.00017209026674164504,"35":0.0642870628580433,"36":-0.040194336675133446,"37":-0.004301417650505033,"38":0.027616360201815644,"39":0.02104930113474879,"40":0.08396636028638425,"41":0.02893442100705213,"42":-0.05323236851391584,"43":0.03262753384240045,"44":0.003828951065613801,"45":-0.011741978439638256,"46":-0.027997003312773702,"47":0.05344921435789276,"48":0.03389884096911839,"49":0.002907967690702904,"50":0.007075635419972791,"51":0.0628994968831882,"52":-0.04241962862597065,"53":-0.04488501942852665,"54":0.002941224941910591,"55":-0.058237674083069846,"56":0.0925452002515483,"57":0.0705584501298695,"58":0.06533110426172513,"59":0.011432461311264385,"60":0.036225160134868435,"61":0.05572776955634302,"62":0.06113768627446546,"63":0.05364443306988994,"64":0.021829437492788407,"65":0.023933508416733373,"66":0.02920400678301989,"67":0.0734246790951927,"68":-0.023850515609310147,"69":-0.04930468672313163,"70":-0.05102581297271245,"71":0.056015437438530276,"72":-0.010519521655374727,"73":-0.027941373436295925,"74":0.03782443353947993,"75":0.0489188295711797,"76":0.012163842388469332,"77":0.03285468827941368,"78":0.00011360401086497292,"79":-0.06548344804387994,"80":0.04633637156991122,"81":-0.011505235436153283,"82":0.0006032888068898903,"83":0.008614129779888702,"84":-0.03663088991628502,"85":0.02271985527968317,"86":-0.0064629848034386764,"87":0.06012932277661548,"88":0.06136542566978416,"89":-0.005483189744862363,"90":0.05110199661559266,"91":0.055502357105824726,"92":0.04597025081589657,"93":-0.03254843118543283,"94":0.0714754010081242,"95":0.06081253408408573,"96":0.03104742107603664,"97":-0.05675285840095482,"98":-0.08074907658054828,"99":0.013172706615367341,"100":0.05338166112510191,"101":0.013554132620935582,"102":0.05639332714117005,"103":-0.0559604752628112,"104":0.03572382641286688,"105":-0.07471542663477489,"106":0.02351151045003547,"107":-0.07453389246891093,"108":0.06064072864445341,"109":-0.08066301419418256,"110":0.044669356937732954,"111":-0.02513310734308797,"112":0.08537248100216309,"113":0.04837516638895587,"114":0.06964102392568967,"115":0.0026091624678473402,"116":-0.01829616195536308,"117":-0.019650937690208925,"118":0.07827646876101306,"119":-0.021986567375743955,"120":-0.008470359109134459,"121":0.032328699877850024,"122":0.12635608659261077,"123":-0.025276358077395904,"124":0.02917850300523572,"125":-0.0381422299283868,"126":0.014358717189228517,"127":0.03787228354571379,"128":-0.09725435917930353,"129":-0.0025840160837925508,"130":0.005592946543856688,"131":-0.0056736755059385744,"132":0.030539371754501908,"133":-0.056693898240219115,"134":0.0307947344158626,"135":-0.058043341474288974,"136":0.03566467151436388,"137":0.06420350898078415,"138":0.014721752605139882,"139":-0.09666367124491386,"140":-0.0267131988330789,"141":-0.007830700260096902,"142":0.05302301616422222,"143":0.04010873691579944,"144":0.01018086743363165,"145":0.0011923182669290537,"146":-0.0010253247259605646,"147":-0.06641596499694605,"148":-0.05930539778435108,"149":-0.0022321471746117386,"150":-0.019993329168162866,"151":-0.015856948505392605,"152":-0.027717468862599254,"153":0.04474839216519509,"154":0.036930567114956854,"155":-0.01288195017228917,"156":-0.09963983375035426,"157":-0.1331370625007007,"158":-0.08527401450748212,"159":-0.008977444408882538,"160":0.06739099593805259,"161":-0.017180640503908568,"162":0.03474024320823221,"163":-0.01380124283053467,"164":-0.03284055449105258,"165":0.0629692248664696,"166":0.014908245826393733,"167":0.08477112599332472,"168":0.001201252832422405,"169":0.12826235540761477,"170":-0.005104158156788322,"171":-0.05082653161367257,"172":-0.010418187976896212,"173":-0.02585087360699011,"174":-0.03819227450347239,"175":-0.00049737409817792,"176":0.08729292905434752,"177":-0.029253368860373778,"178":-0.05831873680656622,"179":0.004389935573215079,"180":0.06781831885433412,"181":-0.013496909835372049,"182":-0.045482452874019925,"183":0.02615009890013895,"184":-0.055989605007157425,"185":-0.0025837061991096184,"186":0.09945120094637602,"187":0.09182049534736535,"188":-0.005741202362114597,"189":-0.004833749154339806,"190":-0.043220415404674514,"191":-0.021779695825877986,"192":-0.06643558597981783,"193":-0.02942354871634943,"194":-0.016521869306078674,"195":-0.07212830751464187,"196":-0.05302432991579088,"197":0.050082108358963755,"198":0.00912551367398359,"199":-0.05158764027626562,"200":0.05939897419936247,"201":0.0035417562050281265,"202":0.04117197500099946,"203":-0.04763798506102044,"204":0.066953606249474,"205":-0.12103223549937457,"206":0.010754494374722796,"207":0.028627600606191583,"208":0.07324255534760522,"209":0.03413861475252594,"210":0.04194066193280944,"211":-0.0148068109113286,"212":-0.04840471354603129,"213":0.01236874432613224,"214":-0.05211952484499358,"215":0.005900815955050776,"216":0.060680504036386244,"217":-0.07664495371872176,"218":0.02620418764942641,"219":0.05430364599606693,"220":-0.06827072952930985,"221":0.08773544653067686,"222":-0.03653746017897716,"223":0.05013203166497119,"224":-0.00801764612588434,"225":-0.01572625211319441,"226":-0.039350436033587434,"227":-0.012471434078396293,"228":0.026115308455762078,"229":-0.002319841281340077,"230":0.07927449271856238,"231":0.04935138099219625,"232":-0.025540080699496804,"233":0.013188268051384518,"234":0.022848118882917087,"235":0.057368554663384426,"236":-0.0001332332519840845,"237":0.018180258497821736,"238":-0.04591905864351987,"239":-0.08192609958956944,"240":0.08456267900746689,"241":0.03042361610875256,"242":0.021094607261371145,"243":-0.044472836099792586,"244":-0.03968307379844574,"245":-0.045132448000701694,"246":0.0187228862206925,"247":0.06970866560805376,"248":-0.04384610695470123,"249":0.02183935554027073,"250":-0.0054424115219912075,"251":0.0176243439076198,"252":-0.04698024759328403,"253":-0.010306599915774668,"254":0.06342076032777606,"255":0.025409811806058284,"256":-0.02281355438674609,"257":-0.037762878189271515,"258":0.051400339868566486,"259":0.02960832426809612,"260":0.06577878328613093,"261":0.07898866508773372,"262":0.02572914566616025,"263":0.005131692087375154,"264":-0.09377915932948332,"265":0.023044226170665042,"266":-0.01447503044521017,"267":-0.10919685222146361,"268":0.00025600802479933485,"269":0.06740278031994076,"270":0.03961046707386545,"271":-0.07673833222626232,"272":-0.02298086065131314,"273":-0.012003713123781406,"274":-0.03241995122075261,"275":-0.03833458089244907,"276":-0.03744202927650335,"277":0.10175846705059231,"278":0.002861821143393944,"279":-0.02346512214746225,"280":-0.06181277946603275,"281":0.030517765397782066,"282":0.04547643926283036,"283":-0.06771778158636747,"284":-0.02238625891613319,"285":0.034939282780579825,"286":0.06344569896492154,"287":-0.015130260640097091,"288":0.00040474584444891973,"289":0.00098410525075012,"290":-0.09477351232949112,"291":0.06611506724256021,"292":0.032037433890142235,"293":0.056264722474366674,"294":0.04891963005326156,"295":-0.0545175260944107,"296":-0.003293209005254859,"297":-0.0287458369003155,"298":-0.0002557796420486538,"299":0.0382835722336599,"300":-0.06517975462069618,"301":-0.02395121642278655,"302":0.014019728118601717,"303":0.06881296850397682,"304":-0.03713991052358084,"305":0.013957599245016045,"306":0.008740599942449146,"307":-0.025205985570312648,"308":-0.07234962059520655,"309":-0.026231601148056508,"310":-0.0787034448075453,"311":-0.04744582445224884,"312":0.052653127998307195,"313":-0.03723495440236089,"314":0.09630124580739428,"315":0.0401104440434921,"316":-0.05775818971763717,"317":0.049651116717602854,"318":0.04176372653085648,"319":-0.06219044561026081,"320":0.03558330406590159,"321":-0.012883906012151515,"322":0.009966714862603419,"323":-0.0683730239509158,"324":0.024036805895302195,"325":0.08493409700539552,"326":0.07258714356736835,"327":0.048802176468745066,"328":-0.01474249465792323,"329":-0.03785172195203,"330":-0.07719047841228613,"331":0.09962386509416453,"332":-0.05774433507107677,"333":-0.006650813830946096,"334":-0.02968254630407183,"335":0.07080510957284666,"336":0.014424329684693362,"337":0.0011165766066619015,"338":-0.040789343688520434,"339":-0.08160259804946703,"340":0.04969681594536643,"341":0.04232520819134416,"342":-0.017935663068982147,"343":-0.010365214302539784,"344":0.022364021479290307,"345":0.004247676620720418,"346":-0.11658314394143571,"347":-0.01123921768490504,"348":0.03178863776115762,"349":-0.018540026947868122,"350":0.07156600738288452,"351":0.01936779018623892,"352":-0.0438685057900909,"353":0.060405398192097615,"354":0.024762981526076266,"355":0.04509666184155346,"356":0.10333629223119126,"357":-0.07048760448467603,"358":0.08022004717204431,"359":0.03981481786699183,"360":-0.05312237736743308,"361":0.012721702780888104,"362":0.020284041983921204,"363":0.031228420474075896,"364":-0.041684680643270716,"365":0.13218023020637568,"366":0.05248021422393699,"367":-0.0879820559034808,"368":0.0023333655018666732,"369":-0.048503230801608566,"370":-0.0695442696452095,"371":-0.03199357151491792,"372":0.05642379392886126,"373":-0.013973426310459842,"374":-0.03246552132590743,"375":-0.009366730490979518,"376":0.08244514943093882,"377":0.016014326681382973,"378":0.01804926081081253,"379":0.11736479895067244,"380":-0.04152361778365173,"381":0.13683335240164743,"382":0.023954967842328794,"383":0.027891657905983906,"384":-0.0706611027792352,"385":-0.05180124146904342,"386":-0.02674333779085628,"387":-0.013234783146537208,"388":-0.0005591960781516483,"389":0.006651095345083155,"390":-0.07298912525678058,"391":0.06547406155367716,"392":-0.035283554692646005,"393":-0.08006151130859757,"394":-0.013714339133303602,"395":-0.14796378810176558,"396":-0.01205252533878273,"397":-0.00029516777907954837,"398":0.0037921501963892805,"399":0.05107983357682635,"400":-0.06285124201436346,"401":0.03613604177897777,"402":-0.06665096082263502}},{"sx":1,"sy":1,"depth":403,"w":{"0":-0.0886761106021444,"1":-0.07864315435281281,"2":0.04787617564578707,"3":-0.020825492355891,"4":-0.030664700625271487,"5":-0.07934620333228433,"6":-0.004330197413556158,"7":-0.026193199621174418,"8":-0.05319301477518342,"9":0.05741795885264131,"10":0.009918717426913587,"11":-0.14542646159969333,"12":0.06258379179620004,"13":0.0012644641231223002,"14":-0.016273451092761473,"15":-0.014308946410811913,"16":-0.009727994240175493,"17":-0.041741507874823155,"18":0.044433207932325886,"19":0.006738318451552271,"20":0.0379532362491508,"21":-0.03438420229649604,"22":-0.0319310463964182,"23":0.06844268062189127,"24":-0.06288183430622653,"25":-0.02423987076398168,"26":-0.007176798281634826,"27":-0.11803257961304685,"28":-0.04715193180408592,"29":0.00374639673376631,"30":-0.009436330473594514,"31":0.024033065282549098,"32":-0.04920343517759094,"33":-0.002302058027086901,"34":0.013107884740112262,"35":0.016550429188470505,"36":0.061947397994411214,"37":0.05585741277187006,"38":0.01967744864943029,"39":0.059780791198809885,"40":-0.010347758061282188,"41":-0.13032438745446828,"42":-0.006252982636707986,"43":-0.0360913891482155,"44":-0.02249982224218842,"45":0.06600559468952948,"46":-0.011849634175558777,"47":-0.005431714930493166,"48":-0.0017643154658990448,"49":0.034490649430401935,"50":0.018607044576771616,"51":-0.04362805645376298,"52":0.004288476938431949,"53":-0.020133218999695154,"54":-0.04513731910724035,"55":0.06291625778266037,"56":-0.04610650306556338,"57":-0.04824435822215946,"58":-0.058203629732191405,"59":-0.030817877768619214,"60":-0.036128580944647964,"61":-0.07936765840337628,"62":-0.0482481354231923,"63":-0.01417315421135496,"64":-0.04417968336714984,"65":-0.028960973701444077,"66":0.05734634530702815,"67":-0.009261744982452679,"68":0.026021209214039054,"69":0.03310476564846397,"70":-0.04065568001294654,"71":0.007995417691320608,"72":0.058425483056187805,"73":0.017322725647228247,"74":0.05562957236771211,"75":-0.02956098865576564,"76":-0.08494172344192032,"77":-0.02908121889664887,"78":-0.0055139185894845484,"79":-0.04721838379337137,"80":-0.01901202255495144,"81":-0.07984067058464549,"82":-0.014183242470922243,"83":-0.011471395788340192,"84":-0.09902382772173336,"85":0.026010304822106693,"86":0.04888215530472926,"87":0.09195863336530076,"88":0.02901186335043071,"89":-0.008724508014751067,"90":-0.02321534856138296,"91":-0.06797843807522957,"92":-0.05424290099475113,"93":-0.03679382871843074,"94":0.09343876948272885,"95":0.05770589039604148,"96":0.04835351954623662,"97":-0.02351214444008939,"98":-0.026138883226982042,"99":-0.01069773597371906,"100":0.03187275065637936,"101":0.0647271676292521,"102":0.008849958830615809,"103":0.03515298547066545,"104":0.01276038277572955,"105":-0.022763474114375515,"106":-0.04555972281128282,"107":0.06688122082081976,"108":0.002970905254030431,"109":-0.02374664788174496,"110":0.04806398475301912,"111":-0.05328851465109444,"112":0.05184996577273829,"113":-0.07964055820155747,"114":-0.036423832744480515,"115":0.03726976355414116,"116":-0.016065069265547315,"117":-0.015446285987846165,"118":0.013713350068477197,"119":0.017533420224743728,"120":-0.0676722506387316,"121":0.04187278936620441,"122":-0.02151679322328214,"123":-0.0149352269925131,"124":-0.03359225661840349,"125":-0.023961774620857874,"126":-0.037115417379611895,"127":-0.02704586209264587,"128":0.061229612163660255,"129":0.08203285554905562,"130":-0.02370133313321607,"131":-0.043587471472413084,"132":0.1315053256330927,"133":0.05970109184675115,"134":0.05970833649020505,"135":0.009908795495015707,"136":-0.01944632312770029,"137":0.0012944003601295787,"138":-0.00601435514432203,"139":0.003946997066500211,"140":-0.03721844036798875,"141":-0.07925545415503008,"142":-0.0047008542479717,"143":-0.022953894029900893,"144":0.010453649223397263,"145":-0.015183302277740665,"146":-0.029107784506047216,"147":0.05385251232675361,"148":-0.047964916583272774,"149":0.05771381301815657,"150":-0.01347490700075581,"151":-0.09196187950329639,"152":-0.06789197261892499,"153":0.032764466379997914,"154":0.009361165731253835,"155":-0.014971835140683386,"156":-0.04956397087054222,"157":0.05381958771364504,"158":0.00038633445831992607,"159":-0.07512866940058911,"160":0.018046023390077576,"161":-0.06444682954224962,"162":0.06857590834060784,"163":-0.013391177197485282,"164":0.02716865907398196,"165":0.004757169043804977,"166":0.007344206162867448,"167":0.016232931873885786,"168":-0.07810018410744747,"169":0.01553884648445996,"170":0.012861675656032018,"171":-0.005661885256293262,"172":0.02421848333627762,"173":-0.01831373931813668,"174":-0.06482154601206166,"175":-0.01935884376632935,"176":-0.03945597161637177,"177":-0.020161183288959304,"178":0.006150707687983858,"179":0.0698586232869385,"180":-0.019262495397053284,"181":-0.026700235248774972,"182":0.013378933284992626,"183":0.05303574577956205,"184":0.09550597129648555,"185":0.015044870847258016,"186":-0.03858902310657041,"187":0.06069250009530111,"188":0.10388626872469703,"189":0.02253481370398684,"190":0.005995923814629788,"191":0.023330201550620214,"192":-0.05387706291763657,"193":0.023773187888865194,"194":0.04595590686117173,"195":0.12954885039107336,"196":-0.017134300742862922,"197":0.053865096779136735,"198":0.027858491127232713,"199":-0.026906502174078157,"200":-0.16972469738396886,"201":-0.06829539640503872,"202":0.055460621644483336,"203":0.07759393273384188,"204":0.01662268965107892,"205":0.10084905731793861,"206":0.044229740345113594,"207":0.014395881339301135,"208":0.0032737586250053538,"209":-0.06932058045851014,"210":-0.0010143015238713278,"211":0.06472058293098777,"212":0.006699774573776473,"213":-0.05262884913413161,"214":0.010343208146731106,"215":-0.0032775183139144896,"216":-0.0037284889359058214,"217":0.03633251359198343,"218":0.013326323111259343,"219":-0.054866392187258105,"220":0.029621386221313717,"221":0.02200520653250402,"222":0.047655439769183745,"223":-0.025749682713552796,"224":-0.02297644715243354,"225":0.027721519674886556,"226":-0.015938626021879874,"227":0.06760489338007657,"228":0.024678547143447253,"229":-0.08104446615957456,"230":0.0534826491579571,"231":0.023127073736157976,"232":0.001859050496883491,"233":0.028040463383296896,"234":-0.02325247827295323,"235":-0.05870288321393328,"236":0.029797018974332453,"237":0.04216004697585115,"238":0.05706186326762651,"239":0.011417182002388565,"240":0.013191685725345988,"241":-0.048802828090559476,"242":-0.05696337306411648,"243":0.025661645610767315,"244":-0.05187461361686501,"245":0.10196297944103906,"246":-0.029819372569664517,"247":0.003997905334543174,"248":0.07232135549416759,"249":-0.07169083451523527,"250":-0.06988067489087725,"251":0.10307857362674507,"252":-0.008242798234278646,"253":0.11858273191196196,"254":-0.06345825846294255,"255":-0.002230844736495944,"256":0.0988955427258706,"257":-0.052709557995709456,"258":0.0499825921991756,"259":-0.04134850126148986,"260":0.04259862491556242,"261":0.03346153317569296,"262":-0.03622298461839377,"263":0.01323709921684464,"264":0.011168521716303979,"265":0.05817255653731661,"266":0.004834449388030747,"267":0.04624916795028336,"268":-0.0627647950064616,"269":0.013188836147512525,"270":-0.04137150363863232,"271":-0.03496836913036907,"272":-0.011807594341131983,"273":0.047068753511909034,"274":-0.040133438889690634,"275":-0.00892826066600137,"276":-0.10290236658821311,"277":0.057558912551371064,"278":0.008264454618676056,"279":-0.03754328087785746,"280":-0.09782569551959046,"281":-0.0037768175925309744,"282":-0.020601793244557413,"283":-0.011813587540129037,"284":-0.004574582369090794,"285":-0.009861177219897337,"286":0.12182779134571171,"287":-0.10530287758079523,"288":-0.01355840704832795,"289":0.060374832740672,"290":-0.0007371796294323857,"291":0.05756836858458834,"292":0.08495872596639112,"293":0.01807656320878946,"294":-0.005099847959803011,"295":-0.07973836563796069,"296":0.012111911831501843,"297":-0.01944664868923553,"298":0.03355793445662624,"299":-0.012139108251096677,"300":0.1540791419051263,"301":0.06627423059770265,"302":0.05010559030847341,"303":-0.03027892313124759,"304":0.0013740550237770867,"305":-0.02522264046188755,"306":-0.0399023608686401,"307":0.024680069888061738,"308":0.05694782579601864,"309":-0.017220939714622983,"310":-0.01531744837169926,"311":0.0028184004147376635,"312":0.02537020883626425,"313":-0.048488856502832856,"314":0.03561722198589553,"315":0.050859979896725346,"316":-0.03321229090182245,"317":-0.022959862450147275,"318":-0.013471746039926822,"319":0.0724587956658577,"320":-0.11727524336535565,"321":0.03870472251393491,"322":-0.06919303123465857,"323":0.03872884423999757,"324":-0.004675685696990883,"325":-0.01771814699253917,"326":-0.018308118306332374,"327":-0.0314084283079005,"328":-0.04886492668260924,"329":-0.055426151791433134,"330":0.01787314060310783,"331":0.032150321909017184,"332":0.010787338556953992,"333":-0.0030999488758225477,"334":0.1021846973321274,"335":-0.09024127963475012,"336":-0.02965317146790973,"337":0.01954794514780992,"338":-0.05065602308300476,"339":-0.08278106563091975,"340":0.041740931934448756,"341":0.051624331717782794,"342":-0.08541550260102293,"343":-0.001699666224295423,"344":0.017770866289105323,"345":0.005552191869397052,"346":0.05657228989029183,"347":-0.01200100165039541,"348":-0.004082483481710808,"349":-0.06312888103087338,"350":0.0059475854427641995,"351":-0.05401348467161358,"352":0.05488809510712417,"353":0.046044310268213824,"354":0.008965202378588706,"355":0.06238179981424369,"356":-0.026477802223888243,"357":0.03698331226897897,"358":-0.0046011867711475045,"359":-0.012387226406670978,"360":0.016715761241011158,"361":-0.01080651870635592,"362":0.008647667938551132,"363":0.021228224378735432,"364":0.06703696931184584,"365":-0.0053704839411509355,"366":0.046732246316967034,"367":0.0279205643995814,"368":-0.0642903166028921,"369":-0.020481997315801876,"370":0.0637278487942804,"371":-0.03214439772944834,"372":-0.08568520355136347,"373":0.047888593479645955,"374":-0.018436669626146648,"375":0.01755270930572198,"376":0.11367670268258162,"377":-0.003853768065210575,"378":-0.006797447587720103,"379":-0.09919061863425177,"380":0.04562986659050332,"381":0.019850488731974567,"382":-0.007285617458974976,"383":0.07537215822871318,"384":-0.06143751792595159,"385":-0.008589608262356982,"386":0.014832690447929299,"387":-0.039916053725742036,"388":0.07822613329296065,"389":-0.009226245198817618,"390":-0.06884788109707085,"391":0.05490568494305754,"392":-0.014763830113286634,"393":-0.055472063768335564,"394":0.017708797206119894,"395":-0.01285272666819955,"396":0.07282874133428728,"397":-0.01091504626353723,"398":-0.07161612460752687,"399":-0.045582233755345994,"400":0.03783823522935298,"401":0.03913107816343213,"402":0.08385500433838083}},{"sx":1,"sy":1,"depth":403,"w":{"0":-0.014591692894670341,"1":-0.007480406654066552,"2":-0.02925805846103583,"3":-0.016574098451180002,"4":0.059890511460123017,"5":-0.0309936100017601,"6":0.06511843487240743,"7":0.027637434905959095,"8":0.05103353640460782,"9":0.014674714091699058,"10":0.05550861581289139,"11":-0.06460761594967526,"12":0.054413272824799006,"13":-0.02593414595513705,"14":0.004010624528444169,"15":0.024876269068029862,"16":0.017313130472330195,"17":0.01817077311387718,"18":-0.012503051130463742,"19":0.023579827369983028,"20":-0.06445660834676625,"21":-0.015720303732015193,"22":0.03944158264199967,"23":0.0785803243450526,"24":-0.015309016450344253,"25":-0.05821706200716038,"26":-0.01844958573538401,"27":-0.04828812901398962,"28":-0.011745644004058385,"29":0.003510893971592843,"30":-0.066202731722644,"31":-0.04422760624527952,"32":-0.011707340376765034,"33":0.005051092670843526,"34":-0.013764710492005242,"35":-0.034089377994885435,"36":-0.05756887128004704,"37":0.1023271618275744,"38":-0.022796798438118465,"39":0.010409807587708125,"40":-0.05511478085808222,"41":-0.008170215543908888,"42":0.04234158151904589,"43":-0.0361933892130238,"44":0.08711207469281776,"45":0.08058831416996134,"46":-0.0420040872255538,"47":-0.0308974857477153,"48":0.032387650008745855,"49":0.06478416831316762,"50":0.0072672897378198795,"51":0.04561983128490929,"52":0.06159449948242916,"53":0.027799866060734237,"54":0.0314970192093871,"55":-0.07072192067525718,"56":0.06412777973447169,"57":-0.03199738249082275,"58":0.02894474605226341,"59":0.04840677902776898,"60":0.016438917265282776,"61":-0.004617770676372078,"62":-0.01666327520786408,"63":-0.11856335690871374,"64":-0.020811196397189344,"65":0.007745447982182342,"66":-0.06866696797159394,"67":0.0035414855058411364,"68":-0.06592172442734288,"69":-0.07112289334999776,"70":-0.0007918082179162839,"71":0.006216120865487857,"72":-0.0075948228094588595,"73":0.00008826412603987042,"74":-0.06162152738893484,"75":-0.009330545714279532,"76":-0.01297862767976264,"77":-0.0858361749527174,"78":0.0360096685966334,"79":0.025893338831323602,"80":0.004100447441215861,"81":0.01039895720881104,"82":-0.05893966000323314,"83":-0.013756912349914146,"84":-0.0889878159937756,"85":0.012068011707187848,"86":-0.0324562092076926,"87":-0.07656985596327531,"88":0.14397644699355208,"89":-0.01059672247593718,"90":-0.02422272235927245,"91":-0.06866859308543062,"92":0.006553568031018073,"93":0.06871633081961141,"94":-0.03879197619322814,"95":-0.035651334696853124,"96":0.07488504166520145,"97":0.0955887500875375,"98":-0.057127491648596214,"99":-0.007117614039880969,"100":-0.017864014636008382,"101":0.0488534750567574,"102":-0.04510261479420778,"103":-0.08962539731094446,"104":0.014763726244275188,"105":0.03685548945843784,"106":0.03543759148650718,"107":0.0190101578800235,"108":-0.09005602699454698,"109":0.05172955302782326,"110":-0.05469626911006589,"111":0.003502486070856042,"112":-0.05969448379561148,"113":0.0256994236158192,"114":-0.055490656241136076,"115":0.016088184457752237,"116":-0.039861653569449526,"117":0.009413803915874281,"118":-0.011990144125719238,"119":-0.015005484435705175,"120":-0.009574882678327184,"121":-0.056843155953743466,"122":0.07351100768396505,"123":0.11567481781370546,"124":-0.11234025733091335,"125":0.0442203886784388,"126":-0.017200170030912055,"127":0.07030822327180523,"128":-0.06158381325349158,"129":-0.03272005199340379,"130":-0.018474059912461108,"131":-0.06785400197156075,"132":-0.02830035829236316,"133":0.03536618929777764,"134":-0.013791301015931606,"135":-0.03380270385178682,"136":-0.01121255143465418,"137":-0.023356356711515706,"138":-0.012315485048341497,"139":-0.03995049345234697,"140":0.040232498968844815,"141":-0.02227430905418828,"142":-0.1194205641565473,"143":0.016949401825826632,"144":-0.07419259184214021,"145":0.030879357516661158,"146":-0.034121008143108915,"147":0.10503499288840853,"148":-0.014658393416313777,"149":-0.0005863328240402442,"150":0.03304365724658073,"151":0.05447047572487411,"152":0.046097880237143694,"153":0.05443519070962736,"154":-0.0405403393435151,"155":0.049919086894316594,"156":-0.019500378614685544,"157":-0.00379596976802523,"158":-0.07747120365092883,"159":-0.017102560929164998,"160":0.027014024492141506,"161":-0.02603018950967594,"162":0.02669774858962431,"163":0.03461232724375917,"164":-0.07103692625267799,"165":0.007490840290996614,"166":-0.020660318154785442,"167":-0.055036115003626374,"168":-0.07372494378716114,"169":-0.008172017959377277,"170":0.08393623114611036,"171":0.00907138306000023,"172":0.046255181575046746,"173":0.016087425522726777,"174":0.018581969891804623,"175":0.018829307783941773,"176":0.001844850298789923,"177":0.02283155141253766,"178":-0.05080721074956865,"179":0.02266169500722322,"180":-0.04561923403973643,"181":-0.04825022442406239,"182":-0.035395550015552626,"183":0.04513488493180378,"184":0.006046556986333567,"185":-0.008336962017089803,"186":0.03352005808362088,"187":-0.02462870623988665,"188":0.044745916490600564,"189":-0.002943183507158487,"190":-0.15662644906197185,"191":0.05976290234928388,"192":0.03180519652649377,"193":-0.027825629197634517,"194":-0.011365862269911382,"195":-0.02260024932814295,"196":-0.003153570408204679,"197":-0.024772375022848372,"198":0.020825736040590494,"199":0.06419021154030832,"200":0.05660224457100919,"201":0.03509915211417102,"202":0.0473436307479908,"203":-0.0051595747817741455,"204":-0.022389216804664547,"205":0.04277767188821906,"206":0.06747489257894794,"207":0.02025597322613012,"208":-0.03479350950020438,"209":-0.011845338125420995,"210":0.035433397986556835,"211":-0.008503465366831161,"212":-0.023566439966713336,"213":-0.026595943392953698,"214":-0.013515868324760092,"215":-0.03605065517152582,"216":0.0363827771834785,"217":-0.02045129733502932,"218":-0.033666278039066286,"219":0.02164629435893558,"220":0.027161692109167877,"221":0.03237861496101305,"222":0.0015615184339372397,"223":-0.050528478685737066,"224":0.07885493034890674,"225":0.12810201933106782,"226":0.007796279357754278,"227":0.03773978310109356,"228":0.03181972239770784,"229":0.004196600862763745,"230":-0.04449281559849344,"231":-0.035226718952093464,"232":-0.07400410111463335,"233":0.02881982877207781,"234":0.0024128577059387385,"235":0.008873300472076621,"236":-0.02742616737409505,"237":0.0728215074923502,"238":0.022699020636872465,"239":-0.004203163352967129,"240":0.020310593978764186,"241":0.05781599356225363,"242":0.07268855459327533,"243":0.04124869254077243,"244":0.007475690277558661,"245":0.08914292088409692,"246":-0.11647799562471485,"247":0.033539685657640296,"248":-0.033762786069014464,"249":0.04830092542302674,"250":0.04250403671855156,"251":-0.02940585930993239,"252":-0.03523064731484396,"253":0.06480557298383773,"254":0.01595287446135655,"255":0.003582467417038142,"256":0.02818319104740496,"257":-0.05372262039486613,"258":-0.020958355374426377,"259":0.03562940335499489,"260":0.012533883713110852,"261":0.007349272037909588,"262":0.07779054915810199,"263":-0.04895965996192998,"264":0.019625072436564424,"265":-0.1433537469809385,"266":0.008780244955603249,"267":0.02512073969987274,"268":0.008071677380535339,"269":0.04779906761893421,"270":0.021171415239585597,"271":-0.06933328586980908,"272":-0.044888116068191986,"273":-0.04932710785498281,"274":0.02674461118290337,"275":-0.012861663176547551,"276":-0.11566804957444246,"277":0.027076519108487324,"278":-0.05160490464891947,"279":-0.007785158206894281,"280":-0.005448581532439048,"281":0.013852465078304456,"282":0.010209090806850616,"283":0.0661047447860651,"284":-0.06953231812076473,"285":0.0060875016559435524,"286":-0.024906327085329815,"287":0.005111954987824296,"288":-0.019405040840096154,"289":-0.04154861096691857,"290":-0.08404115747761753,"291":-0.04125481964699109,"292":0.10161360633225329,"293":-0.060078379714889246,"294":0.008701551725178681,"295":0.010109890299768918,"296":-0.07386448030915674,"297":-0.03773567800539302,"298":0.04760431500706815,"299":0.045513976802307184,"300":-0.03999268453760642,"301":-0.028904569346118333,"302":-0.14358100916866767,"303":-0.02674664184693625,"304":0.060352335390967224,"305":0.061968344748704544,"306":-0.020537593811660017,"307":-0.007866592864812165,"308":0.01427047128825765,"309":-0.06610823083994664,"310":0.07387803371577321,"311":0.0068395878722958235,"312":0.04563181917732692,"313":0.05199052955477697,"314":0.04119116990073797,"315":-0.018814272235308432,"316":-0.004197435986346422,"317":0.014833492385593358,"318":0.012244397709574755,"319":-0.04503703072804554,"320":0.05640083200365302,"321":-0.02957676459601907,"322":-0.03188965845101921,"323":0.02630779337528378,"324":-0.1262075550560433,"325":0.0005584725037528155,"326":-0.03924414827454005,"327":-0.004457123643567526,"328":0.012329487914020087,"329":-0.03449310374428082,"330":0.04046947678985772,"331":-0.03325763721515517,"332":0.05387816917267856,"333":0.07035085606012922,"334":-0.045127306411755386,"335":0.11095355822027345,"336":0.05884585844904673,"337":-0.05895121561550828,"338":-0.03122586974801403,"339":-0.01657906717591787,"340":-0.04344576589499244,"341":0.029517808173225666,"342":0.04110532305770788,"343":0.07051854967137336,"344":-0.008407280317468228,"345":0.0067472001618240395,"346":-0.005548154536380501,"347":0.004328272432044126,"348":-0.009772170073419987,"349":0.029132572993239316,"350":0.021694362545917268,"351":0.0653855816843426,"352":-0.02060847397286921,"353":-0.0003338181372702761,"354":-0.017838540250013104,"355":0.002154056970038942,"356":0.06263326367007757,"357":-0.07849045787975355,"358":0.05848438650026811,"359":-0.0003062649351754593,"360":0.06122245638160717,"361":-0.005325085323071155,"362":-0.00860679105069556,"363":0.01705825204530351,"364":0.0014988661056057533,"365":0.019706876930950364,"366":0.006738886454754541,"367":0.0010447316549218192,"368":-0.03740117605655127,"369":0.05939817280484874,"370":0.056997239771585294,"371":0.015677445715907987,"372":0.06843361683822828,"373":-0.028428958997917128,"374":0.05353508374994433,"375":0.04703736256246936,"376":-0.034523785842972096,"377":0.013030172277317972,"378":-0.005594759594896886,"379":0.017026632351081476,"380":0.036458049326925236,"381":-0.02402290214494478,"382":0.001894582681777326,"383":0.08104360118071888,"384":0.04940367416662487,"385":-0.044589083915176464,"386":0.003377986694100806,"387":-0.009057251154112376,"388":-0.003452755536874977,"389":-0.02969510334800311,"390":-0.013364025808543983,"391":0.040745406290031,"392":-0.0054449919847441115,"393":-0.01948649742357782,"394":-0.05610758532419762,"395":-0.057787831738598174,"396":0.033736095065090836,"397":0.011983900043061158,"398":-0.07909777530436207,"399":0.016527172499998254,"400":0.08647270341141028,"401":-0.013373340178999747,"402":-0.02588660653545751}},{"sx":1,"sy":1,"depth":403,"w":{"0":0.05545321230245355,"1":0.0008704750146689056,"2":-0.052552971011643725,"3":0.017251889201079066,"4":0.023372957885790673,"5":0.04328733888598077,"6":0.025474127610738324,"7":0.01131993857444501,"8":-0.07154405126346292,"9":0.006789355060883986,"10":-0.11052660037443668,"11":-0.05075986851732095,"12":0.04846285412461958,"13":-0.05959148097087523,"14":0.008568402022592505,"15":0.037616743075071166,"16":0.04233061773721444,"17":-0.0033043934267338896,"18":0.022779485590989183,"19":-0.11104948956218406,"20":-0.030136809189866887,"21":-0.046823160925674664,"22":0.02617383093655744,"23":0.025621752327396375,"24":0.05016022063568046,"25":-0.05890195332170884,"26":0.05157481066998471,"27":-0.07005167835048717,"28":-0.006688494113887047,"29":-0.030260311650224653,"30":0.027120936738765197,"31":-0.006301523763590566,"32":0.02826956680970094,"33":-0.017422324385360517,"34":-0.07576942111756696,"35":-0.07325795967335662,"36":-0.03396988806180141,"37":0.02341161980370663,"38":-0.03734856880090222,"39":0.045782359827181436,"40":0.00941097830371486,"41":0.022928605421543895,"42":-0.06992639865384996,"43":-0.08662960951431563,"44":-0.049702567645261896,"45":-0.04232282503979481,"46":0.002956531578222251,"47":0.07465925401264602,"48":-0.10874174307249675,"49":0.0035816780702387562,"50":-0.009915855721427143,"51":-0.023279863603168607,"52":-0.031349598333160505,"53":-0.1094752859585772,"54":0.0005921288455826016,"55":0.03924098776559792,"56":0.08903789810980707,"57":0.038070571286261456,"58":0.12515819043472404,"59":-0.027588567493962268,"60":0.01804724162836225,"61":0.03868464607627762,"62":0.029604263932192062,"63":0.02176090970163088,"64":-0.04210975349705922,"65":-0.05773188442693685,"66":0.06588044707351587,"67":-0.06749536642208138,"68":0.054045427744921784,"69":0.05921339642035784,"70":0.00038819516574281935,"71":-0.12166703922390605,"72":-0.01720650059679237,"73":0.010170713917145538,"74":-0.06753927291384121,"75":0.016228587910736763,"76":-0.06131286551544123,"77":-0.004843268388969651,"78":0.03188352974053348,"79":0.03667045958783816,"80":-0.0749903014490081,"81":-0.0037496953982655242,"82":-0.076983610670605,"83":-0.10868264523860952,"84":0.045525746901290624,"85":0.036723860968039486,"86":0.004029408652800407,"87":-0.017132705643821567,"88":-0.0488757405148124,"89":0.00268730024298065,"90":0.04362140781390977,"91":0.002833338439944499,"92":0.05676211264805635,"93":0.016568904327766972,"94":0.08757256049786673,"95":0.03532429546903127,"96":0.04440720870476057,"97":0.005852986273474127,"98":-0.018806857842444527,"99":0.039245761678656045,"100":-0.04296306601809621,"101":0.029832210637818445,"102":0.04834572332942139,"103":0.001763772057415344,"104":0.0029530944907052254,"105":0.09320845093919305,"106":-0.0673903255001422,"107":0.05393192321799933,"108":-0.0041377118252866486,"109":0.019729343040630003,"110":0.021034913098651176,"111":0.0974405844662439,"112":-0.0032172058238901027,"113":-0.01585565277788696,"114":-0.017702620495915998,"115":-0.05189705868528576,"116":0.06726018754649946,"117":0.005606550431932437,"118":-0.12031668014011565,"119":-0.062138956930487044,"120":0.0008320839410327255,"121":-0.05588338496241001,"122":-0.06582950298065264,"123":-0.059086255555461306,"124":-0.016952739011413944,"125":0.0327324078323728,"126":-0.08171092287871319,"127":-0.08819582391532191,"128":-0.010169051395430635,"129":0.011653830942538494,"130":0.05076799592196123,"131":0.08731259056327532,"132":0.02019652737635987,"133":-0.10673945855193337,"134":-0.1269656758524091,"135":-0.04709496106211247,"136":-0.01196515870188921,"137":-0.029340976581249737,"138":0.03146164675128107,"139":0.026720881822209677,"140":-0.022523075715100226,"141":0.03046403817604513,"142":-0.05203542690205519,"143":-0.019196565184644184,"144":-0.026580386749281863,"145":0.09771551603468387,"146":0.03417671814208775,"147":0.09104487296946556,"148":0.049394726858436405,"149":0.03868111718116937,"150":-0.026473446313693205,"151":-0.007544707034917174,"152":0.056472321536998375,"153":0.0411986880047085,"154":-0.02347418989196228,"155":-0.05668172263504036,"156":0.06246330027144168,"157":-0.04195067497506434,"158":0.025086878757960267,"159":-0.02479130913599112,"160":-0.004917787832148883,"161":-0.05037957761524318,"162":-0.010709095732392435,"163":0.015275822788318556,"164":0.10538964024906841,"165":-0.023932267027957005,"166":0.03649703097053736,"167":0.0718217629878396,"168":-0.042571534776510385,"169":-0.00785194337756687,"170":0.027257480801321184,"171":-0.10725164557740098,"172":0.07955654295460522,"173":-0.049609885355235236,"174":-0.027660843809621076,"175":-0.060819771768190194,"176":-0.05346846645979554,"177":0.04810801559271465,"178":-0.009649003149494075,"179":-0.08024243895473505,"180":-0.04271382955158288,"181":0.06801974422866233,"182":0.03321342123636571,"183":0.02917840640628022,"184":-0.0006286055619674736,"185":-0.0016387798285841804,"186":0.055107739798506576,"187":-0.021754672992939345,"188":-0.022779791913709047,"189":-0.006469213055697433,"190":0.00784521137415611,"191":0.046558521595656835,"192":-0.04852110710560666,"193":-0.016509052411229658,"194":0.03323422098703217,"195":0.046868341637474026,"196":-0.009961695786941529,"197":-0.068026589514019,"198":0.0624710301338913,"199":-0.031211221373034524,"200":0.03656463213675307,"201":-0.061393907133689224,"202":0.14352415012360872,"203":0.03470188575703841,"204":-0.005848613431944162,"205":0.025082711604634718,"206":0.08210381651005184,"207":-0.005316197812855846,"208":0.055486313450892576,"209":-0.03686133242385641,"210":0.04731285872088091,"211":0.031401745264838986,"212":-0.02649656590229232,"213":-0.04472861203961918,"214":-0.10854107988148566,"215":-0.026302761465120252,"216":0.0025135079133163456,"217":0.026729163133534885,"218":-0.012738032316188154,"219":0.01637699528607162,"220":0.027289190864381082,"221":-0.007737939312067679,"222":0.01231411727903153,"223":-0.03756714206994087,"224":-0.08772731487228058,"225":-0.026555600891745416,"226":0.06866082124197465,"227":0.012826220860706554,"228":0.0006340325313333797,"229":0.025769200427339153,"230":0.05952883457774024,"231":0.02578236259166926,"232":0.028149597269661857,"233":0.0030392192599182433,"234":-0.02833361038568517,"235":0.053790708110000356,"236":0.015546567839651146,"237":-0.04927076190820337,"238":0.05936527611286587,"239":0.04492545979963832,"240":-0.06053740639134323,"241":0.07423314662320381,"242":0.12415148343902982,"243":0.08365825843188424,"244":0.04680828591623372,"245":0.10280375053761746,"246":0.0022712941566867114,"247":0.011700364528356278,"248":-0.044483449288201894,"249":-0.02634341715033486,"250":-0.04033130982328039,"251":0.0078645078151498,"252":0.08511743542205907,"253":-0.013147033131409018,"254":0.1238602526877837,"255":-0.08773134420062047,"256":0.06023158846153799,"257":-0.11955595211038031,"258":0.06447802840731347,"259":-0.013195328007192359,"260":-0.09242411542492462,"261":-0.07294240166036688,"262":-0.10228617597233969,"263":0.03892337799479881,"264":-0.05453550288143926,"265":-0.04871637921864393,"266":0.06703700906340522,"267":-0.041425609720508745,"268":-0.0011466977788643228,"269":-0.09902453702754002,"270":0.0038831909108438694,"271":-0.019987866021701307,"272":0.05748650437990506,"273":0.04954827829603794,"274":0.027828351749274116,"275":0.08203316392844791,"276":-0.07782009577677808,"277":0.04841844538262012,"278":-0.07651304944635141,"279":-0.006069188629354136,"280":0.05548973862608725,"281":0.06492550174741524,"282":0.036065568323229574,"283":0.05556008714164705,"284":-0.04095683165332202,"285":0.07958667943683766,"286":0.03446987057324854,"287":-0.04034221438170405,"288":-0.021936804378792845,"289":-0.04720880564931359,"290":0.06907829307049791,"291":0.003558461878059396,"292":0.0021118066142321525,"293":-0.013975805494966704,"294":-0.006390448216454803,"295":0.06142233489951357,"296":0.003965893232377567,"297":0.1174811959549439,"298":0.0188694444453992,"299":0.03331716931223,"300":-0.01216663851858963,"301":-0.048459573516654704,"302":0.04534648318488225,"303":-0.022713455984035482,"304":0.0032882257420481517,"305":0.028114082611059903,"306":-0.02372225137391359,"307":-0.03308679312621997,"308":0.04952897981629469,"309":0.0462797857610086,"310":-0.03886451436842809,"311":-0.012774570581332228,"312":-0.0024768577654350416,"313":-0.009388671922703444,"314":-0.006989810303461012,"315":0.02857100595592889,"316":-0.0021441432239470387,"317":0.005204638608070281,"318":0.009951938929764184,"319":-0.02061861420532185,"320":-0.019607852546308865,"321":-0.05856375308490924,"322":0.06314211214447153,"323":-0.07435181719669487,"324":-0.010827027989576254,"325":0.002524114080624704,"326":-0.03597645265277877,"327":0.09713624612743185,"328":0.06734344772539676,"329":0.08128074539367597,"330":-0.01437223430723089,"331":-0.08223662854102352,"332":-0.020865088657378305,"333":-0.027518349715342248,"334":-0.0483135552117946,"335":-0.09511753604896106,"336":0.03231276098730885,"337":-0.017015072225862463,"338":0.1256515598804188,"339":0.009915380920043168,"340":-0.0011872310825738245,"341":0.0008788816940339281,"342":-0.023674411955633207,"343":-0.11886131749142285,"344":0.013084051992677122,"345":-0.015913167254208688,"346":-0.01479482644307556,"347":-0.07133055564596834,"348":-0.08605895008946941,"349":-0.05238035404709864,"350":-0.023245354796492416,"351":-0.02452856285260578,"352":0.05957285096656063,"353":-0.052404326267812364,"354":0.10911718158342827,"355":0.00857592657404027,"356":-0.02929204086979892,"357":0.02147440160608109,"358":0.17304360926503118,"359":0.021584987294352147,"360":-0.017552695604065263,"361":-0.011778804385490614,"362":-0.016632093351635267,"363":-0.036828837000414186,"364":0.06394464801044303,"365":-0.06574279345946392,"366":0.05447049608488543,"367":0.06505212788728264,"368":0.12458146236274148,"369":-0.012346584606533768,"370":-0.04191998713101825,"371":0.12315544549356726,"372":-0.12925766156200816,"373":0.009099364740302918,"374":-0.02580955746264719,"375":0.0019913976408706207,"376":-0.0857686622182911,"377":0.0009136138726377207,"378":0.01032591609817798,"379":-0.018046073211963186,"380":-0.002225546378765451,"381":-0.023966590094798228,"382":-0.08078156965778498,"383":0.11010598686922078,"384":-0.05246693001549659,"385":-0.006163109455572792,"386":0.010734604404692911,"387":0.035807523581258424,"388":0.032713765074452665,"389":-0.0028623562098598785,"390":-0.02219292442638234,"391":-0.018463998473279543,"392":0.05686883988464554,"393":0.015352156988699408,"394":-0.022933704303054164,"395":-0.047563049367400675,"396":-0.034158180675198324,"397":-0.004368804934427573,"398":-0.017467673220401974,"399":-0.03666831965300107,"400":0.02429662958518354,"401":-0.026041756742266817,"402":0.03969295235943037}},{"sx":1,"sy":1,"depth":403,"w":{"0":-0.020416819906120567,"1":0.017876444949780648,"2":0.005362774036035059,"3":-0.016124585833291037,"4":0.049004968588585704,"5":-0.028935757384863044,"6":0.02131361863631881,"7":-0.041183617479052276,"8":0.06388910646564128,"9":-0.04689724939582096,"10":-0.06923804934686385,"11":0.06538822053740428,"12":0.04189889534192342,"13":-0.03681635133722068,"14":-0.008468357624242997,"15":-0.008579325388764915,"16":0.04830699457784018,"17":0.008532970912231232,"18":0.08335557673875447,"19":-0.0021713749659468835,"20":0.05835816877051718,"21":-0.012365507707185917,"22":-0.02715627690234506,"23":0.07486559637672338,"24":0.016597877157919855,"25":0.005675375494832439,"26":0.051174522590991055,"27":-0.009053751310503037,"28":0.04209933117086745,"29":-0.015215137668525766,"30":0.02215686863727464,"31":-0.023688913535613206,"32":-0.09849854358271119,"33":-0.031438131440274485,"34":0.03478243897399497,"35":0.07419175520603837,"36":-0.00010590136439743187,"37":0.06257843302245311,"38":0.014167926487595635,"39":-0.017939240219563977,"40":-0.07803916762832783,"41":0.044577530657668354,"42":-0.005657821826271729,"43":-0.07840893837896407,"44":0.030125152889317913,"45":-0.12753516285163832,"46":0.08248196674629399,"47":0.0359988426502885,"48":0.05581707055983134,"49":0.018487996992297508,"50":-0.01243939005847961,"51":-0.04447259545619362,"52":0.04027061162278652,"53":-0.0661727478864991,"54":-0.04667463059314884,"55":-0.08493913954312254,"56":0.08533100016145355,"57":0.00015827595681722597,"58":0.018385375256717747,"59":-0.06672207440268713,"60":0.0006193837612483794,"61":0.011483772259515084,"62":0.035077076493374056,"63":-0.014894510847770605,"64":0.03387290945916685,"65":-0.07638081403023328,"66":-0.13253084490755343,"67":-0.01611284393864977,"68":-0.0056132726161612625,"69":0.02623575828791129,"70":-0.014736624553954577,"71":-0.05462645575043565,"72":0.05398330750781166,"73":0.016433513996218885,"74":-0.030989317919457218,"75":0.020274819408613427,"76":-0.07471467390321426,"77":-0.0022473633083809246,"78":0.018750988529632744,"79":-0.0006977706499219626,"80":0.003221532938332944,"81":0.05196810062252202,"82":0.08519672726202779,"83":0.00522301125798844,"84":0.00018801619654108635,"85":0.03084810647988869,"86":-0.006040984356704024,"87":0.05482020408217155,"88":-0.013579225595989322,"89":0.004691226001025869,"90":-0.02365009388247111,"91":-0.04782298187125901,"92":0.09343887096849002,"93":-0.004664451386460218,"94":0.005106282706544976,"95":-0.050023863927079665,"96":-0.017620604681490664,"97":-0.03219958426102098,"98":0.059412958459820926,"99":0.1085742878985539,"100":0.04696106098328173,"101":-0.06610299284896978,"102":0.04807203137209516,"103":-0.04757726402558502,"104":0.05036138091795799,"105":-0.06324433360528493,"106":0.0006226191514914629,"107":0.03916389003538234,"108":0.0395872648254144,"109":0.028389258720659876,"110":0.0018985421819783346,"111":-0.024843728248950366,"112":0.040192355276792595,"113":0.013290294070863172,"114":-0.05355982744101666,"115":-0.04886006386308378,"116":0.012464291938433712,"117":0.01833134087160274,"118":0.034084087025093815,"119":0.01864727196966693,"120":0.010318820957580717,"121":-0.0033140057543741765,"122":-0.04284946250296982,"123":0.027182864674376712,"124":-0.017385053124653993,"125":0.006677983417918876,"126":0.0033463498793749867,"127":0.04404337900422959,"128":-0.08412280510143433,"129":0.08272576431307135,"130":-0.011331562820851378,"131":-0.08386038939171114,"132":0.036228031897632205,"133":0.0758948360375908,"134":0.03610092659762413,"135":0.06636649810175041,"136":0.03482097582934137,"137":0.015596376397831634,"138":-0.11663099607183003,"139":-0.0077109846882753574,"140":-0.02480026273355245,"141":0.027794606632799125,"142":-0.04249243139804654,"143":0.005480961757954214,"144":-0.04636604205975445,"145":0.05582167564885736,"146":-0.007239434117517672,"147":-0.029362419825329472,"148":-0.03717810530693861,"149":0.0033110348100767076,"150":-0.0009936981562031328,"151":0.01113165717034947,"152":-0.04049899145490482,"153":0.0624909784999936,"154":0.05611242584525525,"155":0.03221270080590099,"156":0.08872451769482652,"157":0.014130629427129709,"158":0.044528695542175825,"159":0.010672390226419241,"160":0.05458501866276789,"161":-0.048140214331478005,"162":0.030781403727557964,"163":0.011150100316760194,"164":-0.08706197484691741,"165":-0.042508831304834835,"166":0.0178299518301019,"167":-0.025424636566573348,"168":0.08694584591345607,"169":0.0033031590799166162,"170":0.1178462699404379,"171":-0.03385213552131715,"172":0.00796028222998385,"173":-0.0049773988099252355,"174":0.03455702531038414,"175":-0.08441520845584387,"176":-0.025957884135484104,"177":-0.00150668058298382,"178":0.06195105797059308,"179":0.017825165806350136,"180":0.08771311018341288,"181":0.050338591964796196,"182":-0.002281544240845327,"183":-0.0021143883444694747,"184":0.04564236513478927,"185":0.06244106705005273,"186":-0.029266139011514883,"187":-0.07788356983628256,"188":0.005752595771780297,"189":0.05642620644168108,"190":-0.042917649730043056,"191":0.02083810138047143,"192":0.029841239954895574,"193":-0.040861747931979234,"194":-0.018973584693352342,"195":0.03765183412285619,"196":-0.0314831759913332,"197":-0.027481246671849133,"198":-0.013641986532149205,"199":0.0922699574115848,"200":-0.042542476520738885,"201":-0.029368637863629483,"202":0.006310012688760631,"203":0.00005037320281072918,"204":0.09109678455303,"205":-0.04059776129757085,"206":0.04975041204025632,"207":0.019331866306211073,"208":0.03437527677160265,"209":-0.04618156991651209,"210":-0.06613586911752879,"211":-0.030716953184773625,"212":-0.03329598274502539,"213":0.04912161095317718,"214":0.004715203813783596,"215":0.05201446665651597,"216":0.10654023339315775,"217":-0.01159762685082315,"218":-0.09263997754738003,"219":0.06281288963371312,"220":-0.0017990101898902274,"221":0.030491369604886204,"222":-0.039530729489424356,"223":0.056952376429926,"224":0.020930958418421772,"225":0.006717005684708646,"226":0.027377243374127537,"227":0.003951679341530236,"228":0.027334214155440233,"229":-0.0112641878752057,"230":-0.07116361868351237,"231":-0.024336646785277406,"232":-0.0485831954349037,"233":0.05112082265893692,"234":0.02755377042688711,"235":0.023183547926038627,"236":-0.08438111225481465,"237":-0.008224795456731621,"238":0.007098267761188673,"239":0.0312026640952193,"240":-0.0063033138136293285,"241":0.006425987517512834,"242":-0.0183144617298399,"243":0.021206971785331038,"244":-0.08864418675207644,"245":0.010341042192556221,"246":-0.025414730810163565,"247":0.09902674951581694,"248":-0.02146504454079877,"249":0.11016775921800297,"250":-0.05871323453164849,"251":-0.07801294109023107,"252":0.0091276683109129,"253":-0.029475294626245728,"254":-0.015176710487776844,"255":-0.059844479944250295,"256":0.017854959369268092,"257":-0.056369663770980245,"258":0.00014827179841201635,"259":-0.01645782688894538,"260":0.02796570821141255,"261":0.061557850478456036,"262":-0.022996701221076526,"263":0.09019181844745378,"264":-0.020102980706202672,"265":-0.013635371563538775,"266":0.03597785103938462,"267":-0.06017656976259696,"268":0.030494404572327077,"269":-0.005635943113599443,"270":-0.07957166110426675,"271":0.0023391946276208383,"272":0.005323766377525333,"273":0.010624934779409555,"274":0.012104392647889985,"275":0.1100422633682966,"276":0.0989168960615634,"277":-0.10325119797204522,"278":-0.04000806695561288,"279":0.0012679042800596777,"280":0.005203671668246695,"281":0.03757739190614986,"282":0.007075452627952918,"283":0.031156759434042815,"284":-0.09451524407395083,"285":-0.00030078751163112473,"286":-0.08601832687894025,"287":0.044407910991942724,"288":0.04506458175731237,"289":-0.015459322069471294,"290":0.13511630457553023,"291":0.02305233300639154,"292":-0.01607550398140262,"293":-0.06894249638926313,"294":0.032547759606109755,"295":0.029883371385329354,"296":0.031203419671337045,"297":-0.0402701621597343,"298":-0.034498889635471944,"299":-0.004757947374167226,"300":0.0562710950216415,"301":-0.04700831557486058,"302":0.004150322266422039,"303":-0.05826533315989069,"304":-0.033108485039176336,"305":0.06261789578693189,"306":0.06223859237625895,"307":-0.09702253691235754,"308":0.009105239281722917,"309":-0.06783045847411458,"310":0.01089215526652602,"311":0.0025727250616986042,"312":0.06273353769263226,"313":0.003611275478380361,"314":0.01795063365235232,"315":0.030378701877305982,"316":0.05998944334572292,"317":-0.07098509786578143,"318":0.003681074632326983,"319":-0.028856071719308887,"320":-0.008593137217098902,"321":0.05832213530605754,"322":0.0021913144535004527,"323":-0.007116446124150647,"324":0.056166078757392865,"325":-0.043876646600089574,"326":-0.06028115757391591,"327":0.00980074779328676,"328":0.04187908875546579,"329":-0.04581510950664871,"330":0.014724069982786147,"331":-0.005189912361829871,"332":-0.024967727798717854,"333":0.0019177402512241181,"334":0.009750571048024459,"335":0.057178650025857536,"336":-0.012551974912130883,"337":-0.03495876307569509,"338":-0.029452574015816274,"339":-0.09387991012474291,"340":-0.03895019611157178,"341":-0.0729799705411666,"342":0.10176328348981166,"343":0.022578915207304578,"344":0.04375290844175158,"345":-0.003888884243490961,"346":-0.02110634741752336,"347":0.029882909088820724,"348":-0.025826661102221773,"349":-0.046533130735554915,"350":0.06879733930944845,"351":-0.011235845497640623,"352":-0.007228164362660793,"353":0.01096011725732298,"354":0.03654195162231553,"355":0.047368901827202624,"356":0.06613078283562396,"357":-0.04100945555360175,"358":0.05813462625767548,"359":-0.08502823019289439,"360":0.015444820438621377,"361":0.012217420505049125,"362":-0.011156299250821717,"363":-0.036618527065247264,"364":0.004538296615782398,"365":-0.07378376540238153,"366":0.007839653017092666,"367":-0.05695290358015864,"368":0.03738053416729539,"369":0.0699635570300568,"370":0.0062697150667252125,"371":0.041464634247773476,"372":-0.014208852379268243,"373":-0.07066765044429328,"374":0.004507805002828269,"375":-0.05812214923837585,"376":0.017057513778598446,"377":-0.009691452458372128,"378":0.09175076285369803,"379":0.06950266928752528,"380":0.040810592678276025,"381":-0.061803117919362376,"382":0.008104754095492968,"383":0.012448588275504359,"384":-0.0339199193758698,"385":0.06779378986275433,"386":-0.06510046277467073,"387":0.0024165261375167064,"388":-0.030178304832509783,"389":0.029758346547183033,"390":0.02402021317163323,"391":-0.0625251886348071,"392":-0.010038657520688832,"393":0.047758750500054285,"394":-0.08968456510119494,"395":-0.07242467883791934,"396":0.020524497729151173,"397":0.004150437210863884,"398":0.02359691522824901,"399":-0.014729217445774843,"400":-0.014346009246445555,"401":-0.05086059318250688,"402":0.05075562303050181}},{"sx":1,"sy":1,"depth":403,"w":{"0":-0.04175883081784496,"1":-0.00030583282266514913,"2":0.014269266346122342,"3":0.02163656184767238,"4":-0.08108799413468432,"5":0.03718432815311182,"6":0.0021286817509436388,"7":-0.048306556109911684,"8":-0.0310225838903081,"9":-0.04080608685956715,"10":-0.020199426362026044,"11":-0.02673713428767843,"12":-0.03602437194640382,"13":-0.031513938908021524,"14":-0.02593483631304424,"15":0.11894838786702265,"16":-0.07373226416035453,"17":-0.015022546937652764,"18":0.0268493086380212,"19":0.05289712967547734,"20":-0.013432460921023228,"21":0.03460500376390031,"22":0.01704798730707107,"23":0.08576286829587289,"24":-0.03601868116403455,"25":0.06898967202536276,"26":0.00083388810267771,"27":0.030870915393548286,"28":-0.024877194218054746,"29":0.06126376818379458,"30":-0.015066885029744355,"31":0.049118812604541776,"32":-0.0113462005380554,"33":0.009042415778574273,"34":0.08516017888108857,"35":0.04414730595146039,"36":-0.008923090077376048,"37":-0.02054446863498661,"38":0.06613725432880677,"39":-0.016917870503562867,"40":0.058602860582993896,"41":0.0014677093833834031,"42":0.05578455651696157,"43":0.05002910644150848,"44":0.009118302207975139,"45":-0.09308724821192343,"46":0.07279862856520669,"47":-0.013514608698142316,"48":-0.1144437054805366,"49":-0.03784988488386938,"50":-0.09190258387436225,"51":-0.01904088274226113,"52":-0.03673342966964037,"53":0.04023067144764373,"54":0.10035049869742176,"55":-0.16419611954159463,"56":0.06172615692298829,"57":0.04246811015024519,"58":-0.07837251360209287,"59":0.05564103695110212,"60":0.04694450409309443,"61":0.016715926013911354,"62":-0.049824421579720314,"63":-0.004288356345484732,"64":0.0763280165184653,"65":-0.02076150494882113,"66":0.025821615262812465,"67":0.009284238987949816,"68":0.04716628237467374,"69":0.016278099317421156,"70":-0.04912592179487584,"71":-0.0018232468059580927,"72":-0.0053856061102982924,"73":-0.003730417617203201,"74":0.061413518086304957,"75":-0.03875130711651851,"76":0.013164950250002099,"77":-0.10490160200724893,"78":-0.07810071092617751,"79":-0.07931412276249228,"80":-0.05805424430090949,"81":-0.04060241670863377,"82":-0.029946126735912282,"83":-0.0722197239730436,"84":-0.021228692129107996,"85":0.050409765630126786,"86":-0.010378290548454006,"87":0.07104584264531985,"88":0.0029677169600569823,"89":-0.0009016076705467519,"90":0.0757597625924515,"91":0.10354875393403806,"92":0.016602851823326728,"93":0.015382759914656733,"94":0.020873715955582534,"95":-0.00017681196294001868,"96":0.006884431118949686,"97":-0.032300714574386984,"98":0.03699083008046289,"99":-0.055119551611969374,"100":-0.08006443052878046,"101":-0.0010723172415784202,