{"layers":[{"out_depth":403,"out_sx":1,"out_sy":1,"layer_type":"input"},{"out_depth":50,"out_sx":1,"out_sy":1,"layer_type":"fc","num_inputs":403,"l1_decay_mul":0,"l2_decay_mul":1,"filters":[{"sx":1,"sy":1,"depth":403,"w":{"0":-0.004354985272280732,"1":0.11912351018857187,"2":-0.09761672279363487,"3":0.04351504239696829,"4":0.033123728481727684,"5":0.021889138228911177,"6":0.043663177651028486,"7":-0.08752552030877121,"8":0.03006380460843019,"9":0.034755638212174825,"10":0.02091092138774382,"11":0.04861122774941471,"12":-0.07550326130532373,"13":-0.0013836666749095035,"14":-0.07858865818466677,"15":0.021993285534182873,"16":0.004537684133775072,"17":-0.013815849252462126,"18":0.04443888505750922,"19":-0.053383023216503976,"20":-0.012224167429405313,"21":0.010522093984228199,"22":0.0034481511218765544,"23":-0.02695330465017477,"24":-0.024563670151664142,"25":0.00768427119422345,"26":0.04042722268760471,"27":-0.03211265044305582,"28":0.025264387190323482,"29":0.00134559272415668,"30":-0.03801037013824972,"31":0.038173214156679194,"32":0.06188140627231064,"33":-0.05581965520284776,"34":-0.0511575919218171,"35":0.0017453302396320844,"36":-0.12367079360479397,"37":-0.0005928184558946044,"38":-0.026892141309047157,"39":0.016757499441009783,"40":-0.048335900194240264,"41":0.029782331638663475,"42":-0.004394802842361864,"43":-0.03627072839614509,"44":0.029304652051369163,"45":-0.025892522755170587,"46":-0.007269663699511259,"47":-0.050121999104611244,"48":0.03557150095760257,"49":-0.039849576411912564,"50":0.04649051890973507,"51":0.03666198125650389,"52":0.0226004514691225,"53":0.018238787195454204,"54":0.00865465754431105,"55":-0.01411000573738875,"56":-0.004530469337910177,"57":-0.049431051311049565,"58":-0.025376241845510426,"59":0.00791504992100836,"60":0.01917786949050339,"61":-0.022248980217051538,"62":-0.023221198768304835,"63":0.010336011954888067,"64":0.08167901253164983,"65":0.014095749079996589,"66":-0.016994185169822536,"67":0.028144221496284923,"68":-0.06522329379086353,"69":-0.00094520218568493,"70":-0.005115651308355216,"71":0.03702094925725083,"72":-0.02989210450206425,"73":0.019936341466133947,"74":-0.019019108569129136,"75":-0.05874974497367862,"76":-0.02622915700933198,"77":0.013724801661216411,"78":0.007059086563992735,"79":-0.022792323731017743,"80":-0.03283903365093852,"81":-0.06937938033925176,"82":-0.05110017093100213,"83":-0.005836300917424666,"84":0.02799367007130251,"85":-0.00047963062443640817,"86":0.009748266153246412,"87":-0.003136794199031373,"88":0.07493843615744296,"89":-0.056583353950017075,"90":-0.026206818108650866,"91":-0.005549012202142842,"92":0.029114934943355736,"93":0.017609885109217363,"94":-0.006143006676972182,"95":0.008731342672005106,"96":0.08014142998481567,"97":0.020903904093485512,"98":-0.09592251710296745,"99":-0.013765520060191225,"100":-0.0206243624746015,"101":0.003035779704322418,"102":0.031141433067676295,"103":0.0017200574422759566,"104":0.06151597488169986,"105":0.008419741142500105,"106":-0.009214494986799915,"107":0.007694740590916529,"108":-0.04488951113862705,"109":0.031827500187482316,"110":-0.021737122667411495,"111":0.025404772701410037,"112":0.001762885299603847,"113":-0.09395218005329994,"114":-0.043953921529141536,"115":-0.01649336340329251,"116":0.009162249558060404,"117":-0.04962725928216022,"118":-0.03001313163919348,"119":0.0009283470472429703,"120":-0.07445275193760595,"121":-0.045624137112663755,"122":0.0340227556240118,"123":-0.049998759754624394,"124":-0.06453050502994384,"125":-0.011495841126939308,"126":-0.02778942385465342,"127":0.02275544387067614,"128":0.027872496595694376,"129":0.04152500793752154,"130":0.013576148865675201,"131":-0.009002166284191596,"132":-0.05205959193155676,"133":-0.030500699595174836,"134":-0.007564155503215817,"135":0.031217469461995787,"136":0.05016198599595923,"137":-0.05430864744172254,"138":-0.024302503676985356,"139":-0.03970598852988299,"140":-0.0076862617306203765,"141":0.009224653652277497,"142":-0.043793716594475104,"143":-0.033154297199538954,"144":-0.07403553674953994,"145":0.037342156317713884,"146":-0.08090796515986644,"147":0.05252597275725152,"148":-0.05029383379238633,"149":0.08007558114992558,"150":0.047190439248179915,"151":-0.019378563315238812,"152":-0.04669494926561008,"153":0.00943551034539083,"154":-0.020897185726124,"155":0.07022184731866088,"156":0.021200172302853863,"157":-0.029879171169339896,"158":0.02469972717290355,"159":-0.005536692972493801,"160":-0.03655054682669171,"161":-0.0797411683226093,"162":-0.0016961829486104787,"163":-0.0567735263588084,"164":0.060590796081484176,"165":0.055061431764102345,"166":0.09860838952819893,"167":-0.014857906755844169,"168":-0.02244690216483702,"169":-0.02790073038377193,"170":0.023949298848324033,"171":0.015918204141659013,"172":0.05674084053787674,"173":-0.03593353563726989,"174":-0.02070907372781015,"175":-0.06504881960903112,"176":0.05655493620710238,"177":0.03227610710392113,"178":-0.023906638205794074,"179":0.0074671361199539895,"180":-0.06980346489447185,"181":-0.009393346117916163,"182":-0.1384775733555132,"183":0.053180535490208895,"184":-0.05718914832874658,"185":0.03542460741445286,"186":-0.04230674660575862,"187":-0.08057782061039596,"188":0.0048622872145425945,"189":0.07138856849713458,"190":0.009383647802924697,"191":-0.03985784390930281,"192":-0.030196410205251156,"193":0.0266422201842542,"194":-0.017318305425263403,"195":-0.05023548884160903,"196":0.01445715411099115,"197":0.10356926241142447,"198":-0.016027532706170047,"199":0.04193260399730003,"200":0.007394478271190926,"201":-0.08535854757248569,"202":-0.007127485408494719,"203":-0.011807883497883986,"204":-0.06799086716440053,"205":-0.040965149766511666,"206":-0.02419346642985515,"207":-0.005741626632745801,"208":-0.022819404646302846,"209":-0.07307642619891838,"210":-0.0019878124542425206,"211":-0.03626177535244493,"212":0.007019609459761977,"213":0.03363874550481526,"214":-0.029495460278362026,"215":0.07296150413906786,"216":-0.013349385218273621,"217":0.011885721000789686,"218":0.040236473855971885,"219":0.04465817094279628,"220":-0.017732913900268682,"221":-0.03676135684280183,"222":-0.012228469120746547,"223":0.030782068242720447,"224":0.0826012383467507,"225":-0.038870400949708395,"226":-0.04933109891639933,"227":-0.06562352363397213,"228":-0.032990356850547964,"229":0.03590784172724593,"230":0.03655459775120663,"231":0.0391298485947113,"232":0.09987829059043647,"233":0.006081422170887752,"234":-0.0684487592200433,"235":-0.04730883258592274,"236":0.06376632733373631,"237":0.10717825437133871,"238":0.030653818949816624,"239":0.01793507304716401,"240":-0.06913164393893578,"241":0.05195344668568894,"242":-0.01744648524832782,"243":0.021083705488467344,"244":-0.016287222956675743,"245":0.012212373748447585,"246":0.035614005739716965,"247":-0.0629221219963462,"248":0.0076082409076767546,"249":-0.028109361843084518,"250":-0.036890163725799736,"251":0.022628329608385216,"252":0.03781643758119817,"253":0.055770878894183584,"254":-0.041404302055751206,"255":0.0459169025407625,"256":-0.024475933215267375,"257":-0.013036182935114052,"258":-0.010320965292381027,"259":0.02047411063521583,"260":-0.03540202357129666,"261":-0.028091054657376307,"262":0.0018422482117450303,"263":-0.05132602002452337,"264":-0.07984449397608405,"265":0.030170850324880333,"266":0.017689250933656323,"267":-0.05049814277337461,"268":-0.04678347089095473,"269":0.0018902296768340406,"270":0.0033171189002802297,"271":0.04246699041480676,"272":-0.038940139538593495,"273":0.07413384325728266,"274":0.06254562610137736,"275":0.13261004624143227,"276":-0.003025725085401458,"277":-0.01071908516999828,"278":0.004375802425944433,"279":-0.0374039618549158,"280":0.008262898535276479,"281":-0.03772269894750718,"282":0.048905105668010575,"283":0.12172539137988121,"284":0.00670836824445155,"285":0.0030552041677582736,"286":0.08491280794882292,"287":-0.010899255617621917,"288":0.0037399063115676843,"289":0.07104601875273713,"290":-0.004814352688004167,"291":0.006546361887404179,"292":-0.05834150988052167,"293":0.038369128455858256,"294":-0.03709072032975083,"295":0.0422262036433631,"296":0.023994841954568847,"297":0.0007290517377179038,"298":-0.015233505334659671,"299":-0.030975676626133878,"300":-0.014060411006523959,"301":0.013986805839696382,"302":-0.04647868075561144,"303":-0.027441101818798733,"304":0.02723336611211986,"305":-0.038643219302925254,"306":-0.007709769684684078,"307":0.030068774928439276,"308":-0.044398901379611194,"309":-0.015628519151691316,"310":-0.02823126245796135,"311":-0.1458855031221269,"312":0.022328984836643268,"313":0.04937860375486334,"314":-0.022568396809496176,"315":0.027698998243567818,"316":0.012826763888592387,"317":0.09868501669628761,"318":0.0108471513964328,"319":-0.05690822526795721,"320":0.015405584290120152,"321":0.011510633084254745,"322":0.09054011899201081,"323":0.02751250920421062,"324":0.060372014439424984,"325":0.032461502641974914,"326":0.006561338448960477,"327":0.05951219562432613,"328":-0.04466723667537875,"329":-0.06577131681788728,"330":0.054906323606477056,"331":0.028225830050012377,"332":0.012345839003307902,"333":-0.013406621022126381,"334":0.06753606578173135,"335":0.028000686528865976,"336":0.002501122159569326,"337":-0.019995087504839616,"338":0.1110054983356061,"339":-0.09246946399412212,"340":-0.06271832871676539,"341":-0.053776406936492896,"342":-0.022974834160899862,"343":-0.025402210676819987,"344":-0.014626131075780658,"345":-0.013393924430039766,"346":-0.009132665146732997,"347":0.06220914364253584,"348":0.05595945440041652,"349":0.0572666441103992,"350":0.0205583270598875,"351":0.012633675626625882,"352":0.03555658283415402,"353":-0.011506273587902035,"354":0.042670013467831454,"355":-0.030876438345986898,"356":-0.07055847612241108,"357":0.0786956053403433,"358":-0.13315057866405516,"359":-0.05787606572778275,"360":-0.020465624272685973,"361":-0.05763770012267815,"362":0.02950029455154063,"363":0.03094930234549405,"364":0.08057453941606747,"365":-0.017229363214518494,"366":-0.010943417366485178,"367":-0.04541596853594506,"368":0.019146488393892935,"369":0.04590278555364357,"370":0.016284215050725095,"371":-0.05845649149006554,"372":-0.02098009066467204,"373":0.0492658533205163,"374":-0.06575263355136671,"375":-0.04182583912225844,"376":-0.016908570841708256,"377":0.07392772481482926,"378":0.00809969965860935,"379":-0.004362834028322389,"380":-0.08139814759063804,"381":-0.018781176190271,"382":-0.008025477540190723,"383":-0.028810172895280216,"384":-0.051728482183742645,"385":-0.09879101113231115,"386":0.013020122097477346,"387":-0.06943492493708087,"388":-0.01425533419583628,"389":0.0023692724813787563,"390":-0.005695265833408606,"391":-0.06143492497550855,"392":0.05040037580470999,"393":0.022195989287069475,"394":0.014644783975832106,"395":0.034097426844972446,"396":0.03488537235850234,"397":0.020833126173161576,"398":-0.04010346055905732,"399":-0.02017467333455269,"400":-0.07429897000923355,"401":0.006207213664654751,"402":-0.019929611457216077}},{"sx":1,"sy":1,"depth":403,"w":{"0":0.040671094084657335,"1":-0.06605572569633286,"2":-0.08792906297059505,"3":0.01880466053641368,"4":-0.019875779970175693,"5":0.024434954610467016,"6":0.045613430071209285,"7":-0.01879247665401835,"8":-0.03178014137140973,"9":0.013545906343479332,"10":0.006902841499024568,"11":0.005420761613447091,"12":-0.07304362239163528,"13":0.059378413495356795,"14":-0.09766395958484853,"15":0.04098749182615201,"16":0.017139844434000354,"17":0.00715636943455582,"18":0.020150064212788477,"19":0.02432385636268629,"20":0.0287817595253598,"21":-0.060339122169559056,"22":-0.04917324668796222,"23":0.013538370325575337,"24":-0.06226600773831949,"25":-0.1257611983336001,"26":0.04988603765368002,"27":-0.014911346579723943,"28":0.00525767843043839,"29":-0.03002878170053171,"30":0.019175727071431715,"31":0.024771789737106115,"32":0.014303869123439103,"33":0.06080413828577829,"34":-0.03209074166052166,"35":-0.032936527806894364,"36":0.03384307950856289,"37":0.0022486523609148777,"38":0.08713727907758241,"39":-0.015298903149871469,"40":0.06051085247514737,"41":0.0491712956590396,"42":0.028168460851823177,"43":-0.04670599581532414,"44":-0.08411028870905735,"45":-0.02747394128650106,"46":-0.02916734784552645,"47":0.026128575033194098,"48":0.04433804547133335,"49":0.015248200229241043,"50":-0.0006445696420530529,"51":0.009826605006567788,"52":0.019406517773859294,"53":0.07013072941199425,"54":0.06018149401441168,"55":0.02601747193558421,"56":0.027432079052759024,"57":0.049903592656168956,"58":-0.007341468239447218,"59":-0.018285581574339092,"60":0.0471927506177196,"61":-0.005945531055433077,"62":0.04768819632098587,"63":0.01605158100715238,"64":-0.033501173472223575,"65":0.030856690890778735,"66":0.00033507631249938283,"67":0.013062424010235496,"68":0.10205402880800296,"69":0.0355476037422692,"70":-0.06952069431928222,"71":-0.036023754754805126,"72":0.015937063150766553,"73":0.06120220254656346,"74":-0.02655212797275448,"75":0.09902424037430115,"76":0.007039730043987706,"77":-0.01442456406420796,"78":-0.020643107783666934,"79":0.01031116899003601,"80":-0.05349573198371957,"81":0.05911838223749377,"82":-0.04100364277529801,"83":0.04696246500558082,"84":-0.00702662389131086,"85":-0.007335819828388008,"86":-0.0018075426680292928,"87":-0.09353061946797495,"88":-0.0037665283922123393,"89":0.03671562902133898,"90":0.039898169593555285,"91":0.020795444338759312,"92":0.031063834565771775,"93":0.06639236431385329,"94":-0.08870011318898505,"95":0.03268146697896153,"96":0.0008493947934056641,"97":-0.07014039898613499,"98":-0.000612737100892995,"99":-0.00061648387461453,"100":0.06657031764567933,"101":-0.034506348869873166,"102":-0.02036483211423757,"103":0.032989063718513095,"104":-0.0018258032003972183,"105":0.06443072746443802,"106":0.01534904876622834,"107":-0.022805972726365174,"108":-0.05500720820568131,"109":0.0633265540706554,"110":-0.017729690248662743,"111":0.042401996235961394,"112":0.014133372475526908,"113":0.0606681984576523,"114":-0.06288173669890933,"115":0.07007820393811473,"116":-0.010427971212982827,"117":0.04983937167715702,"118":0.07510212713971066,"119":0.02786900417513643,"120":-0.08626978982002369,"121":0.02978927333086257,"122":-0.06561166263831333,"123":0.028687455437136637,"124":-0.04573314753754582,"125":0.054373030242455066,"126":-0.03400505431214848,"127":0.0481236187096835,"128":-0.09425759289918906,"129":-0.09023821174806797,"130":-0.01009334878668237,"131":0.021118785503044423,"132":0.038388041363777256,"133":0.01018274288476618,"134":0.09481841179724705,"135":-0.05165600971361678,"136":-0.025108698796198033,"137":0.004809634498784494,"138":0.002532582948816353,"139":-0.1262785746732376,"140":0.006332975308569766,"141":-0.07732308018060631,"142":-0.02863023993768689,"143":-0.03429045856839044,"144":-0.009322337296281857,"145":0.053974280813387475,"146":-0.011791814014542532,"147":-0.02487668315883899,"148":-0.04914029707345961,"149":0.08547058276391571,"150":-0.037498350148996454,"151":0.060660477755060026,"152":-0.007166615142071079,"153":-0.0681352482597477,"154":-0.08026016199174626,"155":-0.021232617481609317,"156":0.05513727076584887,"157":0.08432131512630063,"158":0.013576010719994817,"159":0.05656172652855263,"160":-0.06601145601391871,"161":-0.11039617427572773,"162":0.0009689629259867788,"163":-0.09829563995898073,"164":0.0001488640588460355,"165":0.035536354470737545,"166":-0.045491955705522794,"167":0.010016909982477085,"168":0.0061614428300640145,"169":-0.07358524234843027,"170":0.041690698501176314,"171":0.03818909951027439,"172":0.007072074754013414,"173":0.005420997728011277,"174":-0.0018673666471279175,"175":-0.02683537961597787,"176":0.07477398578941971,"177":0.0923191410793124,"178":-0.03779276438475228,"179":0.006574897273291133,"180":-0.11728691168619881,"181":0.06353290868528848,"182":0.019125163083193078,"183":-0.07164340326246776,"184":0.03865766377005327,"185":0.0129785974685732,"186":-0.03125506529296765,"187":-0.019398451075904998,"188":-0.052146703656687145,"189":-0.02739706476300531,"190":0.0027833597397820173,"191":0.018276972509079288,"192":0.05311979055212441,"193":0.04790622687357854,"194":0.035521949939153426,"195":-0.031268983301163955,"196":0.0767058045199343,"197":0.0002721917180496919,"198":-0.08737736225988224,"199":-0.04420307840028228,"200":0.018340878852858466,"201":0.019146978433467292,"202":0.03154436824833413,"203":-0.05589582025709971,"204":0.07555055260787456,"205":0.1005767916511565,"206":0.0021760768144984846,"207":-0.03509279781907905,"208":0.07376722476630776,"209":0.031628836087714114,"210":-0.010200204513449053,"211":0.015446768825753146,"212":0.004178766769728407,"213":-0.023849620596409542,"214":0.01312612545409674,"215":-0.05871924890924334,"216":-0.06630433919587668,"217":-0.032818218287634794,"218":-0.05623114160295525,"219":0.02134347681930292,"220":0.009783262957309248,"221":-0.11934140308845023,"222":-0.11497695868646181,"223":-0.02257843769282069,"224":-0.06282175218695622,"225":0.032489028295141775,"226":-0.0321272979007672,"227":-0.03287385527733384,"228":-0.051949309404107386,"229":-0.027663489774964172,"230":0.02486288768608482,"231":-0.06367369943434396,"232":0.021900004152315012,"233":0.0659152081777795,"234":-0.016829697198974515,"235":-0.000622179601201496,"236":0.034319961337778995,"237":-0.0492906314230536,"238":-0.01939566440312039,"239":0.011065641213777925,"240":0.056211951185152646,"241":0.04212228324076415,"242":0.05985666083635453,"243":0.047106454938649685,"244":0.006341551141706045,"245":0.03908136758492655,"246":-0.02439257361823768,"247":0.022864261413659066,"248":-0.0029410262580132815,"249":0.06412339553476604,"250":0.039926988060747085,"251":-0.042006585636752754,"252":-0.013872279464090526,"253":-0.07504712159190434,"254":-0.06271732934933232,"255":0.02984722975369176,"256":-0.028947640273066937,"257":-0.031777337593122665,"258":-0.03599255939760517,"259":-0.1381443889417498,"260":0.04142240110559273,"261":0.037165812307936065,"262":0.017602140208390914,"263":-0.03900099511414782,"264":-0.015651871441891,"265":-0.061559478387062085,"266":0.03149128285555588,"267":0.03804671132674273,"268":-0.0475810896041981,"269":-0.05493545930598951,"270":-0.07832437246317406,"271":0.06440980482996107,"272":0.06885184365592376,"273":-0.04353551930274821,"274":-0.11564657811290821,"275":-0.04334932880255943,"276":-0.07421075275780119,"277":-0.006071103582530283,"278":-0.023536775759147817,"279":0.046204267982130454,"280":0.03369347838805241,"281":-0.008801931948208795,"282":-0.018793907432368074,"283":0.03822141604303597,"284":-0.0656153506287579,"285":-0.015295634192634106,"286":0.07117013480430255,"287":-0.04375551892767263,"288":0.03020162129061505,"289":0.03942020379357952,"290":-0.019264219947509795,"291":-0.006762013476922107,"292":-0.044493967555443374,"293":0.03517822996376577,"294":0.009771170158723157,"295":0.01968345608776568,"296":0.07593396436752155,"297":-0.012114244776926984,"298":0.0849918338275878,"299":-0.0001005632010927155,"300":-0.005408692658153137,"301":0.048270394383288236,"302":-0.07239445938288523,"303":-0.07007247892381091,"304":-0.024806946844796975,"305":-0.024757206975537363,"306":0.024761054870541872,"307":0.011372404553269282,"308":0.018407772704766193,"309":-0.05551329364555275,"310":0.11411831514743638,"311":-0.02997064998882191,"312":-0.013052358262239036,"313":-0.011395165299290369,"314":-0.03457537437652246,"315":0.05207485392219243,"316":0.0397278730002141,"317":0.0646053211508883,"318":0.0004000373227932188,"319":-0.05145368218464622,"320":0.019891021417608325,"321":-0.1051122442024743,"322":0.001557238610762559,"323":0.013507257319096069,"324":0.07815670504090705,"325":-0.09469874108849757,"326":0.10834426647833037,"327":0.03687614058866237,"328":0.0676028451766967,"329":0.00943503244382744,"330":0.05064417482751851,"331":0.07862255856755775,"332":-0.004559198038379828,"333":-0.0000057254371115775535,"334":-0.007414132815842337,"335":-0.08249076916384716,"336":-0.0004874282914160155,"337":0.02930112634849399,"338":0.0010259745377494455,"339":-0.057751788818211726,"340":0.040560086349341884,"341":0.038514801782299435,"342":0.039474922964218076,"343":-0.0018731950098583466,"344":0.0009280918621625286,"345":-0.06668368972992861,"346":-0.07165901709795351,"347":-0.025546075850053387,"348":-0.08349866549029519,"349":0.04802101081240794,"350":0.027624365226931933,"351":-0.04207174666562689,"352":-0.005866480585329954,"353":0.0030608498023201912,"354":0.021429155159599287,"355":-0.017390798598225135,"356":0.021922752791867228,"357":0.016796774716750108,"358":0.05740390038326718,"359":-0.056330551759445936,"360":-0.019016883130836226,"361":-0.002798267418899122,"362":0.05202310424642461,"363":-0.01814050615270079,"364":0.017874379129234626,"365":0.013193331257829758,"366":0.10375000471676865,"367":0.014237077714600496,"368":-0.004435752012042859,"369":-0.05312505200811525,"370":-0.06341544706795436,"371":0.09208864266701558,"372":-0.10731566656848265,"373":-0.048900567849893654,"374":0.022437757144567628,"375":0.128767513086877,"376":0.018450764483137413,"377":-0.05576137223015938,"378":-0.036289823766871225,"379":-0.06144431501073011,"380":-0.026252953693142816,"381":-0.054373186461787106,"382":-0.03760908791346933,"383":0.030640736288555532,"384":0.004014223955030739,"385":-0.0270377755580915,"386":-0.043267247544882786,"387":-0.01725537349631795,"388":-0.03198160579818145,"389":-0.07236530038187354,"390":0.038912117636287505,"391":-0.05408127853112643,"392":-0.04813009041699042,"393":0.021525216181412017,"394":-0.012475113770410691,"395":-0.03251867049331496,"396":-0.048243188978123824,"397":-0.09688902344140418,"398":0.04398627475607319,"399":0.06491494599961109,"400":-0.025208717388974164,"401":0.03264748986563518,"402":0.08800015819285881}},{"sx":1,"sy":1,"depth":403,"w":{"0":0.016598929466669715,"1":-0.0673443208690886,"2":0.010096782121489614,"3":0.03104694743776987,"4":-0.06616629482394767,"5":-0.06582809704758137,"6":0.024874395279846914,"7":0.07643574615495713,"8":-0.04808855745681284,"9":0.04215535661087736,"10":0.013275996688578881,"11":0.03725428092956963,"12":-0.006273549063853347,"13":-0.08445826890906077,"14":-0.002886824790675135,"15":-0.031985073319455944,"16":-0.06019639324184082,"17":-0.001574964546693959,"18":-0.03188150907463729,"19":0.013567501762060109,"20":0.07768786219597155,"21":-0.07658656977674025,"22":-0.05969995960783876,"23":0.03280313343164319,"24":-0.00031009969705737746,"25":-0.019753298239586995,"26":-0.04232253052235606,"27":0.03060011911854138,"28":0.07053329021865072,"29":-0.05041094700264218,"30":0.07918127711878356,"31":0.022267781485990488,"32":0.024703799854470115,"33":-0.0029224052570769924,"34":-0.00780809533248206,"35":-0.033883170900145525,"36":0.03593912833938767,"37":0.045215227131099274,"38":-0.013011297164277803,"39":0.007195766687213497,"40":0.053635554004607636,"41":0.07192802013291952,"42":0.08919800145189057,"43":0.034965289251353664,"44":0.005887727025036908,"45":-0.008633214961898063,"46":0.18148350707918792,"47":-0.026044438388427325,"48":-0.09789982763953413,"49":0.06878875082220919,"50":-0.015765574149427693,"51":0.04953803496125232,"52":-0.037461193356306884,"53":0.04672071741538084,"54":0.03359012937506116,"55":0.00821859764862018,"56":-0.017301478648189365,"57":0.05022244445206971,"58":0.0013420689315650329,"59":0.00813170805675362,"60":-0.05876453995794258,"61":-0.01083018932577162,"62":0.014577714457297096,"63":0.06419827277526426,"64":0.028527844865781065,"65":0.005991372384594396,"66":-0.03839109259110366,"67":0.020934641456137045,"68":-0.01065597308751108,"69":0.00983396654716335,"70":-0.06132939941333592,"71":0.01481194349575402,"72":0.04894494316934856,"73":0.06533376085606903,"74":-0.049829228744650234,"75":-0.007313240751844604,"76":0.035025741935360816,"77":-0.0014590189030553946,"78":0.04195898253930456,"79":0.02579480547112993,"80":-0.013775028402536613,"81":-0.05497822233223918,"82":0.0033252813613638688,"83":-0.011084184735007096,"84":-0.038482002945232775,"85":-0.06547168549814406,"86":-0.04282993458537908,"87":-0.02461716891421036,"88":-0.005700594580364193,"89":-0.07365477097517709,"90":0.02041658409598026,"91":-0.021768994266880542,"92":-0.05462551834178142,"93":0.05224358668189989,"94":-0.0717237135970551,"95":0.04024845620280323,"96":0.059900976910641814,"97":-0.005318750688939025,"98":0.03898298748147322,"99":-0.024111312864475425,"100":-0.026428537973425273,"101":-0.025918220790496334,"102":0.018411004252337868,"103":0.003688550361474819,"104":0.005974072207966586,"105":-0.03831173543723193,"106":0.023181207108288186,"107":-0.05306659941635411,"108":-0.013463622121707524,"109":-0.03193987542727494,"110":0.07876193237560129,"111":-0.010458549847168996,"112":0.04248362304709114,"113":0.005415967918142783,"114":0.02020755192653413,"115":0.03885949908245593,"116":0.0012764954059419163,"117":-0.04017151108300975,"118":-0.004013969395347788,"119":0.022124477068618826,"120":0.029202861671727937,"121":0.01502705168653178,"122":-0.011669638340147542,"123":0.07952754643310593,"124":-0.12351010292425267,"125":-0.027321385693735618,"126":0.003879787602090793,"127":-0.019646892701767543,"128":-0.0014908276842077355,"129":0.05804726898373574,"130":-0.019941013509328618,"131":-0.0393857396258263,"132":-0.03101411970452753,"133":-0.02466326282390479,"134":0.019880125514425345,"135":-0.05609513860999531,"136":0.06287860052008633,"137":0.024925477293408084,"138":0.014662341593015915,"139":0.0020925613796192372,"140":-0.0655630791694891,"141":0.08144138013514582,"142":0.016203032423855387,"143":-0.055979463646765704,"144":-0.029805605475787256,"145":0.01814642426965058,"146":-0.05115857909971876,"147":-0.022104130371689318,"148":-0.049626631211207084,"149":-0.07030076332542085,"150":-0.09424819554551755,"151":0.03130889312755602,"152":0.03243907042462355,"153":0.037992814767538886,"154":-0.0035933304663862274,"155":-0.1073705039740845,"156":0.00484621727211642,"157":-0.004596008991035034,"158":-0.06359858033426191,"159":0.05280661921348172,"160":-0.07944808426722144,"161":-0.03664428895161342,"162":0.06253212809094247,"163":-0.10651413105952771,"164":-0.12792196088409158,"165":0.00680616883728331,"166":-0.05263062148044622,"167":0.009917503499706864,"168":-0.007501521316278622,"169":0.007581854171676336,"170":-0.0288670808569336,"171":0.062061694408686044,"172":-0.05533229325029955,"173":-0.02158246304569458,"174":-0.05907302526736691,"175":-0.00030458845941072935,"176":-0.03931047836640574,"177":-0.037663635573025295,"178":-0.09317212454636287,"179":0.0034983740451133643,"180":0.06119592562020627,"181":0.01705373759085916,"182":-0.05641515210575683,"183":0.042796940698906515,"184":-0.03052739644156102,"185":-0.11489640315749171,"186":-0.016674227493853576,"187":0.10701712780137763,"188":-0.013005527213751776,"189":0.03220099958369486,"190":0.008899844867559105,"191":-0.006519360922733397,"192":-0.060349053360777616,"193":-0.042143537674273444,"194":0.023257691284681848,"195":0.025069211380049198,"196":0.025091746503879117,"197":0.0867440181998613,"198":0.02335632618855282,"199":-0.02861947343927875,"200":0.013504891003747023,"201":-0.06132244845957478,"202":0.07153740306139994,"203":0.05902082577974332,"204":0.0895972263288652,"205":-0.07123733162789818,"206":0.06472139516104873,"207":0.004384981084221715,"208":-0.060887987068822695,"209":0.020516457104836138,"210":-0.006523566025577891,"211":0.07014192504720985,"212":0.05498146596503065,"213":0.020185086398584653,"214":0.029748908398416533,"215":-0.02310663811439697,"216":0.004828368311526608,"217":0.06692714686913483,"218":0.06927286711010495,"219":-0.07826022166599503,"220":0.09068152001690558,"221":0.012920335730097826,"222":0.059280621213029946,"223":0.026240827173040923,"224":-0.055436173627318654,"225":0.01689434397512625,"226":-0.03964343694546943,"227":-0.039186333375781354,"228":-0.022729958154792018,"229":-0.012974797227039833,"230":0.1052879055136365,"231":0.029533771446374715,"232":-0.004486493782512309,"233":0.05798716952658318,"234":-0.10425607873605897,"235":-0.004958294637146502,"236":0.06950905235956802,"237":-0.03581727193576426,"238":0.009661132622958283,"239":0.07106352336096888,"240":0.03300786863746916,"241":0.08858513947206823,"242":-0.021382470088808114,"243":-0.007671324218647706,"244":-0.022697255484030492,"245":0.006071929995559638,"246":0.004299318828849719,"247":-0.0019910915712955395,"248":0.012601069258407814,"249":-0.034399192891028864,"250":-0.030800189930810306,"251":0.007983959724742487,"252":-0.00809709467217669,"253":-0.03920928204197586,"254":-0.10353564619173018,"255":-0.019833216011001655,"256":-0.022928028788951126,"257":0.07333193600506405,"258":0.0016146932619474637,"259":0.055977208212979204,"260":-0.043817355072809254,"261":0.054159139505153255,"262":-0.05125553094593994,"263":0.11904849294420222,"264":0.05007007862833824,"265":0.03320850981360514,"266":-0.059610137200617315,"267":0.046123076418800195,"268":0.04705294949663185,"269":0.024796621770350146,"270":-0.047014658754401674,"271":-0.05423304630871197,"272":0.016586962873918126,"273":-0.05259574271178867,"274":-0.016895079021586528,"275":-0.0502469912065408,"276":0.0639694980450094,"277":0.024080998170683564,"278":0.026565823465902527,"279":0.0016568544011445836,"280":0.06610119491336057,"281":0.019890024192962815,"282":-0.03588996990260704,"283":-0.08593631423022947,"284":-0.008250522450404677,"285":-0.0354659868101719,"286":0.034510343929798945,"287":0.07691985371696076,"288":0.039952858001584456,"289":-0.007200331347835747,"290":0.020827258287830122,"291":-0.00011729463610090282,"292":-0.04972299308246698,"293":-0.015454698900185866,"294":-0.033286171846044155,"295":-0.04986722574427044,"296":0.0040726226411818825,"297":0.012154055956403882,"298":-0.02260712313248953,"299":-0.030373996473907643,"300":-0.07633892009196411,"301":0.005599075343512195,"302":0.004625969113055888,"303":0.0572215646010436,"304":-0.03610908225187056,"305":-0.0319034739031974,"306":0.05311750178032122,"307":0.05735708766697434,"308":0.012091945384343446,"309":0.024621978027419555,"310":-0.002179149292731486,"311":-0.021183952024160246,"312":0.004956928790736491,"313":0.03313990809905628,"314":0.05668084116622035,"315":-0.081667653955453,"316":0.011663410281066268,"317":-0.03130523421928266,"318":-0.02431189822339583,"319":-0.032282613608469894,"320":0.02918487652987024,"321":0.02946191365327413,"322":-0.038408720217312134,"323":0.01630012170853753,"324":-0.029019127228248055,"325":0.02662351123790726,"326":0.01051165429747174,"327":0.02261882358224312,"328":0.07022039309192012,"329":0.009333820563897314,"330":0.05359918691392282,"331":-0.059500847541231305,"332":-0.02063671018852178,"333":0.003893850543409676,"334":-0.06634349089355725,"335":-0.10646410814691337,"336":0.07542823845062532,"337":0.04224032835283537,"338":0.0035121220338865285,"339":-0.056677184090849576,"340":0.07000819616910783,"341":0.027891263317806194,"342":-0.004631762095456388,"343":0.06865352828030881,"344":-0.045818079352642684,"345":-0.021029952152420792,"346":0.008544059101888128,"347":0.0874757847842809,"348":-0.09477761764691604,"349":-0.05780849721975571,"350":0.09578517586077544,"351":-0.036155483172022156,"352":-0.016459423129003316,"353":0.01706148978232175,"354":0.009766480626129104,"355":0.11532143737864078,"356":-0.027661562857304776,"357":-0.12468559241937026,"358":0.002396171871928911,"359":0.047565293613954666,"360":-0.02404430754554609,"361":0.08882333058261112,"362":0.02930848798888759,"363":0.09819968506350542,"364":0.03791999063467073,"365":-0.07417896521479747,"366":-0.06609627229674288,"367":0.014152997203955225,"368":0.04087337854468812,"369":-0.07675196224779042,"370":0.04932348645837905,"371":0.05203436038205605,"372":0.0463602472116393,"373":0.004362417705303619,"374":0.016739990271548807,"375":-0.03578596587077645,"376":-0.0910374142211471,"377":0.0069535216052014825,"378":0.06658941186354281,"379":-0.025129659227603105,"380":-0.039846312281647284,"381":0.01962091897181105,"382":0.029376415417157964,"383":-0.03190881506130661,"384":0.07495677411928074,"385":-0.0034236246279284455,"386":0.027195798773345412,"387":-0.0010440315943558002,"388":-0.023505263585327337,"389":-0.02625065038093354,"390":-0.04782496964344742,"391":0.0024229001692733345,"392":0.009714710619176089,"393":-0.053370143303318636,"394":-0.10608981681500715,"395":0.031066883931361877,"396":-0.028801938006880537,"397":0.03705398138459692,"398":0.007905468176716335,"399":-0.03342191874662644,"400":0.016009397793990535,"401":0.016484396114327088,"402":0.09201747266725126}},{"sx":1,"sy":1,"depth":403,"w":{"0":0.04331036114329252,"1":-0.05321841466040887,"2":-0.12113540126602712,"3":-0.051797079147438495,"4":0.005011724574854623,"5":0.04284678458306241,"6":-0.019819519700740442,"7":-0.01754358385081721,"8":0.026350255443325112,"9":-0.041527453076108944,"10":-0.04094961839534867,"11":0.017772502180820073,"12":0.034144897383408306,"13":0.060138108160492046,"14":-0.009378327364344059,"15":-0.08032969335706194,"16":-0.046818634097350126,"17":-0.016745565188327993,"18":-0.023544856377534208,"19":-0.017454292527469505,"20":-0.03974408132689852,"21":-0.13489562080476566,"22":0.07449402289138539,"23":-0.04338045613189876,"24":-0.061016815257351836,"25":-0.04338813140170955,"26":-0.05555776099303257,"27":0.10253379311990535,"28":-0.011609781814748553,"29":0.03842898214748175,"30":0.005331735704780252,"31":0.09325799006822623,"32":-0.041685075771026495,"33":0.0016732340511977388,"34":-0.06786104605202607,"35":0.016278001909995152,"36":0.04710988070470765,"37":-0.015024978761014014,"38":-0.02201463026597077,"39":0.03359301252396697,"40":0.07004190417665353,"41":-0.022019177151304012,"42":0.04955540032109282,"43":-0.023035390889924214,"44":-0.027669551425912025,"45":0.01091438426245647,"46":-0.0033424568599965798,"47":0.02285355488352517,"48":-0.05310135080969981,"49":-0.0055798634518314,"50":0.009372944517598477,"51":-0.04538714231683572,"52":-0.06722881240139662,"53":-0.07760880291091818,"54":-0.0005543877612583637,"55":0.020398754080925535,"56":0.0006459704122182868,"57":0.003417645565750826,"58":-0.03258790660604791,"59":-0.0616004999796125,"60":0.00011757091842485779,"61":0.07351742429098977,"62":-0.019918059888297913,"63":-0.05628869281132686,"64":-0.09353960664935705,"65":0.1084540188440956,"66":0.0606118806190909,"67":0.004254017248289143,"68":-0.017904606937034467,"69":-0.04129923429645516,"70":-0.03711086140443888,"71":-0.03598603232437527,"72":-0.025520119880109667,"73":-0.03062527497386929,"74":-0.029658625198175817,"75":0.10420335611294441,"76":0.0982542320894346,"77":-0.056301880622154,"78":-0.01541443813232116,"79":-0.0028853312621059477,"80":0.0416934303633267,"81":0.05397841868164308,"82":-0.05395643933122768,"83":-0.05389731724499805,"84":-0.024848988370506142,"85":0.012260184155770078,"86":-0.03935816604940166,"87":-0.017651540719773668,"88":0.03216425312869307,"89":0.011253240300368953,"90":-0.006468362289420609,"91":-0.019227336196188497,"92":0.015384607258425475,"93":-0.014562823126369766,"94":-0.039538099911714475,"95":0.009064501103825279,"96":-0.005443841126516606,"97":-0.08887873338093981,"98":0.024048349035263723,"99":0.03207673315559984,"100":-0.02783016260853147,"101":-0.07173034154661069,"102":0.006482690317941185,"103":0.01855183282603208,"104":0.030050698559025493,"105":-0.0689806887228807,"106":-0.053898299230653375,"107":0.0657531936193091,"108":0.04409889953784892,"109":-0.049471757439759775,"110":0.019827930247803462,"111":-0.030595228272764986,"112":-0.054605851284463505,"113":-0.04749087304143289,"114":0.05710144400378667,"115":-0.021727664598165396,"116":-0.0101816737327218,"117":0.07689866938937871,"118":-0.01929754108089196,"119":-0.05150297683641351,"120":0.0685932846158148,"121":0.035492353761411084,"122":-0.03450647841861426,"123":-0.02760575162101135,"124":-0.055779091902573776,"125":-0.02567246925347028,"126":0.05232941905136039,"127":0.0038272278348846626,"128":-0.008920163428977937,"129":0.0034455329661034436,"130":-0.010423351512951711,"131":-0.009171951030012613,"132":-0.037805796106315605,"133":-0.007496551147286173,"134":0.0072333083532303555,"135":-0.07258999585397789,"136":0.06662713722778393,"137":-0.04186693159567102,"138":-0.018140112786293187,"139":-0.036214980734626825,"140":0.06469627420012038,"141":-0.01891907022888736,"142":0.02310875851693711,"143":0.04358143426192181,"144":0.038022081237206164,"145":-0.029134966055780195,"146":-0.0157598556299401,"147":-0.09068231757628002,"148":0.06172538989289859,"149":-0.019710893324159276,"150":-0.09151686275222873,"151":-0.04908079947773557,"152":-0.019985464140895224,"153":0.04061970419909791,"154":0.038739525424646246,"155":0.008779926792164511,"156":0.052926812758815486,"157":0.03287363882986167,"158":0.006526517649133777,"159":0.057344981769292064,"160":0.036633164763726106,"161":0.008538008497093779,"162":0.009630589513208448,"163":-0.005473609893133618,"164":-0.035728445719330565,"165":0.047860990535808216,"166":0.043560399127948506,"167":0.033007951478634646,"168":-0.041992098338765965,"169":-0.035815375361934305,"170":0.04241438184490134,"171":0.022559358371877204,"172":0.008955611815143833,"173":0.02430189253635313,"174":0.0018229247900214865,"175":0.01197809036827165,"176":-0.06166134292997056,"177":0.06098946688809104,"178":0.05811534721642411,"179":-0.07728728601663926,"180":0.03842862898158719,"181":0.01851273985505893,"182":-0.06659635662525894,"183":-0.06505669266604101,"184":-0.07582870532734806,"185":-0.012794858130681479,"186":-0.016352985746694568,"187":0.06218754464166777,"188":0.0021494120647320507,"189":-0.036709682403793104,"190":0.027125122519037478,"191":-0.03557679321012263,"192":-0.11221817337472612,"193":0.015228640910819297,"194":-0.00465591337367986,"195":0.007488121077998901,"196":0.001702899553033727,"197":0.03814644726710321,"198":-0.07570044551639347,"199":0.01826935708696776,"200":0.08150135835477092,"201":0.020245904648192186,"202":0.03327703648167616,"203":-0.03541706986011321,"204":0.04898242994735461,"205":0.024721758986027565,"206":-0.008018689759506181,"207":0.09499199600233955,"208":0.010821127460265966,"209":-0.021866641640191028,"210":0.019612505280147612,"211":-0.01928397119095285,"212":-0.05154507980683683,"213":0.03682491417393003,"214":0.03534025644397924,"215":-0.045801354427799514,"216":0.009105923922062144,"217":-0.05916375197208577,"218":0.000760085801209572,"219":-0.0489585240258943,"220":-0.026662864673181855,"221":0.0023304782093432263,"222":0.01882513579923945,"223":-0.0017191107522480564,"224":-0.020593822739370014,"225":-0.10209529686405051,"226":-0.003951886150752673,"227":0.05994136097597736,"228":0.0024610611768614453,"229":-0.011660881698678875,"230":-0.0027874700428178532,"231":-0.0037649316825485494,"232":-0.0322105689021003,"233":-0.08087736579850753,"234":-0.04281284766031401,"235":0.055405542788042515,"236":-0.058537202037438764,"237":-0.038992940903589283,"238":0.018715520143830478,"239":0.043557411935620315,"240":0.04715789965946053,"241":0.09554350875876998,"242":-0.0002724447118753374,"243":-0.057431826825044455,"244":-0.05159906991490948,"245":-0.053010617888430894,"246":0.03162443674094969,"247":-0.06955551801550268,"248":0.08557793378038543,"249":-0.02229014458161262,"250":0.03168989220250826,"251":0.037137198363809985,"252":-0.013746180832284037,"253":0.07662613824682034,"254":-0.1080832474025405,"255":-0.10391725193869361,"256":-0.09825386126251597,"257":0.0780100962658863,"258":-0.05842450153985582,"259":0.09403587484429342,"260":-0.024936005785118023,"261":-0.0772724220808239,"262":0.006770659450215364,"263":-0.06050264593279904,"264":0.0491479183147574,"265":-0.02508289490781082,"266":0.013392260420384168,"267":0.030205893642396384,"268":0.07851824034740193,"269":-0.0231753776990101,"270":-0.07599040314843783,"271":-0.05917397928528952,"272":0.07355762978594907,"273":0.035284791668488684,"274":-0.034533346313793185,"275":0.013456886588549289,"276":-0.009033727576156253,"277":0.07509738070456586,"278":-0.03167721435871039,"279":0.028531483236854116,"280":-0.05836787004197088,"281":0.09478929018957703,"282":-0.020208670786036886,"283":0.0738950962234028,"284":-0.057095600130969516,"285":0.0940186921553482,"286":0.005855709966963928,"287":-0.12635848355436077,"288":-0.04515545128338581,"289":0.06975024169851454,"290":-0.0614513740071932,"291":0.07033654569773928,"292":-0.06652327986336481,"293":-0.036665441482908796,"294":0.05874061902513541,"295":0.08560375954660254,"296":-0.02531639807291989,"297":0.024680282947491756,"298":-0.04692437397560077,"299":0.044688778126330125,"300":-0.04346401538917511,"301":0.060195678665695335,"302":-0.020932533340244672,"303":-0.09820433260285752,"304":0.017779943555083045,"305":0.035760184809608644,"306":0.027547422349258388,"307":0.0721946635541942,"308":-0.034104144801143016,"309":0.0011066669760016385,"310":0.058907695279153245,"311":-0.05880749534921271,"312":0.07602713428837332,"313":0.03578588393917827,"314":-0.0659741260388658,"315":0.06015618332509915,"316":-0.007372760629934896,"317":-0.017194607403076035,"318":0.01391729383675795,"319":-0.03457593408405466,"320":-0.0625000013936401,"321":0.0993831931105356,"322":0.05772316662079965,"323":-0.10084789291241196,"324":0.10120433666983068,"325":0.0031136817190464358,"326":-0.06097586407797074,"327":0.013443719461350357,"328":-0.1066092794146058,"329":0.026668776120515658,"330":-0.08316703334902466,"331":0.049831838387070906,"332":0.0022705109047382087,"333":-0.09191992506997734,"334":-0.021217798904503843,"335":0.013098336269141876,"336":0.021514955109633475,"337":0.02842021810845796,"338":0.06068022793108111,"339":-0.07945222209578112,"340":0.015271425235000156,"341":0.032153040253385695,"342":-0.008729287337384463,"343":0.04997882763978582,"344":-0.02510838620150441,"345":0.04827828453490295,"346":-0.028468360021301327,"347":0.025150949352164383,"348":-0.06438102378280774,"349":-0.03490945578362932,"350":-0.020812633671044918,"351":-0.07931979516868652,"352":0.04057275903477423,"353":-0.03911959390857417,"354":-0.08981810028134565,"355":-0.0038058659810875713,"356":-0.0001119998274697645,"357":0.016536568544453376,"358":-0.04593665464728423,"359":0.04307765374556855,"360":0.013248896523190556,"361":0.07880535785125539,"362":-0.07224837266056496,"363":0.09077672326049295,"364":-0.005006289935237614,"365":0.0358062118023285,"366":-0.038985772352628095,"367":-0.04115655841459003,"368":-0.01876969200180352,"369":-0.04003275692859971,"370":0.04472062915155827,"371":0.020287691016614144,"372":0.009813053757308447,"373":0.056055044418492926,"374":-0.0032495147800426483,"375":-0.00865301813393517,"376":-0.10063144815886406,"377":0.061377145223014504,"378":-0.07881926474728648,"379":0.07039450233418486,"380":-0.04502797197229827,"381":0.004022668876967745,"382":-0.06962101013151938,"383":-0.022732078592098023,"384":0.01320618720197381,"385":-0.007225678249172286,"386":-0.0009323597572274763,"387":0.05254372719929709,"388":-0.005544992610532111,"389":-0.014500892200882217,"390":0.009739181226515204,"391":-0.10106907323733881,"392":0.046185682441834595,"393":0.05648727365805873,"394":0.0008820872182946139,"395":-0.0454009186922918,"396":-0.046731915033624595,"397":-0.06614028345714976,"398":-0.01367365746470227,"399":0.031015278269829687,"400":-0.053945286001364834,"401":0.06184696036422015,"402":0.10566919154858312}},{"sx":1,"sy":1,"depth":403,"w":{"0":0.05101139442023054,"1":0.04794872543993563,"2":0.001088363438552401,"3":-0.03645479733611344,"4":0.016008979709353333,"5":0.0830261234385508,"6":0.04680890901153727,"7":0.006973679374528239,"8":-0.07860022774775435,"9":-0.05507926336597852,"10":-0.1351511049521906,"11":0.0033806782104002083,"12":0.08159617767345277,"13":0.05302449486483982,"14":-0.06510831279550784,"15":-0.006655569056869443,"16":0.04894515301082655,"17":0.055693470803934775,"18":0.0357638737330962,"19":0.025700329223189156,"20":-0.014934208158572852,"21":0.09829578550857468,"22":0.007774229930490324,"23":0.03559575138731264,"24":0.045174973156741884,"25":-0.019257476669145356,"26":0.005929793285470119,"27":0.0001022310311683646,"28":0.032478905510903544,"29":-0.05020990961294869,"30":0.06843744156322017,"31":-0.017941797501286712,"32":0.03166176372618996,"33":-0.04113033095604366,"34":-0.03593789310956677,"35":-0.02131988516433846,"36":-0.09942561946554086,"37":-0.01373116807427731,"38":0.08220346670960475,"39":-0.0023026572132796913,"40":-0.010867683684598716,"41":-0.03460705978114017,"42":0.11647306380016567,"43":-0.040298200951305506,"44":-0.029847756754440666,"45":0.11517307242642467,"46":0.07897409398919218,"47":0.1067722281511603,"48":0.02990563930236964,"49":-0.06913973173979412,"50":-0.028772956284549286,"51":-0.08038078518050663,"52":0.02729981163655689,"53":-0.0473425576559603,"54":-0.046037183152933925,"55":-0.03942301464882446,"56":0.01615764566391111,"57":-0.016582817609929346,"58":-0.03635106627126743,"59":-0.06659125750859674,"60":-0.04091557505104235,"61":0.02348962453134594,"62":-0.055780914710844155,"63":-0.07204105708727475,"64":-0.00043351012752905054,"65":0.05198507871911169,"66":-0.056390021772401835,"67":-0.03474045124238206,"68":0.031902177153676776,"69":-0.0661653249826868,"70":-0.013956987050000471,"71":-0.022731641135434938,"72":-0.02342158316180743,"73":0.03800845443565328,"74":0.06514417354857048,"75":0.013660136302578079,"76":0.004346582753755641,"77":0.02568716987622593,"78":-0.08238382222693068,"79":0.054231248606551305,"80":-0.021208982239390845,"81":0.026088516438880265,"82":-0.028785411928311473,"83":0.04225904714008234,"84":0.05885993307074942,"85":-0.055222101598426165,"86":-0.011871399142786794,"87":-0.03972000306154397,"88":-0.0376013473033225,"89":-0.004569489519325622,"90":-0.003795000142634034,"91":0.0029121214792241553,"92":-0.06511046417042714,"93":-0.00773989244519312,"94":-0.0172781726278327,"95":-0.047417676987916824,"96":-0.04062911729742575,"97":-0.061664526407192596,"98":0.037292552685651494,"99":-0.0060293272077427615,"100":-0.05598290045033307,"101":-0.040598361070656355,"102":0.019267650943861275,"103":0.03799870515526738,"104":-0.03331824604204262,"105":-0.08687557128235933,"106":-0.0020988519319460985,"107":-0.0865667792112652,"108":0.012028735144418955,"109":-0.10283915279762965,"110":-0.0013944107187840275,"111":0.07706698480555911,"112":0.0011926195039907636,"113":-0.045013216503530844,"114":-0.025229873576967033,"115":0.04110518044584815,"116":0.06370948051199615,"117":0.0029841520134068207,"118":-0.13449703559452816,"119":-0.01324479367159154,"120":0.01975735146218163,"121":0.03413465572830781,"122":-0.04419918047787905,"123":0.06100336285347804,"124":-0.038769215627980004,"125":-0.042342329280685494,"126":-0.022619286759998497,"127":0.0245071946263883,"128":-0.002113186451400564,"129":-0.05606466354255491,"130":-0.034232469346702925,"131":0.021496107310990935,"132":-0.08896469344072375,"133":-0.06597798987983361,"134":-0.014651702316223515,"135":0.027321501319378206,"136":0.014502676663080374,"137":0.041227855135083306,"138":-0.019406513297690848,"139":0.08157054327832643,"140":0.016439788966259725,"141":0.04160208709148174,"142":-0.11234385239257613,"143":0.01955386614497989,"144":-0.017789882555136,"145":0.07926481972251843,"146":-0.02056457484863924,"147":0.0688293734627754,"148":-0.045674736573246666,"149":-0.03215401899131245,"150":0.016057554768669904,"151":0.018796121217174003,"152":-0.05327263906062045,"153":0.04825962350668251,"154":0.03653312088964183,"155":-0.022445149225576354,"156":-0.007373624501464136,"157":0.043514725651434744,"158":0.05080715231751664,"159":-0.0308077554561777,"160":-0.07080748402538957,"161":-0.015821551551663864,"162":0.09528335137753079,"163":0.007779071410262406,"164":-0.13376429618542962,"165":-0.05229927818234647,"166":-0.03962597597645183,"167":0.0017534788023624702,"168":-0.029638505864825433,"169":0.016293121945147458,"170":0.07259203253194439,"171":-0.05054017895096717,"172":-0.009208494300245933,"173":-0.02091403390388394,"174":-0.0014825975995530296,"175":-0.09933031446283488,"176":0.028039880625524573,"177":-0.03859057213358338,"178":-0.009715209081669314,"179":0.07767779445252422,"180":-0.08054915936471403,"181":-0.039468040873365876,"182":0.05566376210759222,"183":-0.02833788597949023,"184":0.02434522327229642,"185":-0.07834323193316216,"186":-0.0373847956506461,"187":0.024911922295524032,"188":-0.04306563141970686,"189":-0.07298918949696949,"190":0.03568606900237226,"191":0.09112139015511336,"192":0.007447340409359034,"193":0.07829375000304085,"194":-0.051928027760978795,"195":-0.04346882755193605,"196":0.020554103357868083,"197":-0.07822830494780049,"198":-0.051731332484718985,"199":0.004098210696719765,"200":-0.0028334996766872737,"201":0.0504621565644351,"202":0.029853164736281298,"203":0.023988692417939567,"204":0.005910612805307911,"205":-0.011022920077153489,"206":-0.019663562314998707,"207":0.010190511993471065,"208":-0.023308077936915392,"209":-0.01663168922816766,"210":0.005520200868802557,"211":-0.05218378181338492,"212":0.014862454402115895,"213":0.06495954241296799,"214":0.07022056651209295,"215":-0.027739258914617888,"216":-0.0008836247988615259,"217":-0.008029135449210521,"218":-0.008434664059180181,"219":0.06288693377862346,"220":-0.02581055033851002,"221":-0.005780944158933677,"222":0.11887276850186018,"223":-0.0034453755218952806,"224":-0.048278666801000285,"225":-0.06478469412046362,"226":-0.06489930651174736,"227":-0.017462100999961542,"228":0.07512833297460526,"229":0.04320963125933366,"230":0.024301223472759124,"231":0.015018031369365276,"232":-0.04478517701202301,"233":0.07559112877467229,"234":-0.024098600653499308,"235":0.018289574112760425,"236":-0.019016305792811584,"237":-0.019016188222418445,"238":-0.08623344366731622,"239":0.057097096611537945,"240":0.055253133423547825,"241":0.010446418927817207,"242":-0.01067462739700506,"243":-0.04762866073981579,"244":-0.049461786962392035,"245":-0.0495168579472989,"246":-0.023339985165259234,"247":-0.013699971446014241,"248":-0.014045475845221839,"249":-0.06497612730911112,"250":0.04864169611804838,"251":0.024486117803217494,"252":0.027936903089479343,"253":-0.06324552829092134,"254":-0.022542886641702318,"255":-0.15570281633853558,"256":-0.016399200856742055,"257":-0.021101759552528715,"258":-0.004237179654005056,"259":0.04887861044321539,"260":0.05649146541754411,"261":0.026518814031979202,"262":0.06955846432756202,"263":-0.030747561552090644,"264":0.051747215010707906,"265":-0.0338906640306836,"266":-0.019444759195644618,"267":-0.0657160423728401,"268":0.005476536730301898,"269":-0.0075722919689374425,"270":-0.023019058848295332,"271":0.0017710164234593813,"272":0.03572523962657877,"273":0.022563069274147484,"274":-0.05089735776472725,"275":0.017137935478203303,"276":0.0010824657735612172,"277":0.06111482192113939,"278":-0.019031896889559592,"279":-0.04198266734156508,"280":-0.0048877173540155154,"281":-0.03942364873358336,"282":0.06007689756617784,"283":0.034292058746420905,"284":0.021264556298501668,"285":-0.012134366209962314,"286":0.06270031500108102,"287":0.05462977437773289,"288":-0.036530113892853974,"289":0.13010905996277186,"290":-0.04071407295670539,"291":-0.020199234881412297,"292":0.017271576740121003,"293":-0.07734653828146792,"294":-0.07991409378262117,"295":-0.05276299045899197,"296":-0.020338491715655018,"297":0.056350703701162644,"298":-0.009415360381707842,"299":-0.12622390494453165,"300":0.06672463221835916,"301":0.0028814743412166007,"302":0.041055917044868946,"303":0.08726215954166494,"304":-0.011393933647199294,"305":0.024504737127972364,"306":0.11221321200527169,"307":-0.12727892562244233,"308":-0.006449253569316979,"309":0.05777872188177386,"310":-0.03839257639682822,"311":-0.00632694266143679,"312":0.01739149908973531,"313":-0.03279287118560654,"314":0.07324766081388566,"315":-0.0006396910032885056,"316":-0.0074166317770146175,"317":-0.02518506272675798,"318":-0.033418479350757986,"319":-0.06774335321268886,"320":-0.008173163701849446,"321":0.046029945502849494,"322":-0.06783654644775336,"323":-0.02416193500495006,"324":0.053519991396845656,"325":-0.00628596797546034,"326":0.06322774590581841,"327":-0.08251910732243446,"328":-0.03971424153511075,"329":0.11088823017923441,"330":-0.01901995868172694,"331":-0.07098086138199945,"332":-0.025552897927156586,"333":0.01005112719398653,"334":0.014493247721351682,"335":0.0888084992561647,"336":0.05272355109605716,"337":-0.025391151534756268,"338":0.041239857837025655,"339":0.02036601910973729,"340":0.007860671256140529,"341":0.01226451896464185,"342":0.07021907990511615,"343":0.0206414965912643,"344":0.006667143508527767,"345":0.026580759708378608,"346":-0.020936149267758046,"347":0.04993223108071162,"348":-0.021612262389745406,"349":0.07195303123171459,"350":0.06843867778762412,"351":-0.1369403292060166,"352":0.03144915754084758,"353":-0.006652355237763168,"354":-0.01763361279961049,"355":-0.0695256663177439,"356":-0.02194167017060328,"357":0.00372565214600025,"358":0.02181746880961455,"359":0.048968376401534654,"360":0.022957438503838166,"361":-0.06897954854367405,"362":-0.07025572464153479,"363":-0.049832207084872154,"364":-0.03467332453958026,"365":-0.1212929953390584,"366":0.014768930627398112,"367":-0.040468942962999695,"368":-0.07934618325476221,"369":0.02209344299031654,"370":0.025267543618552712,"371":0.017250365222652306,"372":-0.0037505736891541163,"373":-0.03035410615307127,"374":0.06144035439566575,"375":-0.06204510247684483,"376":-0.027547754075192252,"377":-0.017620911147872214,"378":-0.07511969490821459,"379":-0.047080789722563396,"380":-0.02578361612277884,"381":-0.02373248790519855,"382":0.05294122754887855,"383":0.09227032144897127,"384":-0.055487804363768364,"385":-0.0660221695342449,"386":0.023089592057123427,"387":-0.03733083472002143,"388":0.08196931192837321,"389":0.07775403158237985,"390":0.09796802327931818,"391":-0.027643479994729214,"392":-0.03282640084340874,"393":-0.005172728643685051,"394":0.05844187346474197,"395":0.04844149210605323,"396":-0.059147721786382126,"397":-0.11733274553254494,"398":-0.012448737238165787,"399":0.06972893456546189,"400":-0.005340214115634811,"401":0.016760528848120435,"402":0.04385613301920545}},{"sx":1,"sy":1,"depth":403,"w":{"0":0.049132616103205635,"1":0.09419727035842217,"2":-0.05366817333178588,"3":0.05121364486853135,"4":0.021380158149266797,"5":-0.025266614282374575,"6":0.001460189123249724,"7":-0.023764571139038196,"8":-0.013544951051970218,"9":0.03654234614269328,"10":-0.0077446568417556755,"11":-0.0017620600719991937,"12":0.03140005931543189,"13":-0.014277634522250142,"14":0.09222534274065063,"15":0.039772019823392284,"16":0.07192699531467148,"17":0.04832884562007236,"18":-0.02438458637018023,"19":0.03873395021272025,"20":-0.039184037133993946,"21":-0.009208744123165469,"22":-0.10761016894045154,"23":0.022819196954120897,"24":-0.07640408166009725,"25":-0.007437042598603152,"26":0.04267918505205843,"27":-0.0799734349302339,"28":0.06144403846383713,"29":-0.04839884938604249,"30":0.08110199259366654,"31":-0.07096766203266494,"32":-0.0030792528653259027,"33":-0.05610604639930462,"34":0.03260339412402435,"35":-0.059762166842890006,"36":0.002078671406061147,"37":-0.046715238393863254,"38":0.005986198810530662,"39":-0.05633965729124858,"40":-0.0598755669154934,"41":0.005128574104455275,"42":0.006506090041288282,"43":0.06564302534409605,"44":-0.01502494150781823,"45":-0.06513282248746399,"46":0.052938133993500114,"47":0.031023791803179112,"48":0.011370736214084312,"49":0.02482723370126755,"50":0.048065956073690644,"51":0.12751796262872359,"52":0.11066612713214073,"53":-0.026400966639618974,"54":0.06735193500330033,"55":0.03725874180978108,"56":-0.005722532807988526,"57":-0.01585478290095525,"58":-0.020386668918048086,"59":-0.027850152827157398,"60":0.02945345546249047,"61":0.05667446324890171,"62":0.012553359399036424,"63":-0.0006853429072167566,"64":-0.0008423970502430471,"65":0.022188415777368922,"66":0.0819729728004773,"67":-0.00360115936188983,"68":-0.06112612056869551,"69":-0.018514771928310463,"70":0.023776070405896424,"71":-0.0025952669671892095,"72":-0.06886979155336236,"73":0.07730329268372689,"74":-0.05738129073872976,"75":-0.016620150473329938,"76":-0.02022783212671231,"77":0.007723443581010179,"78":0.041618214114102464,"79":0.04197628334716291,"80":-0.05369811331116804,"81":0.045119828128247566,"82":0.03117855222956762,"83":0.015406056519278438,"84":-0.04287896136090159,"85":0.0656266630921167,"86":0.03355159555554267,"87":0.004201159486387454,"88":0.00898203699205186,"89":0.02194127954225506,"90":-0.05213008903255625,"91":-0.09448030442242233,"92":-0.00036374612438788207,"93":0.005068397216160167,"94":0.08375804548515511,"95":0.04563662650991745,"96":-0.0005875663714855991,"97":0.07801895740892827,"98":0.07347116587085231,"99":-0.01717770476001951,"100":-0.019615927569213147,"101":0.042053537215837974,"102":-0.0029173470008507707,"103":-0.03405723044297212,"104":0.021246758155265794,"105":-0.003975929189542509,"106":-0.06489006125332158,"107":0.007161797050877182,"108":0.02359920339726107,"109":0.10261279780794194,"110":-0.09238269181338309,"111":0.04660075182362656,"112":-0.07630106641301809,"113":-0.035227301396461505,"114":0.01652734969581491,"115":0.01936408580271176,"116":0.05817090123465817,"117":-0.05300495351454165,"118":-0.045014968817353826,"119":0.06168665816475465,"120":0.012693705789106596,"121":0.03319829291932977,"122":-0.0065353313637136565,"123":-0.03988593520631279,"124":0.00948685431453118,"125":-0.047042411330635574,"126":-0.012726295555595981,"127":0.06537451617771822,"128":0.01521652298052699,"129":0.019387466857788527,"130":-0.04705885713342538,"131":0.015769692631359345,"132":0.030626242197224436,"133":-0.030935930252161327,"134":-0.10015808404138757,"135":-0.10622521493000973,"136":0.018149097766475438,"137":-0.00429356754880874,"138":-0.004010276408958275,"139":-0.039658218658062225,"140":0.03950268752291122,"141":0.021943799800232956,"142":0.06064004940107266,"143":-0.005981675459478635,"144":-0.044614834908575,"145":-0.09322864940818344,"146":0.09840553553931027,"147":-0.040241276079447906,"148":0.037492931491508084,"149":-0.02077062386381878,"150":0.1053483834193492,"151":-0.0579670907706129,"152":0.0019891712748572004,"153":0.02082407516603988,"154":0.037194345381258216,"155":0.053927505710291854,"156":-0.03706165490158629,"157":-0.053205871567245606,"158":-0.04394984767447685,"159":-0.013223247813355168,"160":-0.04315398504804791,"161":0.0042599369203318764,"162":-0.09080833434217774,"163":0.03754512839228408,"164":0.014426626385378106,"165":0.034791103165067935,"166":0.019414414269458776,"167":-0.04924934465986336,"168":0.00010403458005459148,"169":0.03995555281033667,"170":0.03443359871575826,"171":-0.008948933267693596,"172":0.007366410243528165,"173":0.011292129886674721,"174":-0.02202386923133731,"175":0.04034751669013508,"176":-0.03915316507307908,"177":-0.07549983845691294,"178":0.02667034058321738,"179":-0.019614438782973382,"180":-0.010594725115732244,"181":-0.05693279746857277,"182":-0.004359386423367314,"183":0.0436184615388392,"184":0.04300286267052312,"185":-0.00838161639926543,"186":-0.06565956435254276,"187":0.02304371487965534,"188":0.007936120893224133,"189":0.011185483788158545,"190":-0.06068958892611163,"191":-0.02769898040645925,"192":0.011474369880341546,"193":-0.04105004124918418,"194":-0.04484364045676751,"195":0.06270685703919675,"196":0.03225103698957899,"197":-0.05577630870349585,"198":0.01644653956539258,"199":0.008423020184641554,"200":-0.007306606933769264,"201":-0.08055433595175605,"202":-0.02425922052237516,"203":-0.12299263301024756,"204":-0.008229517774289473,"205":0.04334078276859774,"206":-0.058403381393856334,"207":-0.056135126278832534,"208":-0.06589503658368348,"209":-0.06367849873321793,"210":-0.08958188261780702,"211":-0.03716211105582091,"212":-0.010762138669218328,"213":-0.015825617633375505,"214":0.03884488023839924,"215":-0.013909595769432728,"216":-0.0706654828942321,"217":-0.049554717461735016,"218":-0.027956865904121747,"219":-0.009886595310504653,"220":0.01959310615593393,"221":0.09876670497122512,"222":-0.13016215498379036,"223":-0.0020779372289462254,"224":0.0392123584552992,"225":-0.041782277736161826,"226":0.06050050567736744,"227":0.013024480090386672,"228":0.02304115072427096,"229":0.1177373928073578,"230":0.003852744888207592,"231":0.06508491324850851,"232":0.0029234656668435883,"233":-0.010824138717547572,"234":0.06331548488151234,"235":0.03721051082495701,"236":0.05692851590614767,"237":-0.022395162417060795,"238":0.020328433381185902,"239":0.015494950066733725,"240":-0.027965600796292265,"241":0.025533601214360806,"242":0.037957513562286216,"243":-0.004714767393139087,"244":0.05859191108271964,"245":0.02824738291640019,"246":-0.029870489234106918,"247":0.007048553737028048,"248":-0.061283295319045056,"249":0.037618115266590625,"250":0.03751044698529883,"251":-0.020493286400829286,"252":0.020644437836997973,"253":-0.002137065679644202,"254":-0.015911315769618607,"255":0.005795473138707736,"256":0.02940926472911012,"257":0.01577653948072655,"258":0.037779523653330926,"259":0.0007019849786378681,"260":-0.028145704434492283,"261":0.0209036866702548,"262":0.05180311669330383,"263":-0.05329678421266723,"264":0.006863750294678668,"265":-0.07978458381159888,"266":0.07059491974720544,"267":-0.09820974249020845,"268":0.03892023023009723,"269":0.06169717709567938,"270":0.057805199821022515,"271":0.006034124547614618,"272":0.07093028895763388,"273":0.01804156174163913,"274":0.025494421648285432,"275":-0.02486902232508672,"276":-0.12044950776865003,"277":0.014231356722961896,"278":0.060787778927463065,"279":0.027327273420885752,"280":0.022914199525999535,"281":-0.03813366984729087,"282":0.12428581488346863,"283":0.05482565653800405,"284":-0.04308676695578232,"285":-0.021371983191539344,"286":-0.058499144327718744,"287":0.005145665838389401,"288":-0.01599297653958495,"289":0.07591741307760724,"290":-0.034184286240964576,"291":0.025016725079539115,"292":-0.03586327419557473,"293":0.012330381167025891,"294":0.014247180069253093,"295":0.06280038255086812,"296":-0.06513754086148439,"297":-0.01579109119736533,"298":0.057547658269043345,"299":-0.014297679552814664,"300":0.04023472038970704,"301":-0.03842984054509455,"302":0.05978928555931808,"303":0.0351454480089645,"304":0.06574392031873813,"305":-0.009169887448929735,"306":-0.02216445400171488,"307":-0.004815069053108034,"308":-0.058742427696593,"309":0.05318580308643175,"310":-0.08834987271473713,"311":0.008311155364097189,"312":0.03420406828161106,"313":0.03194447865989562,"314":-0.059209665900236796,"315":-0.023496052031139265,"316":0.010461832919229799,"317":-0.011141320993430208,"318":-0.11704970498443909,"319":-0.003787836323053957,"320":-0.052694959603748384,"321":-0.08983753652048794,"322":-0.038482359334017606,"323":0.027647301926579725,"324":-0.037580738871888356,"325":-0.04811484492723834,"326":0.01722384563211593,"327":-0.06489629823283637,"328":-0.0026260763676659265,"329":-0.01744931306175736,"330":0.04677414438092414,"331":0.07925594060092124,"332":-0.03202321526776584,"333":-0.07962040820304246,"334":0.04414736434524249,"335":-0.04121909636336764,"336":0.01585371645747091,"337":0.08154484723608574,"338":-0.009224727219789827,"339":-0.04174579937690848,"340":0.054259077801387216,"341":-0.06795221125723876,"342":-0.005083320499282188,"343":0.008916122868106167,"344":-0.024181388176637845,"345":0.042312035441617574,"346":0.0379331613761665,"347":0.0005357261019922185,"348":-0.03151349140927826,"349":-0.08613801127135334,"350":-0.02584983682513499,"351":0.027896323387620707,"352":-0.12126799369504472,"353":0.11394837256751078,"354":0.018258135997800008,"355":-0.034745583255489106,"356":0.09955018672781286,"357":0.0253817607126649,"358":-0.03915928871161391,"359":-0.037016771221839405,"360":0.06275981644508544,"361":0.06467063490046121,"362":-0.0002069144218612674,"363":-0.023098516162870755,"364":-0.05731388552820852,"365":0.08285207990528486,"366":-0.03970856190759054,"367":-0.007637332091389878,"368":0.051438729344716924,"369":-0.006819024683749732,"370":0.01041368331649572,"371":0.046475288244809426,"372":0.015107826375745904,"373":-0.06301209091623167,"374":0.01278271847882183,"375":-0.01944867968437058,"376":-0.10247767155513998,"377":-0.006120705528870896,"378":-0.04163859757984424,"379":0.06614304259687127,"380":0.0035080994611081896,"381":0.08490221931038791,"382":0.05524641602498507,"383":0.04505595365715618,"384":0.003245630513645556,"385":0.007747279868035288,"386":0.06184680794015152,"387":0.00396352872358447,"388":0.02759263506438873,"389":0.000290216815620691,"390":-0.002412888071733986,"391":0.007457180064718361,"392":-0.028982218539372488,"393":0.054586002860373926,"394":0.007878252265988898,"395":-0.007584747583867749,"396":0.05159192777714879,"397":-0.07225129702844085,"398":0.044049840939059066,"399":-0.015266312678579452,"400":-0.03941825791098429,"401":-0.08040861348594133,"402":0.10173251666736957}},{"sx":1,"sy":1,"depth":403,"w":{"0":-0.0010452221881866164,"1":0.03222420457471202,"2":-0.03656435916997145,"3":0.026968502212023574,"4":-0.0789324857622094,"5":-0.006177593091477475,"6":0.08685970456345349,"7":0.006296081983076297,"8":0.03324550771142738,"9":0.03271007509531909,"10":0.019696333450322533,"11":-0.05478880518299701,"12":0.016952030978515376,"13":-0.020462186955815205,"14":0.05436847469002255,"15":-0.08217743106077523,"16":-0.011036444858765624,"17":0.07902983923328279,"18":-0.06289400242826455,"19":-0.06523492003726195,"20":0.09747481914395846,"21":-0.018725732537922677,"22":0.007653493920699283,"23":0.014415151728410364,"24":0.055278354319692934,"25":-0.04937669501680632,"26":0.02162833508098587,"27":-0.03958353891921719,"28":0.10068529676691455,"29":0.10675754456816575,"30":0.021734756513105285,"31":0.04658269685671532,"32":0.006396853116708903,"33":0.06082124220048164,"34":-0.0013192196133048914,"35":0.03840129391323042,"36":-0.007861422222400173,"37":-0.05308892093751331,"38":0.02593533373691568,"39":-0.03718394193646065,"40":0.05314661515365355,"41":0.029387080314489035,"42":-0.026875292762971695,"43":0.005814028801886549,"44":-0.02514704734296879,"45":-0.0907710063290918,"46":0.01720236677896851,"47":0.008434163464037773,"48":0.016929290253115604,"49":0.09689560746679993,"50":0.004597679239980312,"51":-0.005253027428817476,"52":-0.12419134036724072,"53":-0.02101682748414537,"54":-0.07282518402754759,"55":-0.11459437840473123,"56":-0.019234583539336943,"57":-0.017047143919802325,"58":-0.026077871783921507,"59":-0.015022385828883239,"60":-0.047051271910578236,"61":-0.024462548054541976,"62":0.058084531482379104,"63":-0.04310775397851801,"64":-0.09531769116798841,"65":-0.004634435831081153,"66":0.010219139501204823,"67":0.07041673163483263,"68":-0.10537177995049005,"69":0.06418298996884718,"70":0.007970725966064894,"71":0.005531326295355561,"72":-0.10860744699668855,"73":0.030132232872053907,"74":0.014559561861714514,"75":0.05912756361839745,"76":-0.06257560778860569,"77":-0.027071342350983046,"78":-0.03940579130992693,"79":0.00030564980543334747,"80":-0.007062604824089006,"81":-0.08794856774552677,"82":0.0755813839937595,"83":0.034639065602778414,"84":-0.02368796806827699,"85":-0.0411336639397203,"86":0.05174883921502915,"87":-0.10023225825958901,"88":-0.006370832898434348,"89":-0.013701657854376869,"90":-0.06686861372378124,"91":-0.09110673610100146,"92":-0.021747333684460707,"93":0.01811117191541337,"94":-0.04178267174091837,"95":0.014105199507168428,"96":0.06274681655155624,"97":-0.009195444828871852,"98":-0.037092866655613246,"99":0.006512472810141952,"100":-0.0777606822506344,"101":-0.04128270755379338,"102":-0.05805567237256092,"103":0.07668153962176774,"104":-0.0863577544269331,"105":-0.040082206758945325,"106":0.03900634152504035,"107":-0.004417105929129553,"108":-0.06153253680451648,"109":-0.014216126431365403,"110":-0.009757504938784422,"111":-0.03130599722862055,"112":0.08937014384844782,"113":-0.05823290658546409,"114":0.0200344716170602,"115":-0.0018834779808737042,"116":0.021674687909619315,"117":-0.05950099968399487,"118":0.07429110580574416,"119":0.02050949016964293,"120":0.0055673627860113855,"121":-0.07544536428201845,"122":-0.04022582048526951,"123":0.09617667477083376,"124":0.03849732846363674,"125":0.04287215133471627,"126":0.1003551704160135,"127":0.01721655659218929,"128":0.03658274228138672,"129":-0.03945178034981296,"130":-0.036715056119305194,"131":-0.02037813748970105,"132":0.01621457957718919,"133":0.06135759942567388,"134":0.032162861651285984,"135":-0.0764267866422775,"136":-0.025243390765927482,"137":0.03834826351204221,"138":0.0487368583993338,"139":-0.005983753166271452,"140":-0.04283389112329513,"141":0.02856375468763575,"142":0.048412399696511836,"143":-0.013564984837674625,"144":0.02782448290329284,"145":-0.022385531292466943,"146":0.029636009838819487,"147":-0.0486498955118756,"148":0.004201747572310772,"149":0.016043491065244213,"150":0.03940121980146368,"151":-0.017206083065398288,"152":-0.03012158557038331,"153":0.0010943101245625996,"154":-0.019252639919755413,"155":-0.05031292457013532,"156":0.056150219817708645,"157":-0.033592797435101095,"158":-0.0779585580408205,"159":-0.00428874765371955,"160":0.036393839017302476,"161":0.04095923821353993,"162":0.06197701477335085,"163":-0.002531703402390923,"164":-0.0036502497623062064,"165":-0.1165526943179387,"166":0.0031236172964006397,"167":0.0026552211084415554,"168":-0.10059302243455724,"169":-0.02652187319996279,"170":-0.04260896315776758,"171":0.030703955546230063,"172":0.02250406677549822,"173":-0.038612124474700846,"174":-0.03860933064995257,"175":-0.0005370762716136196,"176":0.0021225715788898776,"177":-0.013844949104390178,"178":-0.03919306702032618,"179":0.01026798686292168,"180":0.03421867391605025,"181":0.08636440776359396,"182":0.010877956234734504,"183":-0.02179790468289243,"184":0.02823419933976516,"185":-0.05629409120301709,"186":0.029324587345417007,"187":-0.0999706256670834,"188":0.062291689827795246,"189":-0.018690554233504436,"190":0.12903394798970724,"191":-0.03122158226161977,"192":0.10481523387137838,"193":-0.0461832140788491,"194":-0.018772257570272923,"195":0.07715963923770723,"196":0.035770110781199765,"197":-0.004145092575319838,"198":0.0339705189299135,"199":-0.01883590185588173,"200":-0.010383436688418105,"201":0.08084466809389426,"202":-0.01270997077403734,"203":0.08870412244245442,"204":-0.030121256413092577,"205":0.007899561020974707,"206":0.04914295269886392,"207":0.043627368910168794,"208":0.011830557956597234,"209":0.05461142447063745,"210":0.03652517606160975,"211":-0.04689692132986562,"212":-0.03305500545719603,"213":0.029282955161596187,"214":-0.0053274487395486465,"215":0.023885283463980823,"216":0.021201838097886186,"217":-0.03947951521038335,"218":-0.0034318093700652866,"219":0.021728608204617954,"220":0.053582487908694736,"221":-0.004353455661177286,"222":0.024161978621690075,"223":0.019612594312102733,"224":-0.04930090781903717,"225":0.10293995448996054,"226":-0.05137585680501959,"227":-0.059812176122527774,"228":0.009045227304312667,"229":0.034169169499600756,"230":-0.03877148577559525,"231":0.03719896081100798,"232":0.048115836931018195,"233":-0.003714372153865801,"234":0.09187654976940325,"235":0.013407200569686833,"236":0.008001427839626743,"237":0.0200345759695052,"238":-0.010063938326820263,"239":-0.003689069001348174,"240":0.0027533821872955727,"241":0.031889706825726505,"242":0.033934481645377726,"243":-0.03382468294395011,"244":-0.0423591124254086,"245":-0.004734197300490279,"246":-0.05378172230587305,"247":0.004532081342252717,"248":0.09599901534797774,"249":-0.01762256521133515,"250":0.03540029573948981,"251":0.09589559776356651,"252":-0.031222663355405633,"253":-0.011167155501927515,"254":-0.00581277639556775,"255":-0.01999048055108619,"256":0.038271879550193136,"257":-0.07492527692408732,"258":0.02780023130615598,"259":-0.059979414458188024,"260":0.08962950079139197,"261":0.006072367065197457,"262":0.05818064229087505,"263":-0.005194675836540307,"264":-0.14144006471178977,"265":-0.09299398635065721,"266":-0.038806809782537484,"267":0.009515683765018896,"268":-0.03165266783386336,"269":0.09445882089237398,"270":-0.10891256828951408,"271":0.04837728579087362,"272":0.01867446924235328,"273":0.011715304432241105,"274":0.009257247562229131,"275":0.09774757349638268,"276":0.016154817699420596,"277":0.021694942514279208,"278":-0.0017042578995577424,"279":0.06217960788508923,"280":-0.024425723757098585,"281":0.09149534811264452,"282":0.05855121641264687,"283":-0.041369619744059366,"284":0.005347277356622292,"285":0.05188241133683437,"286":0.014962169023191297,"287":-0.03690634968761216,"288":-0.04071903882771698,"289":0.019445399938117204,"290":0.01691423313881224,"291":-0.04363515044894566,"292":0.0031598240077350018,"293":0.07013070025821962,"294":-0.001615597575898408,"295":0.02074111088022534,"296":0.07008447479721458,"297":0.046251121974448445,"298":0.012872635009900131,"299":0.02835243086687372,"300":-0.033875569226915876,"301":0.09661528186311442,"302":0.07147546447443463,"303":-0.0009581825640472793,"304":0.08385811076452711,"305":-0.02357432990731281,"306":-0.12828214334954122,"307":-0.05005922251617548,"308":0.008469245582430441,"309":0.029713171119772407,"310":0.09235303530968857,"311":0.022227530039295115,"312":-0.0671866324243094,"313":-0.014984889708730789,"314":-0.04895386046311406,"315":-0.05518448564488232,"316":0.04692243413795401,"317":-0.012229253676367388,"318":0.05574200290259505,"319":0.04201949493455228,"320":-0.00565768119616567,"321":0.07703662099885636,"322":0.051745216303275415,"323":0.05317694577552795,"324":0.04069459418999504,"325":0.005273964464699939,"326":0.013426284139028934,"327":-0.022751548347572655,"328":0.01279986463342387,"329":0.06224128692176651,"330":0.02851341746272138,"331":0.06148411728465881,"332":-0.030369190336620607,"333":0.00027112122552981843,"334":0.049944757583303134,"335":0.016407048141786514,"336":0.061064687576214374,"337":-0.013598351645583163,"338":-0.006938477097357693,"339":-0.02619635956161678,"340":-0.06695269511139261,"341":-0.019463031336512875,"342":0.04126616145705263,"343":0.04755254359852403,"344":0.040781869427335984,"345":0.047030583941656386,"346":0.03635319287429234,"347":0.04306266502817952,"348":-0.0005173109569016175,"349":-0.07679791275501059,"350":-0.019879589013288086,"351":0.05489612595117233,"352":0.06475540787632306,"353":0.1572399304645224,"354":0.006611639762382546,"355":-0.015375569322023403,"356":0.043441890586348515,"357":-0.0021168610653753872,"358":-0.07746266688617715,"359":-0.0304563690566752,"360":0.09674460310650497,"361":-0.013880669006775195,"362":-0.059178938106681726,"363":0.028927531376521917,"364":0.02420626399599971,"365":0.10614463955673624,"366":0.036730903212517964,"367":0.009233285084899467,"368":-0.06678342218186224,"369":-0.04829975504999596,"370":0.05980528154289057,"371":0.02770613155543226,"372":0.05489582919183972,"373":-0.02220567027333103,"374":-0.09871666880091147,"375":0.12079299517324257,"376":0.011667109273803664,"377":-0.0015684771576377722,"378":0.04716827142524727,"379":0.03399452474860416,"380":-0.042794293357478794,"381":-0.05502024704454469,"382":0.03143465479312379,"383":0.05235713557380358,"384":-0.007986274044348523,"385":0.033047565984285966,"386":-0.03728530953634578,"387":-0.06517982765754846,"388":-0.053760989505664186,"389":-0.06134777052507523,"390":-0.07719808529014224,"391":0.05784409026357496,"392":0.038661159474842624,"393":0.010332516260818096,"394":0.015341613271482724,"395":0.036120035418262295,"396":-0.002930684740210175,"397":0.023847068889658315,"398":0.012913898191673023,"399":0.021290298149686252,"400":-0.0690411942787587,"401":0.10896575245086981,"402":-0.05878449470113623}},{"sx":1,"sy":1,"depth":403,"w":{"0":0.04007151461362509,"1":-0.030767343407567895,"2":-0.012242076035937903,"3":0.06917861987074599,"4":0.0182026531932054,"5":-0.12492619321443878,"6":0.00024793165309424037,"7":0.0006213161011621404,"8":0.04417815621819152,"9":-0.00023673559638420045,"10":0.00951247791321182,"11":-0.0011194907956790512,"12":-0.0680860884380127,"13":-0.03299062049670035,"14":-0.012132828290440094,"15":-0.024242382457423522,"16":0.03542913564654207,"17":-0.06390808152592117,"18":-0.058469114606724805,"19":0.011721713558792174,"20":-0.01717718184339016,"21":-0.06074453970166558,"22":-0.022956783527064994,"23":0.01587262833278297,"24":-0.0036577524492399827,"25":0.031780356904211174,"26":-0.01364552336377464,"27":0.00878528854584126,"28":-0.025595110628747593,"29":0.0330522024455075,"30":0.021941722167442154,"31":-0.050612350023541065,"32":-0.015914807716627927,"33":-0.017646838675253965,"34":0.0023043818256562993,"35":0.029608561100293036,"36":-0.03650007773714242,"37":-0.01982137110113297,"38":-0.05371055983871288,"39":0.06438844917236411,"40":-0.03947103916634091,"41":0.024700633759880054,"42":-0.042935359114752894,"43":0.044679949454699996,"44":-0.010700925429657997,"45":0.009543423189452055,"46":-0.060188481766458864,"47":-0.005783529011540225,"48":-0.006736712036251305,"49":0.022845708815139917,"50":0.0038940890796919257,"51":0.037176836859935176,"52":-0.03421227243651038,"53":-0.04212794271053834,"54":0.02154650329913578,"55":0.01852588395329485,"56":0.06170807867603208,"57":-0.016947328264601796,"58":-0.05829639717575128,"59":0.0016902271415717102,"60":0.022549708304819664,"61":0.0244271707301562,"62":0.03732060105130506,"63":0.03625757922609213,"64":0.04142083883390489,"65":-0.06107868099904132,"66":-0.011755464768160685,"67":0.0723116206544585,"68":-0.043627210138823286,"69":-0.020025730566152193,"70":0.02507205442678732,"71":0.015440682253135484,"72":0.013424374050480468,"73":0.051407298616294984,"74":0.022387419769511842,"75":0.053355216273479236,"76":0.00905504477234463,"77":0.007962207400510953,"78":0.0231842033242919,"79":-0.05406033083221182,"80":-0.013212553913028287,"81":0.0491704734282755,"82":-0.04730777954523918,"83":-0.008200334397665212,"84":-0.06049218043814712,"85":0.04803917229030455,"86":0.019540831141744503,"87":0.07656422248827317,"88":0.014000737822084225,"89":-0.00206543818291652,"90":-0.028211633785585697,"91":-0.06776032436663225,"92":0.07616830408671042,"93":0.0292386240437494,"94":0.002263565301552681,"95":-0.03677539246136968,"96":-0.045152705190109055,"97":0.05197066361496071,"98":-0.01098385155188364,"99":0.01002917175159889,"100":-0.08024543095496488,"101":-0.08938780236666385,"102":-0.039092989887701,"103":0.045164659048817016,"104":0.013131166279827853,"105":-0.00123987920111522,"106":-0.07975562074547066,"107":0.06038597144053902,"108":0.06366898464546146,"109":0.05771680982217893,"110":0.04686841811305631,"111":0.025739653073005447,"112":-0.02446253554488923,"113":0.008002755424150142,"114":0.02675158370987501,"115":0.0033935814721689733,"116":0.04782807885868161,"117":0.06417874634664679,"118":0.019501722111929267,"119":-0.0035300742814856753,"120":-0.06210946236908738,"121":-0.02323954717635592,"122":0.06453716955830038,"123":0.03177481505577394,"124":-0.05989788645234409,"125":0.025888748153788457,"126":-0.015924764271118982,"127":-0.03481282016902265,"128":-0.09921299779325593,"129":0.05525883824984761,"130":-0.044328497009416795,"131":-0.11822041199801311,"132":-0.017885216686663593,"133":0.024401853221246158,"134":-0.006598367024325354,"135":-0.04588065115209837,"136":0.019675638256863165,"137":0.06373712301326824,"138":0.12935737736950714,"139":0.006595748623696178,"140":0.11695660672338438,"141":-0.0015721259134228054,"142":-0.13427532001768816,"143":0.09470805805292604,"144":0.019249042475732128,"145":0.01083958785091054,"146":-0.031873263385774106,"147":-0.03177586369706513,"148":0.03896000651645453,"149":0.030602122667213964,"150":0.0775301997369495,"151":-0.07455842296483167,"152":-0.10043793617789826,"153":-0.06247749685320983,"154":0.05931861753445415,"155":0.018512551475198896,"156":0.04493008794254779,"157":0.03000767754636547,"158":-0.006426112720027574,"159":-0.02309637249738619,"160":0.0061620604944582205,"161":-0.016103606405855682,"162":-0.02089916884503468,"163":0.040930229261396604,"164":0.014206735636705704,"165":-0.04788787590895472,"166":-0.024752549878451702,"167":-0.05280282743185125,"168":0.09113029944483582,"169":-0.0005565510830747504,"170":0.1252590928595305,"171":0.08082369780961701,"172":-0.046629871840992265,"173":0.022339952490365293,"174":0.011042944069515849,"175":0.03458945391579194,"176":0.017179987941956958,"177":-0.09909928147035328,"178":0.048541502022943404,"179":-0.008757014971891623,"180":-0.09553239814588481,"181":0.00773061349577053,"182":0.0654832724483187,"183":0.0018786320334654358,"184":-0.05658542416042736,"185":-0.018434486834709787,"186":0.0016260432822984088,"187":0.05137298743377373,"188":-0.0032570033602056007,"189":0.04452092107274696,"190":-0.002552784337543307,"191":-0.007162726121218109,"192":-0.005544384234655623,"193":0.00867803849871771,"194":-0.052992346001868876,"195":0.13319695928605524,"196":-0.006515144907558843,"197":-0.044428433989761415,"198":-0.05141056984569756,"199":-0.04499243266372157,"200":-0.009063465860520873,"201":-0.02073997407309699,"202":-0.022549207502195648,"203":0.03142217428395609,"204":-0.05942700075799475,"205":0.0008458128836236131,"206":-0.01088598639228353,"207":0.024499599416489944,"208":-0.08502245394179674,"209":-0.00285072967551781,"210":-0.027369391202099667,"211":0.06831235269757618,"212":0.04080017072199343,"213":0.09196677192292776,"214":0.00013552058429797998,"215":-0.04316881010987213,"216":0.04250736527583483,"217":-0.005825899892640291,"218":-0.0015509970774457058,"219":0.006673107963444229,"220":-0.037589535525936774,"221":-0.06770300969173007,"222":0.026591609101829828,"223":-0.08662700713637145,"224":-0.04511161892206173,"225":-0.0638795017880415,"226":0.010891064365088356,"227":0.07843992826744703,"228":-0.049992581527299164,"229":-0.05851842414476684,"230":0.06219961533410367,"231":0.023655707671922956,"232":-0.08657305339158303,"233":0.006484304472311027,"234":0.0026506589678139043,"235":0.008180714028367482,"236":-0.0951749039111546,"237":-0.016982372583466184,"238":-0.013113494812706235,"239":0.07967903388913504,"240":-0.023686682580089893,"241":-0.08484146361056856,"242":0.0143303058199121,"243":-0.007629475361458051,"244":0.09993069412906622,"245":-0.0003483590273577712,"246":-0.03294675052351942,"247":0.03657261821766318,"248":-0.016400124813076577,"249":-0.043777982238175535,"250":-0.009585527887579035,"251":-0.007901372810812084,"252":0.0043051692083171745,"253":0.04956330047556885,"254":0.06303161800919689,"255":0.03130172062557763,"256":-0.04319657318768743,"257":-0.0004464823316970028,"258":-0.05744742326576562,"259":0.009685241215194342,"260":-0.10255557820490893,"261":0.01519433074856764,"262":-0.028437983606156784,"263":-0.1144135639541383,"264":0.04912486647840055,"265":-0.012836667766407356,"266":0.08549938626503811,"267":0.10425768649927303,"268":-0.06235645209982464,"269":-0.05766563345363027,"270":-0.06687835472640496,"271":0.08160791652974443,"272":-0.052947442397737424,"273":0.06602777490747552,"274":-0.04267942406644815,"275":0.004769581414602389,"276":-0.00140326463610862,"277":-0.043628370726643814,"278":0.056438338182995214,"279":0.074256277776977,"280":-0.07909585712702916,"281":-0.02692736261846495,"282":0.005690600215571675,"283":-0.03322043129723886,"284":0.0012490646058250243,"285":-0.028894782289376957,"286":-0.0654681414330738,"287":0.007657416189355473,"288":0.08923543291159731,"289":-0.0014426877465941207,"290":0.00839240751703442,"291":0.009519041881490147,"292":0.034867605616465076,"293":-0.04229741719638217,"294":0.07079500417989136,"295":-0.07909922935781821,"296":-0.007052191754556165,"297":-0.013061670184809778,"298":-0.008082461048364183,"299":0.06669702896469819,"300":-0.013514093961763838,"301":-0.07558986844007412,"302":-0.09724681865239804,"303":0.027653311963046306,"304":0.04660319779331719,"305":0.06828376393716781,"306":-0.04452960778508098,"307":0.06637835561702898,"308":0.007738342779512505,"309":-0.02525877792532418,"310":0.09982424260819842,"311":-0.017911604710917975,"312":-0.00833762031479549,"313":-0.022664898600905207,"314":0.03748810094526859,"315":0.04030064848521561,"316":-0.0356201046456338,"317":0.009759652389315247,"318":-0.05773678261169439,"319":-0.07120930168025599,"320":0.059254807751091994,"321":0.020768918769986645,"322":0.0608684658103464,"323":-0.11012625151918184,"324":-0.006942899715031058,"325":-0.0104185147343809,"326":-0.014798702651449424,"327":0.03796189898551008,"328":0.02139296045140191,"329":-0.0060317468471109284,"330":0.03230459521241616,"331":-0.032129144969320275,"332":-0.04173614465771618,"333":0.010082480449304826,"334":0.05826510168928921,"335":0.07602888292118497,"336":-0.0649902797772199,"337":-0.015643620193774885,"338":0.04651820947781499,"339":0.026710890927874396,"340":0.06263464178701661,"341":-0.015336562814353912,"342":0.007853983771256325,"343":-0.020742040535399103,"344":-0.030857544439902584,"345":-0.09355263994078429,"346":0.10310951080794274,"347":0.021954962565644432,"348":-0.020632793108973035,"349":0.008364772429703215,"350":0.017062288506066003,"351":0.001232164267432888,"352":0.06794283853376146,"353":0.14083847069487443,"354":0.0959467754898014,"355":0.031111173962179862,"356":-0.03777788512892066,"357":-0.014998527895803934,"358":0.060166204367597995,"359":0.008683587350984638,"360":-0.004302084377080467,"361":0.04410880623491659,"362":-0.01731408154319505,"363":0.01405780670950844,"364":0.07483248879872723,"365":0.03517386562663273,"366":0.0001353456267271418,"367":0.05535867486442259,"368":0.02249450654359249,"369":0.07886872688349238,"370":-0.02005504764533777,"371":0.025155875824662246,"372":0.0037501374913083835,"373":-0.09509246250805438,"374":0.0027167832851465175,"375":-0.049255841702207696,"376":0.1370294127283183,"377":-0.014463246458911852,"378":0.040814090219998454,"379":-0.053209021675579636,"380":0.0514668941655695,"381":0.08361706228922841,"382":-0.06894382663861595,"383":0.02778412360880565,"384":-0.012700824486776922,"385":0.03695598613757435,"386":0.008700705746651608,"387":-0.018924285513791207,"388":0.04793773026733669,"389":-0.07757931528990893,"390":-0.059237784987146144,"391":-0.00641842742237864,"392":-0.07098817281347211,"393":0.041325345171666625,"394":-0.009762464697315638,"395":0.002950566988000756,"396":-0.009142210806015412,"397":0.03898969159630528,"398":0.027295265916479607,"399":0.012641855211350982,"400":-0.05947674011186771,"401":-0.02839611034982643,"402":0.007155276171736511}},{"sx":1,"sy":1,"depth":403,"w":{"0":0.03526950747085653,"1":0.09442930038556904,"2":0.04634904763805839,"3":-0.07664343780254172,"4":-0.03284965718673489,"5":0.0025231984113345198,"6":-0.05933454728144802,"7":-0.07357989962499058,"8":-0.026132109021521473,"9":-0.017906563675189856,"10":-0.05824077575918022,"11":0.05948594657705972,"12":0.005890094432426019,"13":0.03831374725094836,"14":0.006673187117656411,"15":0.06463041469809966,"16":-0.02882938759425341,"17":-0.019039558142697265,"18":0.08970188532676697,"19":-0.03656990768809949,"20":-0.003316436842254218,"21":0.09754362377758488,"22":-0.024412802351009323,"23":-0.011673655046184563,"24":-0.06806153536549472,"25":-0.05883374412335061,"26":-0.016509640634992783,"27":0.057903754196444265,"28":0.004178399020771227,"29":-0.004745022115527581,"30":0.036388795560550434,"31":-0.0047640235285897016,"32":0.058753652183595274,"33":-0.03619389291002791,"34":-0.06066814798846876,"35":0.07314415348419427,"36":0.02630977494749795,"37":0.041671570440562654,"38":-0.05736269401801102,"39":0.010267582656077027,"40":-0.01757347149651308,"41":0.08111355898558967,"42":-0.032947270001766456,"43":0.01480290769457237,"44":0.0008087978327573055,"45":0.027241975057068993,"46":-0.004529967772999374,"47":-0.05324042238256408,"48":-0.03224249066232057,"49":0.018421000442396574,"50":0.031017271054332968,"51":-0.09763079022277486,"52":0.0018789834023024792,"53":-0.0019332901656385554,"54":0.05632298692344974,"55":0.0013515012863994584,"56":0.0350918119064083,"57":0.01234232264342787,"58":0.014381464383024697,"59":-0.07194057006846398,"60":-0.010839639448184774,"61":-0.007724132907561846,"62":-0.010091298441940526,"63":0.0287733147258739,"64":0.05059879742839546,"65":0.021129160966863642,"66":-0.008773428556761395,"67":-0.07939704067894916,"68":-0.0021535634967361633,"69":-0.09941060356480143,"70":-0.030176665212339377,"71":0.029463630253660052,"72":-0.10258849963265695,"73":0.07511855907137045,"74":0.010231384044059105,"75":0.012507448078533519,"76":-0.02889887298971065,"77":-0.09194366987141474,"78":0.07558498502566222,"79":-0.10881574874447333,"80":0.005875933902182701,"81":0.03585394675618247,"82":0.02847668921181148,"83":0.045127238854456055,"84":-0.020723858471705138,"85":0.06599954262726758,"86":-0.034724703240151825,"87":0.04769022459102219,"88":0.07039253929700524,"89":-0.05786806767343082,"90":-0.032044601358357086,"91":-0.01870230329257238,"92":-0.044588849052936044,"93":-0.004823231673068027,"94":-0.10743083781823885,"95":-0.013679649201659507,"96":-0.004795744771199957,"97":0.02758855992541976,"98":0.008725284257906325,"99":0.026787676990943247,"100":0.010803859126611597,"101":0.01702420994155564,"102":0.016328764375728486,"103":0.03180686453578188,"104":-0.021803645672878423,"105":0.02727476112012454,"106":-0.06720775644279806,"107":0.1285778377135625,"108":0.010402583906517965,"109":-0.006365422957829697,"110":0.038386341529319586,"111":0.00246256427002321,"112":0.004975465860996853,"113":0.06219251939245933,"114":-0.06803423701813577,"115":0.0237787212478751,"116":0.035251580434124095,"117":-0.03247421786288713,"118":-0.0017033093626659566,"119":0.014072644376759636,"120":0.0024514430409701233,"121":0.06998951735970982,"122":0.05099713708544896,"123":-0.07402734820591442,"124":-0.02028440412968102,"125":0.015005133668619717,"126":0.019545305765394632,"127":0.005357975719482069,"128":0.09124932334922863,"129":0.04172292516259928,"130":0.09151180395618835,"131":-0.08039071078173993,"132":0.029111077868766322,"133":-0.007798166315584993,"134":-0.03154422986239087,"135":0.07023021865868455,"136":0.005723036503565203,"137":-0.008043127382747884,"138":-0.007525535495709463,"139":0.06006795073160028,"140":-0.03234013139429598,"141":-0.0284183518534619,"142":-0.025426604515897396,"143":-0.0660685538025368,"144":0.028160772655696387,"145":-0.005616267267108799,"146":0.01294386029526165,"147":0.025529210051209585,"148":-0.014706816753855082,"149":0.024020488617685222,"150":0.018301649180590372,"151":0.03655735121287541,"152":-0.01438199344231602,"153":0.048454339233281477,"154":0.01609868345984663,"155":-0.027090915316148673,"156":0.04982592566646027,"157":0.07560413997600354,"158":0.013858877330070333,"159":-0.05023477989232111,"160":0.005902650057378525,"161":0.022591202291822994,"162":-0.0068358281319937765,"163":-0.01766916708842085,"164":0.03253828525854131,"165":-0.01689672662384295,"166":0.05274818408230664,"167":-0.008234069641701293,"168":0.03245591896264388,"169":0.022687550181615248,"170":0.06842749380530082,"171":0.09881025945998069,"172":-0.008967680821834533,"173":0.027641085438798323,"174":-0.05915940513411496,"175":-0.0013568191936183824,"176":0.06638407802995731,"177":-0.08823252621648425,"178":0.020679648436501247,"179":-0.0025540461755202146,"180":0.12795932909919225,"181":-0.015535138336929202,"182":0.09638342487564912,"183":0.08710559352813327,"184":-0.03536100322691786,"185":-0.01302478289347854,"186":-0.0055643637479808016,"187":-0.0037670722788204058,"188":-0.04140301934571866,"189":0.0296678733053249,"190":-0.014583777078218145,"191":0.07205212956008657,"192":-0.014738929999666032,"193":0.010068643054845117,"194":0.018575758562309367,"195":0.10667855245267927,"196":0.0325399216955192,"197":0.012925523579348196,"198":-0.0837231440423049,"199":-0.023305384643150705,"200":0.013749791295178554,"201":0.0007516257145507516,"202":-0.07650014108019496,"203":0.016941363828099545,"204":0.0372460539197846,"205":0.0352116013462993,"206":-0.02185482083647501,"207":-0.0015383761513204862,"208":0.10481517489772521,"209":-0.06689719085316764,"210":-0.011556742423185589,"211":-0.02035728087431408,"212":0.030200721740855682,"213":-0.0349431376081254,"214":0.0064037344392017925,"215":-0.04547332667998983,"216":0.006379077270766244,"217":-0.060209362302677774,"218":0.05831375868610218,"219":-0.005133364859135225,"220":-0.0020961546745233437,"221":0.051412836848321736,"222":-0.002017503802027396,"223":-0.02514270991182331,"224":0.005730341000569529,"225":-0.003762572860445782,"226":-0.008268542525664491,"227":0.023697049851223298,"228":0.028181596983138685,"229":-0.0707156967194801,"230":-0.02885125851541243,"231":0.06397517133222037,"232":-0.04466270741795964,"233":0.12389203549535197,"234":0.01867048318366407,"235":0.013642570503226528,"236":0.012227207976660099,"237":0.0076273030264622085,"238":0.0691929462427293,"239":-0.05517830375388814,"240":-0.03749892722231045,"241":-0.06959527237230229,"242":0.010209784855343747,"243":0.014372559667364448,"244":-0.09107197174733402,"245":-0.07304978064785965,"246":0.010288173071151808,"247":-0.0013556401864509911,"248":-0.021740736465334705,"249":-0.0002445289699119544,"250":0.04277134589517768,"251":0.04961176004176738,"252":-0.005831544212339195,"253":0.008806115853730128,"254":0.008059927391702873,"255":0.016934991820040882,"256":0.03277719474012333,"257":0.08000312139898214,"258":-0.06586815714606313,"259":-0.023963220688977552,"260":-0.0152293512016397,"261":-0.009471095272893559,"262":0.05281310624307188,"263":-0.02803666115881702,"264":-0.018306857839342612,"265":0.027232322311003417,"266":0.005061876188678694,"267":-0.08772616728664347,"268":0.045622964241991235,"269":0.026742256230819213,"270":0.0708370634297243,"271":-0.039867239837541375,"272":0.04174811274687956,"273":0.027401184579825617,"274":-0.001402098099351255,"275":-0.05991891623480942,"276":-0.06506367276934671,"277":0.04918478452123556,"278":-0.047131802621842245,"279":-0.028106522147264626,"280":0.0007249187692627965,"281":-0.07471056980289045,"282":0.07404075706728602,"283":-0.017449959066124312,"284":0.07832733577888298,"285":0.026246230801092403,"286":0.06366066725305204,"287":0.07230743019337905,"288":0.012450855334538366,"289":-0.061990810488901524,"290":0.037323108267684355,"291":0.010581205548418288,"292":-0.03712875020502606,"293":0.061621246879944865,"294":-0.019016188569689955,"295":-0.010315990420392598,"296":-0.0319709766629725,"297":0.0200943403378714,"298":-0.03900626527255468,"299":-0.03078792848600359,"300":0.018970703114222574,"301":0.05646565137274256,"302":0.030974375781931945,"303":0.08690207847463739,"304":-0.022585259102985564,"305":-0.11213793064823102,"306":-0.029425586120399947,"307":-0.06317816447402981,"308":-0.0016277497516337372,"309":0.016256829806304888,"310":-0.010986769717691821,"311":-0.11148315387587987,"312":0.03496156068970676,"313":0.015034635872770487,"314":-0.016365277714437965,"315":-0.046174538314521105,"316":0.02871795542036428,"317":-0.06722243202132903,"318":-0.023377698856536032,"319":-0.07986454675140922,"320":-0.05072759476677855,"321":-0.050474415923246516,"322":0.005420296904809196,"323":-0.03837033997599912,"324":0.04076214999233765,"325":0.01584395011419724,"326":0.033279488917680365,"327":0.042074894569562385,"328":-0.03239578789575983,"329":-0.05778007958607835,"330":-0.07302907465908026,"331":-0.030244010262922387,"332":0.04436226464319475,"333":0.016423049500877133,"334":-0.02494617620015071,"335":0.054183749228684734,"336":0.018915784757552106,"337":0.00931002366466624,"338":0.02838235870841902,"339":0.05212893791172228,"340":-0.10126062047967976,"341":0.07861406871294613,"342":0.004068830579860137,"343":0.033627906752304836,"344":0.0037575176668044005,"345":-0.07858210570276013,"346":0.05481740689575708,"347":-0.01619169607035093,"348":0.029981737141996843,"349":-0.004789270429422411,"350":-0.05816761375656225,"351":-0.011711287143542063,"352":-0.06542265232131315,"353":-0.04213201746431887,"354":0.009269508070075323,"355":-0.04002413989599718,"356":-0.006519043800291376,"357":-0.07561993046160094,"358":0.003272777995959521,"359":0.002768186690284315,"360":0.05555618616157975,"361":0.03478467973433033,"362":-0.013201782220931668,"363":-0.013683417756198102,"364":0.0049733748087634425,"365":0.09055490897065431,"366":-0.021687205505246613,"367":0.01883826958578771,"368":-0.07012265549864674,"369":-0.029026602558207208,"370":-0.07035994390005221,"371":0.0162521197611939,"372":-0.05602683761590946,"373":0.008316314916320618,"374":0.03268219995451987,"375":0.005145639822367328,"376":0.0013773429452211311,"377":-0.04271754432907173,"378":0.00047878483330226687,"379":-0.030046258737183553,"380":0.05234843679634963,"381":-0.030000803355825906,"382":0.013559842924618393,"383":0.002965867335796699,"384":-0.0035795815144352445,"385":0.0099322301609072,"386":0.03828054493884637,"387":0.05087716582951264,"388":-0.08951867737142975,"389":-0.0547839420697967,"390":0.05670706134453183,"391":-0.03887252379121848,"392":0.022539156643186543,"393":-0.004118397035246016,"394":0.05515051623849106,"395":-0.04958583436969295,"396":0.0806609181990532,"397":0.017599061633086187,"398":0.03164024406507648,"399":0.023800310894683846,"400":0.09345252632592756,"401":-0.013647274606795032,"402":-0.0624014392180463}},{"sx":1,"sy":1,"depth":403,"w":{"0":0.0161914855614442,"1":-0.0060722486373321165,"2":0.012178223429429109,"3":-0.02688407422132497,"4":-0.07897126513789479,"5":-0.048895946654762046,"6":0.01693226528557887,"7":-0.030983061070735608,"8":0.021317016046094303,"9":0.019180195517961126,"10":0.08540937161414439,"11":0.005019527232568814,"12":-0.03081688010871509,"13":-0.02453249009716214,"14":-0.04718902483436321,"15":0.05417395308279825,"16":-0.04897011780219609,"17":-0.07192176855164863,"18":-0.043077918209446,"19":-0.03411961788262008,"20":-0.06497579293019784,"21":0.01758762953831011,"22":0.009085853270021333,"23":-0.02162418898733274,"24":0.021293284128165575,"25":-0.005298674500821684,"26":0.09262464425914456,"27":0.017023554557556577,"28":-0.06287412981030072,"29":0.015341048336255889,"30":0.0022525841782872267,"31":-0.03869168894001926,"32":-0.0025416752360179168,"33":-0.013913125893987485,"34":0.024216727199926468,"35":0.005473375729336882,"36":-0.0023078993071866446,"37":0.007213062254987764,"38":0.028873004992465916,"39":0.062161435434584536,"40":0.0404495062684101,"41":0.0381148076375128,"42":0.0029843019332216956,"43":0.1047181491377999,"44":0.038644733647609245,"45":0.029967464605820615,"46":0.050811400642180274,"47":-0.04570138175837233,"48":-0.07158195736095227,"49":-0.02405096757447911,"50":0.01976579707431348,"51":0.008413692724432533,"52":-0.010169391757534056,"53":0.040508567192130196,"54":0.052478188724991326,"55":-0.12353591455882143,"56":-0.15958412856070672,"57":0.0214006143396742,"58":-0.00670251030766804,"59":0.004423959742194729,"60":-0.006900359338209146,"61":-0.0012200258566439253,"62":-0.00423725799637612,"63":0.07072020093637553,"64":0.014132970775638829,"65":-0.004191682663894101,"66":0.004819766661803257,"67":0.02320373893925962,"68":-0.0834632157333738,"69":0.0397815373968797,"70":0.029501104110298215,"71":-0.05855012866734217,"72":0.045873253872041414,"73":0.024170973769429685,"74":0.033812128603458766,"75":0.05070390931187095,"76":-0.03172104470968298,"77":-0.012792622592232478,"78":0.047208858032338694,"79":0.00930004671951246,"80":0.06672060156907085,"81":-0.06784064213936727,"82":-0.020276005131470463,"83":-0.0066323522466118666,"84":0.019379325342985268,"85":-0.04831632822527689,"86":0.02449066861571626,"87":-0.034583974778736704,"88":-0.08611358789882703,"89":-0.014061004198014029,"90":0.015641850269134668,"91":-0.04774547477489349,"92":-0.02238559789646482,"93":-0.04585749882341737,"94":0.004698579209752943,"95":0.01139258599022902,"96":0.06554430926978043,"97":-0.027843845247382884,"98":-0.008324533670112239,"99":-0.058249508521123296,"100":-0.055703479028479774,